//Numpy array shape [3, 3, 32, 64]
//Min -0.083331823349
//Max 0.083326347172
//Number of zeros 0

#ifndef W12_H_
#define W12_H_

#ifndef __SYNTHESIS__
model_default_t w12[18432];
#else
model_default_t w12[18432] = {0.065030813217163, -0.063291251659393, 0.062559187412262, 0.077761963009834, 0.064965151250362, -0.068848453462124, 0.024999780580401, 0.000583334767725, -0.082668289542198, 0.021955803036690, -0.050414416939020, 0.063940994441509, 0.058748763054609, -0.061392076313496, -0.028661847114563, -0.033620361238718, 0.082187525928020, -0.004438208416104, -0.079070083796978, 0.024139616638422, 0.027139367535710, -0.004119780845940, -0.030338522046804, -0.056595388799906, -0.059982877224684, 0.026218459010124, -0.023298360407352, -0.040396347641945, 0.063063308596611, -0.003426210023463, 0.017193030565977, -0.083145186305046, 0.013103275559843, -0.079341508448124, 0.014953983947635, 0.028998043388128, -0.043864160776138, -0.022778013721108, -0.040281306952238, 0.058237388730049, 0.053521621972322, -0.066391602158546, 0.014279104769230, 0.014014413580298, -0.035443052649498, 0.036481779068708, 0.022403821349144, 0.024038219824433, -0.074394993484020, -0.037062995135784, -0.073296315968037, 0.016899840906262, -0.027227064594626, -0.038702059537172, 0.052318595349789, 0.063254095613956, 0.011430785991251, 0.006085550412536, -0.045903291553259, 0.048654027283192, 0.029265519231558, -0.006834190338850, -0.003625882789493, -0.079285353422165, 0.041352618485689, -0.013706865720451, 0.079449824988842, 0.029577275738120, 0.007232210133225, 0.043171618133783, -0.070438899099827, -0.079855225980282, 0.067840084433556, 0.022758694365621, 0.064971610903740, -0.069943457841873, 0.037387255579233, 0.037887789309025, -0.072633638978004, -0.005643385462463, -0.052480075508356, 0.073245249688625, -0.061729330569506, 0.055599801242352, 0.075753830373287, -0.055167302489281, 0.082070313394070, -0.023877151310444, -0.039965700358152, -0.055641137063503, -0.057300854474306, 0.008010496385396, -0.053116992115974, 0.056414797902107, 0.013889083638787, -0.041672676801682, -0.082661911845207, 0.071377322077751, -0.078139588236809, -0.029940621927381, 0.055822014808655, 0.028429819270968, -0.000421670905780, -0.001748164882883, -0.044737786054611, 0.082583017647266, 0.002359164645895, 0.002314982470125, -0.008702159859240, -0.001325146062300, -0.035888161510229, 0.073758043348789, -0.034406669437885, 0.007345677819103, -0.024777287617326, -0.053189631551504, 0.063649512827396, -0.056776735931635, 0.040512278676033, -0.065265417098999, 0.069898247718811, -0.030071903020144, 0.018942246213555, -0.000923708314076, 0.014562241733074, -0.070244230329990, 0.065612934529781, 0.051935184746981, 0.029160965234041, -0.039325926452875, 0.040666718035936, 0.008680437691510, -0.036209899932146, 0.001778168254532, -0.017384519800544, 0.043877135962248, 0.030037252232432, 0.008733415044844, -0.005428163800389, 0.033557545393705, -0.001129323500209, 0.039468050003052, 0.009995910339057, 0.060262218117714, -0.058615591377020, -0.012799421325326, 0.012720664031804, 0.053627811372280, 0.073149852454662, 0.004128620028496, -0.028530701994896, -0.054862596094608, 0.032908223569393, 0.014481696300209, -0.051295548677444, 0.048520654439926, 0.053302310407162, 0.074718207120895, 0.036843441426754, -0.012977073900402, 0.011170131154358, -0.034178696572781, 0.046861238777637, 0.005975023843348, 0.081119962036610, -0.056067239493132, -0.018589703366160, -0.023514360189438, 0.080908782780170, -0.037090100347996, -0.009684750810266, -0.004175103269517, 0.053412746638060, -0.068440482020378, 0.062117289751768, 0.019389512017369, 0.030734196305275, 0.080795526504517, -0.031818680465221, -0.023767415434122, -0.074285089969635, -0.078931219875813, 0.053220871835947, -0.019277272745967, 0.080713063478470, 0.010573682375252, 0.011226622387767, -0.070295184850693, -0.080526277422905, 0.006460678298026, 0.009591851383448, 0.047579832375050, 0.001159662031569, -0.035400457680225, -0.066111207008362, -0.026413470506668, 0.061914213001728, -0.038124956190586, 0.064034603536129, 0.036910001188517, -0.036041744053364, -0.082000859081745, 0.054959133267403, 0.066432893276215, 0.011149115860462, 0.056844156235456, 0.073737636208534, -0.001660210080445, 0.067777678370476, -0.038340359926224, -0.017621053382754, -0.043849881738424, -0.048262849450111, 0.047709003090858, 0.001227398635820, 0.021270014345646, 0.012810227461159, -0.068959400057793, -0.062522433698177, -0.068122513592243, 0.064985312521458, -0.003975929692388, -0.037136372178793, -0.023302946239710, -0.049385283142328, -0.077635362744331, 0.007449457421899, 0.072512984275818, 0.072150588035583, -0.066409818828106, -0.006432856898755, 0.030331209301949, -0.070612385869026, -0.003325193421915, -0.052597142755985, -0.009145553223789, -0.001807002467103, -0.023909263312817, -0.078105196356773, -0.034411735832691, 0.075600780546665, -0.043661549687386, 0.011033168062568, 0.020118670538068, -0.005911576561630, -0.011827159672976, -0.048111706972122, -0.009528843685985, -0.055929120630026, 0.029472915455699, 0.022246588021517, 0.081470660865307, -0.042261775583029, -0.009969116188586, -0.058199960738420, -0.010454435832798, -0.001023756805807, -0.079216502606869, 0.054583050310612, -0.019242800772190, 0.017023339867592, -0.079626478254795, 0.059500299394131, -0.031350281089544, -0.079125121235847, 0.057633940130472, -0.082591794431210, 0.046828981488943, -0.030548602342606, -0.018872758373618, -0.047148961573839, 0.036084495484829, -0.003378810826689, 0.010651904158294, 0.021316543221474, -0.011387676000595, -0.071827016770840, -0.052718214690685, -0.057185795158148, -0.064433813095093, -0.039737328886986, -0.040190715342760, 0.071921825408936, 0.027323974296451, 0.023900102823973, 0.004869195166975, -0.073694370687008, -0.013975071720779, 0.082337863743305, -0.081215433776379, 0.018431652337313, 0.005188948474824, 0.013393420726061, 0.056475922465324, -0.079024076461792, 0.081606969237328, -0.009398925118148, 0.017252441495657, -0.056500945240259, 0.011416949331760, -0.020137116312981, -0.035186965018511, 0.043081331998110, -0.051576722413301, 0.021707748994231, 0.018670190125704, 0.029383135959506, -0.039522424340248, -0.054678190499544, 0.035681493580341, -0.041162997484207, 0.003779109334573, -0.046624243259430, -0.037857782095671, -0.034998565912247, -0.041137240827084, 0.017533181235194, 0.020147288218141, 0.002896328922361, -0.066583834588528, 0.070221796631813, 0.066200077533722, 0.031819034367800, 0.047542195767164, -0.054235551506281, 0.061834041029215, 0.052363112568855, 0.056740332394838, 0.082629524171352, -0.067709535360336, -0.043403130024672, -0.063625417649746, -0.035511028021574, -0.040337666869164, -0.012707654386759, -0.018915735185146, -0.062070097774267, -0.063678324222565, -0.080223262310028, -0.080859795212746, -0.068424157798290, 0.025485174730420, 0.000193715124624, 0.030883409082890, -0.076284170150757, 0.021524496376514, 0.046835683286190, 0.008397039957345, 0.043633203953505, 0.065313927829266, -0.004407706204802, 0.000786291435361, -0.003738739760593, -0.024168889969587, -0.081068366765976, -0.051021009683609, 0.055898658931255, -0.035926125943661, 0.036390494555235, -0.026911456137896, 0.010065650567412, -0.064371474087238, 0.009987451136112, 0.012992027215660, 0.079435661435127, 0.078636579215527, -0.022231414914131, -0.074479348957539, 0.033969312906265, -0.062479484826326, 0.048150811344385, 0.052194740623236, 0.020969675853848, -0.006360212806612, -0.048556774854660, 0.012131647206843, -0.035743035376072, -0.009229003451765, 0.005029072053730, -0.037039980292320, 0.046449232846498, -0.024261923506856, 0.002645422006026, 0.012600501067936, -0.082690909504890, -0.057626947760582, 0.057962138205767, -0.038378328084946, -0.001867113518529, -0.016088111326098, 0.022257706150413, -0.018890677019954, 0.055598311126232, -0.043748885393143, -0.010594950988889, 0.027519932016730, -0.010439147241414, 0.032502878457308, -0.060597728937864, 0.041275516152382, -0.079573132097721, -0.016388926655054, 0.066667407751083, -0.005050816573203, -0.039508603513241, -0.068593092262745, 0.068928204476833, 0.048661310225725, -0.076297909021378, 0.040809519588947, 0.065249107778072, 0.047462292015553, -0.001375129446387, 0.011339100077748, 0.021663364022970, 0.056292358785868, 0.026911374181509, 0.024674123153090, 0.074759580194950, 0.026605635881424, 0.069814749062061, -0.025053219869733, -0.015098058618605, -0.042232405394316, -0.012626498006284, -0.039297308772802, -0.066201820969582, 0.042336884886026, -0.057730153203011, -0.075070872902870, -0.061612647026777, 0.038072191178799, 0.000057050379837, 0.021152272820473, -0.011883994564414, -0.055282119661570, -0.000805236224551, 0.015397004783154, -0.071827910840511, 0.000594199693296, -0.052683841437101, 0.022370422258973, 0.082483492791653, -0.053224582225084, -0.039686392992735, -0.070386201143265, 0.064623571932316, 0.028961762785912, 0.073434159159660, -0.001862049684860, 0.012339585460722, -0.015129908919334, 0.035578131675720, 0.034775674343109, -0.074492849409580, -0.076928056776524, -0.047058109194040, 0.019077241420746, 0.033922463655472, -0.065030418336391, 0.027877068147063, -0.032598931342363, -0.013831853866577, 0.052510038018227, -0.032994985580444, -0.068578459322453, -0.057598393410444, -0.041048057377338, -0.024313455447555, 0.045667953789234, -0.076216056942940, 0.041920933872461, 0.010992754250765, 0.054894492030144, 0.082097418606281, -0.011902738362551, 0.030287958681583, 0.030501460656524, 0.061965789645910, 0.036917388439178, 0.034105658531189, 0.041645072400570, 0.070899754762650, -0.024712350219488, -0.001783172599971, -0.014659371227026, 0.001709940144792, -0.043094493448734, 0.012731066904962, -0.071152940392494, 0.074696734547615, 0.062011245638132, 0.079777084290981, 0.051103342324495, 0.049116402864456, -0.011747985146940, -0.029232813045382, -0.009292033500969, -0.045413542538881, -0.000313579745125, -0.010386141017079, -0.020766450092196, 0.004726252984256, 0.002684659324586, -0.003193175652996, 0.018262995406985, 0.034918401390314, -0.030225904658437, -0.027289936318994, -0.071398057043552, -0.010856804437935, -0.026999905705452, 0.045157294720411, -0.002502881688997, -0.035466786473989, 0.000574994250201, 0.018194781616330, -0.069418981671333, -0.006229863036424, -0.046854361891747, -0.015296718105674, 0.043785464018583, 0.074206702411175, -0.081484101712704, -0.052911534905434, -0.001178055768833, 0.004507278092206, 0.036520011723042, 0.082145661115646, -0.019596533849835, -0.026483016088605, -0.062618128955364, -0.030925037339330, 0.004420611541718, -0.061548266559839, -0.014520480297506, -0.022500019520521, -0.037174876779318, 0.053774397820234, 0.056905917823315, -0.019953766837716, -0.002245518146083, -0.054680235683918, -0.051557123661041, 0.040055971592665, -0.037037674337626, -0.052497036755085, -0.042330324649811, 0.046475611627102, -0.000275079510175, -0.073679499328136, -0.005580973345786, 0.063096120953560, 0.044379185885191, -0.059073448181152, -0.065204650163651, 0.026436503976583, -0.066317178308964, 0.065933927893639, -0.027535146102309, -0.061691381037235, 0.031337928026915, -0.047978419810534, -0.058440718799829, 0.074406541883945, -0.000806621334050, -0.040484618395567, -0.029337266460061, 0.077240146696568, -0.048506986349821, -0.037595294415951, 0.074243932962418, 0.066268496215343, 0.059973012655973, -0.063026338815689, -0.041003137826920, 0.069614626467228, 0.067039735615253, -0.025985246524215, 0.032231252640486, 0.035929981619120, 0.057542476803064, 0.074826873838902, 0.030905593186617, -0.051468834280968, 0.032412361353636, -0.067247331142426, -0.073174558579922, 0.035783622413874, -0.054011072963476, -0.059917621314526, -0.079200610518456, -0.028725849464536, -0.015642989426851, 0.017655905336142, -0.007841147482395, 0.077402353286743, -0.057630542665720, 0.068485379219055, -0.048936206847429, -0.051938023418188, -0.041982986032963, 0.065583504736423, -0.015334272757173, 0.054861698299646, 0.049962721765041, -0.076154418289661, 0.037398718297482, 0.043201971799135, 0.055865399539471, 0.001554568880238, 0.074123784899712, -0.074621438980103, -0.080517299473286, -0.006941685918719, -0.015054389834404, -0.078445665538311, 0.048562102019787, -0.034255668520927, 0.014949299395084, 0.004623821470886, 0.004114895593375, 0.025178445503116, 0.041956946253777, 0.055924199521542, 0.078168161213398, -0.059565514326096, -0.059777818620205, 0.040210116654634, -0.054253064095974, -0.059656720608473, -0.044753711670637, 0.081975944340229, -0.000464706303319, -0.059792790561914, 0.055555686354637, -0.072573706507683, 0.046165999025106, -0.049170970916748, 0.048775557428598, -0.067146316170692, 0.074057437479496, 0.010400997474790, 0.020933438092470, -0.072772651910782, 0.066138505935669, 0.025962347164750, -0.070833861827850, -0.005016762297601, 0.019898682832718, -0.021980306133628, 0.004036711063236, 0.043197177350521, -0.024530647322536, -0.051798202097416, 0.048210907727480, -0.068703509867191, 0.015219791792333, -0.051756437867880, 0.061343859881163, -0.025865761563182, -0.045788049697876, 0.048847794532776, -0.044315084815025, -0.057488135993481, -0.050422776490450, -0.070285178720951, 0.003037960734218, -0.025010682642460, -0.029436953365803, 0.061410985887051, -0.062321089208126, -0.078570432960987, 0.029972033575177, -0.045009408146143, 0.046876102685928, -0.067693039774895, -0.023510767146945, 0.033536359667778, -0.011824263259768, -0.012011446990073, -0.037714783102274, -0.045383084565401, -0.039306424558163, 0.041641201823950, 0.045531917363405, -0.071329131722450, 0.014927793294191, 0.035719182342291, 0.061555590480566, -0.036364618688822, 0.037232421338558, -0.038630928844213, 0.012233125045896, -0.053450413048267, -0.004520659800619, 0.052049465477467, -0.083212785422802, -0.060228701680899, -0.034522425383329, -0.019677435979247, -0.066070534288883, -0.062788002192974, 0.015645990148187, -0.009441223926842, -0.006372507661581, 0.011473620310426, 0.055495247244835, -0.006143441889435, 0.013264366425574, -0.064995363354683, 0.045984908938408, 0.027601847425103, 0.016354454681277, -0.058374889194965, -0.075434632599354, 0.004170203581452, -0.018135087564588, 0.009810074232519, -0.068718977272511, -0.049214698374271, 0.058445230126381, -0.043716136366129, 0.032338965684175, 0.070762455463409, 0.069723330438137, 0.052048482000828, -0.027892416343093, -0.012262651696801, 0.075843475759029, -0.037488080561161, -0.029374184086919, -0.079374141991138, 0.052734367549419, 0.055762618780136, 0.009436041116714, 0.028432305902243, 0.068572483956814, -0.032737243920565, 0.057445250451565, 0.013035695999861, 0.002367922104895, 0.081980459392071, -0.030409058555961, -0.071054823696613, -0.028108475729823, 0.043232742697001, -0.082815617322922, 0.065950170159340, 0.063929885625839, 0.050639849156141, -0.078183718025684, -0.069536127150059, 0.001772553310730, -0.006387557368726, -0.015616456046700, -0.056282341480255, -0.058600042015314, 0.059630248695612, 0.042547557502985, 0.077768921852112, 0.070190787315369, 0.043419897556305, 0.014175862073898, 0.063791282474995, 0.063085772097111, -0.030663343146443, 0.026843205094337, 0.033460676670074, 0.026865724474192, -0.001300936331972, 0.080007053911686, 0.078240245580673, 0.027205875143409, 0.016183966770768, -0.010753680020571, 0.016777869313955, 0.017058629542589, 0.046195920556784, 0.004702043253928, -0.048274312168360, -0.074651539325714, -0.053988650441170, 0.080603666603565, -0.082664318382740, 0.061937507241964, 0.058875404298306, -0.073906995356083, 0.042525023221970, 0.061645336449146, -0.016976609826088, -0.021635327488184, -0.004675852600485, -0.033511776477098, 0.034298025071621, -0.056222289800644, -0.053088754415512, 0.054433412849903, 0.019592542201281, -0.023898122832179, -0.009007756598294, -0.029550861567259, 0.052011918276548, -0.027487389743328, -0.082222908735275, -0.069318987429142, 0.080256976187229, -0.058931797742844, -0.056773260235786, -0.078457675874233, -0.008316152729094, 0.034550897777081, 0.070060528814793, -0.012145922519267, 0.048838172107935, 0.014075277373195, -0.070769816637039, -0.071538202464581, -0.082022197544575, 0.008503872901201, 0.072529442608356, -0.068727731704712, -0.000096868730907, -0.039564225822687, 0.078132651746273, 0.052188035100698, -0.000734297442250, -0.030503761023283, -0.007508935406804, 0.065988227725029, -0.002744733123109, 0.064675644040108, 0.050223302096128, 0.067613191902637, -0.000476040411741, 0.065341554582119, 0.026272337883711, 0.024495160207152, 0.041197389364243, -0.082094997167587, 0.059145994484425, -0.000226682357606, -0.009682404808700, 0.063417047262192, -0.040105167776346, 0.052032217383385, -0.042112201452255, 0.039037585258484, -0.064074419438839, -0.001873867819086, -0.033021394163370, 0.014323405921459, 0.023791735991836, 0.033386506140232, 0.049447771161795, -0.071761429309845, 0.062472846359015, 0.058951333165169, 0.014155725017190, -0.003159098792821, -0.026244753971696, 0.073912128806114, -0.061541035771370, 0.017511079087853, -0.020378476008773, -0.011966245248914, 0.034730739891529, 0.001075326348655, 0.030566709116101, -0.066269055008888, -0.026776559650898, -0.048362422734499, 0.074445590376854, 0.016568925231695, 0.014523436315358, -0.041735172271729, 0.066213779151440, 0.065505027770996, 0.052862484008074, 0.013658826239407, 0.056477010250092, -0.033144339919090, -0.050039652734995, -0.002322071930394, -0.074968852102757, 0.028316209092736, -0.017328206449747, 0.080485008656979, -0.076071701943874, -0.059073030948639, 0.059982962906361, 0.080163143575191, -0.052741609513760, -0.021735155954957, 0.056356221437454, -0.072778262197971, 0.067150071263313, -0.015206045471132, -0.020055186003447, 0.010090075433254, -0.003192654345185, 0.005420456640422, -0.021472115069628, 0.018554570153356, -0.014836465008557, 0.056998796761036, -0.045075535774231, -0.028781849890947, 0.020086046308279, -0.006043728441000, -0.024070907384157, 0.067222990095615, -0.064159736037254, 0.038348041474819, -0.056309387087822, 0.040104392915964, -0.003721880260855, 0.000071586648119, 0.029356908053160, 0.039209697395563, -0.079562351107597, 0.038106944411993, 0.064823433756828, 0.023544263094664, -0.064833596348763, -0.062112677842379, -0.013785981573164, 0.056426133960485, 0.011745147407055, -0.036996271461248, 0.078621193766594, -0.055767338722944, 0.047658126801252, -0.005306951235980, 0.034378532320261, 0.073316141963005, 0.049406278878450, 0.044853538274765, 0.049317348748446, -0.077429153025150, -0.042023714631796, 0.028702849522233, 0.041217941790819, 0.007208700291812, -0.061814267188311, -0.055870499461889, -0.034175738692284, 0.068922944366932, -0.047682393342257, 0.055405050516129, -0.008185965940356, -0.012017479166389, -0.065895386040211, -0.043941788375378, 0.052672795951366, -0.071699708700180, -0.004460847005248, 0.031394798308611, -0.040585339069366, -0.040582083165646, 0.039286505430937, 0.034741461277008, -0.057718116790056, -0.005954723805189, -0.072536118328571, -0.053540587425232, -0.064081825315952, -0.030637208372355, -0.067230656743050, -0.047538518905640, -0.008229515515268, 0.004973466042429, 0.025516308844090, -0.025495719164610, -0.010641300119460, -0.035558033734560, -0.041746295988560, 0.041692420840263, 0.069650247693062, 0.083214893937111, 0.065057098865509, -0.054638851433992, 0.016435237601399, 0.060265049338341, -0.023019311949611, 0.045483689755201, 0.060933239758015, 0.047063153237104, -0.033826392143965, 0.029737591743469, -0.068590685725212, -0.028406189754605, 0.025067577138543, 0.044398684054613, -0.071884721517563, -0.020230991765857, -0.025722423568368, 0.026805570349097, 0.037685748189688, -0.076457604765892, 0.034372292459011, 0.057890824973583, -0.027287354692817, 0.031716465950012, 0.028430555015802, 0.061266053467989, -0.082442522048950, 0.063290156424046, -0.039676025509834, -0.002479863353074, 0.048358414322138, 0.047090318053961, -0.014425599947572, 0.064487971365452, -0.075169779360294, -0.065154410898685, -0.075606167316437, -0.051082409918308, -0.063096657395363, -0.029024975374341, 0.034154247492552, 0.045197624713182, -0.005265107378364, -0.064938291907310, 0.049503207206726, -0.049445036798716, -0.040550764650106, -0.025344422087073, -0.072349585592747, 0.080000236630440, 0.066728234291077, 0.025395372882485, 0.031606610864401, 0.051212839782238, 0.047024905681610, -0.003088934347034, -0.004214541986585, 0.020697202533484, 0.034175261855125, 0.017773527652025, 0.006433728151023, -0.015708521008492, -0.063873454928398, -0.038279317319393, -0.063715480268002, 0.065080843865871, 0.053524687886238, -0.041871540248394, -0.023206792771816, -0.041478760540485, 0.015113905072212, 0.019459974020720, 0.045938394963741, 0.056263733655214, -0.036810893565416, -0.022000245749950, 0.075875289738178, -0.072663567960262, 0.053028848022223, 0.006106460932642, 0.060380145907402, -0.043364763259888, -0.016784645617008, 0.013536459766328, -0.023382360115647, -0.056083124130964, 0.045031294226646, 0.070330999791622, 0.036983601748943, -0.059219107031822, 0.083161711692810, -0.029086176306009, -0.065411940217018, -0.083133690059185, 0.045219965279102, 0.014478278346360, -0.064821146428585, 0.005445418413728, -0.002765107899904, -0.046750981360674, -0.014268001541495, -0.000912292278372, -0.077639915049076, 0.018960036337376, 0.012362417764962, -0.030305994674563, 0.006069047842175, -0.029652317985892, 0.001274365931749, -0.005180846434087, -0.053280208259821, -0.062896102666855, 0.004149128682911, 0.057488322257996, 0.054083157330751, 0.045785736292601, 0.056272666901350, -0.017709426581860, -0.051646027714014, -0.020836748182774, -0.017996257171035, -0.075529955327511, 0.008125416003168, -0.010743873193860, -0.056430704891682, -0.048670161515474, -0.064707264304161, -0.078223012387753, 0.030838057398796, -0.074949912726879, -0.040469050407410, 0.036980167031288, 0.038428984582424, -0.057802394032478, 0.066957347095013, -0.025056634098291, -0.007741537876427, 0.045457597821951, 0.009188625961542, 0.028959974646568, -0.013522779569030, -0.068442963063717, 0.003240477992222, -0.014622829854488, -0.012658370658755, 0.067372821271420, 0.075691632926464, -0.017062457278371, -0.003374700201675, 0.021933797746897, -0.064637653529644, -0.074000284075737, -0.022308940067887, 0.026040568947792, 0.055970951914787, -0.063209071755409, -0.040533229708672, -0.078861296176910, 0.044482532888651, -0.057802237570286, 0.047136593610048, 0.071818344295025, 0.066178284585476, 0.019532609730959, -0.047859229147434, 0.026786729693413, -0.077859506011009, 0.028435239568353, -0.010887842625380, -0.068918764591217, 0.008170477114618, 0.025264963507652, -0.058804426342249, -0.069853581488132, 0.039601318538189, 0.042339120060205, 0.028132300823927, 0.037075843662024, 0.046127770096064, -0.027664363384247, -0.032993596047163, -0.060988482087851, 0.055466860532761, -0.003930548671633, -0.029635140672326, 0.000429951818660, -0.004878883715719, 0.035450655966997, 0.046933710575104, 0.022643549367785, -0.074790820479393, 0.077358387410641, -0.038123726844788, 0.066602297127247, -0.057380288839340, -0.034929081797600, 0.079692557454109, -0.052319146692753, -0.064894169569016, 0.045488543808460, -0.037278696894646, 0.031677529215813, -0.059787411242723, 0.061053790152073, -0.080081366002560, -0.029210174456239, -0.040911551564932, -0.064025767147541, 0.073130451142788, -0.068863563239574, 0.060421701520681, -0.014149112626910, -0.007120231632143, -0.079474240541458, -0.072921663522720, -0.008164281025529, -0.017556296661496, 0.019817937165499, 0.008537935093045, 0.074212327599525, -0.080560751259327, 0.078518249094486, 0.015276209451258, -0.076645016670227, 0.017705315724015, 0.029461834579706, -0.037191141396761, -0.040896359831095, 0.044454906135798, 0.032932188361883, -0.028122117742896, -0.032500136643648, 0.014223081991076, 0.015135925263166, 0.001487346133217, 0.060297902673483, 0.058414712548256, 0.056831926107407, -0.019345352426171, -0.045545741915703, 0.019843889400363, 0.029254497960210, -0.000698120624293, 0.003756932448596, 0.057331282645464, 0.002501868875697, -0.032652907073498, 0.054743174463511, -0.075218096375465, -0.056652680039406, -0.073522038757801, -0.060291096568108, -0.072314053773880, -0.058867294341326, 0.023178115487099, -0.043276235461235, 0.009287863038480, 0.018464477732778, 0.048182848840952, 0.023772634565830, 0.021649468690157, 0.042278204113245, 0.050512611865997, -0.008859996683896, -0.003137651830912, -0.046005558222532, 0.056297734379768, 0.003731888718903, 0.051938164979219, -0.071838609874249, -0.027078663930297, 0.013402677141130, -0.067216254770756, 0.037196937948465, -0.009719460271299, -0.026572396978736, -0.067203409969807, 0.024539424106479, -0.035543438047171, -0.054627630859613, 0.080394797027111, 0.079908311367035, -0.037094868719578, 0.064675107598305, -0.044150736182928, -0.076377443969250, -0.057270474731922, -0.050254281610250, 0.025252176448703, 0.028851311653852, 0.043985351920128, -0.072063148021698, 0.044456232339144, 0.003774268785492, -0.019173493608832, 0.028310729190707, -0.023453194648027, 0.016418915241957, 0.063969545066357, -0.011337849311531, 0.069828718900681, 0.040227890014648, -0.025140175595880, 0.002208976540715, -0.070889070630074, -0.061053138226271, -0.064439177513123, 0.065882556140423, 0.014307023026049, 0.070399165153503, 0.034305315464735, -0.060516089200974, -0.007673279847950, 0.004401070997119, 0.006886318325996, -0.038152482360601, 0.033352952450514, -0.078721798956394, 0.045090287923813, 0.055741485208273, -0.020043091848493, 0.053209386765957, 0.041066050529480, -0.082411862909794, -0.067736268043518, -0.066481083631516, 0.060298409312963, 0.068837888538837, 0.072904512286186, -0.041591975837946, 0.040137395262718, 0.003515751101077, -0.078157477080822, -0.050110623240471, -0.021929470822215, -0.052470922470093, -0.002835726365447, 0.061702247709036, -0.027101224288344, 0.031629428267479, -0.040974143892527, 0.071330435574055, 0.031816136091948, -0.035970214754343, -0.008207532577217, -0.050333969295025, -0.049313630908728, 0.002116315299645, -0.073034137487411, -0.080028884112835, 0.062627844512463, 0.060022100806236, 0.057621739804745, 0.035322200506926, 0.060128770768642, -0.071412973105907, -0.072736382484436, -0.034684628248215, -0.018085239455104, 0.022983029484749, 0.073841713368893, -0.017497830092907, 0.050189480185509, -0.080145694315434, 0.025235638022423, 0.008464516140521, -0.021623412147164, -0.016076494008303, -0.026054155081511, -0.070432506501675, -0.015492823906243, 0.044882729649544, 0.039425894618034, -0.042736567556858, -0.006625581532717, 0.005211765877903, 0.028982955962420, -0.063812114298344, -0.038196329027414, -0.070432864129543, 0.013613929040730, -0.029217502102256, -0.005962468683720, -0.076521649956703, -0.020515417680144, 0.000120698678074, 0.030906964093447, -0.018978288397193, 0.042430032044649, 0.023422252386808, -0.064727216959000, -0.042803671211004, 0.082318425178528, -0.065487533807755, -0.027828134596348, 0.037775766104460, -0.082703895866871, 0.043786104768515, -0.052267115563154, 0.059947527945042, 0.012897802516818, -0.038821764290333, -0.063478685915470, -0.058472234755754, 0.076925352215767, 0.043541982769966, -0.059675112366676, 0.022972626611590, 0.034738402813673, 0.012483458966017, 0.063822083175182, -0.062206249684095, 0.058907903730869, 0.026507917791605, 0.071899838745594, 0.007404775824398, 0.056613199412823, -0.042743220925331, -0.058338727802038, 0.018309596925974, 0.028261601924896, -0.048527661710978, 0.066866002976894, -0.001241800840944, 0.016216196119785, 0.052140794694424, -0.013026223517954, 0.060359355062246, -0.048635549843311, -0.024288017302752, -0.008163164369762, -0.049678031355143, -0.037230517715216, -0.047238662838936, 0.073461033403873, -0.054033830761909, -0.008472462184727, -0.044464953243732, -0.037597957998514, -0.028748786076903, 0.043105594813824, 0.003803281811997, -0.019144657999277, 0.077926762402058, 0.031898766756058, -0.019386874511838, 0.022906178608537, 0.031833413988352, -0.059452939778566, 0.028663352131844, 0.059114925563335, -0.014985260553658, 0.040673844516277, -0.015774292871356, -0.048731189221144, -0.023709805682302, -0.018734924495220, 0.048151049762964, 0.005058822222054, 0.081954263150692, 0.056670062243938, 0.051230192184448, -0.082547709345818, -0.061028055846691, 0.070410437881947, -0.045643463730812, 0.049041323363781, -0.071389622986317, -0.002228196710348, -0.077906049787998, -0.004223299678415, -0.034320484846830, -0.072261117398739, 0.052252437919378, 0.048171065747738, -0.074417643249035, -0.031252104789019, -0.041052408516407, 0.063699297606945, 0.031807020306587, 0.060514070093632, 0.019443687051535, -0.067009672522545, 0.039000567048788, -0.016943233087659, 0.048524942249060, -0.082706637680531, -0.058959975838661, 0.079744569957256, -0.078539676964283, -0.005224537104368, -0.041788771748543, -0.005171359051019, -0.042467705905437, 0.049364648759365, 0.009122200310230, -0.026865743100643, 0.032721471041441, -0.054450932890177, 0.059926096349955, 0.064404457807541, 0.078380703926086, -0.036018647253513, -0.055351983755827, -0.020070891827345, -0.046609587967396, 0.037072449922562, 0.005507279187441, 0.059286799281836, -0.052960924804211, 0.046027161180973, -0.045790314674377, -0.060320802032948, -0.025918385013938, -0.043168127536774, 0.001533360220492, 0.036129117012024, 0.018633788451552, -0.071417361497879, -0.040540397167206, -0.034574475139380, -0.022797454148531, -0.044520992785692, 0.029403412714601, 0.018096618354321, 0.034356802701950, 0.032778866589069, -0.017492573708296, 0.055159959942102, -0.047891382128000, 0.025058282539248, -0.046109933406115, 0.061384577304125, -0.049607537686825, -0.024952676147223, 0.008805023506284, 0.019110662862659, -0.009687669575214, -0.041437678039074, -0.047451142221689, -0.011767026036978, 0.081328637897968, 0.055574450641870, 0.078634329140186, 0.032603915780783, 0.003213133197278, 0.035017568618059, 0.079655565321445, 0.022968254983425, -0.014603907242417, 0.064339607954025, 0.079291947185993, -0.018983032554388, 0.017918607220054, 0.079380430281162, 0.010486166924238, -0.030879462137818, 0.064776606857777, -0.078550733625889, -0.062324304133654, 0.038529366254807, 0.082151398062706, -0.054553955793381, -0.002577722538263, 0.007876490242779, -0.054615598171949, 0.029893036931753, -0.055735960602760, 0.039474580436945, 0.068064384162426, -0.018747733905911, -0.041599996387959, 0.063430227339268, -0.011822951957583, 0.033328287303448, -0.012576634064317, -0.053699515759945, -0.014151949435472, 0.011512485332787, -0.022756190970540, -0.065703272819519, -0.016677128151059, -0.069248214364052, -0.062345277518034, -0.012637176550925, -0.048471461981535, -0.039773453027010, 0.076645188033581, 0.055046975612640, -0.076497927308083, 0.064333833754063, 0.029540294781327, -0.029158940538764, -0.030929602682590, -0.037362180650234, -0.031769588589668, 0.046775899827480, -0.060443669557571, 0.002739334246144, 0.031396526843309, 0.027278497815132, -0.017347963526845, -0.057350818067789, -0.071780800819397, -0.006212966050953, -0.006091552320868, 0.014673862606287, 0.035547405481339, -0.001709284842946, 0.073358900845051, -0.057747431099415, 0.054273620247841, 0.009792439639568, -0.073009297251701, -0.056269355118275, 0.078968875110149, -0.052127234637737, 0.064239658415318, 0.060112148523331, -0.001706738024950, 0.025706851854920, 0.045823145657778, 0.009238177910447, 0.015192246064544, 0.022935548797250, 0.065632775425911, 0.078631937503815, -0.079799361526966, -0.079575836658478, -0.000246759096626, -0.035510275512934, -0.023539083078504, 0.060034271329641, -0.006590707693249, -0.014475977979600, -0.077311575412750, -0.038129702210426, -0.077676557004452, -0.062847733497620, -0.067001789808273, 0.007190626580268, -0.063160322606564, 0.051175590604544, -0.006770683452487, -0.014784433878958, -0.002520351903513, 0.077144421637058, -0.038552068173885, 0.010148518718779, 0.035505525767803, 0.014849355444312, -0.045237082988024, -0.052259430289268, -0.047601550817490, 0.065836697816849, 0.022530104964972, 0.007447252981365, -0.017930366098881, 0.027225557714701, -0.070134654641151, 0.073436349630356, 0.051433373242617, 0.060865174978971, -0.079876832664013, -0.011557702906430, -0.041605833917856, 0.079856030642986, -0.039671957492828, -0.073774792253971, -0.048874109983444, 0.053273178637028, -0.029389234259725, 0.026332173496485, -0.033301338553429, 0.020361892879009, 0.018381861969829, -0.067585147917271, -0.069179967045784, 0.072677545249462, -0.051859088242054, -0.079972133040428, 0.074521504342556, -0.011735674925148, -0.046475663781166, -0.083036482334137, -0.022500950843096, -0.052914377301931, -0.008082581683993, 0.076575711369514, 0.055603671818972, -0.059793110936880, 0.029124900698662, -0.055766124278307, 0.021515164524317, 0.044712819159031, 0.009830009192228, -0.064561009407043, 0.064451374113560, 0.008557594381273, 0.066545151174068, -0.022153748199344, -0.004776452202350, -0.038164056837559, 0.038424752652645, -0.057581909000874, -0.050039991736412, -0.026973236352205, -0.019827110692859, 0.019951682537794, 0.075439482927322, 0.009191769175231, 0.068261660635471, 0.055782008916140, 0.061830647289753, -0.002707640407607, 0.075962521135807, 0.010495445691049, -0.053040932863951, -0.025303173810244, -0.019091660156846, 0.064950197935104, -0.009786028414965, -0.020726311951876, 0.027381643652916, -0.067626468837261, 0.014107588678598, -0.075071439146996, -0.015316362492740, 0.002933190902695, -0.075353734195232, -0.044945344328880, -0.078465722501278, -0.028230048716068, 0.073933251202106, 0.004116802010685, -0.080991968512535, -0.044676642864943, 0.037045259028673, 0.053167536854744, -0.045157354325056, 0.035796392709017, -0.007150153163821, -0.041389815509319, -0.002157503738999, 0.005801556631923, -0.056089319288731, 0.003942761570215, -0.083281897008419, -0.044221568852663, 0.008266988210380, -0.064888730645180, -0.063808910548687, 0.011746257543564, 0.014344354160130, 0.045049834996462, 0.048743180930614, 0.023402377963066, 0.045765865594149, 0.017014544457197, 0.020055618137121, 0.050258047878742, 0.063338369131088, -0.072028897702694, 0.033812109380960, -0.019977560266852, -0.026373535394669, 0.051999110728502, -0.072071813046932, 0.066389910876751, 0.038731846958399, 0.054800752550364, 0.030012685805559, 0.036827016621828, 0.079778097569942, -0.046107906848192, 0.056513052433729, 0.011746138334274, -0.048825159668922, 0.006811372935772, -0.053590711206198, -0.024185352027416, -0.002856495557353, -0.054973863065243, -0.009413878433406, 0.039531581103802, -0.054701801389456, 0.043966826051474, 0.050981510430574, 0.077358148992062, -0.052932411432266, -0.055109452456236, 0.052739787846804, -0.008535209111869, 0.003033634042367, -0.058470133692026, 0.039156213402748, -0.023499567061663, -0.053234770894051, 0.041708864271641, -0.060538787394762, -0.068424791097641, -0.058635987341404, 0.029850320890546, 0.051538910716772, -0.051132373511791, 0.032521463930607, 0.029458319768310, 0.050844833254814, -0.038692563772202, 0.051489744335413, 0.027521241456270, 0.030016059055924, 0.070736132562160, -0.060901757329702, 0.032322499901056, -0.021989082917571, -0.051529459655285, 0.044087342917919, -0.028766997158527, 0.000490420323331, 0.015427626669407, -0.077713824808598, -0.001315509900451, 0.081756025552750, -0.019095174968243, 0.029714632779360, 0.075701743364334, 0.027630286291242, -0.013502188958228, 0.068631358444691, 0.078624263405800, 0.001292893779464, -0.017057260498405, 0.055168390274048, -0.049232095479965, -0.011187110096216, -0.040110129863024, 0.009469402953982, 0.023441636934876, 0.056297793984413, 0.044922910630703, -0.034010574221611, -0.017405452206731, -0.054579000920057, 0.060090076178312, -0.074449814856052, -0.068530678749084, 0.044030420482159, 0.045834526419640, 0.029836738482118, 0.013346579857171, 0.033988352864981, -0.043853655457497, -0.030155962333083, -0.046469312161207, -0.006718674674630, 0.033097650855780, 0.024609938263893, -0.021897040307522, 0.058684483170509, -0.066681548953056, -0.008487928658724, 0.079274170100689, -0.004884006921202, -0.076192244887352, -0.012829901650548, -0.044941294938326, -0.009339514188468, 0.014580747112632, -0.065167322754860, 0.022142749279737, 0.079050853848457, 0.022532189264894, 0.030620349571109, -0.034405816346407, 0.070228300988674, 0.038205102086067, 0.034722533077002, -0.005708843469620, -0.020084690302610, 0.005232795607299, -0.018773507326841, -0.069875955581665, -0.081344284117222, 0.011671528220177, -0.076672777533531, -0.044756714254618, 0.080998621881008, 0.036267250776291, -0.053839653730392, -0.063603423535824, 0.035951465368271, 0.073673591017723, -0.041199237108231, -0.057142764329910, -0.066702902317047, 0.059893198311329, 0.045670576393604, 0.062852770090103, 0.028802422806621, 0.004073408897966, 0.069039054214954, -0.041508190333843, -0.054653409868479, 0.027405926957726, 0.017094532027841, -0.051808565855026, -0.017512544989586, 0.015241953544319, -0.026101497933269, 0.052433781325817, -0.068125821650028, -0.021471280604601, 0.002452257787809, -0.005450444761664, -0.011431128717959, 0.059200000017881, 0.045932304114103, 0.003464613575488, -0.060273405164480, -0.055694080889225, 0.031082613393664, -0.045023031532764, -0.007448385003954, -0.072386324405670, 0.038803394883871, -0.009689635597169, -0.018378108739853, 0.020717434585094, 0.032968766987324, 0.050578709691763, 0.065102405846119, 0.037528626620770, -0.061241772025824, -0.072458073496819, 0.056154768913984, -0.079580210149288, -0.046279206871986, 0.021758193150163, -0.081680916249752, 0.082935743033886, 0.052232626825571, -0.082884050905704, 0.013470413163304, 0.003055714070797, -0.004760806448758, -0.081396125257015, -0.059624575078487, -0.019335059449077, -0.019419835880399, 0.075294479727745, 0.064661405980587, 0.033705111593008, 0.073475927114487, -0.024573998525739, 0.064014449715614, -0.070492461323738, 0.055087648332119, -0.011301828548312, -0.070829078555107, 0.046562589704990, -0.077610068023205, 0.061440877616405, 0.052236054092646, 0.068093694746494, 0.054646395146847, 0.082241587340832, -0.043741118162870, -0.013896076008677, -0.002358844503760, -0.068690299987793, -0.055867385119200, -0.066734574735165, 0.024218710139394, -0.003144577378407, 0.076483681797981, 0.000499870337080, 0.055032722651958, -0.018338670954108, -0.020381299778819, -0.003340183990076, -0.015357707627118, -0.036346785724163, 0.034596279263496, -0.018918378278613, -0.057324901223183, -0.061351090669632, 0.064065046608448, -0.044549528509378, 0.052578236907721, 0.081548914313316, -0.014565139077604, 0.069211110472679, -0.078937396407127, 0.069594293832779, 0.069723360240459, -0.010659172199667, 0.032749816775322, 0.001934120315127, 0.074486553668976, 0.020870445296168, -0.009762197732925, 0.033008527010679, 0.065326347947121, -0.071624346077442, -0.057212423533201, -0.001532600610517, -0.027418121695518, -0.005540581885725, -0.012132145464420, 0.063463218510151, -0.001595020177774, -0.057983703911304, 0.060152452439070, -0.061068985611200, 0.082300864160061, 0.049826771020889, 0.029251102358103, -0.025835020467639, 0.055986337363720, -0.037921570241451, 0.051253307610750, -0.031631276011467, -0.053438179194927, 0.079880043864250, 0.031925417482853, 0.001569343497977, 0.045931275933981, 0.067846022546291, 0.049825951457024, -0.082961022853851, 0.026155905798078, 0.014870400540531, 0.017111368477345, -0.059242498129606, -0.000590446521528, 0.071177035570145, 0.040106300264597, -0.001695619779639, -0.046499136835337, 0.029103156179190, -0.066759973764420, -0.070894390344620, -0.040454354137182, -0.081428639590740, -0.054523631930351, -0.030232975259423, -0.039552669972181, -0.082322418689728, -0.059295661747456, 0.081368163228035, -0.067847609519958, -0.077552534639835, 0.048162788152695, -0.042656913399696, 0.053427342325449, -0.083090245723724, -0.007321951910853, 0.081901937723160, 0.002088434062898, -0.078538857400417, 0.050616003572941, -0.024130780249834, -0.017766736447811, 0.024873996153474, 0.033597506582737, -0.009634424932301, 0.049370948225260, -0.033668495714664, 0.043907843530178, 0.051735267043114, -0.038775831460953, 0.073236823081970, 0.017781488597393, 0.080674804747105, 0.024705898016691, 0.013192794285715, -0.016870627179742, 0.041904043406248, 0.012048420496285, 0.040743228048086, -0.033292543143034, 0.006307570729405, 0.018127953633666, 0.009310456924140, -0.070784710347652, -0.034022729843855, -0.080006144940853, -0.001105389324948, 0.059468176215887, 0.076486334204674, 0.013833737932146, 0.072729423642159, 0.021948751062155, 0.072528965771198, 0.001290890504606, 0.071207612752914, -0.075456656515598, -0.010864668525755, -0.020961118862033, -0.024099187925458, 0.022329516708851, 0.081583976745605, -0.011062657460570, 0.014495957642794, -0.011707176454365, -0.031565170735121, 0.065027460455894, 0.036700166761875, 0.068897001445293, -0.079645186662674, -0.068211004137993, 0.017671372741461, 0.014292486943305, 0.030403176322579, 0.029271909967065, -0.070954382419586, -0.019701944664121, -0.036120399832726, -0.052247337996960, 0.057648655027151, -0.012856516987085, -0.074126847088337, -0.000045634347771, -0.037490464746952, 0.076205611228943, 0.066398844122887, -0.055197961628437, 0.004515514243394, 0.071811042726040, 0.022130789235234, 0.005036198534071, 0.041109599173069, -0.051288239657879, -0.070895224809647, -0.019628586247563, 0.053348377346992, 0.013843590393662, -0.030788112431765, 0.049232944846153, 0.050555001944304, -0.059355773031712, 0.053751029074192, 0.058944765478373, -0.009522982873023, 0.062320053577423, 0.048051498830318, 0.032742265611887, 0.006656500976533, -0.039701644331217, 0.034287501126528, 0.020854242146015, 0.071499869227409, 0.076703093945980, -0.039367429912090, 0.000828924705274, -0.025318862870336, 0.015025295317173, -0.050111718475819, -0.012203136458993, 0.075478874146938, -0.026313882321119, 0.064885675907135, -0.023605270311236, 0.047697789967060, 0.077634461224079, -0.058015517890453, 0.040495000779629, -0.057514350861311, 0.025345150381327, 0.038871884346008, 0.062702998518944, -0.074578441679478, 0.003429903648794, -0.052525907754898, 0.035654425621033, -0.051999945193529, 0.011109461076558, 0.058991488069296, -0.017034085467458, -0.080444820225239, -0.008874093182385, -0.054553382098675, 0.079376846551895, 0.071349248290062, 0.015544653870165, -0.044007118791342, -0.015220581553876, -0.074994333088398, -0.081903092563152, -0.058075390756130, 0.077971473336220, -0.016902960836887, 0.005489823874086, 0.054136164486408, 0.028789710253477, -0.056472647935152, -0.068933881819248, -0.024069080129266, -0.061563394963741, -0.050785332918167, -0.056457910686731, 0.029195951297879, 0.080191902816296, -0.029258586466312, 0.056120187044144, -0.019351227208972, 0.009547192603350, -0.062187165021896, 0.064972564578056, 0.027286041527987, 0.052812188863754, -0.013624689541757, -0.006542630959302, -0.035557020455599, 0.047081042081118, -0.033518172800541, 0.020421452820301, 0.079179786145687, 0.028856992721558, 0.079453252255917, 0.069482378661633, -0.020241476595402, -0.031475987285376, -0.028091734275222, -0.006300198379904, -0.077842965722084, -0.034390527755022, 0.007090101484209, 0.013807904906571, 0.058051992207766, 0.016314003616571, 0.020412053912878, -0.028206637129188, -0.059710718691349, -0.031020475551486, 0.075710520148277, -0.021855873987079, -0.070009045302868, -0.079664900898933, 0.009999700821936, 0.063761271536350, 0.029951300472021, 0.044675644487143, -0.071456499397755, 0.046866971999407, 0.036137614399195, -0.024885375052691, 0.043634723871946, 0.061876695603132, 0.078102029860020, 0.044479988515377, -0.022607171908021, 0.046955429017544, -0.055953606963158, 0.001535303890705, -0.027125449851155, 0.033177897334099, 0.001553511479869, -0.078016348183155, -0.044579893350601, -0.060205668210983, 0.035561047494411, -0.042871348559856, 0.025142760947347, -0.072439603507519, -0.037858776748180, -0.016953375190496, 0.030839070677757, 0.063982218503952, -0.053659420460463, -0.075652219355106, -0.061762616038322, 0.001676079235040, 0.060398079454899, 0.007740420754999, -0.049627196043730, -0.002785638906062, 0.060629319399595, 0.028508383780718, 0.019211560487747, 0.061145044863224, 0.013142252340913, 0.081511646509171, 0.066165894269943, 0.073612853884697, -0.019364370033145, -0.072383962571621, -0.035538490861654, -0.002359760459512, -0.029317071661353, 0.025970969349146, -0.037023276090622, 0.063298687338829, 0.078923776745796, -0.051763944327831, 0.049728829413652, 0.056692641228437, 0.042296674102545, -0.050132010132074, -0.018853457644582, 0.012951181270182, 0.071029067039490, 0.077274523675442, 0.082116663455963, 0.042778067290783, 0.033509336411953, 0.003258767537773, 0.055145543068647, -0.046323806047440, -0.014282381162047, -0.020302698016167, -0.022094650194049, -0.027735138311982, 0.061082832515240, 0.030403854325414, -0.011725763790309, 0.031592313200235, -0.045438189059496, 0.072097241878510, 0.003320464631543, -0.052688188850880, 0.038485184311867, -0.006487427279353, 0.028971375897527, 0.061445776373148, -0.081271722912788, -0.032700069248676, -0.072184108197689, -0.027931477874517, -0.009545241482556, -0.022348200902343, -0.053477637469769, 0.035120181739330, 0.016015235334635, -0.031438373029232, 0.026806388050318, 0.016212740913033, 0.066793382167816, 0.031209582462907, -0.030130803585052, -0.022783912718296, 0.026880141347647, -0.038341607898474, 0.081548169255257, 0.029401782900095, 0.030162256211042, 0.071731097996235, -0.017926970496774, 0.062826722860336, -0.030290940776467, -0.078102156519890, 0.072743557393551, -0.007740778382868, -0.072084181010723, 0.015007183887064, 0.075360544025898, -0.028879135847092, 0.072231329977512, 0.046188637614250, -0.055290680378675, 0.081673100590706, -0.019065864384174, 0.049830093979836, 0.021129813045263, -0.067278154194355, 0.077627725899220, 0.036542903631926, 0.033381108194590, 0.022119611501694, 0.001915748929605, 0.038092907518148, 0.044005472213030, 0.004093150608242, -0.083176344633102, 0.071403138339520, 0.072192326188087, -0.033664409071207, 0.081127718091011, 0.042879078537226, 0.045441124588251, -0.003393704537302, -0.032181330025196, 0.052237991243601, 0.047892972826958, 0.054502192884684, 0.082317575812340, -0.042557943612337, 0.017993038520217, 0.044455934315920, -0.063897676765919, 0.035676945000887, 0.017768502235413, -0.026831945404410, 0.048444516956806, -0.028366673737764, 0.082866534590721, 0.018522622063756, -0.028686095029116, 0.079472057521343, -0.006933821830899, -0.007583068683743, -0.066149331629276, 0.056274872273207, -0.065921075642109, 0.024849412962794, -0.011483889073133, 0.067824877798557, 0.018637996166945, 0.034025922417641, -0.077579602599144, -0.025069341063499, 0.053547147661448, 0.027814634144306, 0.075439184904099, 0.061837617307901, 0.067351922392845, 0.070874229073524, -0.031138036400080, 0.018303282558918, -0.060515772551298, 0.000176736284629, -0.061350636184216, -0.049673087894917, -0.055694140493870, 0.026625616475940, -0.059787232428789, 0.046513680368662, -0.034663259983063, 0.029409550130367, -0.036490201950073, 0.081557117402554, 0.029254751279950, 0.038726583123207, -0.013644968159497, -0.002848810516298, -0.049139358103275, 0.023624889552593, -0.070142433047295, -0.038374118506908, 0.051259920001030, 0.031394191086292, -0.014607913792133, -0.047583181411028, 0.014922394417226, 0.003614407032728, 0.030503440648317, 0.004879322834313, 0.076978452503681, 0.062528431415558, -0.050433482974768, 0.036294355988503, -0.061876639723778, 0.033621374517679, -0.045149192214012, -0.036667834967375, 0.032303556799889, -0.063963674008846, -0.042136825621128, 0.033720184117556, 0.030109912157059, 0.070457294583321, 0.039101701229811, 0.049458064138889, 0.044226601719856, 0.062229007482529, -0.010579006746411, -0.055813964456320, 0.008277867920697, -0.035655777901411, 0.059198375791311, 0.006509291473776, 0.037844076752663, 0.030157512053847, -0.065585993230343, 0.059470705688000, 0.069324985146523, -0.054107006639242, -0.041344717144966, 0.041503902524710, 0.040245465934277, 0.083080969750881, -0.022938430309296, -0.071942068636417, 0.037367381155491, 0.022567473351955, 0.066501192748547, -0.062075760215521, 0.010549480095506, -0.035855788737535, -0.012796524912119, -0.076213099062443, 0.081961467862129, 0.019987389445305, 0.064472943544388, 0.028818886727095, 0.079959399998188, -0.033195137977600, -0.077099643647671, 0.020466350018978, -0.051617313176394, -0.079144492745399, -0.063899010419846, 0.038448330014944, 0.074037343263626, 0.058213245123625, 0.079266108572483, -0.029581543058157, -0.069690071046352, -0.063270434737206, 0.012994350865483, -0.011093830689788, 0.059253793209791, -0.059653744101524, 0.005414915736765, 0.011836214922369, 0.082346022129059, -0.015791293233633, -0.037220589816570, -0.053202640265226, -0.012529510073364, -0.066144302487373, -0.061297256499529, 0.037200726568699, -0.071555964648724, 0.035938777029514, 0.006798802874982, 0.006283383350819, -0.057829599827528, 0.028541879728436, 0.031549278646708, 0.025518476963043, 0.052002981305122, 0.029867002740502, 0.071296498179436, 0.039108194410801, 0.000661995902192, -0.055388778448105, 0.055483717471361, -0.068904332816601, -0.008736989460886, -0.071351982653141, -0.044976264238358, 0.056094478815794, -0.016926925629377, 0.015599700622261, 0.006423064041883, -0.021727787330747, 0.041089717298746, 0.066399767994881, 0.059826400130987, 0.067024722695351, -0.079952709376812, 0.069126822054386, 0.080653190612793, 0.047837790101767, -0.047389779239893, 0.061878051608801, 0.066581115126610, -0.028424084186554, -0.077101595699787, -0.078351296484470, 0.024310514330864, -0.075952336192131, 0.032755356281996, -0.047073341906071, -0.078192234039307, 0.030303865671158, -0.005182335618883, -0.064295932650566, 0.051984410732985, -0.055744122713804, -0.067353479564190, 0.011855971999466, -0.016219517216086, 0.003689434146509, -0.079152360558510, -0.045764874666929, 0.025190576910973, -0.003016789210960, 0.003011784981936, 0.034126389771700, -0.000871878175531, -0.067465603351593, 0.054908670485020, -0.023777162656188, 0.036211270838976, 0.008531455881894, 0.048310235142708, -0.042898472398520, 0.068359099328518, 0.008330986835063, 0.007928997278214, -0.030593421310186, -0.066185757517815, -0.038979977369308, 0.081001959741116, -0.082664713263512, 0.059577643871307, 0.023150971159339, 0.082147583365440, 0.025203185155988, -0.033198472112417, -0.057659532874823, 0.000897890015040, -0.003243575803936, -0.013510149903595, -0.080255806446075, 0.064181320369244, -0.057059817016125, -0.055613376200199, 0.029800979420543, 0.033020917326212, -0.066765457391739, -0.077134400606155, 0.035430185496807, -0.070344202220440, 0.047915671020746, -0.041491851210594, 0.009262305684388, 0.060286853462458, 0.076369397342205, -0.013402401469648, -0.011631538160145, -0.062826484441757, -0.009349403902888, -0.027567613869905, 0.076036632061005, -0.055881842970848, 0.032765723764896, 0.039957363158464, 0.054847221821547, -0.036906331777573, -0.075736142694950, -0.047445029020309, 0.020832162350416, -0.053285945206881, -0.012294978834689, -0.066877119243145, 0.024096818640828, 0.075677976012230, 0.058117449283600, -0.071429751813412, 0.004526818636805, -0.051485415548086, 0.004068106878549, 0.048806834965944, 0.010228646919131, -0.077388785779476, 0.015912842005491, 0.021883634850383, -0.054350685328245, -0.037427335977554, 0.000424910278525, 0.054333865642548, -0.039127483963966, -0.064190275967121, -0.028114730492234, 0.016853945329785, 0.022136768326163, 0.042493462562561, 0.019444365054369, 0.080096833407879, -0.003086119657382, 0.018400628119707, -0.015411042608321, 0.042133826762438, -0.030334668233991, 0.052209813147783, 0.056850351393223, 0.058605648577213, 0.052953962236643, 0.002662676386535, -0.046339038759470, 0.054663758724928, 0.050185531377792, 0.002040521008894, 0.040473591536283, 0.050688300281763, 0.008956328965724, 0.050010025501251, -0.004281027708203, 0.068481110036373, 0.042284131050110, 0.040444720536470, 0.073855176568031, -0.055520199239254, 0.011732592247427, 0.045216228812933, 0.038160599768162, -0.074135124683380, -0.068600982427597, -0.004990169312805, 0.015722641721368, 0.003130063414574, 0.068747036159039, 0.016699051484466, 0.073896922171116, 0.017883280292153, -0.027190944179893, 0.041847925633192, -0.010622876696289, 0.012172932736576, 0.075466409325600, -0.064533181488514, -0.001472094911151, 0.061229877173901, 0.082016922533512, -0.004326304420829, 0.024994278326631, -0.018812706694007, -0.078104197978973, 0.061546117067337, 0.067413911223412, -0.067056655883789, -0.003223417326808, -0.029913077130914, 0.014571893028915, 0.077311590313911, 0.002760900417343, 0.008682284504175, -0.041698772460222, 0.077575005590916, 0.070740185678005, -0.037657093256712, -0.057648096233606, -0.080041810870171, -0.024601601064205, -0.016415594145656, -0.069190606474876, 0.072932705283165, -0.000386603642255, 0.065857164561749, 0.016445761546493, -0.047573808580637, -0.003398128086701, -0.030691087245941, -0.065711274743080, -0.007261602673680, 0.016255263239145, -0.071050055325031, 0.050021775066853, -0.002972763497382, -0.061440493911505, -0.026570353657007, 0.013117930851877, 0.069968320429325, 0.030306233093143, -0.008032062090933, -0.045089159160852, -0.030172964558005, 0.079804770648479, 0.079067289829254, 0.075108900666237, 0.015289174392819, 0.068380989134312, 0.059392843395472, 0.041002601385117, -0.010226837359369, 0.005400997586548, 0.012684740126133, -0.044995330274105, 0.018119851127267, -0.079942665994167, -0.002973954891786, -0.074010513722897, 0.023974020034075, 0.054166860878468, -0.081246197223663, -0.057004608213902, 0.011256454512477, -0.035384312272072, 0.011931139975786, 0.012608938850462, -0.044956427067518, -0.040805112570524, 0.076200090348721, 0.062583670020103, -0.032221864908934, -0.027217116206884, 0.007330888416618, -0.064412705600262, 0.042395103722811, 0.013104110024869, -0.067399665713310, 0.018910648301244, 0.064208336174488, 0.070373371243477, -0.036066409200430, 0.031553372740746, 0.082667179405689, 0.006518205162138, 0.000277879502391, -0.056448061019182, -0.020803520455956, -0.033047828823328, -0.062559492886066, 0.044204574078321, -0.043346017599106, 0.040253031998873, 0.037821065634489, -0.005027440842241, 0.017909970134497, 0.004016835242510, 0.004113845527172, 0.053821280598640, 0.080386430025101, -0.051752053201199, 0.070142202079296, 0.013155738823116, 0.020173419266939, -0.011793358251452, -0.074418418109417, -0.048740878701210, -0.025870604440570, -0.023506972938776, 0.057394389063120, 0.038996573537588, -0.070406883955002, -0.029630988836288, -0.067230202257633, 0.024165136739612, 0.047196764498949, -0.010763726197183, -0.059633843600750, -0.020053377375007, -0.031298786401749, 0.055095735937357, -0.081684112548828, 0.009720734320581, 0.061934828758240, -0.055799946188927, -0.025242209434509, -0.050671759992838, 0.024164220318198, -0.081919670104980, 0.055597327649593, -0.080195754766464, 0.017228418961167, -0.079534694552422, -0.075220182538033, -0.031472709029913, -0.055396564304829, 0.032275121659040, 0.020824788138270, -0.005769550334662, 0.019818533211946, 0.021005166694522, -0.050913415849209, -0.000341602280969, 0.076737396419048, -0.043107938021421, -0.061264649033546, -0.004202172625810, -0.007570260204375, 0.031480230391026, -0.040428932756186, 0.054978046566248, -0.068505957722664, -0.079072907567024, 0.010672502219677, -0.019799148663878, -0.035685010254383, 0.014868136495352, -0.036593724042177, 0.030376963317394, 0.080958500504494, 0.053397733718157, 0.024913471192122, 0.063807725906372, -0.057025358080864, -0.000930954061914, -0.041284486651421, -0.060886327177286, 0.008301816880703, -0.027489094063640, -0.054755777120590, -0.015688065439463, 0.034831374883652, -0.041372880339622, 0.006023353897035, 0.012870337814093, -0.014929140917957, 0.031048178672791, -0.079826250672340, 0.015548064373434, 0.015251284465194, 0.080092772841454, -0.019772123545408, 0.045773342251778, 0.006134684663266, 0.000650200061500, 0.061199121177197, -0.000481402152218, 0.043111417442560, 0.022804386913776, -0.056680642068386, 0.027360271662474, -0.017328698188066, -0.046874217689037, 0.082816608250141, -0.040644794702530, 0.053994406014681, -0.075115948915482, 0.055715762078762, 0.021601943299174, 0.079500727355480, -0.074829570949078, -0.066447526216507, -0.034844011068344, -0.016623793169856, -0.046738650649786, -0.012202265672386, -0.015333535149693, 0.010307069867849, 0.071518234908581, -0.039387289434671, -0.013999758288264, 0.017923835664988, -0.037222832441330, 0.011792450211942, -0.015335702337325, 0.019534382969141, 0.002358665689826, -0.006435098126531, 0.052740413695574, 0.000427866674727, 0.003139439038932, -0.015690745785832, 0.028427479788661, -0.064286522567272, 0.068157732486725, 0.030885018408298, 0.041894275695086, 0.024464977905154, -0.041750583797693, -0.028416994959116, 0.031774751842022, 0.004839921835810, 0.072612546384335, -0.050246674567461, 0.034241370856762, -0.035193536430597, -0.029664272442460, -0.028743661940098, -0.067719846963882, -0.024119718000293, -0.075214266777039, -0.010261294431984, 0.069152206182480, -0.080827444791794, 0.049511816352606, 0.041053656488657, 0.061221968382597, -0.023777024820447, 0.074286587536335, 0.072770051658154, 0.023291174322367, 0.033671751618385, -0.076891608536243, 0.003727517556399, -0.081182196736336, 0.033790007233620, 0.055257961153984, 0.062358837574720, 0.067351013422012, -0.065308943390846, -0.051311675459146, -0.061802808195353, -0.032711748033762, -0.025285281240940, 0.010578313842416, 0.034003842622042, -0.048452518880367, 0.013304161839187, -0.036529265344143, 0.061849113553762, 0.044797357171774, 0.073769599199295, -0.069696322083473, -0.018317520618439, -0.064715325832367, -0.082885496318340, -0.026115041226149, -0.069512724876404, 0.006694569252431, 0.076445251703262, 0.052060578018427, 0.062732905149460, -0.074255503714085, -0.016659492626786, 0.021232265979052, -0.026690157130361, 0.058623611927032, 0.038015317171812, 0.008352835662663, 0.006262688431889, -0.025008538737893, -0.013621435500681, 0.014616633765399, 0.065972752869129, -0.044405121356249, -0.009132052771747, -0.073717281222343, -0.020593125373125, 0.079644575715065, -0.080500535666943, -0.067903988063335, 0.059565134346485, -0.040902595967054, -0.012943436391652, 0.019959725439548, 0.047183375805616, 0.056131474673748, 0.057911869138479, -0.031173363327980, 0.012085692025721, 0.057802997529507, -0.059072531759739, -0.033379081636667, 0.011713945306838, -0.020994480699301, 0.059181708842516, 0.080308787524700, 0.035317074507475, -0.010647554881871, -0.020302601158619, -0.029497541487217, -0.032157022505999, 0.050941195338964, 0.066461563110352, 0.058226648718119, -0.055677536875010, 0.074869781732559, -0.029431037604809, -0.047430511564016, -0.031419049948454, -0.007946311496198, 0.059005770832300, 0.044212199747562, 0.062199831008911, -0.015345830470324, 0.073829606175423, -0.031371530145407, -0.036173082888126, 0.063296824693680, -0.068184331059456, 0.021669724956155, -0.044948007911444, -0.027584495022893, 0.051566597074270, 0.035243753343821, -0.015285957604647, -0.061730682849884, -0.043858479708433, 0.075630314648151, -0.078886121511459, -0.007701600436121, 0.037050623446703, -0.074163258075714, -0.082105666399002, 0.020734615623951, 0.036514721810818, 0.039050966501236, -0.036872394382954, -0.043660953640938, -0.015403856523335, -0.056036040186882, -0.069031983613968, 0.028957756236196, 0.062333740293980, 0.022501761093736, 0.003304833779112, -0.053206991404295, 0.025248840451241, 0.049565177410841, -0.050811443477869, 0.040092669427395, -0.078034542500973, -0.057691525667906, 0.035678055137396, -0.056896083056927, 0.001408446696587, 0.074164010584354, -0.026370359584689, -0.076867982745171, 0.081679783761501, 0.059154111891985, 0.043653372675180, -0.022685751318932, -0.053556017577648, -0.074548117816448, 0.029887495562434, 0.067856453359127, 0.058760084211826, -0.037658207118511, -0.035388048738241, -0.078635066747665, -0.082476720213890, -0.072602562606335, -0.039533741772175, 0.052026335150003, 0.004205769393593, -0.004529156722128, 0.015340944752097, 0.047874860465527, -0.025363544002175, 0.056365054100752, -0.015388128347695, -0.000811588426586, -0.034968819469213, 0.003926840145141, 0.080838114023209, -0.078806348145008, 0.012092245742679, -0.003352516097948, -0.036931533366442, -0.048264738172293, 0.001649307785556, 0.080932937562466, 0.047778990119696, -0.032889734953642, -0.046315964311361, -0.037663310766220, -0.081820778548717, -0.063229724764824, 0.042842928320169, 0.071457587182522, 0.005032191984355, 0.005648709833622, -0.049397196620703, -0.077751815319061, -0.022996338084340, -0.039533186703920, 0.082131706178188, -0.051856167614460, -0.081464603543282, 0.042452238500118, 0.079439811408520, 0.029212201014161, 0.078355446457863, -0.040472622960806, 0.025862604379654, -0.036209031939507, -0.018517715856433, 0.016262248158455, -0.019308414310217, 0.030987769365311, 0.061693206429482, -0.069105677306652, 0.010624960996211, 0.035314410924911, 0.071218542754650, 0.077598072588444, -0.055282160639763, 0.068781539797783, 0.025154035538435, -0.062908515334129, 0.041441407054663, -0.002772375941277, -0.017905918881297, -0.032119274139404, 0.037820447236300, -0.030264567583799, 0.067387714982033, -0.031734481453896, 0.004804512020200, 0.001657931250520, 0.075616747140884, -0.054189380258322, 0.062253553420305, -0.030175346881151, 0.008329817093909, -0.048300839960575, -0.024966139346361, -0.037255898118019, -0.059703689068556, 0.045754548162222, 0.033721182495356, 0.051215641200542, -0.072308860719204, 0.019790710881352, 0.010613441467285, 0.006937947589904, 0.041973657906055, 0.046165376901627, 0.076991200447083, -0.016420107334852, 0.012949096038938, 0.030711699277163, 0.043114829808474, 0.024530785158277, -0.002936921780929, -0.019525602459908, -0.013239538297057, -0.047904070466757, -0.014376249164343, 0.000234628168982, -0.078659720718861, 0.012071893550456, -0.020050695165992, 0.006201646756381, -0.060484156012535, -0.082207560539246, -0.076573587954044, 0.073741838335991, -0.015844590961933, -0.066583372652531, 0.076115891337395, -0.025614790618420, -0.067892871797085, -0.075040169060230, 0.075130246579647, -0.051745619624853, -0.066564351320267, 0.072747960686684, -0.062455251812935, -0.026756662875414, -0.070364370942116, -0.003773568896577, 0.035671405494213, -0.030841115862131, 0.002050864743069, -0.080993458628654, -0.079352170228958, 0.023757183924317, -0.067463912069798, -0.081978932023048, -0.003495413810015, 0.008009743876755, -0.082227930426598, -0.002713657449931, -0.014175862073898, 0.049728889018297, -0.061784818768501, -0.006277008913457, -0.033104322850704, 0.044514719396830, -0.034343264997005, -0.051758028566837, 0.073290348052979, -0.065721191465855, -0.041453801095486, -0.032891247421503, 0.032319661229849, 0.015007183887064, -0.013532453216612, 0.031481780111790, 0.080309458076954, 0.075852602720261, 0.000991385313682, -0.006965649779886, -0.033717848360538, -0.008766955696046, -0.002222477691248, -0.030482612550259, -0.000058361027186, -0.050517819821835, -0.007371161133051, 0.046092454344034, -0.073848351836205, -0.008839896880090, -0.062580652534962, -0.050745971500874, 0.060820121318102, 0.049858286976814, -0.037494435906410, -0.004951565060765, -0.021413767710328, 0.016471020877361, -0.054863527417183, 0.051201820373535, -0.057146932929754, -0.022356562316418, -0.083262510597706, 0.012302544899285, 0.077768221497536, -0.049047432839870, 0.023505620658398, -0.030676588416100, 0.036604050546885, -0.063602842390537, -0.074570775032043, -0.057081777602434, -0.036286476999521, 0.055516708642244, 0.069302171468735, -0.065949276089668, -0.018821427598596, 0.039184674620628, -0.043498508632183, -0.035442616790533, 0.024828480556607, -0.038381148129702, -0.033052276819944, 0.008402833715081, -0.014308966696262, 0.015081771649420, 0.006871461868286, 0.042966265231371, -0.076963461935520, 0.049177240580320, 0.001475095981732, 0.071770936250687, -0.024666972458363, -0.064637951552868, -0.001270612701774, 0.013256599195302, -0.012170050293207, 0.062995307147503, -0.078935049474239, -0.002059704158455, 0.018807666376233, -0.002962218830362, -0.002570454496890, -0.082764282822609, -0.047809664160013, 0.007454483769834, -0.037251353263855, 0.048259075731039, 0.063248336315155, -0.067787915468216, -0.038947626948357, -0.059353508055210, -0.039764296263456, -0.005810909904540, -0.056278809905052, 0.059625644236803, 0.077304325997829, -0.025843320414424, -0.006288164295256, 0.024393741041422, 0.022025579586625, 0.037129655480385, 0.045137055218220, 0.018323702737689, -0.077003315091133, -0.067451104521751, 0.042497038841248, 0.010001152753830, 0.063281990587711, -0.039739735424519, -0.048573039472103, -0.038203932344913, 0.064258247613907, -0.004820917267352, -0.062979929149151, -0.026408387348056, -0.002362702041864, 0.057141017168760, 0.081335455179214, -0.017195986583829, -0.057661879807711, 0.076777562499046, -0.047120720148087, 0.078715935349464, -0.033926796168089, 0.005616278853267, 0.047691982239485, -0.056246537715197, -0.053918689489365, -0.047702249139547, -0.052640791982412, -0.051641542464495, -0.010641954839230, -0.009232831187546, 0.039574533700943, -0.044945184141397, 0.041869491338730, -0.079067282378674, -0.020471867173910, -0.051312904804945, 0.007917916402221, -0.079149961471558, -0.069893039762974, 0.008219328708947, -0.076932527124882, 0.027204304933548, 0.033887948840857, 0.079051323235035, 0.013909978792071, -0.013053188100457, -0.031623631715775, 0.001933658611961, -0.022426981478930, 0.049753569066525, -0.007288485765457, -0.054000265896320, -0.019037602469325, 0.040735781192780, -0.030790971592069, -0.056794527918100, -0.036009751260281, 0.075538508594036, -0.006663649808615, 0.066156618297100, 0.025913540273905, 0.078558124601841, -0.047036442905664, -0.064263314008713, 0.047085240483284, 0.024408813565969, -0.019300922751427, -0.023713476955891, -0.009990943595767, -0.065308630466461, 0.041048176586628, 0.002798983594403, 0.070278525352478, -0.066566273570061, -0.053948994725943, -0.029523776844144, 0.057176940143108, 0.056216474622488, 0.065015979111195, 0.005907882936299, 0.000650460715406, 0.062272079288960, 0.007326338440180, 0.056113664060831, 0.062215827405453, -0.082919977605343, 0.002783494070172, -0.018307259306312, 0.054773692041636, 0.048879470676184, -0.056501559913158, -0.021280897781253, -0.070179536938667, -0.034426968544722, -0.078221879899502, -0.048347070813179, 0.080508261919022, 0.070285364985466, 0.002237490378320, 0.007012773305178, -0.015901843085885, -0.029408022761345, -0.073282256722450, 0.009777702391148, 0.054973505437374, -0.065305694937706, 0.029958173632622, -0.081627026200294, -0.047664716839790, 0.076751813292503, 0.056985154747963, -0.073995500802994, 0.003723630215973, -0.068932525813580, -0.075344175100327, 0.063202224671841, 0.072471939027309, 0.043027851730585, -0.064856797456741, -0.083106398582458, 0.054877158254385, 0.059657353907824, -0.049110598862171, -0.025035841390491, -0.022823726758361, -0.024911111220717, 0.015551683492959, 0.008337941952050, -0.064858466386795, 0.020352501422167, 0.040848378092051, 0.030230348929763, 0.001880800817162, 0.078601554036140, 0.014153342694044, 0.033189456909895, -0.062500253319740, 0.049428202211857, -0.018443031236529, -0.015446593984962, 0.046025536954403, -0.044047869741917, 0.053116139024496, -0.000891977222636, 0.023096736520529, 0.052060950547457, 0.011560800485313, 0.073603577911854, 0.017714645713568, -0.001470724702813, -0.037102572619915, 0.051590427756310, 0.009687647223473, 0.013563446700573, -0.063739329576492, -0.058867711573839, -0.066084176301956, -0.047067422419786, -0.023273576050997, -0.055374301970005, -0.013068901374936, -0.014986593276262, 0.039563547819853, 0.054590079933405, 0.045284546911716, 0.032121419906616, 0.002289618365467, -0.026429457589984, -0.042056262493134, -0.043770547956228, -0.035577971488237, -0.019394619390368, 0.035273026674986, -0.060498494654894, 0.082719050347805, -0.004800423514098, 0.005126201082021, 0.029284046962857, -0.011582820676267, 0.072360739111900, -0.063565053045750, 0.036488376557827, -0.007622149772942, -0.015875414013863, 0.011396753601730, -0.082871958613396, -0.027333663776517, 0.080279283225536, 0.027423182502389, -0.000079376062786, 0.042772527784109, -0.060859777033329, 0.032533336430788, -0.053984299302101, 0.011144611053169, -0.057941701263189, 0.065837085247040, -0.062622502446175, 0.068317726254463, 0.066776402294636, -0.063424259424210, -0.038063514977694, 0.022985495626926, -0.008085679262877, -0.061114065349102, 0.077708721160889, -0.071194529533386, 0.027209389954805, 0.027734460309148, -0.059898339211941, 0.012119076214731, -0.035775184631348, -0.064093261957169, 0.066579103469849, -0.029479609802365, -0.001843186793849, 0.026310248300433, 0.057055898010731, -0.061639055609703, 0.049208801239729, 0.034968160092831, -0.070798814296722, -0.010136662982404, -0.003465231740847, 0.000812578829937, 0.039415623992682, 0.058244895190001, -0.041020154953003, -0.054254494607449, -0.056284330785275, 0.071884423494339, 0.015298982150853, -0.075989767909050, -0.000554284546524, 0.053537823259830, -0.046615127474070, -0.046421471983194, -0.052722070366144, 0.024024160578847, 0.081602707505226, -0.075861252844334, -0.061479773372412, 0.063573554158211, 0.051605142652988, 0.071675360202789, -0.051899161189795, -0.050600234419107, -0.017960175871849, -0.024801336228848, 0.012505955994129, -0.019115451723337, 0.023068839684129, -0.016569474712014, 0.020641522482038, -0.052589457482100, -0.063251584768295, 0.013777558691800, -0.040562283247709, 0.009795143269002, 0.023613808676600, -0.074574112892151, 0.071269735693932, -0.026755549013615, 0.059577971696854, -0.000110772016342, -0.078121401369572, -0.033960353583097, 0.043747112154961, -0.067600816488266, -0.064864635467529, 0.077867336571217, -0.077203407883644, 0.028667723760009, -0.052231155335903, 0.046375911682844, 0.083111204206944, -0.022591544315219, 0.073750235140324, 0.052694600075483, 0.019602395594120, 0.065035596489906, -0.005629668477923, -0.004196118563414, 0.055826362222433, -0.029834300279617, 0.032403483986855, 0.000787818047684, 0.037454381585121, -0.064713850617409, 0.017501568421721, -0.053431369364262, -0.022189134731889, 0.011494374834001, -0.044195059686899, -0.016007848083973, 0.008855088613927, -0.053245257586241, -0.074261106550694, -0.054111037403345, 0.012229148298502, -0.029878504574299, 0.047494236379862, -0.048292975872755, 0.017382001504302, -0.062428738921881, -0.056670472025871, -0.076338395476341, 0.057212028652430, -0.047382295131683, 0.000438984832726, 0.039220180362463, -0.029261903837323, 0.080392181873322, -0.005095795728266, 0.038911778479815, 0.050627041608095, -0.073778487741947, -0.050584387034178, -0.073994249105453, 0.000606055138633, -0.037842154502869, 0.062997810542583, 0.008856198750436, -0.060711793601513, 0.053923811763525, -0.009750283323228, -0.066865004599094, 0.043431349098682, -0.052259471267462, -0.082503885030746, -0.028441956266761, 0.079919986426830, 0.017962262034416, -0.021277103573084, -0.045930195599794, -0.019259087741375, 0.042598508298397, 0.047417268157005, -0.006654236931354, 0.029802363365889, -0.021737201139331, 0.011080984957516, -0.068827778100967, -0.078432440757751, 0.077667281031609, 0.027410790324211, -0.079035855829716, -0.014536743983626, -0.044098589569330, 0.022135555744171, 0.019111162051558, -0.002687362721190, 0.030197463929653, -0.049619708210230, 0.051967043429613, 0.016852917149663, -0.011597104370594, -0.078009590506554, -0.010185373015702, -0.082595594227314, -0.056486826390028, 0.052109979093075, 0.074260883033276, -0.051530472934246, 0.007070501334965, 0.059202842414379, -0.039500221610069, -0.054025884717703, -0.067150525748730, -0.024307617917657, 0.063260011374950, 0.043743181973696, 0.048494499176741, 0.039676539599895, -0.027160083875060, 0.027131287381053, -0.026173084974289, 0.045918960124254, 0.079127103090286, -0.017997127026320, 0.076296135783195, -0.025850469246507, 0.077339708805084, 0.048196341842413, -0.013050886802375, -0.011601393111050, -0.007103885523975, -0.069549486041069, -0.058992363512516, -0.014649637974799, 0.012755552306771, 0.029352677986026, 0.016960190609097, -0.015027380548418, -0.042802277952433, 0.038207288831472, 0.002196905203164, 0.026665017008781, 0.026032309979200, 0.031838297843933, -0.078809745609760, 0.073813833296299, 0.069413483142853, -0.010801875963807, -0.049277491867542, -0.016452791169286, 0.021474750712514, 0.009956948459148, 0.060786284506321, 0.070385925471783, -0.000883830362000, 0.004334905650467, 0.017339063808322, -0.042219378054142, 0.057950951159000, 0.008869566023350, -0.058802220970392, 0.029143644496799, 0.081199832260609, 0.029091143980622, 0.069586217403412, 0.013738641515374, 0.063269242644310, 0.032000660896301, -0.031898509711027, -0.008335119113326, 0.023499306291342, -0.041958875954151, -0.052452810108662, 0.074499584734440, 0.026409657672048, 0.078162468969822, -0.024987865239382, 0.033974830061197, -0.027185700833797, 0.063807874917984, -0.007825121283531, -0.069062069058418, -0.059121005237103, -0.022898612543941, -0.073071993887424, -0.071597658097744, -0.026047799736261, -0.057233493775129, 0.051886498928070, 0.058638609945774, -0.067569218575954, -0.009193972684443, 0.073060981929302, -0.041073139756918, -0.035246141254902, 0.010160516016185, 0.060535710304976, 0.057675700634718, 0.071947753429413, -0.005430092569441, 0.006151559296995, 0.043746262788773, 0.000550255819689, -0.005490479059517, 0.024240335449576, -0.008422731421888, 0.050325531512499, -0.031034633517265, 0.056698746979237, -0.047399073839188, 0.030446888878942, -0.003978826571256, 0.019079528748989, 0.027324510738254, -0.018425768241286, -0.023612478747964, -0.051776994019747, -0.007597761228681, -0.065266095101833, 0.033107303082943, -0.046906072646379, -0.040555212646723, -0.038372468203306, 0.081579387187958, -0.008135030046105, -0.056349780410528, -0.003760804887861, 0.060651883482933, -0.071028493344784, -0.063716493546963, 0.042630560696125, -0.041751340031624, -0.004583712667227, 0.009885733947158, 0.073168367147446, 0.081068947911263, -0.032125826925039, 0.051253829151392, -0.029471250250936, -0.073731422424316, -0.066716246306896, 0.069573260843754, 0.029070129618049, -0.019599437713623, 0.027775172144175, 0.081875845789909, -0.069018602371216, 0.061547830700874, 0.064591392874718, -0.048050407320261, 0.082327648997307, -0.072459921240807, -0.074134767055511, -0.018658647313714, 0.077907919883728, -0.028985437005758, -0.004383421968669, -0.013985855504870, -0.066688425838947, -0.039831954985857, -0.008792989887297, -0.080805383622646, -0.054380293935537, 0.015560977160931, -0.011255240999162, 0.045825619250536, -0.028070466592908, 0.079692855477333, 0.081479869782925, -0.025387672707438, -0.012780000455678, -0.025682765990496, 0.011848607100546, 0.022280024364591, -0.057381641119719, 0.006225849036127, 0.060361277312040, -0.010494551621377, -0.042668234556913, 0.037564016878605, 0.049425952136517, -0.035780865699053, -0.020586274564266, 0.038054279983044, 0.019410146400332, 0.013834155164659, 0.027191495522857, -0.046554580330849, -0.006292081438005, 0.057925499975681, -0.071869075298309, -0.070112705230713, 0.046019937843084, -0.007194715086371, 0.059053562581539, 0.003093164181337, 0.000215005697100, 0.019560595974326, -0.026938902214170, -0.034865595400333, 0.051786128431559, -0.074968338012695, 0.023690043017268, 0.054824389517307, 0.055648606270552, 0.018616691231728, -0.011494969949126, -0.051080442965031, -0.061031412333250, 0.050907533615828, -0.062986716628075, -0.018907811492682, -0.047364503145218, -0.078054092824459, 0.023629931733012, 0.009191389195621, 0.047847278416157, 0.074255026876926, -0.039181042462587, -0.075754351913929, 0.000713803688996, 0.019022529944777, -0.036556173115969, -0.078398674726486, -0.077897615730762, -0.021504065021873, 0.074913449585438, -0.076889052987099, 0.044454295188189, 0.057449955493212, -0.029049180448055, -0.068956822156906, -0.068656340241432, -0.069896750152111, -0.021119311451912, 0.034270144999027, -0.062980666756630, 0.012130596674979, 0.080007173120975, -0.010370017960668, 0.079235114157200, 0.007390917278826, 0.010105527937412, 0.019098846241832, -0.081300139427185, 0.028985235840082, -0.044736336916685, -0.004377598408610, 0.034553281962872, 0.029954599216580, -0.072641305625439, -0.044359128922224, -0.017741432413459, -0.055103555321693, -0.038421839475632, 0.055776394903660, 0.056131117045879, -0.061671108007431, -0.080466151237488, 0.042240135371685, -0.019570961594582, -0.062993831932545, -0.023238964378834, 0.054829929023981, -0.040826439857483, -0.055298879742622, -0.056636836379766, 0.058410245925188, 0.058019641786814, -0.030743651092052, -0.065059371292591, 0.040629126131535, 0.048558376729488, 0.043719515204430, -0.043602924793959, -0.013684607110918, 0.020030895248055, 0.014500380493701, 0.065336003899574, 0.031066445633769, 0.019479015842080, -0.057186253368855, -0.050953309983015, -0.051707409322262, 0.045427706092596, -0.038376443088055, -0.001727075316012, -0.035941813141108, -0.044981643557549, 0.029330814257264, 0.062998235225677, 0.038001079112291, 0.032201740890741, -0.042594682425261, -0.076831638813019, -0.021848546341062, -0.072031870484352, 0.014164021238685, 0.028626259416342, 0.022935846820474, 0.016184980049729, -0.013246196322143, 0.079036742448807, -0.035299163311720, 0.006284336559474, -0.056050892919302, 0.013982496224344, -0.015857778489590, -0.083220250904560, 0.010694619268179, -0.067286357283592, 0.016817903146148, 0.049656566232443, 0.057364914566278, -0.038560308516026, 0.041683141142130, -0.073289379477501, -0.005492243915796, 0.063619680702686, 0.077378541231155, 0.073850870132446, -0.027733452618122, 0.015130667947233, 0.031351532787085, -0.043689429759979, -0.008418204262853, -0.078492030501366, -0.036359135061502, -0.045783147215843, 0.053041148930788, 0.073169395327568, -0.004401033744216, 0.027994208037853, 0.016477931290865, -0.060586072504520, -0.010784085839987, -0.003491466864944, 0.049698464572430, 0.015898507088423, 0.036918900907040, 0.025018189102411, -0.035180982202291, 0.007511653471738, 0.000647995795589, 0.075804926455021, 0.071449041366577, 0.046799179166555, 0.048233069479465, 0.013368026353419, -0.011756623163819, -0.014728575013578, -0.069700732827187, -0.027518326416612, -0.033515270799398, 0.034256242215633, -0.068068891763687, 0.023636722937226, 0.019297787919641, 0.042208399623632, 0.028075609356165, -0.023139037191868, -0.010341065004468, -0.068526990711689, 0.051482819020748, -0.012139651924372, 0.005081616807729, 0.042613551020622, 0.078782021999359, -0.021900733932853, 0.040849294513464, -0.071333274245262, -0.047770068049431, 0.013567579910159, -0.066783547401428, 0.021785002201796, -0.014904261566699, 0.009038877673447, -0.057945158332586, -0.066565424203873, 0.066287472844124, 0.017824562266469, -0.058610390871763, 0.072734691202641, 0.072359427809715, -0.069406449794769, -0.026307843625546, 0.009867362678051, -0.027326496317983, -0.031954824924469, -0.078123845160007, -0.010773519054055, -0.037169337272644, -0.062420479953289, -0.067011378705502, 0.023646596819162, 0.030035287141800, -0.058633208274841, -0.024165036156774, -0.078800372779369, -0.037390079349279, -0.060312937945127, -0.025652024894953, 0.034712284803391, -0.043473608791828, 0.025791486725211, 0.070506177842617, 0.044196605682373, 0.014179674908519, 0.014145910739899, 0.012238204479218, -0.046143889427185, 0.019688718020916, -0.035417180508375, 0.077011361718178, 0.051074031740427, 0.060542147606611, -0.078446812927723, 0.015144228935242, -0.060382165014744, 0.022149614989758, -0.067945733666420, -0.000690867367666, -0.013919570483267, -0.057943150401115, -0.024211725220084, 0.015579162165523, 0.043426048010588, 0.079678542912006, 0.030389735475183, 0.058163277804852, -0.055306348949671, -0.028208304196596, -0.075037345290184, -0.053698621690273, 0.040794603526592, -0.012097771279514, 0.059569586068392, 0.028678745031357, 0.070816203951836, -0.059995703399181, -0.055480703711510, 0.080879457294941, 0.054111275821924, -0.076352924108505, 0.046649109572172, 0.005474669393152, -0.082319952547550, -0.029515950009227, -0.039517223834991, 0.055379804223776, -0.019515475258231, 0.059694677591324, -0.025998970493674, -0.008534553460777, -0.046015411615372, 0.053730890154839, -0.048820808529854, 0.064102411270142, -0.056532677263021, 0.051373530179262, -0.035433743149042, 0.004435802809894, -0.026992678642273, -0.075922384858131, -0.007642919197679, -0.023125395178795, 0.045851118862629, -0.045091643929482, 0.002716636285186, 0.078517131507397, -0.039939627051353, -0.004541593138129, 0.016243146732450, -0.069052949547768, -0.051240801811218, 0.022186730057001, 0.014406833797693, -0.035068806260824, -0.005698671098799, -0.031915530562401, 0.008917083963752, 0.048806864768267, 0.013637639582157, 0.027128666639328, -0.023183522745967, 0.044090740382671, 0.026784166693687, 0.066164165735245, 0.010129015892744, 0.065409697592258, -0.030184958130121, -0.011160494759679, 0.078522242605686, -0.044832646846771, -0.032768499106169, -0.050458148121834, -0.062303356826305, 0.000688387604896, -0.070805825293064, -0.018756372854114, -0.077267870306969, 0.075504966080189, -0.005815400741994, -0.020888853818178, -0.054142970591784, 0.062773585319519, -0.041964974254370, 0.021326886489987, 0.055266015231609, 0.073080047965050, 0.035631548613310, 0.064774997532368, 0.059262849390507, 0.011358566582203, 0.027852345257998, 0.006811849772930, 0.003286529332399, 0.021031498908997, -0.026412993669510, 0.033197857439518, -0.052529007196426, -0.018313588574529, 0.005965469405055, 0.012058846652508, 0.027334081009030, 0.011019384488463, 0.069816462695599, -0.080323107540607, 0.015161327086389, -0.065333016216755, 0.034865379333496, 0.059115521609783, 0.022330863401294, 0.074991315603256, 0.079587750136852, -0.038556598126888, 0.082013063132763, -0.058348380029202, -0.057228431105614, 0.043346755206585, 0.068563304841518, -0.053324867039919, -0.006170846521854, 0.005001488607377, 0.008188945241272, 0.028968837112188, -0.065612360835075, -0.067743711173534, 0.072306349873543, 0.067737229168415, 0.016757493838668, 0.076757512986660, -0.017188994213939, 0.037745680660009, -0.033587753772736, -0.019646219909191, 0.065022848546505, -0.031765222549438, 0.075168788433075, 0.045942269265652, 0.078203290700912, -0.045440591871738, -0.016240607947111, -0.043806232511997, 0.038488402962685, -0.078829899430275, 0.071813665330410, -0.078984580934048, 0.014718841761351, 0.043944589793682, -0.003449243260548, 0.055415369570255, 0.012322964146733, -0.035195264965296, 0.028406808152795, -0.034608669579029, -0.018467277288437, -0.000728995306417, 0.057683505117893, -0.029278544709086, 0.054127465933561, -0.053279969841242, -0.021985828876495, -0.059193152934313, -0.033269785344601, -0.020950853824615, -0.034378807991743, -0.012335095554590, 0.067158110439777, -0.063739255070686, 0.007940636947751, -0.056230414658785, 0.044525638222694, 0.070009127259254, -0.001724275294691, -0.046977285295725, -0.071419917047024, -0.000446952995844, 0.008087883703411, 0.050770871341228, 0.053437843918800, -0.029005035758018, -0.067810423672199, -0.008456570096314, 0.011850096285343, -0.083128742873669, 0.003231281181797, 0.041262563318014, -0.041603691875935, -0.077817223966122, 0.079919748008251, 0.069368042051792, -0.075838923454285, 0.077276982367039, -0.070452563464642, 0.075407698750496, 0.023430295288563, 0.021540150046349, 0.014890059828758, 0.021564410999417, 0.032664220780134, 0.052604794502258, -0.049093943089247, 0.079400703310966, 0.078897476196289, 0.074745148420334, 0.058046359568834, -0.021319264546037, 0.018026541918516, -0.065321758389473, -0.023602988570929, -0.025851737707853, 0.001671827165410, 0.039232015609741, 0.035329703241587, 0.009206841699779, 0.049986299127340, 0.007301711477339, -0.020919814705849, -0.061789799481630, 0.054894253611565, -0.028985179960728, -0.007160206325352, -0.078030683100224, -0.062406815588474, -0.057998020201921, -0.026200788095593, -0.053058233112097, 0.006537246983498, 0.060886189341545, 0.080359548330307, -0.048878893256187, -0.080717198550701, 0.016648851335049, -0.001372701721266, 0.036888077855110, -0.031279306858778, 0.031198024749756, 0.032817948609591, 0.019446806982160, 0.052028913050890, 0.005377525463700, 0.045755591243505, 0.024008790031075, -0.019372338429093, 0.059123534709215, 0.008600585162640, 0.023330433294177, 0.078389272093773, -0.066588856279850, -0.023238152265549, 0.060613024979830, -0.032488241791725, -0.006124653853476, -0.044914025813341, -0.042672820389271, -0.055952079594135, 0.037395678460598, 0.051592569798231, -0.027743203565478, 0.003359069349244, -0.061966259032488, 0.064036853611469, -0.073152199387550, -0.082665331661701, -0.050003174692392, -0.081053271889687, 0.008828734047711, -0.051152031868696, 0.008100595325232, -0.034631904214621, 0.002101086312905, -0.065409556031227, -0.026341227814555, -0.044605273753405, 0.030046680942178, 0.029011076316237, -0.070480756461620, -0.065342664718628, 0.030296001583338, 0.037780333310366, 0.038945198059082, 0.078796483576298, -0.042772870510817, 0.081955693662167, 0.064939051866531, -0.025528745725751, 0.037741214036942, 0.068430930376053, -0.026418115943670, -0.022108374163508, 0.032199203968048, -0.011987036094069, -0.078435197472572, 0.071205645799637, -0.016024351119995, 0.037248589098454, 0.003443226218224, 0.083206869661808, 0.012588504701853, 0.069061756134033, 0.059787854552269, -0.037359498441219, 0.032841976732016, -0.023098746314645, 0.027950918301940, -0.006866896990687, -0.033298499882221, -0.002266741823405, -0.041951153427362, -0.043336626142263, 0.057082351297140, -0.047211434692144, 0.036572415381670, -0.029788289219141, -0.028775732964277, -0.017824584618211, 0.037550989538431, 0.033321376889944, 0.071063466370106, 0.063672862946987, -0.073161475360394, -0.077831625938416, -0.050700694322586, -0.054722968488932, 0.073472589254379, 0.034946996718645, -0.067005269229412, -0.066431872546673, -0.075959824025631, 0.058398835361004, -0.046880636364222, -0.078673362731934, 0.053242005407810, 0.008813267573714, -0.027329038828611, 0.024381766095757, -0.071024380624294, -0.077709540724754, -0.067613169550896, -0.006550792604685, -0.052354592829943, -0.007260723970830, 0.035593084990978, 0.060400255024433, -0.076884284615517, 0.011391928419471, -0.072453245520592, 0.040341157466173, 0.020041663199663, -0.079039208590984, 0.068974897265434, 0.082199573516846, -0.014018323272467, -0.026319483295083, 0.079033069312572, -0.043783377856016, -0.043412543833256, -0.026550276204944, 0.053195491433144, 0.047510068863630, 0.042432103306055, -0.052779797464609, 0.021729359403253, -0.053359281271696, 0.026025973260403, 0.016123043373227, -0.021212249994278, 0.041564825922251, 0.036387991160154, 0.043136753141880, -0.066629365086555, 0.018810026347637, -0.050872169435024, -0.026654509827495, 0.031986840069294, 0.009402023628354, 0.006259233225137, 0.071580164134502, 0.017287934198976, 0.020118335261941, -0.079061172902584, -0.052277501672506, 0.008309941738844, 0.037690896540880, 0.034175693988800, -0.036851402372122, 0.045943517237902, -0.063247919082642, 0.065648414194584, 0.041173998266459, -0.045964334160089, -0.081308968365192, 0.014934822916985, -0.026345554739237, -0.014177112840116, -0.017605526372790, -0.077170290052891, -0.043470550328493, -0.081199169158936, 0.066545858979225, -0.009386437013745, 0.011915904469788, -0.006345177534968, -0.032612573355436, 0.035482730716467, 0.055521488189697, -0.054690204560757, 0.028432007879019, -0.061404291540384, 0.034641854465008, 0.043742615729570, -0.060628231614828, 0.052373822778463, 0.011675564572215, 0.079573392868042, -0.081089556217194, -0.057486925274134, -0.004672538489103, -0.035208448767662, -0.018074797466397, 0.059512708336115, -0.014284824021161, -0.048172257840633, 0.002282231114805, 0.031951013952494, -0.000348155503161, 0.021596424281597, -0.061788547784090, -0.069548338651657, 0.078352943062782, 0.021522611379623, 0.080559551715851, -0.066243439912796, 0.053351517766714, 0.045073516666889, 0.073225334286690, 0.015005359426141, 0.044254928827286, 0.066102668642998, 0.049651756882668, -0.042946252971888, 0.062236618250608, -0.050412252545357, 0.012712896801531, -0.001657752553001, 0.023822164162993, -0.066664636135101, -0.003387747099623, 0.035136859863997, 0.074516370892525, -0.068443201482296, 0.033040780574083, -0.052138991653919, -0.021373715251684, -0.062929667532444, 0.083045832812786, -0.064928784966469, 0.009874057024717, -0.035019636154175, -0.060624081641436, 0.062063522636890, -0.041498564183712, -0.024835372343659, -0.035013839602470, -0.058070860803127, 0.076951980590820, 0.032003700733185, -0.064443409442902, -0.033359386026859, 0.007843768224120, -0.012744769454002, 0.048113144934177, -0.017220390960574, -0.006131147500128, -0.032363805919886, 0.049723871052265, 0.013829671777785, 0.059452537447214, -0.077348992228508, 0.053533520549536, -0.066407568752766, 0.072635471820831, 0.037869837135077, 0.012182903476059, 0.035951286554337, -0.027942558750510, -0.002230482874438, 0.073561623692513, -0.021702408790588, -0.031604308634996, 0.045384705066681, 0.023343637585640, -0.011539867147803, 0.019927039742470, -0.076541133224964, 0.059654362499714, -0.043053861707449, 0.015086858533323, 0.055466860532761, -0.000694382295478, -0.036626864224672, -0.009447478689253, 0.075357519090176, 0.044065449386835, -0.008535231463611, -0.006807322148234, 0.037295058369637, 0.014246279373765, 0.060178335756063, 0.014666497707367, 0.044133037328720, -0.076340705156326, 0.066434204578400, 0.031308103352785, -0.011017976328731, -0.030100997537374, -0.080392375588417, -0.080114193260670, -0.014002096839249, 0.001584751065820, 0.042498096823692, -0.065673127770424, -0.037716094404459, 0.011822832748294, -0.064465291798115, -0.074121125042439, 0.009626247920096, 0.064340695738792, -0.033278007060289, -0.048686210066080, 0.007810644805431, 0.031833212822676, -0.018764831125736, 0.012524960562587, 0.061966460198164, 0.022567197680473, 0.059654466807842, 0.026537861675024, -0.079690724611282, -0.012589897029102, -0.015153619460762, 0.005484559107572, 0.061118099838495, 0.043736565858126, -0.015078003518283, 0.070010781288147, 0.071832552552223, -0.030059354379773, -0.021411307156086, -0.075655356049538, -0.018618457019329, -0.019273698329926, 0.018660873174667, -0.013528178445995, 0.071477830410004, 0.080081328749657, -0.055780302733183, -0.019226238131523, -0.068245649337769, 0.032049097120762, -0.014866274781525, -0.036572415381670, -0.009615003131330, 0.016828268766403, -0.004758542403579, 0.036526281386614, -0.037791237235069, -0.053904887288809, 0.011525413021445, 0.030461819842458, 0.076208740472794, 0.064535968005657, -0.008256815373898, -0.081304021179676, -0.013741360045969, 0.026413410902023, -0.054660022258759, 0.001194811193272, 0.006205578800291, -0.001495008938946, 0.014507314190269, 0.055594168603420, -0.075004160404205, 0.045477628707886, -0.007600658107549, -0.019041042774916, -0.066074110567570, -0.078051477670670, -0.075986653566360, 0.023977654054761, 0.037712238729000, 0.074425667524338, 0.077077969908714, 0.020945308730006, 0.051074925810099, -0.071335345506668, 0.072703652083874, -0.027729580178857, -0.008368124254048, -0.046367794275284, 0.036354869604111, -0.081889450550079, 0.066986314952374, -0.031811334192753, -0.006785972043872, -0.080322191119194, -0.049404982477427, 0.001908599981107, -0.000761210394558, -0.033779010176659, -0.013312860392034, -0.049840532243252, -0.056577000766993, 0.032351020723581, 0.001835419679992, 0.072681941092014, -0.056944854557514, -0.018952827900648, -0.005016322713345, 0.067081145942211, -0.013686826452613, -0.066217489540577, 0.038078252226114, -0.041628275066614, -0.081322692334652, 0.077898450195789, 0.053180553019047, -0.002912637544796, 0.062966682016850, 0.044437941163778, 0.001538759213872, -0.062972739338875, 0.013185921125114, -0.061828665435314, 0.046488896012306, -0.033531773835421, 0.068169578909874, 0.071084097027779, -0.036891199648380, -0.080237835645676, 0.013297027908266, -0.014158942736685, 0.071657136082649, 0.070087172091007, -0.043661706149578, -0.033361073583364, 0.063460640609264, 0.018317267298698, 0.066153250634670, -0.074523136019707, -0.049336649477482, 0.050844192504883, -0.017888424918056, -0.067599721252918, -0.046859920024872, -0.034112472087145, 0.062270488590002, 0.029135147109628, -0.003312444547191, 0.005686897784472, -0.015424669720232, 0.024071641266346, 0.046315621584654, 0.047833159565926, 0.076901271939278, 0.018617205321789, -0.040213909000158, 0.004231424070895, -0.014924218878150, 0.004566554911435, 0.011097047477961, -0.013296276330948, 0.060169044882059, -0.071605458855629, -0.063218154013157, 0.050258643925190, 0.043366055935621, 0.027785241603851, -0.071665510535240, 0.075961031019688, -0.050711914896965, -0.071668788790703, -0.033575780689716, 0.035894334316254, -0.005398219916970, 0.029115963727236, 0.074924170970917, 0.057977493852377, -0.030928671360016, -0.011677068658173, -0.016399947926402, 0.005745720118284, -0.021498603746295, -0.058935727924109, 0.065544888377190, 0.055183283984661, -0.038886282593012, -0.004107471089810, 0.050070300698280, -0.076412945985794, 0.027362400665879, -0.015278451144695, 0.003782847663388, -0.077243506908417, -0.007456770166755, 0.073972567915916, -0.050557058304548, -0.026562549173832, 0.046726614236832, -0.021162880584598, -0.032558161765337, 0.062895543873310, 0.006700980942696, -0.073123462498188, -0.074054978787899, -0.023272803053260, -0.073851086199284, -0.047746632248163, -0.014054344035685, -0.081928089261055, -0.017706520855427, -0.016440078616142, 0.030786525458097, 0.040903903543949, -0.060530707240105, -0.061096251010895, -0.016109662130475, 0.040096446871758, 0.049574755132198, 0.022198883816600, 0.051049023866653, -0.060705538839102, -0.001088052988052, 0.007624391466379, 0.052977923303843, -0.028035715222359, -0.006410076748580, -0.071848064661026, -0.017307771369815, -0.059913251549006, -0.057085908949375, 0.029515115544200, -0.051643270999193, 0.023539913818240, -0.020677162334323, 0.035262402147055, 0.013943415135145, 0.046642065048218, 0.001069845398888, 0.038666792213917, -0.038545455783606, -0.003831080859527, -0.033523831516504, 0.054596230387688, 0.079717822372913, 0.060296948999166, 0.039885990321636, -0.022638252004981, -0.030239528045058, -0.004890858195722, -0.049559298902750, 0.012276674620807, 0.026861591264606, -0.034488506615162, 0.035876914858818, 0.029781095683575, -0.062931612133980, 0.051105920225382, 0.015961915254593, 0.030367059633136, -0.016723893582821, 0.056092724204063, 0.037884708493948, -0.006852264050394, -0.074287079274654, -0.073525950312614, 0.038286168128252, 0.014400257728994, -0.013893119059503, 0.015637865290046, -0.068930976092815, 0.044343873858452, -0.004664257634431, 0.082620367407799, 0.016756659373641, -0.025762397795916, 0.055834285914898, 0.027759958058596, -0.045971702784300, 0.022855302318931, -0.041035745292902, -0.034164696931839, -0.019433418288827, -0.029800025746226, 0.055281147360802, 0.034608311951160, -0.066374845802784, 0.008715303614736, -0.003179652150720, 0.057620700448751, 0.031698416918516, -0.033536836504936, 0.073686324059963, 0.056560415774584, 0.032350104302168, -0.034624416381121, -0.043843943625689, 0.067283473908901, 0.060849074274302, 0.070256248116493, 0.015126021578908, -0.082982033491135, 0.078726239502430, -0.035999268293381, 0.065072871744633, -0.028685081750154, -0.036918722093105, 0.032030962407589, -0.074084252119064, -0.058076281100512, 0.047070242464542, -0.052534963935614, -0.064594522118568, -0.023055018857121, -0.019392274320126, 0.077828980982304, -0.019362986087799, -0.021300777792931, 0.053110957145691, -0.027433332055807, -0.042867612093687, 0.067728973925114, 0.054730303585529, -0.036027982831001, -0.058068912476301, 0.070838898420334, 0.051612529903650, -0.050147660076618, 0.061604857444763, -0.027781708166003, 0.014362390153110, 0.033985950052738, -0.046580914407969, 0.003350051119924, -0.005389522295445, -0.065859407186508, -0.007147576659918, 0.051520321518183, 0.083127528429031, 0.039341013878584, -0.053905684500933, -0.007117446511984, 0.036982864141464, -0.014769264496863, 0.074527047574520, -0.024061555042863, -0.005858972202986, -0.070816367864609, -0.004596163518727, 0.070023201406002, 0.012748723849654, 0.057954527437687, 0.076407276093960, -0.061787892132998, 0.033807806670666, -0.047791037708521, -0.029690861701965, -0.047134958207607, -0.074666015803814, -0.012883399613202, 0.080374695360661, 0.045994397252798, -0.035421844571829, 0.029494957998395, -0.007778749801219, 0.025417914614081, 0.035518616437912, 0.056302722543478, 0.065305709838867, -0.048762466758490, 0.001115874503739, 0.064506851136684, -0.044636014848948, -0.053264539688826, -0.007244125008583, 0.051833327859640, -0.014009625650942, -0.048640970140696, -0.000992062967271, -0.015445357188582, -0.046541593968868, 0.049492854624987, -0.061719026416540, 0.050773832947016, 0.015157432295382, -0.000036698118492, -0.046576146036386, -0.029470177367330, 0.019748114049435, -0.002850322285667, -0.045965604484081, 0.082876242697239, -0.018942819908261, 0.049210648983717, -0.006266322918236, 0.033130262047052, 0.057380016893148, -0.006689482834190, 0.028374636545777, -0.080129191279411, 0.023607054725289, -0.065181836485863, 0.025519050657749, -0.055780660361052, -0.035973370075226, 0.046251967549324, 0.042726341634989, 0.013490155339241, 0.011773520149291, -0.033688060939312, -0.054295700043440, -0.030859822407365, 0.077119074761868, 0.079708866775036, 0.071944251656532, -0.011136471293867, -0.061699803918600, 0.063653193414211, 0.057338133454323, -0.045260038226843, 0.002137345029041, -0.067865364253521, -0.042973339557648, -0.081915676593781, 0.028460640460253, 0.007635055109859, -0.036186590790749, 0.017290413379669, -0.070884220302105, -0.037137940526009, 0.039140149950981, 0.066974461078644, 0.065666906535625, -0.060087665915489, -0.072558753192425, 0.057155925780535, -0.042150765657425, 0.026399789378047, 0.030496113002300, 0.052064299583435, -0.041965190321207, 0.056749206036329, -0.015581426210701, -0.032000280916691, 0.071536645293236, -0.059920381754637, 0.069448128342628, 0.016093472018838, -0.082518242299557, 0.002927248366177, -0.074975073337555, -0.006095558870584, 0.032044045627117, 0.013232553377748, 0.031360112130642, 0.081929221749306, 0.076186820864677, 0.047583196312189, 0.016871817409992, 0.064826712012291, -0.081558905541897, -0.064274691045284, 0.059370249509811, 0.037327822297812, 0.045482557266951, -0.069027177989483, -0.078963145613670, 0.080098353326321, 0.060776095837355, 0.040351763367653, 0.003778990125284, 0.081411890685558, 0.031740713864565, 0.063399836421013, 0.054144743829966, -0.046876087784767, 0.010019263252616, -0.069485306739807, 0.016162982210517, -0.009567284025252, 0.071126453578472, 0.063871383666992, -0.056915882974863, -0.003983793780208, -0.040080264210701, -0.026730468496680, -0.073932215571404, 0.041723981499672, 0.055446095764637, 0.082504123449326, -0.013973306864500, -0.053081505000591, -0.016986796632409, -0.079900734126568, 0.003828697837889, -0.053811855614185, 0.005907205399126, -0.050163447856903, -0.082693129777908, 0.034598797559738, -0.048953838646412, 0.004168572369963, 0.052725311368704, 0.043121978640556, 0.070624314248562, -0.023658549413085, -0.025086045265198, 0.043674014508724, -0.027400666847825, 0.064784429967403, 0.055704504251480, -0.077838838100433, 0.022380214184523, 