//Numpy array shape [3, 3, 32, 64]
//Min -0.083324931562
//Max 0.083304800093
//Number of zeros 0

#ifndef W14_H_
#define W14_H_

#ifndef __SYNTHESIS__
model_default_t w14[18432];
#else
model_default_t w14[18432] = {-0.050193473696709, 0.020252453163266, -0.011694642715156, -0.068271808326244, 0.053241975605488, 0.079359389841557, -0.062647782266140, 0.004088228568435, -0.078756466507912, -0.025629207491875, 0.002947727218270, -0.036364641040564, 0.047722782939672, 0.013252883218229, 0.034966967999935, 0.042212106287479, 0.037538599222898, 0.061349697411060, 0.023485247045755, 0.061771459877491, 0.019192200154066, -0.027373459190130, -0.020497409626842, -0.010566019453108, 0.058930005878210, -0.015760077163577, -0.037440758198500, -0.075481832027435, 0.052990779280663, 0.061350889503956, -0.072420619428158, 0.070402741432190, 0.009207392111421, 0.066621147096157, 0.042377352714539, 0.056753408163786, -0.061732530593872, 0.075252473354340, 0.035991225391626, -0.022266784682870, 0.054775133728981, 0.066577121615410, -0.000023911861717, 0.080885946750641, 0.033053267747164, -0.044790014624596, 0.050843611359596, -0.075786501169205, -0.066654823720455, -0.015203922986984, 0.006622185930610, 0.079475171864033, -0.070147261023521, -0.032559212297201, 0.024284323677421, 0.020243063569069, 0.017413435503840, -0.023756990209222, -0.006145088002086, 0.055416397750378, -0.073690831661224, 0.003890022868291, -0.017436431720853, -0.052030544728041, 0.032865092158318, -0.069116495549679, -0.016013605520129, -0.029036372900009, -0.067744307219982, -0.052344918251038, -0.000225513213081, -0.035662014037371, 0.027429198846221, -0.035078357905149, 0.069482363760471, -0.003631028579548, 0.073479048907757, 0.033821806311607, -0.037922762334347, 0.005019599571824, -0.001248808344826, 0.075254023075104, -0.018807033076882, 0.009277691133320, 0.030886588618159, 0.031675517559052, -0.002344211330637, -0.083261698484421, -0.000362952414434, -0.034208148717880, 0.005963980220258, 0.076716050505638, 0.060514800250530, -0.020516034215689, -0.068766847252846, 0.031519118696451, 0.078303024172783, 0.064663372933865, -0.076940938830376, 0.052432756870985, 0.018032716587186, 0.083075046539307, 0.008065759204328, -0.016458725556731, -0.078446038067341, 0.069171339273453, 0.004660541657358, 0.066807813942432, -0.036764644086361, 0.045356571674347, 0.010618087835610, -0.013206258416176, -0.005394958425313, -0.053499858826399, -0.069066926836967, -0.057122405618429, 0.033389985561371, -0.071508392691612, -0.004505550488830, -0.038141138851643, 0.026508588343859, 0.072695657610893, 0.012198527343571, 0.070915721356869, 0.047650083899498, -0.010075755417347, -0.042137861251831, 0.050936099141836, -0.077104337513447, 0.023368680849671, 0.029426908120513, 0.044289957731962, -0.003520896891132, -0.077092483639717, 0.061843007802963, -0.059199128299952, 0.003312578424811, 0.068202801048756, -0.063989445567131, -0.056167561560869, 0.043424095958471, 0.013471545651555, -0.057548843324184, 0.010883910581470, -0.062347579747438, -0.025983123108745, 0.059704404324293, 0.076677896082401, -0.068513043224812, 0.039987388998270, 0.073248557746410, 0.042835973203182, 0.031843397766352, -0.020083067938685, 0.077383525669575, -0.026550890877843, 0.027245752513409, 0.069954603910446, 0.035890161991119, 0.017508657649159, -0.006101240869612, -0.071325816214085, -0.023452002555132, 0.000715077097993, 0.071648269891739, 0.055718533694744, 0.005368790123612, -0.070297151803970, 0.047101162374020, -0.079072073101997, -0.063045039772987, -0.003166977548972, 0.035843435674906, -0.056144747883081, 0.014098116196692, -0.033160086721182, -0.024796333163977, -0.039413817226887, -0.053528159856796, -0.052831310778856, -0.022514574229717, -0.000302364787785, -0.026004232466221, 0.019315088167787, -0.004644910804927, 0.051832523196936, -0.004931369330734, 0.058018986135721, 0.024544427171350, 0.015798144042492, 0.046567626297474, 0.010335882194340, -0.017119016498327, -0.040032070130110, 0.077748872339725, 0.079239793121815, 0.061579506844282, 0.010218839161098, -0.062769748270512, 0.013312480412424, 0.031555019319057, -0.019787553697824, 0.031909808516502, -0.055299337953329, -0.060903664678335, 0.010523758828640, 0.006737321615219, 0.030354980379343, -0.046459063887596, 0.006314518861473, -0.002565211849287, 0.065217986702919, 0.056219469755888, -0.047246385365725, -0.037568408995867, 0.072717532515526, 0.069211557507515, -0.065652929246426, -0.065031826496124, 0.078125923871994, 0.050705485045910, -0.017662316560745, -0.050995748490095, -0.077185973525047, -0.069077081978321, 0.006945297587663, 0.029737628996372, 0.040046583861113, 0.018798334524035, 0.070040106773376, -0.015172527171671, 0.007786278612912, 0.037496384233236, -0.046524871140718, -0.011511174961925, 0.029179805889726, 0.040649980306625, 0.035035502165556, 0.028973663225770, -0.079274095594883, 0.006085892673582, -0.061892725527287, -0.070717930793762, -0.020724546164274, 0.080573044717312, 0.078027412295341, 0.007059383206069, 0.060631569474936, 0.045766670256853, 0.031080624088645, 0.041830096393824, -0.064290158450603, -0.050071641802788, 0.007090623024851, -0.056335423141718, -0.029237497597933, 0.023573976010084, -0.050509776920080, -0.062184166163206, -0.026159524917603, -0.003881421638653, 0.036556247621775, 0.044144567102194, -0.048065420240164, -0.019615642726421, -0.009383495897055, -0.054914169013500, 0.006620398256928, -0.032261241227388, -0.079884402453899, 0.064007364213467, -0.048250935971737, -0.071961075067520, -0.016125271096826, -0.020924003794789, 0.068657912313938, 0.034803897142410, 0.035760089755058, -0.076367139816284, -0.023352554067969, 0.007589741144329, 0.052359715104103, -0.007691733073443, 0.028200179338455, 0.048095960170031, 0.038438200950623, 0.006326888222247, -0.039959862828255, -0.042468283325434, -0.012824383564293, -0.064959704875946, 0.026799336075783, -0.025638543069363, 0.012431286275387, 0.041933681815863, 0.041285224258900, -0.066361695528030, -0.009435012936592, -0.030460570007563, 0.070563115179539, -0.052970692515373, -0.046184938400984, 0.041063703596592, 0.032071772962809, 0.036580756306648, 0.065763927996159, 0.049981385469437, 0.042858835309744, 0.046290721744299, -0.012266464531422, -0.015870289877057, -0.028249310329556, -0.041769724339247, 0.036481719464064, 0.031234983354807, -0.064557313919067, 0.037412039935589, 0.055724937468767, -0.042262688279152, -0.006654393393546, 0.026831982657313, -0.014199289493263, -0.075311265885830, -0.031872194260359, -0.079540729522705, -0.038030371069908, -0.055962484329939, -0.082355245947838, -0.065383814275265, -0.066057227551937, -0.055287960916758, -0.040497008711100, -0.047975819557905, 0.029120611026883, -0.007114348467439, -0.010691900737584, -0.037132143974304, 0.050172351300716, -0.073992580175400, -0.043810505419970, 0.025142321363091, 0.018863331526518, 0.067370675504208, 0.073396123945713, 0.080788560211658, -0.058639422059059, -0.060673706233501, -0.046212282031775, -0.059359662234783, 0.020080817863345, -0.038754742592573, 0.018101859837770, -0.005456975661218, -0.077415272593498, 0.083040729165077, -0.004129349719733, -0.046185098588467, -0.063456431031227, 0.027509849518538, 0.013614942319691, 0.000055680160585, -0.038952250033617, 0.048598933964968, -0.069226577877998, -0.062584392726421, -0.059569265693426, -0.064457826316357, 0.049480032175779, -0.055524371564388, -0.072940744459629, 0.011112023144960, -0.036523919552565, -0.071303114295006, -0.056205749511719, 0.041940771043301, -0.015091586858034, 0.063285686075687, -0.053681720048189, 0.002984842285514, 0.060451414436102, -0.067727111279964, -0.074994832277298, -0.062631234526634, 0.025733996182680, 0.028821805492043, -0.048934716731310, 0.047599505633116, -0.040814384818077, -0.069375373423100, -0.036839690059423, 0.033451527357101, -0.039712704718113, -0.045327696949244, -0.022154605016112, 0.044428098946810, -0.038332358002663, 0.016841672360897, -0.036330461502075, -0.032027173787355, 0.054451346397400, 0.024093780666590, -0.031938504427671, 0.023608982563019, -0.006516953930259, 0.045815538614988, 0.023444356396794, 0.046461388468742, 0.069972924888134, 0.023423705250025, 0.022432357072830, 0.034890279173851, -0.055903427302837, -0.013202505186200, 0.037645693868399, 0.070355929434299, 0.057917054742575, 0.009907240979373, 0.030245801433921, 0.082991339266300, -0.057993669062853, 0.005124071612954, 0.050838489085436, -0.002330591203645, -0.052692204713821, 0.045999698340893, 0.050511598587036, 0.067187763750553, 0.044170480221510, -0.067614972591400, -0.012917998246849, 0.040024243295193, -0.025446770712733, 0.049655299633741, 0.059478152543306, 0.004227097146213, -0.022706780582666, 0.064459830522537, -0.075125932693481, 0.066496759653091, -0.028688633814454, 0.026790006086230, -0.025464026257396, 0.026699764654040, -0.073183357715607, 0.005785218439996, -0.044717770069838, -0.011820927262306, -0.058997567743063, -0.018645465373993, -0.056374169886112, 0.017072154209018, -0.078051358461380, -0.023981384932995, 0.079777725040913, 0.039956767112017, -0.068765565752983, -0.014102957211435, 0.052248489111662, 0.048540789633989, -0.043928980827332, 0.062683433294296, 0.031260147690773, -0.062996655702591, -0.010174515657127, 0.081013321876526, -0.048754025250673, -0.066995330154896, 0.060467634350061, 0.035939134657383, 0.013972749002278, -0.006036698818207, -0.050630375742912, 0.025839146226645, 0.012612200342119, 0.007366767153144, -0.059731904417276, -0.023169141262770, 0.082458831369877, 0.008709287270904, -0.081978648900986, -0.024226916953921, 0.015372162684798, -0.016920058056712, 0.026186751201749, -0.032055031508207, 0.067228041589260, -0.065660797059536, 0.002769672777504, -0.022222954779863, 0.043462820351124, 0.076568141579628, -0.053844500333071, 0.054651010781527, -0.034939825534821, -0.038395803421736, 0.060975804924965, 0.026128344237804, 0.025443017482758, -0.035020250827074, 0.063294090330601, -0.000846402486786, -0.008143489249051, -0.040276661515236, -0.074006922543049, 0.003775937017053, 0.015798874199390, -0.079103328287601, 0.065133146941662, 0.082196548581123, -0.028394613415003, -0.027967581525445, -0.001717878505588, -0.006872236263007, -0.030331194400787, -0.074969351291656, 0.061476174741983, 0.027377830818295, -0.057134382426739, 0.045609809458256, 0.077553078532219, -0.062435552477837, -0.058071315288544, 0.031220648437738, -0.074008472263813, 0.063061982393265, 0.080146580934525, 0.042776785790920, 0.012059442698956, -0.032511994242668, 0.073733925819397, -0.062685824930668, 0.015929402783513, -0.015898765996099, -0.045493852347136, 0.007786412723362, -0.037392187863588, 0.052938904613256, 0.061142481863499, 0.039249017834663, 0.059091452509165, -0.013280883431435, 0.064016446471214, 0.031016483902931, 0.073803454637527, 0.075732439756393, 0.023544546216726, 0.065998710691929, -0.010013224557042, -0.040956687182188, 0.017026340588927, 0.056302275508642, -0.035110428929329, 0.002954794093966, -0.008797859773040, 0.003074778011069, 0.002645265543833, -0.066527657210827, -0.065536461770535, 0.009121128357947, -0.013951219618320, -0.015147706493735, -0.025506047531962, -0.077387712895870, -0.017039282247424, -0.065009452402592, 0.002442353637889, 0.075043857097626, 0.042461175471544, 0.083087019622326, 0.075109809637070, -0.064699359238148, -0.011912850663066, 0.049119781702757, -0.072012037038803, -0.073547877371311, -0.020556820556521, -0.015379408374429, -0.069577090442181, -0.080116219818592, 0.021421490237117, -0.001692842110060, 0.001590231899172, 0.010742934420705, 0.079743973910809, 0.016544632613659, -0.020024504512548, -0.038624469190836, -0.018263889476657, 0.025476692244411, 0.038886718451977, 0.012996197678149, 0.037037514150143, -0.012090980075300, -0.042223468422890, -0.049145631492138, -0.053412463515997, -0.013007673434913, 0.030036514624953, -0.025710944086313, -0.003346282988787, 0.007087942212820, -0.072822272777557, 0.022063991054893, -0.062677070498466, 0.059482175856829, 0.042121760547161, -0.046329509466887, -0.005424135364592, -0.050775997340679, -0.041977997869253, 0.012153965421021, -0.006574242841452, -0.072922721505165, 0.030238116160035, 0.026287194341421, -0.075853444635868, 0.037424750626087, 0.082392312586308, 0.076276421546936, 0.052625600248575, 0.054954871535301, 0.030686618760228, -0.008887236937881, -0.002168919891119, -0.059162750840187, 0.072618044912815, 0.030076527968049, 0.019221056252718, -0.052764564752579, 0.039797462522984, 0.020461069419980, 0.069976419210434, 0.034820295870304, 0.072466395795345, -0.010132098570466, -0.080305591225624, -0.012278595939279, -0.027066094800830, 0.022616667672992, -0.065603889524937, -0.061408322304487, 0.036846816539764, -0.022525792941451, -0.073567077517509, 0.009295965544879, 0.031060570850968, 0.043022010475397, 0.070377759635448, -0.048342302441597, 0.009357922710478, -0.036653578281403, 0.025817684829235, 0.021012531593442, 0.010066878981888, 0.036124434322119, 0.025833865627646, -0.002636388875544, -0.021452611312270, 0.027662836015224, -0.073519602417946, 0.030019380152225, 0.000188055506442, 0.049586877226830, -0.045513153076172, -0.041844751685858, 0.004897925071418, -0.082948967814445, -0.077543288469315, -0.038366910070181, -0.002362441271544, -0.052115436643362, 0.011643811129034, -0.075875446200371, 0.043448016047478, 0.035522788763046, 0.050129055976868, 0.009407109580934, -0.043134465813637, 0.067254669964314, 0.051317527890205, -0.066499076783657, 0.001459844876081, 0.022884158417583, -0.033623658120632, -0.042940888553858, -0.042477913200855, 0.043465204536915, 0.024448810145259, 0.008817995898426, -0.051727127283812, 0.059628207236528, 0.075590685009956, -0.076754793524742, 0.069645956158638, -0.031682450324297, 0.035639926791191, 0.042598672211170, 0.032682929188013, 0.037486374378204, -0.023913433775306, -0.079748272895813, -0.082975178956985, -0.080213882029057, -0.059343457221985, 0.021922858431935, -0.082536019384861, 0.018636947497725, -0.051078081130981, -0.032873392105103, -0.008225121535361, 0.041455134749413, 0.010942055843771, -0.048973679542542, -0.073665812611580, -0.025889012962580, 0.016556592658162, -0.079844519495964, 0.042209289968014, 0.054924041032791, 0.023967146873474, -0.006186492275447, -0.044487353414297, -0.022830935195088, -0.055268555879593, 0.055121488869190, 0.011485653929412, 0.056757815182209, -0.061887722462416, 0.001591460662894, 0.070691421627998, -0.005447131115943, 0.078545890748501, -0.017742669209838, 0.018842004239559, 0.019954660907388, -0.060762491077185, -0.021156327798963, 0.065393865108490, 0.045306663960218, 0.038139827549458, 0.063838005065918, 0.007792809512466, -0.032918747514486, 0.042744349688292, -0.077775090932846, -0.051570545881987, 0.036167342215776, -0.061405126005411, -0.011964993551373, 0.044287219643593, -0.035232480615377, 0.010772408917546, -0.006847453303635, -0.001522971899249, 0.082359716296196, 0.020012507215142, 0.076813757419586, -0.042180731892586, -0.067436151206493, -0.073219060897827, 0.007232053671032, -0.082718230783939, 0.053390704095364, 0.071906007826328, -0.067170724272728, -0.049030452966690, 0.041200250387192, 0.044690985232592, 0.019201932474971, -0.025595447048545, 0.045670233666897, 0.033046871423721, -0.033591508865356, -0.027912057936192, -0.004646936431527, 0.013831296004355, 0.046101689338684, -0.035178404301405, -0.013564504683018, 0.032488893717527, -0.050717238336802, -0.032924547791481, -0.021873112767935, 0.052756886929274, -0.048576433211565, 0.029226416721940, 0.058073736727238, -0.040024600923061, 0.061630830168724, -0.003274316433817, 0.019483817741275, -0.055311489850283, -0.039596755057573, -0.039980452507734, 0.028526591137052, -0.082000993192196, -0.032460577785969, 0.026348652318120, -0.048980310559273, 0.003864561906084, -0.031395833939314, -0.059879630804062, -0.061454057693481, 0.060598026961088, -0.020278844982386, 0.037191063165665, 0.061011537909508, -0.036490023136139, -0.068296708166599, 0.055325545370579, 0.057093519717455, 0.050779253244400, -0.014593458734453, -0.063088670372963, 0.009594673290849, -0.056606192141771, -0.073831237852573, -0.074005670845509, -0.067205138504505, 0.016441293060780, -0.045367892831564, 0.064276181161404, -0.063598893582821, 0.013353289104998, 0.038813345134258, -0.070216841995716, -0.022180341184139, -0.052446100860834, -0.040212996304035, 0.083166487514973, -0.006992778740823, -0.035983975976706, 0.019556164741516, -0.018778713420033, -0.019368182867765, 0.060785554349422, -0.046956431120634, 0.007576076313853, -0.038358587771654, -0.022480020299554, 0.081125155091286, -0.040793195366859, 0.006236237473786, 0.071440279483795, 0.015919931232929, 0.062747232615948, 0.038172297179699, 0.046702444553375, -0.077505730092525, 0.023297205567360, 0.015926267951727, -0.052128583192825, 0.080002695322037, -0.051197290420532, 0.011103541590273, -0.082606174051762, 0.032558616250753, 0.008352276869118, 0.058786936104298, -0.032630983740091, -0.015266036614776, 0.064285367727280, 0.057112496346235, 0.020894670858979, 0.051645651459694, -0.074839912354946, 0.067085683345795, 0.004720138851553, 0.023929852992296, 0.042034082114697, 0.016712753102183, -0.007568532600999, 0.019775496795774, -0.039889149367809, 0.006800493225455, 0.064784608781338, -0.046964634209871, 0.014767797663808, -0.004088898655027, -0.072032764554024, 0.019061753526330, 0.069906167685986, -0.059428431093693, 0.053358979523182, 0.029751807451248, -0.035754788666964, -0.017527021467686, -0.000483353214804, -0.034542281180620, 0.056418374180794, 0.053881183266640, -0.064542278647423, 0.040276460349560, 0.064315155148506, -0.056787516921759, -0.053549904376268, -0.052341368049383, -0.040514685213566, 0.014834342524409, 0.010990132577717, -0.017647899687290, 0.012548708356917, -0.023537693545222, 0.066962219774723, 0.072007432579994, 0.050865281373262, -0.037576489150524, 0.054740566760302, 0.020860079675913, -0.011961143463850, -0.024279698729515, 0.029855087399483, 0.010406038723886, 0.063072822988033, -0.020018383860588, 0.029029306024313, -0.075078316032887, 0.062044505029917, -0.027431804686785, -0.010123698040843, -0.030928768217564, -0.046932008117437, 0.040105883032084, 0.031364776194096, 0.026263378560543, 0.082962922751904, -0.050722081214190, -0.072209112346172, -0.076792441308498, 0.083166368305683, 0.023050788789988, -0.076933138072491, -0.045231800526381, 0.042131368070841, 0.066839985549450, 0.012907989323139, 0.038251865655184, 0.073754824697971, -0.026025161147118, 0.061538998037577, 0.025493336841464, 0.040877986699343, -0.049202188849449, -0.075614325702190, 0.004764284007251, -0.038897167891264, -0.080684706568718, -0.074777282774448, -0.012617085129023, 0.048760022968054, -0.024876080453396, -0.058062676340342, -0.037004493176937, -0.028655868023634, -0.077628001570702, -0.055201057344675, 0.018560668453574, -0.003344614990056, 0.060980305075645, -0.006778807844967, -0.080127879977226, -0.001058287918568, 0.071011103689671, -0.070022329688072, -0.074150376021862, -0.041998755186796, -0.007254394236952, 0.004908574279398, 0.076532393693924, -0.004267325159162, 0.021901009604335, -0.054649177938700, 0.015325597487390, -0.001634913031012, 0.042134165763855, 0.046637415885925, 0.036731276661158, 0.044436678290367, -0.049549333751202, -0.059758476912975, 0.035891354084015, -0.081279359757900, -0.007493527606130, 0.001146198133938, -0.055759593844414, -0.040293578058481, -0.028844164684415, -0.029043782502413, 0.065523199737072, 0.053944453597069, -0.010991123504937, -0.012868148274720, 0.027802279219031, -0.069198645651340, 0.028929496183991, 0.036022100597620, 0.080142334103584, 0.034363042563200, 0.074876382946968, -0.018241884186864, 0.016451122239232, 0.037970717996359, -0.029851356521249, 0.080381155014038, 0.068055130541325, 0.025360841304064, -0.067267648875713, -0.007824123837054, -0.049819938838482, 0.019604919478297, -0.072276309132576, 0.046482060104609, 0.065190292894840, -0.017099974676967, 0.021762080490589, 0.074717581272125, 0.028489988297224, -0.077438689768314, -0.029233368113637, -0.066205129027367, -0.071687750518322, 0.012673696503043, 0.019657978788018, 0.013173351064324, 0.055416755378246, 0.006234211847186, -0.003225465072319, 0.072210714221001, 0.036996804177761, 0.034988638013601, -0.033463481813669, -0.049453988671303, -0.048651080578566, -0.022537153214216, 0.023858839645982, -0.032637994736433, -0.064471565186977, 0.076522789895535, 0.039785966277122, -0.013701004907489, -0.071931965649128, 0.059673141688108, -0.076769590377808, -0.018763223662972, -0.027957314625382, 0.025275493040681, 0.072438247501850, 0.066103816032410, 0.016108842566609, -0.055022750049829, -0.006739823613316, 0.078891679644585, -0.026763055473566, -0.022657953202724, -0.013389369472861, -0.029539046809077, 0.059694811701775, -0.045947115868330, -0.029921438544989, -0.020735330879688, 0.066609963774681, 0.026908000931144, -0.052421353757381, 0.026782752946019, 0.036746229976416, -0.072340510785580, 0.048021875321865, 0.007182904519141, -0.018582792952657, -0.049803476780653, -0.082791991531849, -0.079274922609329, 0.048866737633944, 0.012763498350978, -0.020170060917735, 0.014068686403334, -0.057498585432768, -0.050069063901901, 0.043578695505857, 0.078073434531689, -0.006023853085935, -0.056658778339624, -0.065370485186577, 0.072181656956673, -0.065748371183872, -0.075845882296562, 0.069671742618084, 0.028994968160987, 0.067810028791428, -0.001357808010653, 0.029696008190513, -0.060472421348095, 0.076597139239311, 0.058308623731136, -0.036520071327686, -0.063106007874012, 0.078786216676235, -0.072283521294594, 0.006077626720071, 0.026248186826706, -0.050960280001163, 0.025740295648575, 0.029739199206233, 0.043299436569214, 0.058279193937778, -0.064632378518581, -0.024153854697943, -0.040717437863350, -0.022572243586183, 0.016118813306093, -0.034053850919008, 0.050639178603888, -0.044456593692303, 0.052758451551199, 0.072689354419708, 0.071156315505505, 0.080407932400703, 0.069500997662544, 0.049891337752342, 0.006202242337167, -0.079464815557003, 0.020728813484311, -0.004194048233330, -0.037744827568531, -0.068511977791786, -0.021344661712646, -0.029756078496575, -0.075191564857960, 0.073723368346691, -0.077251143753529, -0.040273562073708, -0.040478244423866, 0.052431341260672, -0.062676154077053, 0.071519590914249, -0.018758039921522, 0.036051195114851, 0.011290233582258, 0.049457766115665, 0.050037547945976, -0.015629265457392, 0.051374543458223, -0.009253502823412, -0.075860574841499, -0.011894144117832, -0.036943983286619, 0.004756100010127, 0.010746292769909, 0.064298398792744, -0.009574835188687, 0.045145064592361, 0.052138112485409, 0.043656498193741, 0.009715015068650, 0.068711034953594, 0.023468781262636, 0.071895077824593, -0.068310387432575, -0.035742297768593, -0.048847679048777, 0.053956933319569, 0.052119467407465, -0.079558774828911, -0.053959816694260, 0.059566322714090, -0.013320202939212, 0.055674880743027, 0.042259469628334, -0.074031583964825, -0.037936363369226, 0.020586965605617, -0.068496942520142, 0.044930849224329, -0.006278714165092, 0.030871396884322, -0.022206375375390, 0.062390975654125, 0.044159341603518, 0.037088394165039, -0.070836089551449, -0.043913528323174, 0.014161719940603, -0.015928033739328, 0.025146253407001, 0.018270658329129, -0.051988840103149, -0.073728926479816, 0.023435359820724, 0.009312825277448, -0.051819808781147, 0.054690226912498, -0.062463156878948, -0.049330275505781, -0.034620169550180, 0.033349413424730, 0.069541953504086, -0.016629928722978, -0.014456161297858, -0.041697084903717, -0.019870979711413, 0.030602179467678, -0.014806439168751, 0.028174443170428, 0.005494150333107, -0.037969645112753, 0.080745488405228, -0.058052789419889, 0.066265635192394, -0.045779094099998, 0.044765349477530, -0.082107968628407, 0.027722069993615, 0.072362512350082, -0.003374558640644, 0.076827190816402, 0.001860582618974, -0.006265034433454, -0.014960953965783, -0.047525372356176, 0.052325893193483, -0.003100097412243, 0.032059639692307, 0.083027727901936, 0.035683356225491, -0.034296754747629, 0.063960418105125, -0.067922420799732, -0.055364970117807, -0.023739075288177, 0.028283048421144, 0.060450565069914, 0.039013911038637, -0.058510959148407, -0.076932981610298, -0.023216981440783, 0.060121800750494, -0.033581875264645, -0.009692652150989, 0.077938973903656, -0.045710645616055, -0.042000040411949, 0.060972679406404, 0.037699963897467, -0.049938373267651, -0.066207140684128, -0.078066237270832, 0.037881236523390, 0.026537980884314, -0.003039390547201, -0.061002023518085, 0.052317135035992, 0.043698977679014, 0.024280235171318, -0.042947459965944, 0.077195748686790, 0.054627746343613, -0.035080503672361, -0.030661378055811, 0.069863453507423, -0.080713562667370, -0.030030915513635, -0.070601560175419, 0.011284232139587, -0.041339218616486, 0.011845724657178, -0.032339841127396, 0.064542897045612, 0.076044701039791, 0.078946962952614, -0.001230340101756, 0.064863108098507, -0.020424207672477, 0.079910829663277, -0.053602688014507, -0.012435739859939, -0.053721837699413, 0.022508077323437, 0.067871704697609, -0.041919060051441, 0.080184631049633, -0.046446353197098, -0.037309378385544, 0.030051371082664, 0.030216133221984, 0.050804708153009, 0.076336041092873, 0.027024611830711, 0.073743239045143, -0.076644815504551, -0.001621173578314, -0.043252304196358, 0.001703625195660, -0.017686787992716, 0.061999585479498, -0.049594726413488, 0.015417021699250, -0.057627744972706, -0.041723199188709, 0.001816400443204, 0.007572702597827, 0.057531513273716, -0.019705258309841, -0.010557537898421, 0.058929380029440, 0.057856153696775, 0.058666788041592, 0.051746454089880, 0.034664671868086, -0.003629501909018, -0.024859877303243, 0.070118553936481, 0.024044096469879, -0.058420363813639, 0.007537970319390, 0.017729658633471, -0.059745188802481, 0.063842490315437, -0.042786035686731, -0.063346572220325, -0.054312102496624, -0.028774641454220, 0.059452239423990, -0.012454267591238, 0.060083359479904, -0.031037254258990, 0.018237177282572, -0.004118790384382, 0.062085431069136, -0.080751031637192, -0.042441949248314, 0.039811618626118, -0.023403627797961, 0.056559685617685, -0.055957581847906, 0.007659756578505, 0.010529656894505, 0.077734202146530, 0.025941658765078, -0.080026261508465, -0.079772114753723, -0.049401704221964, -0.077326148748398, -0.012455339543521, -0.009963025338948, 0.010566891171038, -0.031067540869117, 0.066461339592934, -0.024460349231958, 0.001271089306101, -0.015565579757094, -0.053715541958809, -0.073411747813225, 0.001588243641891, -0.010134243406355, 0.006281774956733, 0.000972165027633, 0.078363806009293, -0.015266833826900, 0.049177806824446, 0.083109594881535, 0.007377274800092, -0.002193822059780, 0.062221664935350, -0.046593662351370, 0.069937475025654, -0.046815358102322, 0.071664638817310, -0.080063641071320, -0.061023868620396, -0.068889155983925, 0.047937773168087, -0.060348942875862, 0.009969354607165, -0.055821649730206, 0.008609081618488, -0.004302161745727, 0.006594126112759, 0.030222367495298, 0.081111960113049, -0.007638771086931, -0.020709794014692, -0.015657905489206, -0.000459106260678, -0.010282167233527, 0.034078273922205, -0.073606796562672, -0.046690512448549, -0.039646916091442, -0.000220546149649, -0.077070809900761, -0.082974977791309, 0.069393359124660, 0.047271724790335, 0.006341170985252, -0.069324232637882, -0.042804405093193, -0.039034146815538, -0.080619268119335, -0.062899082899094, 0.076482966542244, 0.037576884031296, -0.016164567321539, -0.079794898629189, -0.074674852192402, -0.050746686756611, 0.079279825091362, -0.066682204604149, -0.008469937369227, -0.036781247705221, 0.018899194896221, -0.029024576768279, 0.003654858563095, -0.025122523307800, -0.052853532135487, -0.074833653867245, -0.042579509317875, 0.005466612055898, 0.072652511298656, 0.030201716348529, 0.060892742127180, -0.014290364459157, -0.031206825748086, -0.041422385722399, -0.031207578256726, -0.001028537750244, 0.064133509993553, 0.017762208357453, 0.078622519969940, -0.010856349952519, 0.079608500003815, -0.077507257461548, 0.082475394010544, 0.027465146034956, -0.010487380437553, 0.073756508529186, 0.010005382820964, -0.012009853497148, 0.079938575625420, 0.047765944153070, -0.011904926970601, 0.039176572114229, -0.006405273452401, 0.023290891200304, -0.008673542179167, 0.055639073252678, -0.032970301806927, -0.073741294443607, 0.056210443377495, 0.013167914934456, -0.052757516503334, -0.022883282974362, 0.076497443020344, 0.081093966960907, 0.019829398021102, 0.076968856155872, -0.031276706606150, 0.054344095289707, 0.038739606738091, 0.076688766479492, -0.006754181347787, -0.056083742529154, 0.015051687136292, 0.049334920942783, 0.010886711068451, 0.016553256660700, -0.026831844821572, -0.064764097332954, 0.042013708502054, 0.079858027398586, -0.048966929316521, 0.035223782062531, 0.004705200437456, 0.008031249977648, 0.062724478542805, -0.051713585853577, -0.040505904704332, 0.015334473922849, 0.057503156363964, -0.064477801322937, 0.035443373024464, 0.065701223909855, 0.068717114627361, -0.081161029636860, 0.002789176069200, -0.076846078038216, 0.056106097996235, 0.000989203457721, 0.033092670142651, -0.008368146605790, -0.010757708922029, 0.028718339279294, -0.025449054315686, -0.056887108832598, 0.045749943703413, -0.016604825854301, -0.040391780436039, -0.029606426134706, -0.012896886095405, 0.042444359511137, 0.083087794482708, 0.080065287649632, 0.078057169914246, 0.043593112379313, -0.011629631742835, -0.046023491770029, 0.024593718349934, 0.044112708419561, 0.016535600647330, 0.030276959761977, 0.016741467639804, -0.038749959319830, -0.065914131700993, 0.033805124461651, -0.056934747844934, -0.004320726729929, 0.079611331224442, 0.031698916107416, 0.015072999522090, 0.042237054556608, -0.068226791918278, 0.019721426069736, 0.078420937061310, -0.063932649791241, -0.071808323264122, 0.017378523945808, -0.017829110845923, 0.003504230873659, -0.067913405597210, 0.037098877131939, -0.004496033303440, 0.038177873939276, -0.074132323265076, 0.020022554323077, 0.009076967835426, -0.055444639176130, -0.034941714257002, 0.047619938850403, -0.068083569407463, 0.034170594066381, 0.061963737010956, 0.029681010171771, -0.028819281607866, -0.030169069766998, -0.008739274926484, 0.037248030304909, -0.054503139108419, -0.034608907997608, -0.029032761231065, 0.014413580298424, 0.078956067562103, -0.030851701274514, -0.076477207243443, 0.030711974948645, 0.046754214912653, 0.061803344637156, -0.038791041821241, 0.066459894180298, 0.074723362922668, 0.072855569422245, 0.077389188110828, -0.051997996866703, -0.073228552937508, -0.026725385338068, 0.068708725273609, -0.078208155930042, -0.037817016243935, 0.015442579984665, 0.029529392719269, -0.036723755300045, 0.060143724083900, -0.051338560879230, -0.071697205305099, -0.031571760773659, -0.069972351193428, 0.068187087774277, -0.072929166257381, 0.021601309999824, 0.049381211400032, 0.061698626726866, -0.017451683059335, 0.041468538343906, -0.028460443019867, 0.040833543986082, 0.068232707679272, -0.040706433355808, 0.054863691329956, -0.007371413987130, -0.061925534158945, -0.041117601096630, 0.049513809382915, -0.028933309018612, -0.082204125821590, 0.058923378586769, 0.042753744870424, -0.052567277103662, -0.046784676611423, -0.027979554608464, -0.066929563879967, -0.077470645308495, -0.068499103188515, -0.018782526254654, -0.064562045037746, -0.016250951215625, 0.030440052971244, 0.058322578668594, -0.011133329011500, -0.078997485339642, -0.052908498793840, 0.036540661007166, 0.028412802144885, -0.082786090672016, 0.056838613003492, 0.055402860045433, 0.026145718991756, -0.021776817739010, 0.028030354529619, 0.073072396218777, 0.068403005599976, -0.055520199239254, -0.038280926644802, -0.074291706085205, 0.060438826680183, 0.011410411447287, -0.042652368545532, -0.071559444069862, -0.058462448418140, -0.071501955389977, 0.000219652531086, -0.055491901934147, -0.050897352397442, -0.021361900493503, 0.075017124414444, 0.061401378363371, 0.027318650856614, -0.028403710573912, -0.004524733405560, -0.015968425199389, -0.048173390328884, -0.054823532700539, -0.057184364646673, -0.082528330385685, -0.044472303241491, -0.026592135429382, -0.027200454846025, 0.001799436518922, -0.074438996613026, 0.024767141789198, -0.013844744302332, 0.037737138569355, -0.071748375892639, -0.070737093687057, 0.003349380800501, 0.004759950097650, 0.004801912698895, 0.055394325405359, 0.048434343189001, 0.006886459887028, -0.046660505235195, -0.082088388502598, -0.013392310589552, -0.078894361853600, 0.004323265980929, -0.007233796175569, -0.021455373615026, 0.044711139053106, 0.063070669770241, -0.028646139428020, -0.034077025949955, -0.040276147425175, 0.039025850594044, -0.066218316555023, 0.066793620586395, 0.012043714523315, 0.071979090571404, 0.038358207792044, 0.076211407780647, -0.061166945844889, -0.012448882684112, -0.033188365399837, 0.020097939297557, 0.063306823372841, -0.023770334199071, 0.036114141345024, 0.082777865231037, 0.037116773426533, 0.053747884929180, -0.011004311963916, -0.038507644087076, 0.050344254821539, 0.073966257274151, 0.072545185685158, -0.033952947705984, -0.069354698061943, 0.035258274525404, 0.055433839559555, 0.069753475487232, 0.053490672260523, -0.064409784972668, -0.015029212459922, 0.074050925672054, 0.017314184457064, -0.056363184005022, -0.054102003574371, -0.008946618065238, -0.016867052763700, -0.065105244517326, -0.017798207700253, 0.040428373962641, 0.044333714991808, -0.058129124343395, 0.053670972585678, 0.083146162331104, 0.047766838222742, 0.026579661294818, 0.018227905035019, -0.026676533743739, -0.034404546022415, 0.068614408373833, -0.073545232415199, 0.003155822167173, -0.076124347746372, -0.036429971456528, 0.051586449146271, 0.054308231920004, 0.066001899540424, -0.080373525619507, 0.002666295506060, -0.021944282576442, 0.028026280924678, 0.082933582365513, 0.059501431882381, -0.040730681270361, 0.020255751907825, -0.022450948134065, -0.011651733890176, 0.052803028374910, -0.013642130419612, 0.064287126064301, 0.067928656935692, -0.008228777907789, 0.070050455629826, -0.020737616345286, 0.078022308647633, -0.081179156899452, 0.016060706228018, 0.030729869380593, 0.048014577478170, -0.037262808531523, 0.051489163190126, 0.046126935631037, -0.057074431329966, -0.012306320481002, 0.024126071482897, -0.028433576226234, -0.024665506556630, 0.007783694658428, -0.034604936838150, -0.029666854068637, -0.052370797842741, 0.070128753781319, 0.011233973316848, 0.054950911551714, 0.029825121164322, -0.017975248396397, 0.005116765853018, -0.034598622471094, -0.010852812789381, 0.015653474256396, -0.056465141475201, 0.053558424115181, 0.067187137901783, -0.039676722139120, -0.081162355840206, -0.021549919620156, -0.077102825045586, 0.020632943138480, -0.026179401203990, 0.073331989347935, -0.054427798837423, 0.082047194242477, -0.001463814056478, -0.004916199948639, -0.066629484295845, 0.000148080769577, -0.075106173753738, -0.002235524589196, -0.008342209272087, 0.059224989265203, 0.063287712633610, 0.067151084542274, -0.002218746813014, -0.013280391693115, 0.078955531120300, 0.042155317962170, -0.059315081685781, 0.027271704748273, -0.036197450011969, 0.039333611726761, 0.008138604462147, -0.017370816320181, -0.055352043360472, -0.038269206881523, -0.057225771248341, -0.010048455558717, -0.078566543757915, 0.034535013139248, -0.028250025585294, 0.026243241503835, 0.006749117281288, 0.064743675291538, 0.030865142121911, 0.015229264274240, -0.010896623134613, -0.057176440954208, -0.011017038486898, 0.044548157602549, -0.066711619496346, 0.013299709185958, -0.063338078558445, 0.064661823213100, -0.051000040024519, 0.057815924286842, 0.029566908255219, -0.044446267187595, 0.053558319807053, -0.039287120103836, 0.034089952707291, -0.076951742172241, -0.046214427798986, -0.008114513941109, -0.040880057960749, -0.010123817250133, -0.028994752094150, 0.028327096253633, 0.009987882338464, 0.055915426462889, -0.016316564753652, 0.058128185570240, 0.011645538732409, 0.033151723444462, -0.006226169411093, 0.037452992051840, 0.075479634106159, 0.082650303840637, -0.032138757407665, 0.053336862474680, 0.053663853555918, -0.024530230090022, 0.051746036857367, 0.033969983458519, 0.063548594713211, 0.049679130315781, -0.026806604117155, 0.019298525527120, 0.052585013210773, -0.045286867767572, 0.044459152966738, -0.017854491248727, 0.012585510499775, 0.015262663364410, -0.028466103598475, 0.046763371676207, -0.079110935330391, 0.038296867161989, -0.062523998320103, 0.060494769364595, -0.001690317643806, -0.030977541580796, 0.043656304478645, 0.051774527877569, -0.000399471813580, -0.001908004283905, 0.015261569060385, 0.076250307261944, 0.051068849861622, 0.003991433884948, -0.015361937694252, -0.053648933768272, 0.004843697417527, -0.016578255221248, -0.000779023277573, -0.072884127497673, -0.021547656506300, 0.017405273392797, 0.077570505440235, -0.014073370955884, 0.070532925426960, -0.065124742686749, -0.045438248664141, 0.067696906626225, -0.005584607366472, 0.068422935903072, -0.073656775057316, -0.053396973758936, -0.007855340838432, -0.013494898565114, 0.056612841784954, -0.016861198469996, 0.078204020857811, -0.029002973809838, -0.055577512830496, 0.005346330348402, -0.052162978798151, -0.004940148908645, 0.016099609434605, -0.019873006269336, 0.016192054376006, 0.048867318779230, 0.030050478875637, -0.008462587371469, -0.050500165671110, -0.037839177995920, -0.066994912922382, 0.045262847095728, -0.007431807927787, 0.028347069397569, -0.036567728966475, 0.029793629422784, 0.076560027897358, 0.034716859459877, 0.037845730781555, 0.045426558703184, -0.039750535041094, -0.080691292881966, -0.010635841637850, 0.020526757463813, 0.024283869192004, 0.040164519101381, -0.010180830955505, 0.028264960274100, -0.054306481033564, 0.000981518300250, -0.004643443971872, 0.054263133555651, 0.079748503863811, 0.037533715367317, 0.052417922765017, -0.036692459136248, 0.060915097594261, 0.002370387082919, -0.046595826745033, -0.054268393665552, 0.009967492893338, 0.038249723613262, -0.013216959312558, -0.052704058587551, -0.006456962320954, 0.040036670863628, -0.029991179704666, 0.000301069027046, -0.064514003694057, 0.039925489574671, 0.027829624712467, 0.007442412432283, -0.036510556936264, 0.003390502417460, 0.020651485770941, 0.038251709192991, -0.031705647706985, 0.032248888164759, -0.068375803530216, -0.003429270815104, 0.031061165034771, 0.038185261189938, 0.039989545941353, -0.068192429840565, 0.075635842978954, 0.065616302192211, -0.059960238635540, -0.029795676469803, 0.041569732129574, -0.074563294649124, 0.025617407634854, 0.011835657060146, 0.041264232248068, 0.039378568530083, 0.005591838620603, -0.079246006906033, -0.005212026182562, 0.064694918692112, 0.000350181071553, 0.035323701798916, -0.015427544713020, 0.046219572424889, -0.017051242291927, -0.081976011395454, -0.046757869422436, -0.040891394019127, 0.050869137048721, -0.051748514175415, -0.025503147393465, -0.074484489858150, -0.076547905802727, -0.029951024800539, 0.070128157734871, -0.067360647022724, 0.026395039632916, -0.081961572170258, -0.064341731369495, 0.024224391207099, -0.006585845258087, -0.057417958974838, 0.039107766002417, -0.062741629779339, -0.043081764131784, -0.046930219978094, 0.009974441491067, 0.059531517326832, -0.003878882387653, 0.068148024380207, -0.011142369359732, -0.052798047661781, -0.063594184815884, -0.061946403235197, -0.075276419520378, -0.077856056392193, -0.066332489252090, -0.078442424535751, -0.081790693104267, -0.017733985558152, -0.017647802829742, 0.058412030339241, -0.048864416778088, 0.047016132622957, -0.015576004981995, -0.046867806464434, -0.061026550829411, -0.058881830424070, -0.078351274132729, 0.030499553307891, -0.017846567556262, -0.023266032338142, -0.032433353364468, -0.024172483012080, -0.018118243664503, -0.053782045841217, -0.080922469496727, 0.069342024624348, -0.080113880336285, 0.005948453675956, 0.005006768740714, -0.036569315940142, 0.074860207736492, -0.041778862476349, 0.049371484667063, -0.033587891608477, 0.073140546679497, -0.046764422208071, 0.019819879904389, -0.001194595242850, -0.042660191655159, 0.029511444270611, -0.079357556998730, -0.025870503857732, 0.071496516466141, -0.083021707832813, 0.081261344254017, -0.079791359603405, 0.051916047930717, 0.001875498681329, 0.081492602825165, 0.000021111842216, 0.061158850789070, 0.027859710156918, 0.018485365435481, -0.073526449501514, 0.008863034658134, 0.031765855848789, 0.043250124901533, 0.052326995879412, -0.073255695402622, 0.045890912413597, -0.053107954561710, -0.049854893237352, 0.021522052586079, -0.021051337942481, -0.070461325347424, -0.073268726468086, -0.038260072469711, 0.075897149741650, -0.037318710237741, -0.020861987024546, 0.013233401812613, -0.037032391875982, -0.069760486483574, 0.004696346353740, -0.042275853455067, 0.035384967923164, -0.076284684240818, -0.037764865905046, 0.027557628229260, -0.024045033380389, -0.075227230787277, -0.001509530236945, 0.026569139212370, 0.046603474766016, -0.066317096352577, -0.000000811707537, -0.052781604230404, 0.018345879390836, 0.050836402922869, 0.078137449920177, -0.064906060695648, 0.034262496978045, -0.021748244762421, 0.017108255997300, -0.007585347630084, 0.017465839162469, 0.041585735976696, -0.037487506866455, 0.054594431072474, -0.080818906426430, 0.056948903948069, -0.022862808778882, 0.055340707302094, 0.061965525150299, 0.047681555151939, -0.082545027136803, 0.031390354037285, 0.057931039482355, 0.003844105405733, -0.063907906413078, -0.063866220414639, 0.077245034277439, 0.054710198193789, -0.052523206919432, -0.064425416290760, 0.059185255318880, -0.029503123834729, 0.082144111394882, -0.015176696702838, 0.068991392850876, -0.069592364132404, 0.064106523990631, -0.019851798191667, -0.044663775712252, 0.055868573486805, -0.071765415370464, -0.038569603115320, -0.079353347420692, -0.075738899409771, 0.018756728619337, -0.054674498736858, -0.072203963994980, 0.069293573498726, -0.007447654847056, 0.009671003557742, 0.043731413781643, 0.037435393780470, -0.038746979087591, 0.072463892400265, -0.027781272307038, 0.035032618790865, 0.043531212955713, 0.047644305974245, -0.011214409954846, 0.015927877277136, 0.059538368135691, 0.064777009189129, -0.071697100996971, 0.034937180578709, 0.058379624038935, -0.014110128395259, 0.049468591809273, -0.053756508976221, -0.038112662732601, -0.028414929285645, 0.039735563099384, 0.033565290272236, 0.029586941003799, -0.067632727324963, 0.053558126091957, -0.034138742834330, 0.062827557325363, 0.018721304833889, 0.055395934730768, -0.008619388565421, -0.034924417734146, -0.007842316292226, -0.073220834136009, 0.078052669763565, 0.003106494201347, 0.056694280356169, 0.062324326485395, 0.025225963443518, -0.056266635656357, 0.026338487863541, 0.045302372425795, -0.082901306450367, 0.009773993864655, 0.013517417944968, -0.082249380648136, 0.066423736512661, 0.073725096881390, 0.007509270217270, -0.024919116869569, -0.005734296981245, 0.029458913952112, -0.061502970755100, -0.077812984585762, -0.063093595206738, 0.079990938305855, 0.036737937480211, 0.021608935669065, -0.018005706369877, -0.052347898483276, -0.071576543152332, 0.046564616262913, -0.064574554562569, 0.050416368991137, -0.034270226955414, -0.081020504236221, 0.008810921572149, 0.057206057012081, -0.020172920078039, -0.066800482571125, -0.054642684757710, 0.033400610089302, 0.076483711600304, -0.064951039850712, -0.022344112396240, -0.053964186459780, 0.050406955182552, 0.020902102813125, 0.057312399148941, -0.059574309736490, -0.004520756658167, -0.069404803216457, -0.002061945619062, 0.019698452204466, -0.031859427690506, 0.017840370535851, 0.055441286414862, -0.082157298922539, -0.076041281223297, -0.063301652669907, -0.039504352957010, 0.081655837595463, 0.048754125833511, -0.074578024446964, 0.068928904831409, 0.053713258355856, 0.079623036086559, -0.030698414891958, -0.030325714498758, -0.003620900679380, 0.021131524816155, 0.072104141116142, 0.036160096526146, -0.010684275999665, 0.021147491410375, -0.017481015995145, 0.024795535951853, 0.005216576159000, -0.053328122943640, 0.052828229963779, -0.068757876753807, 0.058605246245861, 0.004440553952008, 0.009679247625172, -0.028122575953603, -0.057170286774635, 0.029809512197971, 0.029972435906529, -0.073707021772861, 0.080172240734100, -0.067325718700886, 0.075057022273540, 0.055993322283030, 0.045817308127880, 0.036038406193256, -0.061132729053497, -0.076950110495090, 0.032567590475082, 0.079985700547695, -0.081748932600021, -0.020273661240935, -0.015736425295472, 0.044802006334066, 0.027255121618509, 0.024186702445149, 0.013160742819309, 0.047337658703327, 0.016862725839019, 0.007632947992533, 0.049498811364174, -0.011285028420389, -0.038785204291344, -0.001746102119796, 0.044022094458342, 0.022015735507011, -0.069839991629124, 0.075702920556068, 0.076803088188171, 0.039857514202595, -0.075300686061382, -0.000297777529340, -0.069942526519299, -0.049190651625395, 0.079302348196507, 0.009145315736532, -0.034177049994469, -0.071116127073765, 0.027001474052668, 0.022763518616557, 0.004461524542421, 0.020883947610855, -0.010193617083132, -0.020325893536210, -0.066696904599667, -0.008051818236709, 0.050091285258532, 0.030468374490738, -0.082453459501266, -0.069802425801754, 0.073672205209732, -0.047366961836815, 0.065681561827660, 0.011758529581130, 0.070035651326180, -0.018304817378521, -0.012642479501665, -0.061088405549526, 0.001200292026624, 0.030415590852499, 0.077596522867680, -0.015556702390313, -0.023023124784231, -0.022087244316936, 0.013496447354555, 0.038754843175411, 0.002537293592468, 0.030057806521654, -0.007800077553838, 0.017478492110968, 0.055090583860874, -0.006664699874818, -0.056971248239279, -0.056749466806650, -0.032324172556400, -0.058384720236063, -0.070724464952946, -0.006385986227542, -0.054044689983130, -0.036351092159748, -0.015937371179461, 0.062487725168467, -0.038549326360226, -0.080429092049599, -0.046788133680820, 0.047847114503384, 0.016433048993349, -0.021759184077382, -0.044265612959862, -0.027437424287200, -0.004812063183635, -0.045068267732859, -0.053454563021660, 0.031745858490467, -0.022058807313442, -0.047744471579790, 0.076533302664757, 0.051002170890570, 0.009714992716908, 0.002514454070479, 0.011754917912185, 0.065023429691792, -0.025703694671392, -0.047827597707510, -0.000408303778386, 0.025017295032740, 0.076273322105408, -0.022584276273847, 0.038486994802952, -0.034648764878511, 0.070825524628162, -0.006696966942400, 0.075316727161407, -0.024734433740377, 0.066448040306568, 0.050490450114012, 0.022204646840692, 0.013190433382988, 0.079300053417683, 0.051066212356091, 0.030472423881292, -0.083168759942055, -0.022200774401426, -0.060991637408733, -0.037769295275211, -0.062928557395935, 0.025383740663528, -0.014469997957349, 0.018801804631948, -0.009406550787389, 0.023586142808199, -0.001491695060395, 0.014692330732942, 0.018225045874715, 0.075870595872402, 0.025706471875310, 0.036632623523474, -0.042641762644053, -0.008664412423968, -0.014487333595753, 0.027506608515978, -0.037049155682325, 0.039594803005457, 0.055417217314243, 0.027553994208574, -0.036788076162338, -0.033798828721046, -0.059199724346399, 0.042062215507030, 0.015004384331405, -0.036159403622150, -0.015652127563953, 0.002727218205109, 0.014227848500013, 0.027370100840926, 0.051322385668755, -0.028155598789454, -0.066203147172928, -0.056173123419285, 0.043544303625822, -0.023157546296716, 0.082047492265701, -0.067616902291775, -0.006056701298803, 0.067581675946712, 0.002370662754402, 0.003777381498367, 0.023475751280785, -0.014462297782302, -0.009662127122283, -0.024705577641726, 0.047705013304949, -0.031250692903996, -0.007578436750919, 0.020113151520491, -0.028511600568891, -0.011005763895810, -0.082826241850853, 0.027155498042703, -0.049092650413513, 0.032090216875076, 0.066706910729408, -0.037241302430630, -0.025658298283815, 0.079545140266418, -0.048402670770884, -0.033799502998590, 0.020788626745343, -0.015813946723938, -0.063982732594013, -0.034153077751398, 0.062640711665154, -0.000716209062375, -0.037684720009565, 0.075053915381432, 0.069314025342464, -0.041582759469748, 0.052062377333641, 0.058058634400368, 0.041430469602346, 0.072965696454048, -0.054219324141741, 0.054435886442661, -0.012329889461398, 0.023259419947863, -0.020670989528298, 0.045873846858740, 0.043239280581474, 0.080509632825851, 0.046933520585299, 0.002622009022161, -0.078920416533947, -0.029592027887702, 0.081127241253853, -0.003637522226200, -0.044759847223759, -0.079392232000828, 0.063422471284866, 0.059918440878391, 0.004309467040002, 0.056429855525494, 0.033548373728991, 0.082268938422203, 0.052581992000341, 0.028102871030569, 0.060021102428436, 0.002722787437961, 0.027251904830337, -0.079938136041164, 0.050397142767906, 0.005562527570873, -0.083282969892025, 0.013256636448205, -0.006827123463154, -0.034236125648022, -0.045452386140823, -0.064835764467716, -0.032641984522343, 0.019349401816726, -0.018549565225840, -0.075041517615318, 0.018607947975397, 0.032670475542545, 0.010670133866370, 0.066509418189526, 0.062675476074219, -0.080556854605675, -0.060384012758732, -0.077372841536999, 0.075842924416065, -0.039308175444603, 0.029807986691594, 0.029988177120686, -0.070910856127739, -0.067368507385254, -0.055604897439480, -0.078556790947914, 0.013136355206370, -0.067330226302147, -0.050294473767281, -0.061993408948183, -0.070420235395432, -0.050314966589212, 0.009022256359458, -0.064167335629463, 0.050110392272472, 0.036948725581169, -0.062330882996321, -0.048453986644745, 0.013911230489612, -0.022358588874340, -0.076135426759720, 0.025623984634876, -0.016906036064029, -0.009455581195652, -0.050836842507124, -0.039717491716146, 0.064224690198898, 0.011116706766188, -0.046053241938353, -0.075554452836514, 0.044017627835274, -0.067210637032986, 0.059342205524445, -0.007113857194781, 0.005659470800310, -0.076779335737228, 0.076210319995880, 0.073535352945328, 0.056370042264462, -0.055546574294567, 0.053460348397493, -0.016214692965150, 0.078675948083401, -0.044605966657400, -0.076925195753574, 0.036961439996958, 0.057116277515888, 0.027690419927239, 0.010963823646307, 0.025741368532181, 0.036290127784014, -0.065690271556377, 0.023528162389994, -0.017374495044351, 0.081516593694687, -0.041374586522579, -0.080068103969097, 0.005073417909443, -0.078940950334072, 0.025944162160158, 0.012264893390238, 0.004577159415931, 0.056099709123373, -0.047410376369953, 0.041076771914959, -0.045660678297281, 0.033808678388596, -0.035988919436932, 0.021381575614214, -0.047438774257898, -0.013569508679211, 0.006282228976488, 0.050474125891924, -0.009914151392877, 0.071349099278450, 0.043085280805826, 0.051647275686264, 0.011635127477348, 0.046470921486616, 0.067499592900276, -0.002151509048417, 0.016491096466780, -0.010116310790181, -0.071263797581196, -0.050875149667263, 0.081366226077080, -0.032261099666357, -0.074817217886448, 0.018831413239241, -0.013551576994359, 0.040217600762844, 0.027198368683457, -0.036222949624062, 0.004770003259182, 0.080893918871880, -0.009257256053388, -0.056023154407740, 0.014415985904634, -0.060884226113558, 0.033984042704105, -0.011975917965174, -0.043236102908850, 0.031629882752895, 0.073684498667717, -0.040071863681078, -0.067303001880646, -0.053511537611485, -0.066234260797501, -0.027884194627404, 0.047642681747675, -0.040177568793297, -0.054330013692379, -0.078816734254360, -0.004442296456546, -0.030312148854136, -0.073424339294434, -0.053551353514194, 0.011512746103108, 0.038211043924093, -0.004585678689182, 0.078559905290604, -0.000393112190068, -0.066179953515530, -0.040243022143841, -0.029321221634746, -0.045531008392572, -0.069507509469986, -0.040728498250246, 0.038666911423206, -0.044211104512215, -0.009235496632755, -0.042315155267715, 0.074675045907497, -0.069182254374027, -0.000484261749079, -0.004696264397353, -0.077691748738289, 0.013563767075539, -0.055837180465460, 0.001719889114611, -0.073776639997959, -0.081189639866352, -0.043927848339081, 0.073696039617062, 0.056793618947268, -0.028819639235735, -0.022982832044363, -0.036439467221498, -0.078726097941399, -0.068509452044964, 0.054409105330706, -0.009947312064469, 0.055927716195583, 0.011449634097517, 0.075706690549850, -0.030240261927247, -0.056859169155359, 0.079428076744080, 0.029692851006985, 0.063782051205635, -0.076046407222748, -0.023922346532345, -0.062790535390377, -0.011160397902131, 0.024916389957070, 0.079961359500885, 0.049028005450964, 0.065686598420143, 0.054437585175037, 0.032579470425844, -0.055952653288841, 0.041862446814775, 0.045978043228388, -0.042338468134403, 0.058827925473452, 0.013888889923692, -0.075774960219860, -0.035470400005579, -0.038298081606627, 0.004972497932613, 0.029009660705924, 0.025572964921594, 0.050687808543444, 0.063355468213558, -0.041752193123102, -0.011967615224421, 0.000344007625245, 0.001956877997145, 0.047538977116346, 0.004088742192835, 0.055353697389364, -0.075790069997311, 0.083018489181995, 0.000630518014077, 0.077774994075298, -0.005798756610602, -0.071121484041214, 0.062236215919256, -0.031735096126795, 0.035705979913473, 0.079404488205910, -0.008093923330307, -0.050208784639835, -0.068115875124931, 0.064898319542408, 0.004736537113786, 0.041790898889303, -0.036843083798885, -0.078391768038273, -0.050368208438158, 0.038703408092260, 0.050095379352570, 0.011605459265411, 0.071574471890926, 0.053653668612242, -0.037564754486084, -0.053479902446270, -0.006684143561870, -0.013918476179242, -0.051156662404537, 0.062533497810364, 0.028364628553391, 0.024409765377641, 0.048026613891125, 0.047957669943571, 0.011709916405380, 0.054958388209343, -0.068665273487568, 0.041186273097992, -0.051106203347445, 0.000912984833121, 0.030963180586696, 0.050377644598484, -0.075800262391567, -0.063158936798573, 0.078530669212341, -0.063777513802052, -0.054983232170343, -0.082241371273994, -0.002289320575073, 0.039416138082743, -0.068017147481441, -0.019699597731233, 0.058751460164785, -0.005178388673812, 0.014078352600336, -0.044337701052427, -0.061269175261259, 0.020889472216368, 0.053682770580053, -0.063013166189194, -0.060185946524143, -0.051029827445745, -0.015708008781075, 0.030956471338868, 0.027995696291327, 0.054579537361860, 0.011898314580321, -0.005082651972771, 0.040088009089231, -0.063720881938934, 0.001046171877533, 0.015148004516959, -0.013104206882417, -0.047676496207714, 0.072185501456261, -0.081924438476562, 0.060003947466612, -0.033255822956562, -0.070583947002888, 0.073325589299202, -0.075569942593575, 0.074492312967777, -0.033020857721567, -0.072469010949135, -0.048497039824724, 0.042380165308714, 0.057046946138144, -0.035309407860041, -0.066562503576279, -0.012444534339011, -0.047838103026152, -0.051932346075773, -0.016094053164124, -0.030582817271352, -0.067152254283428, 0.069242700934410, -0.077222846448421, -0.080821707844734, -0.039531659334898, 0.080762870609760, -0.065393567085266, -0.047974590212107, -0.080109603703022, 0.074381850659847, 0.015483925119042, -0.068211875855923, -0.038811635226011, -0.018044751137495, -0.082853466272354, -0.026310903951526, -0.058814551681280, -0.023859256878495, -0.075906082987785, 0.041834432631731, -0.064963698387146, -0.072590805590153, -0.043452739715576, -0.002581081120297, -0.005095520056784, -0.062654100358486, 0.024088896811008, -0.082701116800308, -0.063234575092793, 0.052192192524672, 0.067762069404125, -0.074367806315422, 0.074855886399746, 0.040662109851837, -0.050699979066849, 0.018768860027194, -0.054832648485899, -0.081470653414726, -0.014771029353142, 0.081935718655586, 0.069743737578392, 0.062466725707054, 0.033177442848682, -0.031273569911718, 0.008188185282052, 0.077199503779411, 0.060613859444857, 0.030977739021182, -0.053493522107601, 0.043132714927197, 0.068312659859657, -0.041111424565315, 0.039962857961655, 0.031464047729969, -0.045915819704533, 0.033262219280005, 0.072620697319508, 0.038144417107105, 0.049022674560547, -0.081630393862724, 0.034970708191395, 0.077200308442116, -0.083283305168152, 0.002987776417285, 0.057738687843084, 0.043418139219284, 0.010864631272852, 0.068827711045742, 0.074806913733482, 0.043737459927797, -0.040176693350077, -0.074699655175209, 0.048007607460022, -0.003990525379777, 0.026709675788879, 0.003122773021460, -0.060671541839838, 0.035568516701460, -0.067145541310310, -0.050650473684072, -0.081075936555862, -0.025595208629966, -0.036123797297478, -0.057583555579185, 0.031089941039681, 0.005910861771554, -0.049070686101913, 0.079610496759415, 0.028084089979529, 0.030261686071754, 0.041486825793982, -0.047071829438210, -0.047820232808590, -0.036619756370783, 0.022423302754760, 0.030634982511401, 0.009729849174619, 0.037465941160917, -0.016503704711795, -0.032933961600065, 0.065769307315350, 0.009396900422871, 0.069998271763325, 0.014087467454374, -0.042763397097588, 0.037458330392838, -0.081021040678024, 0.024825599044561, 0.042602978646755, -0.003891884582117, -0.014419262297451, -0.049910355359316, 0.045874413102865, -0.015672441571951, 0.082943975925446, 0.004151571542025, 0.059515923261642, 0.034612342715263, -0.022296927869320, 0.024321043863893, 0.043963130563498, 0.047400705516338, -0.012893430888653, 0.061297614127398, 0.062159541994333, 0.044137060642242, -0.056589491665363, 0.028614679351449, 0.030179219320416, -0.014091459102929, -0.018632777035236, 0.005121807567775, -0.003970284946263, 0.029934188351035, -0.063728272914886, 0.008592147380114, -0.022717446088791, -0.014660718850791, -0.079440720379353, 0.065500937402248, 0.026329945772886, -0.064597882330418, -0.051718726754189, 0.010401213541627, -0.011037614196539, 0.072353355586529, 0.047419186681509, -0.057988528162241, 0.055628813803196, -0.029427105560899, 0.044385544955730, 0.080735005438328, -0.081509009003639, -0.032986208796501, -0.001153630088083, 0.040507871657610, -0.010328590869904, -0.014452825300395, -0.020987372845411, -0.065714396536350, -0.073051415383816, 0.033567436039448, 0.047272812575102, 0.001518124016002, 0.018462192267179, -0.006347165908664, -0.020642213523388, -0.028852010145783, -0.006640847306699, -0.007069056853652, 0.073418758809566, 0.070301450788975, -0.046718053519726, -0.006265510804951, 0.064638271927834, 0.034137174487114, -0.056387592107058, 0.068980403244495, 0.027876487001777, -0.080060362815857, -0.019595125690103, -0.029775755479932, -0.013570045121014, -0.018523396924138, 0.041278805583715, -0.073658406734467, 0.036359649151564, 0.027578635141253, -0.062267392873764, -0.076635144650936, -0.053395740687847, 0.052491154521704, 0.078597784042358, -0.017547084018588, 0.057264588773251, 0.076485931873322, -0.053266525268555, 0.075341001152992, -0.020610639825463, 0.038059223443270, 0.043775931000710, 0.068610608577728, 0.004243599716574, 0.058429665863514, -0.036413669586182, -0.027320120483637, 0.062749259173870, 0.064832322299480, 0.059081327170134, 0.006769253872335, -0.033592998981476, -0.024651663377881, 0.062748305499554, 0.027830220758915, -0.030405087396502, -0.076481841504574, 0.009800422936678, -0.010542785748839, 0.037508118897676, -0.012235903181136, 0.039830841124058, -0.082380183041096, 0.029840789735317, 0.038301814347506, 0.039681054651737, 0.036786086857319, 0.078010849654675, 0.002278299303725, -0.056595310568810, 0.069608621299267, 0.006163757294416, 0.035893999040127, 0.079312771558762, 0.029480541124940, -0.071998812258244, -0.009518991224468, 0.037921406328678, 0.057917263358831, 0.080202192068100, -0.010333081707358, 0.010604742914438, 0.064860835671425, 0.077694110572338, 0.072290234267712, -0.053773228079081, 0.063082240521908, 0.044628135859966, 0.011641107499599, 0.065521784126759, -0.040653709322214, -0.048132263123989, 0.051202535629272, 0.001052174018696, -0.071759119629860, -0.025924442335963, 0.046878293156624, -0.063393041491508, 0.057557161897421, 0.027280902490020, -0.010777628980577, -0.045162674039602, -0.019684489816427, 0.042728651314974, 0.055527921766043, 0.020045155659318, 0.057377409189939, 0.049048054963350, -0.029873678460717, 0.013295777142048, -0.001315591740422, 0.002504266798496, -0.019806461408734, -0.079543866217136, -0.063179977238178, 0.023954279720783, 0.011541877873242, 0.041895851492882, 0.080645553767681, -0.032131548970938, 0.013010651804507, -0.035147525370121, -0.039754308760166, -0.032546903938055, -0.007882268168032, 0.011195867322385, 0.048162311315536, 0.059941332787275, -0.044631861150265, -0.054317109286785, 0.077207781374454, -0.061968404799700, 0.066701292991638, -0.053990699350834, 0.031334988772869, 0.052585668861866, -0.055119123309851, 0.010927482508123, 0.072510868310928, -0.038928266614676, 0.031293507665396, -0.045709751546383, -0.027623316273093, -0.069820895791054, -0.053233340382576, 0.030677517876029, 0.047001626342535, -0.009220938198268, -0.070728398859501, 0.041523285210133, -0.034997634589672, 0.047642294317484, 0.011280857957900, 0.037851188331842, 0.073635794222355, -0.080215349793434, 0.046879366040230, -0.003219664096832, 0.026011556386948, 0.052935045212507, -0.076523005962372, -0.061401728540659, -0.047899682074785, -0.002639680402353, 0.042771067470312, -0.007535587530583, 0.055651944130659, 0.018920598551631, -0.020398732274771, 0.067419111728668, -0.009314731694758, -0.073620676994324, -0.081523604691029, -0.040170699357986, -0.050477169454098, 0.004489800427109, -0.035837735980749, 0.042540811002254, -0.004786803387105, -0.047490879893303, 0.049705822020769, -0.045838888734579, -0.024312444031239, -0.034494008868933, 0.001125153270550, 0.031789898872375, 0.016821857541800, -0.065118364989758, 0.075702637434006, -0.062859967350960, 0.059774272143841, -0.080140091478825, 0.000901211344171, -0.018410695716739, 0.032381381839514, -0.001130887307227, -0.023751467466354, -0.048389445990324, 0.068339958786964, -0.038123290985823, 0.062004230916500, -0.049860510975122, 0.065332934260368, 0.072681598365307, 0.082647755742073, -0.035705938935280, -0.002158456947654, -0.042856927961111, -0.057155374437571, 0.047489188611507, -0.051455568522215, -0.036000080406666, 0.021269239485264, 0.034434907138348, 0.034636493772268, 0.031662754714489, 0.037718039005995, 0.029144203290343, -0.063497260212898, 0.034886602312326, 0.073185972869396, 0.049069412052631, 0.076778024435043, -0.081971965730190, -0.065906025469303, 0.061089772731066, 0.024712525308132, 0.055333111435175, 0.031146395951509, 0.026491774246097, -0.056184660643339, -0.008553878404200, 0.006606994196773, 0.073879778385162, 0.059557076543570, -0.069629937410355, 0.015628572553396, -0.058494139462709, 0.075783737003803, 0.077129349112511, 0.041828177869320, 0.063895896077156, -0.055238671600819, -0.058911498636007, -0.028574094176292, 0.027632394805551, -0.082846939563751, -0.062411665916443, 0.043542459607124, 0.053387027233839, -0.076234124600887, -0.063623696565628, 0.049324125051498, 0.010128084570169, 0.022865466773510, 0.043711278587580, -0.046390373259783, 0.039188504219055, 0.039922486990690, -0.008547920733690, 0.042733073234558, 0.050394281744957, -0.000206367330975, 0.052780449390411, -0.058266881853342, 0.068645447492599, 0.006712143775076, -0.064424104988575, 0.043097611516714, -0.028374020010233, 0.071688704192638, 0.009119028225541, -0.027305305004120, 0.070123553276062, 0.010092302225530, 0.081843927502632, 0.042995009571314, -0.002768242964521, 0.050137396901846, 0.022113319486380, 0.017392026260495, -0.041264194995165, 0.082056641578674, 0.047609455883503, -0.060661591589451, -0.033855404704809, 0.020225331187248, -0.077442936599255, 0.011347344145179, -0.015063623897731, -0.070456750690937, -0.031729955226183, -0.080073013901711, 0.039940979331732, -0.015788091346622, -0.072049327194691, 0.014376726001501, 0.021025482565165, -0.028587277978659, -0.049477878957987, -0.067805536091328, -0.006588146090508, 0.073497936129570, -0.060908626765013, -0.039982203394175, 0.031715489923954, -0.032833416014910, 0.001527045271359, 0.080755196511745, 0.056897222995758, -0.016478013247252, -0.067462459206581, -0.011035730130970, -0.046529758721590, 0.056879051029682, 0.017035789787769, 0.030343407765031, 0.051417198032141, 0.057051520794630, 0.060951665043831, -0.080931365489960, -0.033557668328285, -0.001682550646365, -0.047444391995668, -0.027052350342274, -0.059547066688538, 0.028177160769701, -0.063969328999519, 0.066449053585529, -0.030747661367059, -0.062328577041626, -0.017408192157745, 0.059890083968639, -0.003581559052691, -0.058948077261448, -0.055604599416256, -0.006727216299623, 0.035719063133001, 0.060295566916466, 0.041861195117235, -0.064829014241695, 0.050163503736258, 0.014808800071478, 0.048521082848310, -0.059173509478569, -0.034707564860582, -0.035491112619638, 0.069279469549656, -0.078807942569256, 0.030822547152638, -0.020594770088792, -0.054687723517418, 0.006515859626234, -0.068568348884583, -0.046797093003988, -0.020354028791189, -0.041147764772177, 0.014405239373446, -0.038434330374002, 0.082317396998405, 0.054973013699055, 0.022369192913175, 0.051866438239813, 0.010737736709416, -0.030041024088860, -0.073313683271408, 0.008233067579567, -0.036782857030630, 0.074745938181877, -0.004881422966719, 0.050589270889759, -0.041115138679743, -0.031156683340669, 0.063794828951359, -0.074597783386707, 0.051842533051968, -0.041147567331791, 0.021578276529908, 0.034771583974361, 0.065118223428726, 0.048772878944874, 0.081067413091660, -0.068622201681137, 0.017119314521551, 0.059143282473087, 0.035919055342674, 0.021429041400552, 0.042580980807543, -0.025043068453670, -0.030505292117596, -0.030026804655790, 0.011425185948610, 0.027431344613433, 0.033643379807472, -0.045160707086325, -0.060128159821033, 0.052681762725115, -0.062204085290432, 0.023938074707985, 0.035423193126917, -0.040780782699585, 0.044450335204601, 0.060688775032759, -0.009071583859622, -0.008534933440387, -0.074296727776527, 0.054460208863020, -0.035758644342422, -0.038212176412344, 0.044633749872446, -0.054547782987356, -0.069905310869217, -0.081258587539196, -0.073179364204407, 0.046960074454546, 0.019857494160533, -0.038640756160021, 0.068494737148285, -0.080591149628162, -0.082119770348072, -0.022457262501121, 0.023889461532235, 0.072237946093082, 0.013690639287233, -0.061733920127153, 0.001219951780513, 0.082346886396408, 0.063390538096428, -0.074871830642223, 0.009848238900304, -0.062677942216396, 0.062584266066551, 0.000475489359815, 0.003235511016101, -0.042897202074528, 0.070531405508518, 0.047591924667358, 0.070075973868370, 0.074409492313862, -0.038149341940880, -0.069137670099735, 0.022747471928596, 0.068602740764618, 0.032042916864157, 0.062464017421007, 0.002834058366716, 0.037556316703558, 0.052682448178530, -0.019895525649190, 0.038734171539545, -0.046074546873569, -0.009269812144339, 0.023637900128961, 0.076100535690784, 0.031243108212948, -0.028421958908439, 0.016021788120270, 0.065154373645782, 0.013859652914107, 0.050236959010363, 0.025482516735792, -0.029157308861613, -0.023478018119931, 0.056867912411690, 0.053687654435635, 0.038789194077253, 0.076532974839211, 0.063972465693951, 0.058008026331663, 0.033861637115479, 0.034414932131767, -0.017236260697246, 0.059402059763670, 0.065084122121334, -0.064756944775581, -0.011557486839592, -0.036964099854231, -0.064814582467079, 0.064938694238663, 0.066060788929462, 0.014885055832565, -0.029570978134871, 0.003888176055625, 0.065909229218960, 0.072236739099026, -0.080545499920845, 0.036507181823254, 0.013459749519825, -0.041253015398979, -0.065513931214809, -0.082950837910175, -0.025261512026191, -0.042919721454382, -0.025753023102880, -0.051488410681486, -0.076838374137878, 0.046667054295540, -0.051385447382927, 0.040772106498480, -0.063652671873569, 0.035744480788708, 0.061276763677597, 0.065668903291225, 0.047080624848604, -0.071076080203056, 0.030516510829329, 0.021136231720448, -0.015864131972194, 0.055122919380665, 0.022385159507394, -0.020016595721245, -0.036555971950293, -0.006286697462201, 0.027621671557426, -0.035343684256077, 0.048923481255770, 0.033126223832369, 0.073247633874416, 0.000502774608321, 0.049775775521994, -0.008948897011578, -0.049378447234631, -0.073305942118168, -0.059201471507549, -0.050912525504827, 0.020465396344662, 0.002691316884011, 0.029246395453811, -0.032438654452562, 0.076777800917625, 0.075810275971889, 0.062191132456064, -0.056595169007778, 0.073836021125317, 0.041040863841772, -0.054842200130224, 0.020770858973265, -0.045402504503727, -0.010878727771342, 0.014170202426612, 0.012027294375002, -0.044661547988653, -0.035354088991880, 0.042026560753584, -0.030387392267585, 0.064294882118702, 0.046389468014240, 0.078664518892765, 0.052299264818430, 0.015093910507858, 0.070621795952320, 0.012237414717674, -0.041637945920229, -0.031087474897504, 0.003090542973951, 0.066023878753185, 0.057304192334414, -0.044147297739983, -0.026013704016805, 0.033575203269720, 0.059477437287569, 0.081332221627235, 0.031130108982325, 0.022957017645240, -0.023573320358992, 0.074923470616341, 0.010093449614942, -0.029523914679885, 0.013620520010591, -0.046125505119562, -0.076352722942829, 0.019383873790503, 0.034345686435699, -0.065797485411167, -0.011953198350966, 0.023435046896338, 0.041952390223742, -0.032986842095852, -0.019954638555646, -0.006773818749934, -0.006257364060730, -0.016940806061029, 0.035778257995844, 0.018628785386682, 0.047877527773380, -0.017248807474971, 0.039099842309952, 0.015693368390203, -0.053021892905235, 0.070225849747658, 0.027264317497611, 0.047777812927961, -0.056397125124931, -0.040461741387844, -0.008125214837492, -0.044581800699234, 0.068618275225163, 0.038007155060768, -0.008385422639549, 0.040532235056162, -0.057633820921183, -0.072893388569355, 0.002862073481083, -0.049131195992231, -0.031455587595701, -0.034619234502316, 0.004716162569821, 0.023714788258076, 0.045508667826653, -0.039342585951090, -0.039927933365107, -0.000872213277034, 0.030418606474996, -0.043740127235651, -0.004884342197329, -0.025136642158031, -0.077035069465637, 0.021136365830898, 0.002623558044434, 0.073713377118111, 0.040549632161856, -0.018853634595871, -0.019732410088181, -0.053180478513241, -0.016919463872910, -0.050423569977283, 0.055713482201099, 0.013620802201331, -0.033413302153349, -0.005315031390637, 0.006171635817736, -0.055541884154081, -0.009420312941074, -0.036153703927994, 0.080801039934158, 0.071213506162167, -0.051535259932280, -0.009965601377189, -0.046257779002190, -0.025924222543836, 0.007188742514700, 0.059447143226862, 0.011549503542483, 0.070856995880604, 0.011701673269272, -0.021146597340703, 0.064325429499149, 0.063220471143723, -0.030517145991325, -0.022154225036502, -0.006966841407120, -0.019541233778000, 0.049299236387014, 0.046285506337881, 0.017106527462602, 0.027964264154434, -0.043774060904980, -0.001183275948279, 0.043871860951185, 0.052457820624113, -0.009516883641481, 0.032634694129229, -0.055619373917580, -0.023431729525328, -0.061788648366928, -0.027993753552437, -0.026284810155630, 0.028159094974399, 0.058796290308237, -0.044932793825865, 0.000911279465072, -0.074170611798763, 0.064589530229568, -0.031100247055292, 0.011757777072489, -0.016313407570124, 0.011334453709424, 0.005383482668549, 0.082364462316036, -0.069218844175339, 0.024593897163868, 0.071980163455009, 0.015140833333135, -0.078542932868004, 0.025508230552077, -0.002053746720776, 0.078089430928230, -0.077744767069817, 0.069554470479488, 0.011691053397954, 0.007513723801821, 0.049570720642805, 0.053182430565357, -0.051061999052763, -0.017594840377569, 0.078163437545300, 0.011528473347425, -0.028918337076902, 0.010916952975094, -0.048300303518772, -0.072777472436428, 0.068586066365242, -0.028229471296072, 0.004194546956569, 0.073566220700741, -0.058576848357916, 0.006830913480371, 0.049145832657814, 0.040958434343338, -0.071063742041588, 0.078950941562653, 0.050866339355707, 0.053189042955637, 0.064682908356190, -0.013836359605193, 0.020428080111742, 0.032238222658634, -0.042927883565426, -0.070667393505573, 0.067374609410763, -0.021371113136411, -0.006806510500610, 0.036527235060930, -0.001597976661287, -0.060707561671734, -0.003743088804185, -0.023897247388959, 0.016011817380786, 0.008195535279810, 0.019237060099840, 0.053343430161476, 0.051488298922777, 0.074790664017200, -0.055426429957151, 0.024187238886952, -0.070568598806858, -0.038914658129215, 0.045998774468899, 0.007358307484537, -0.035326346755028, 0.012684538960457, -0.045034904032946, -0.016655247658491, 0.064975932240486, 0.006561397109181, -0.027538880705833, 0.042252171784639, -0.045854039490223, -0.014287899248302, -0.069887831807137, 0.008262855000794, 0.076987773180008, -0.033504068851471, 0.051239769905806, 0.052645094692707, -0.026146536692977, 0.044169615954161, -0.055804491043091, 0.008653346449137, 0.014488942921162, -0.032396811991930, 0.068159684538841, 0.041904371231794, -0.040027122944593, -0.036205194890499, -0.047633741050959, -0.057011280208826, 0.053403645753860, 0.029652414843440, 0.050966363400221, 0.053545538336039, -0.010396983474493, 0.037397265434265, 0.016388129442930, 0.037329513579607, 0.024837857112288, 0.036073379218578, -0.068709760904312, 0.054038789123297, -0.022648856043816, 0.050120178610086, 0.064667522907257, 0.077744551002979, -0.006679057143629, -0.028758615255356, -0.075811207294464, 0.079124443233013, -0.074576854705811, 0.000078638826380, -0.029153417795897, -0.047505456954241, -0.070141181349754, 0.033091455698013, -0.028313990682364, 0.010451970621943, 0.023313932120800, -0.031324047595263, 0.035787120461464, 0.036367416381836, 0.078382015228271, 0.066104605793953, -0.043048523366451, -0.035237383097410, -0.032970577478409, -0.064334422349930, -0.079405277967453, -0.023997254669666, -0.013534635305405, -0.002223788294941, 0.075750611722469, 0.036815278232098, -0.011312648653984, -0.041024025529623, 0.003592461114749, 0.026255022734404, 0.047201056033373, 0.017452754080296, 0.005345392040908, -0.041798878461123, -0.034179829061031, 0.036027841269970, 0.015335605479777, -0.033267855644226, -0.051743570715189, -0.021934118121862, 0.013241027481854, -0.045354444533587, -0.006219772156328, 0.014203065074980, 0.031080527231097, 0.023165268823504, -0.029513847082853, 0.019158719107509, 0.026643309742212, 0.076924398541451, -0.079035595059395, 0.034744836390018, 0.027239035815001, 0.052437223494053, 0.057504124939442, -0.074814379215240, -0.024560792371631, -0.065253362059593, -0.033619526773691, -0.016785316169262, 0.038117583841085, -0.035734873265028, -0.005580459721386, 0.061805490404367, -0.048226151615381, 0.013529548421502, 0.047127597033978, -0.058748286217451, 0.033993560820818, 0.002790643135086, 0.007702672854066, 0.076123967766762, -0.008554808795452, -0.006585085298866, 0.017797417938709, 0.020384397357702, -0.032029353082180, -0.034296873956919, -0.028290219604969, 0.055830057710409, 0.010240063071251, 0.076286844909191, -0.025282481685281, -0.072264015674591, 0.014722438529134, -0.082981020212173, 0.061752453446388, -0.052732057869434, 0.080993168056011, -0.069622464478016, 0.014002059586346, -0.067182563245296, -0.051715414971113, 0.008431750349700, -0.010689876042306, 0.074616096913815, 0.053689084947109, 0.049047727137804, -0.006339741405100, -0.041635166853666, 0.010040233843029, 0.028708152472973, -0.031941741704941, -0.064611427485943, 0.015458866022527, -0.059600882232189, -0.000961121288128, -0.073094829916954, 0.033640854060650, 0.052734144032001, -0.004956569056958, -0.006665809545666, 0.014347273856401, 0.016211453825235, -0.025888776406646, -0.014999045059085, -0.020143691450357, 0.041900753974915, 0.019612701609731, -0.028674455359578, 0.066767111420631, 0.020397458225489, -0.079285472631454, 0.045034583657980, 0.032311797142029, 0.041699167340994, -0.040446788072586, -0.049086295068264, -0.015716169029474, 0.025983123108745, 0.016201108694077, -0.040838133543730, -0.027149219065905, -0.020815838128328, -0.016354052349925, -0.047014877200127, -0.008292664773762, 0.060469761490822, 0.052973337471485, -0.003944057039917, 0.039657715708017, -0.000964159611613, 0.070185780525208, 0.072323076426983, -0.031976550817490, -0.075535491108894, -0.033726744353771, -0.056874379515648, -0.043063394725323, -0.078526452183723, -0.037233974784613, -0.058305367827415, -0.065681092441082, 0.025038817897439, 0.013698011636734, -0.043350245803595, -0.029778854921460, 0.014387113973498, -0.029993841424584, -0.028331564739347, -0.069401025772095, -0.028561977669597, 0.060288462787867, 0.047235250473022, -0.056670513004065, 0.027301099151373, 0.052259080111980, -0.013118661008775, -0.023157168179750, 0.036881748586893, -0.065673887729645, 0.023349974304438, 0.000145921192598, -0.081391416490078, 0.074190706014633, -0.035465832799673, 0.036719050258398, 0.046023290604353, -0.005593402311206, -0.033899132162333, -0.082473360002041, -0.012092782184482, 0.023035597056150, -0.023625306785107, 0.024172836914659, 0.081795595586300, 0.016669226810336, 0.073736205697060, 0.007280964404345, 0.057351958006620, -0.048489652574062, -0.020116169005632, -0.002280108863488, 0.070691630244255, 0.065376363694668, 0.069333426654339, -0.068354971706867, 0.030974261462688, 0.075667843222618, 0.078775390982628, -0.022431842982769, -0.035693489015102, -0.006448897533119, -0.064371235668659, 0.046933859586716, -0.043165348470211, 0.054717227816582, -0.008084689266980, -0.009012724272907, 0.039724461734295, -0.009330078959465, -0.056275989860296, -0.066568262875080, 0.013658669777215, -0.020318543538451, -0.063247002661228, 0.047427080571651, 0.066134855151176, 0.074530430138111, 0.005022079218179, 0.062889501452446, -0.076728992164135, 0.000612787087448, 0.032746851444244, -0.016368454322219, 0.047370694577694, 0.072685830295086, -0.017843686044216, -0.022336129099131, 0.071135021746159, -0.053722470998764, 0.068776823580265, -0.013626283966005, 0.040062248706818, -0.042288903146982, -0.042574819177389, -0.033277768641710, 0.058383285999298, 0.031732514500618, -0.001850656000897, -0.026719488203526, 0.026779022067785, -0.075758159160614, -0.031099569052458, -0.068922162055969, 0.075335733592510, 0.019088523462415, -0.043416753411293, -0.079896971583366, 0.044980671256781, -0.061313580721617, 0.010857199318707, 0.032892618328333, -0.051723256707191, -0.008822859264910, -0.014625450596213, 0.032290112227201, 0.022872615605593, -0.068125076591969, -0.041494708508253, -0.075123295187950, 0.028615059331059, 0.030688643455505, -0.028287122026086, 0.054730691015720, 0.007928104139864, -0.016914339736104, 0.006092423573136, 0.064271174371243, 0.075759232044220, 0.004008934367448, -0.000074885603681, -0.050487793982029, -0.069054201245308, 0.015261472202837, 0.012433751486242, -0.073408745229244, 0.017249030992389, -0.030806006863713, 0.040846195071936, -0.073791272938251, 0.015958795323968, 0.007170587312430, -0.014005596749485, -0.017892275005579, 0.044813234359026, 0.027732815593481, -0.070233903825283, -0.012058310210705, 0.024135349318385, 0.028446797281504, -0.046651091426611, -0.005837800912559, -0.019803721457720, 0.072040617465973, 0.011937753297389, 0.009697298519313, 0.026472471654415, -0.068735681474209, -0.049230225384235, 0.011477671563625, -0.062903635203838, -0.012697787024081, 0.044344797730446, -0.001873532775789, 0.078032314777374, 0.036932222545147, 0.013121007010341, 0.066017895936966, 0.077684096992016, -0.052896384149790, 0.050302550196648, -0.008175496011972, -0.065725497901440, 0.013453456573188, -0.049445528537035, 0.015040627680719, 0.030963284894824, 0.005563816055655, 0.014774901792407, 0.057746104896069, -0.040349125862122, -0.037054058164358, 0.021981732919812, -0.063077948987484, -0.049824368208647, -0.001649568439461, -0.060569349676371, 0.060194183140993, 0.003567283507437, 0.032542947679758, 0.056472007185221, 0.029485030099750, 0.021803112700582, -0.073814690113068, 0.076974071562290, -0.063428647816181, 0.048585277050734, -0.036622777581215, 0.049389358609915, -0.013997173868120, -0.000627539295238, -0.047658462077379, -0.018855266273022, -0.044118266552687, -0.033655688166618, 0.069166369736195, -0.070399343967438, 0.001288783038035, 0.070848792791367, -0.040296558290720, 0.008608069270849, 0.026425980031490, 0.013951338827610, 0.011026674881577, 0.001041130395606, 0.083136193454266, -0.044905807822943, -0.004961715079844, 0.049588054418564, -0.058642618358135, 0.079676836729050, 0.028122970834374, 0.032816004008055, -0.025537205860019, -0.075772494077682, 0.048796351999044, 0.031300596892834, -0.081130363047123, 0.032769788056612, -0.055048488080502, 0.080971144139767, -0.080773651599884, 0.027528295293450, 0.058887649327517, 0.006187006365508, -0.053047604858875, -0.080969713628292, -0.006124452687800, 0.002019051695243, -0.056985884904861, -0.048013351857662, -0.073895171284676, -0.037545651197433, -0.047350522130728, 0.061793383210897, -0.006285408977419, 0.036823142319918, 0.035969957709312, 0.016376571729779, -0.058568846434355, 0.052334114909172, 0.059021022170782, -0.007622604258358, 0.053259119391441, 0.068468280136585, 0.062849164009094, -0.000323253218085, 0.062258929014206, -0.023557193577290, -0.076199099421501, -0.004061196465045, 0.045325070619583, 0.024651521816850, -0.017549065873027, -0.063971631228924, -0.061185631901026, -0.015522231347859, -0.022299073636532, 0.063945464789867, -0.074241720139980, -0.056879602372646, -0.055657085031271, -0.062060590833426, 0.063886098563671, 0.060608737170696, 0.039906460791826, -0.022730752825737, 0.013855624012649, -0.037175651639700, 0.081101089715958, -0.070668503642082, -0.082201160490513, 0.024057559669018, -0.061235301196575, 0.055528204888105, -0.049907274544239, -0.064643159508705, -0.005383482668549, 0.050696820020676, 0.049378946423531, 0.040530629456043, -0.065601460635662, 0.011720223352313, 0.068747393786907, 0.036302339285612, -0.082819990813732, 0.036836843937635, 0.013494540937245, 0.009033553302288, -0.076840281486511, -0.036250911653042, 0.030420176684856, 0.049516640603542, 0.019003428518772, -0.043616726994514, -0.067001052200794, 0.029311548918486, 0.012159431353211, -0.009660623036325, -0.073232807219028, -0.023640539497137, 0.049408614635468, 0.029089313000441, 0.069134332239628, 0.001567630679347, 0.031402468681335, -0.036833949387074, -0.082635186612606, -0.074639424681664, 0.023802220821381, -0.051683459430933, -0.030622534453869, 0.060705158859491, -0.073029331862926, -0.059077117592096, 0.010349822230637, 0.037598390132189, -0.041740294545889, 0.056208953261375, 0.039352618157864, 0.049627672880888, -0.062677167356014, 0.060223896056414, -0.054663512855768, 0.062232047319412, -0.007568651810288, 0.034683734178543, -0.075622983276844, 0.081716321408749, 0.027807187289000, 0.011923469603062, 0.051174771040678, -0.023408990353346, -0.046940490603447, -0.070905573666096, 0.066360540688038, -0.069515071809292, -0.033932972699404, -0.025377981364727, 0.034870836883783, -0.072169050574303, -0.011727096512914, 0.049139041453600, -0.007631994783878, -0.053977984935045, -0.060517918318510, -0.064081192016602, -0.031119251623750, 0.020379288122058, -0.000642298953608, 0.067110739648342, -0.050445832312107, -0.021482022479177, 0.038749638944864, -0.040369618684053, -0.037816241383553, 0.000767741294112, 0.082165382802486, 0.066262446343899, -0.008223096840084, 0.038682676851749, -0.001360213384032, -0.019472699612379, -0.036069087684155, -0.035514764487743, -0.028423149138689, 0.009803781285882, 0.023751106113195, -0.011499140411615, 0.033335853368044, -0.080451831221581, 0.082305140793324, 0.024861983954906, -0.002962084719911, -0.020779974758625, 0.064564161002636, 0.014561683870852, -0.067315094172955, 0.007079914212227, 0.036926288157701, 0.024724641814828, -0.052111826837063, -0.012180713936687, -0.018340896815062, -0.006749154534191, -0.075410403311253, -0.080977134406567, -0.010368253104389, 0.070745848119259, -0.036258358508348, 0.008573634549975, 0.050892282277346, -0.081806480884552, 0.058620363473892, 0.051179494708776, 0.064787149429321, 0.013840634375811, 0.069895714521408, -0.076133921742439, 0.029300825670362, -0.073633685708046, -0.024770455434918, -0.053188581019640, -0.063500672578812, 0.061354998499155, -0.064659424126148, 0.045762650668621, -0.025780033320189, 0.007110461127013, 0.079470492899418, -0.045753914862871, -0.000676271563862, 0.064593531191349, 0.061508882790804, 0.014184798114002, -0.078665331006050, -0.024249197915196, 0.065730400383472, 0.020853109657764, -0.074165880680084, 0.015717338770628, -0.054219443351030, 0.012689446099102, -0.078773997724056, 0.006173088215292, -0.078650817275047, 0.000936598808039, 0.026608219370246, -0.042916581034660, 0.000046885419579, 0.078171320259571, -0.072835400700569, 0.057966366410255, 0.043428611010313, -0.078260749578476, 0.072447337210178, 0.082875140011311, 0.082495495676994, -0.001945476862602, -0.020920529961586, 0.035702738910913, 0.015956234186888, 0.057360190898180, 0.035217266529799, 0.004693702794611, -0.001512404764071, -0.076197884976864, -0.060197286307812, 0.038730416446924, 0.043806612491608, -0.065368041396141, 0.030074680224061, -0.053754720836878, -0.007779524195939, -0.076400831341743, 0.051949422806501, 0.058105532079935, 0.052047170698643, 0.054842036217451, 0.065705157816410, -0.006787245161831, -0.069701746106148, -0.062407791614532, -0.062004588544369, 0.071722157299519, 0.002876073354855, -0.044660497456789, -0.062341485172510, 0.077277794480324, -0.020428042858839, 0.030507789924741, 0.056559432297945, -0.047029037028551, -0.008908229880035, 0.032924942672253, 0.079616725444794, -0.078475885093212, -0.036134026944637, 0.032360590994358, 0.067011930048466, 0.068209670484066, 0.079737238585949, 0.045278456062078, -0.035094741731882, 0.032871540635824, -0.072960190474987, -0.003813245566562, 0.037210699170828, 0.002653740113601, -0.030611770227551, 0.007438539993018, -0.023176312446594, -0.020404212176800, -0.012198668904603, -0.017531773075461, 0.010918024927378, -0.055548761039972, 0.059452984482050, 0.038570459932089, 0.047779243439436, -0.010492898523808, 0.001936503336765, 0.041584506630898, -0.051779516041279, 0.044359393417835, 0.048828609287739, 0.062472373247147, -0.073403663933277, 0.015520660206676, -0.020422086119652, -0.012948440387845, -0.077112123370171, 0.076856486499310, 0.082181401550770, 0.033955767750740, 0.075036309659481, -0.020926665514708, -0.076066441833973, 0.002597940852866, -0.033153869211674, 0.041312154382467, 0.024175874888897, -0.066989138722420, 0.018881635740399, 0.031416069716215, 0.023977097123861, -0.073996737599373, 0.040409810841084, -0.040999464690685, -0.024073272943497, -0.031192587688565, -0.042705349624157, -0.033087603747845, 0.007679579779506, 0.025849951431155, -0.028998423367739, 0.015998018905520, 0.005066045559943, -0.020010937005281, 0.066631279885769, 0.059705849736929, -0.068291701376438, 0.063283167779446, 0.004141309764236, 0.025459773838520, -0.051223184913397, -0.037665694952011, 0.034464754164219, 0.075102359056473, -0.044983115047216, -0.009913354180753, 0.059263549745083, -0.012418462894857, 0.032126460224390, -0.073628023266792, 0.072821952402592, -0.012706603854895, -0.050095353275537, 0.065294086933136, 0.028486177325249, 0.016265226528049, 0.042282391339540, -0.039365999400616, -0.025960324332118, 0.079665511846542, 0.052002087235451, -0.004534481558949, 0.043991249054670, 0.044018417596817, -0.008505719713867, 0.053199946880341, 0.070686779916286, -0.044227391481400, 0.037027150392532, 0.056649122387171, -0.037009436637163, -0.049693264067173, -0.067053616046906, -0.062824398279190, -0.028826370835304, -0.036166768521070, 0.077922992408276, -0.001380327274092, -0.032587312161922, -0.066319026052952, 0.077195629477501, 0.033688813447952, 0.072018109261990, 0.027925539761782, 0.003695227904245, 0.046371594071388, -0.063509188592434, 0.007325742393732, 0.030976643785834, 0.080107130110264, 0.038029100745916, 0.041906934231520, -0.029211664572358, -0.054723188281059, 0.031309533864260, 0.054499048739672, 0.026450585573912, 0.037741370499134, 0.038002807646990, -0.051845822483301, 0.079938724637032, -0.038098566234112, 0.076017029583454, -0.012831271626055, 0.079707555472851, -0.015476262196898, 0.067720785737038, 0.062968052923679, -0.080621771514416, 0.006906692869961, 0.024418106302619, -0.065213449299335, -0.031943507492542, -0.000085705891252, -0.082582309842110, 0.008682776242495, -0.073613561689854, -0.035925276577473, 0.035399146378040, 0.048470072448254, 0.026160813868046, 0.002202937146649, -0.063307732343674, -0.015003178268671, 0.029963916167617, 0.065450951457024, -0.001846560160629, 0.068220317363739, -0.080510355532169, -0.064400151371956, 0.064903400838375, 0.053340990096331, -0.018313670530915, 0.031384851783514, 0.065299838781357, 0.054610945284367, -0.013620661571622, 0.012944463640451, -0.001308658742346, 0.032602977007627, -0.077113136649132, 0.055241055786610, 0.045260999351740, -0.038316152989864, 0.047367222607136, 0.062895648181438, -0.070652574300766, -0.046877238899469, -0.052456382662058, 0.070987246930599, 0.030143117532134, -0.026008520275354, -0.031129833310843, 0.047944013029337, -0.075899235904217, -0.042522512376308, 0.013675969094038, -0.064551256597042, -0.018424004316330, -0.011339278891683, 0.012150212191045, 0.033754881471395, -0.059283446520567, -0.035827871412039, 0.072839513421059, 0.070135012269020, 0.059989813715219, -0.079412102699280, -0.024448094889522, -0.004778537433594, -0.027562512084842, 0.003746283473447, 0.027894180268049, -0.037740044295788, -0.046295389533043, 0.052613265812397, -0.004402858205140, 0.065796233713627, -0.072025679051876, -0.063805237412453, 0.018834572285414, -0.025576841086149, -0.053964801132679, 0.025622792541981, -0.033242639154196, -0.071137949824333, -0.018153056502342, 0.055535726249218, 0.063363894820213, 0.018522145226598, 0.031448997557163, -0.020091183483601, 0.027271088212729, -0.062613166868687, 0.082797393202782, 0.056357115507126, 0.048085294663906, -0.015131576918066, -0.040817860513926, -0.042448740452528, -0.055817380547523, 0.045171190053225, -0.038039468228817, -0.005552474409342, -0.023087166249752, -0.075163997709751, -0.054984822869301, -0.072611242532730, 0.070952124893665, 0.019760603085160, -0.013325944542885, -0.063872978091240, -0.004027178976685, -0.053420387208462, -0.004810551181436, 0.016927102580667, 0.046488493680954, 0.076894551515579, 0.060368768870831, -0.011243660934269, 0.075438261032104, -0.078287236392498, -0.001732638222165, 0.045356571674347, -0.022073797881603, -0.071177072823048, 0.029995802789927, -0.043793387711048, -0.069531098008156, -0.031945891678333, 0.013598819263279, 0.001006792881526, -0.056880474090576, -0.069088675081730, -0.070779450237751, 0.059802271425724, 0.050866696983576, 0.037101298570633, 0.080068059265614, 0.075721882283688, 0.082363046705723, 0.001270932960324, -0.001849479391240, -0.052778981626034, 0.028574824333191, 0.067100636661053, -0.022100111469626, 0.044971197843552, 0.007404619827867, -0.047779560089111, -0.019901840016246, -0.027556175366044, 0.033761434257030, -0.000805236224551, -0.038237333297729, 0.008908565156162, 0.028170868754387, 0.014576160348952, 0.015307605266571, 0.012214254587889, -0.062858834862709, 0.036951512098312, -0.006418655626476, -0.061695296317339, 0.033106945455074, 0.045572157949209, -0.018576098605990, -0.052911296486855, 0.080615438520908, 0.025494266301394, 0.073305509984493, -0.009334271773696, 0.033603142946959, -0.001120580942370, 0.065604150295258, 0.074943520128727, -0.053799182176590, -0.037435855716467, 0.045643292367458, 0.023359959945083, -0.052644878625870, 0.078537806868553, 0.020169747993350, -0.024987585842609, -0.067485928535461, 0.041131760925055, -0.015462678857148, 0.019584141671658, 0.039778638631105, -0.002883624518290, -0.036028400063515, -0.020709473639727, 0.029929496347904, 0.011959415860474, -0.067178450524807, -0.058094888925552, 0.025214524939656, -0.056440435349941, -0.007598654832691, -0.040573008358479, -0.006230913102627, 0.008830388076603, 0.023757979273796, 0.083111323416233, -0.078984558582306, -0.054753948003054, 0.015329483896494, 0.066717632114887, -0.074196681380272, 0.036943864077330, 0.022297702729702, 0.074889875948429, 0.075046941637993, -0.071732014417648, 0.030338656157255, -0.000307369075017, 0.060778286308050, -0.053809072822332, 0.072904050350189, -0.063210777938366, -0.073501549661160, -0.044429663568735, -0.033223651349545, -0.016239058226347, -0.036218740046024, 0.057185921818018, 0.000086942069174, 0.016037672758102, 0.071246914565563, 0.012438755482435, -0.044414788484573, 0.020875249058008, -0.038977950811386, 0.018387686461210, -0.046484243124723, -0.030679566785693, -0.037285607308149, -0.064774937927723, 0.056750129908323, -0.022605825215578, -0.004432012792677, -0.066430881619453, -0.041061419993639, 0.080446958541870, -0.064839482307434, 0.037727728486061, -0.063944205641747, -0.035430803894997, -0.008356864564121, -0.013910351321101, -0.068742185831070, 0.027426064014435, -0.052855893969536, -0.018356304615736, 0.003077161032706, 0.073966555297375, 0.044188726693392, -0.065206974744797, 0.027920676395297, 0.005749689415097, 0.002107579959556, -0.042545948177576, 0.021420836448669, 0.046719584614038, -0.056205768138170, 0.045776113867760, 0.045054215937853, 0.027887016534805, 0.045378867536783, -0.056806504726410, 0.062750749289989, -0.081730842590332, -0.025521198287606, -0.057594716548920, 0.079974770545959, 0.003825220279396, -0.082408048212528, -0.072470188140869, -0.063128270208836, -0.026794968172908, 0.057827096432447, -0.064007379114628, -0.020188551396132, -0.018050968647003, -0.077816970646381, -0.049614466726780, 0.057165935635567, -0.041628990322351, 0.025150245055556, -0.081398017704487, -0.078566521406174, -0.012584378942847, -0.053893353790045, 0.010797587223351, 0.052400168031454, -0.053090121597052, -0.027868786826730, 0.082328677177429, -0.066837064921856, -0.059261184185743, -0.027834292501211, -0.076933994889259, -0.069310232996941, -0.054522581398487, 0.081330426037312, 0.033102259039879, 0.052009906619787, 0.005642894189805, 0.059545889496803, 0.000410433596699, 0.062027867883444, 0.032429438084364, 0.004069938790053, -0.061175704002380, 0.035521991550922, 0.077227890491486, -0.064145497977734, -0.014406058937311, 0.022161314263940, -0.029754826799035, -0.032485917210579, 0.074102297425270, 0.051332242786884, -0.048055849969387, 0.024574058130383, 0.045745775103569, -0.026432098820806, 0.002243328839540, -0.019129289314151, 0.034067850559950, -0.064381867647171, -0.007788914721459, 0.081141181290150, 0.078874520957470, -0.068783849477768, 0.030422300100327, -0.007931477390230, 0.022571643814445, 0.062077641487122, -0.036491673439741, -0.032739486545324, -0.072327688336372, -0.082893684506416, -0.040673527866602, 0.051211189478636, 0.073499560356140, -0.060534816235304, 0.083120025694370, -0.038241684436798, -0.068591088056564, 0.008691138587892, 0.031088108196855, -0.028817595914006, 0.057486861944199, -0.014708595350385, 0.047094788402319, -0.082760393619537, 0.040914408862591, -0.005446177907288, 0.008466325700283, 0.065358489751816, -0.045217286795378, 0.016453364863992, -0.046151574701071, 0.012221783399582, -0.073945537209511, 0.046203307807446, 0.039098173379898, -0.011384854093194, -0.022947087883949, -0.054107584059238, 0.013539520092309, -0.035448260605335, -0.026425883173943, 0.030400302261114, 0.061199374496937, -0.011004230007529, 0.040730167180300, 0.043069731444120, 0.056505069136620, 0.030650971457362, -0.002855520229787, 0.061300758272409, -0.033433675765991, 0.016427353024483, -0.077758900821209, -0.037938904017210, -0.020773658528924, 0.072914935648441, 0.015761744230986, -0.000424374098657, 0.000643110659439, -0.049699757248163, -0.078528016805649, -0.076130285859108, 0.061573103070259, 0.072549298405647, -0.022705493494868, 0.083031699061394, 0.045666541904211, -0.055193550884724, 0.007818225771189, 0.034716598689556, -0.018424682319164, 0.046580791473389, 0.041284289211035, 0.077005125582218, 0.037487521767616, -0.050104249268770, -0.035471729934216, 0.082946240901947, -0.034220378845930, -0.051908336579800, 0.053153134882450, -0.033641330897808, -0.068679735064507, -0.025319537147880, -0.073508039116859, -0.075484499335289, 0.029210248962045, 0.075917467474937, 0.034617763012648, -0.066978037357330, 0.082261115312576, 0.014256644994020, 0.043506726622581, 0.025587582960725, 0.043538406491280, 0.053540430963039, -0.022907650098205, 0.020850786939263, 0.065228767693043, -0.070522785186768, 0.054661914706230, 0.025458127260208, -0.051961675286293, 0.022173445671797, -0.079806096851826, 0.041096076369286, -0.035325374454260, 0.027219241485000, 0.039774563163519, 0.070068001747131, 0.064216054975986, 0.036595687270164, 0.033695284277201, -0.057316381484270, -0.072808869183064, 0.065483465790749, -0.039493709802628, 0.082943409681320, 0.064021810889244, -0.072313092648983, 0.070197902619839, -0.015415353700519, -0.023309702053666, -0.062994368374348, -0.024392850697041, 0.079813539981842, 0.074653066694736, -0.030830729752779, -0.061229676008224, -0.046078201383352, -0.082477174699306, -0.082988224923611, -0.013517023064196, -0.035134300589561, 0.003406647127122, 0.056608550250530, 0.056676868349314, 0.004786363802850, 0.033341191709042, -0.067716129124165, 0.070157006382942, 0.009794562123716, 0.074806615710258, 0.012600106187165, 0.015121947973967, -0.064524643123150, -0.034593019634485, 0.028408847749233, -0.071684770286083, -0.078018553555012, 0.056958701461554, 0.010849439539015, 0.033274013549089, -0.051103241741657, 0.043751504272223, -0.058701023459435, -0.024181479588151, -0.039380773901939, -0.042692881077528, -0.063302524387836, 0.061878304928541, -0.034523021429777, -0.034153971821070, 0.026198381558061, 0.014677020721138, 0.056317809969187, 0.022071095183492, 0.025161087512970, -0.049232155084610, 0.072925493121147, -0.026036521419883, -0.049339588731527, -0.050863113254309, 0.031719885766506, -0.023601774126291, 0.060110270977020, 0.049716006964445, -0.056833926588297, 0.001054534688592, 0.001798900309950, 0.007186754606664, 0.060826033353806, 0.060214083641768, 0.049163166433573, 0.082681313157082, -0.056079708039761, 0.064894519746304, -0.016602383926511, -0.009756575338542, -0.058926414698362, -0.036816950887442, -0.050271358340979, 0.017905486747622, 0.057858582586050, -0.026025399565697, 0.070834375917912, 0.036447212100029, -0.017762223258615, -0.049038715660572, -0.027438180521131, -0.004967136308551, -0.082434244453907, 0.071335040032864, -0.005525903776288, 0.040746014565229, -0.017272816970944, 0.049884814769030, 0.070282503962517, 0.064373359084129, 0.044073671102524, 0.016283560544252, -0.015762399882078, -0.038810878992081, 0.010666321031749, 0.007826030254364, 0.055382650345564, 0.058607585728168, -0.007479348685592, -0.039878562092781, -0.046498283743858, 0.069304175674915, -0.011129992082715, 0.042379364371300, -0.051041521131992, -0.055074937641621, 0.024444796144962, -0.048715777695179, -0.013910038396716, 0.056788228452206, -0.034983891993761, 0.055012643337250, -0.016460498794913, 0.005768775939941, 0.004637344740331, -0.078389428555965, -0.029395215213299, -0.028758376836777, 0.073148295283318, -0.033360019326210, 0.030742798000574, 0.037769429385662, 0.063703529536724, -0.059318616986275, 0.081957213580608, -0.064558885991573, -0.037658248096704, 0.072698980569839, -0.006650856230408, 0.070541590452194, 0.047683566808701, -0.000762595504057, -0.019793294370174, 0.033613413572311, -0.016616838052869, -0.076249375939369, -0.021246183663607, 0.000149532919750, -0.025141706690192, 0.039973005652428, 0.079907611012459, 0.018503632396460, 0.072574540972710, 0.030505452305079, -0.015687707811594, 0.010068926960230, 0.003942046314478, 0.050840720534325, -0.081286199390888, -0.073053404688835, 0.063414864242077, -0.031790319830179, -0.041151121258736, 0.035889744758606, 0.050212994217873, -0.017819833010435, -0.030992155894637, -0.009314269758761, -0.038710735738277, -0.019953312352300, 0.033384088426828, 0.024969337508082, -0.002333167707548, 0.007795810699463, 0.068628363311291, -0.001651497208513, 