//Numpy array shape [2, 2, 128, 64]
//Min -0.088374413550
//Max 0.088386766613
//Number of zeros 0

#ifndef W167_H_
#define W167_H_

#ifndef __SYNTHESIS__
model_default_t w167[32768];
#else
model_default_t w167[32768] = {0.003637775778770, -0.011483207345009, 0.056297384202480, -0.065218389034271, -0.084236063063145, -0.020782567560673, 0.051808334887028, 0.046000055968761, 0.086232550442219, 0.024025514721870, 0.050762169063091, -0.003245584666729, -0.010888934135437, -0.067687228322029, -0.003378599882126, 0.088332124054432, 0.084902577102184, -0.085988081991673, 0.072087027132511, 0.068446166813374, -0.018433153629303, 0.050163008272648, -0.011029072105885, 0.031771555542946, -0.052107602357864, 0.012006372213364, -0.041625682264566, -0.058339498937130, -0.067946389317513, 0.046953819692135, -0.080217190086842, 0.052022524178028, 0.048118151724339, -0.040959846228361, -0.075673818588257, 0.061878569424152, 0.005046077072620, 0.074113436043262, 0.084715776145458, 0.035083100199699, -0.064103059470654, 0.002982035279274, -0.025772057473660, 0.025720134377480, 0.081151120364666, -0.040168095380068, 0.018303826451302, -0.065004006028175, 0.002116613090038, 0.062357716262341, 0.064931429922581, -0.086208112537861, -0.050263572484255, 0.048192553222179, -0.034709487110376, 0.060412593185902, 0.021318867802620, 0.083385847508907, -0.026744998991489, -0.029428195208311, 0.011324018239975, 0.058120526373386, -0.019830092787743, -0.050003461539745, -0.052532568573952, -0.006639920175076, 0.031643681228161, -0.021393530070782, -0.024530224502087, -0.002714067697525, -0.013514004647732, 0.037377677857876, -0.075001619756222, -0.078682117164135, -0.036629278212786, -0.056490704417229, -0.061576694250107, 0.007998906075954, -0.019360698759556, -0.058849304914474, -0.038220722228289, 0.083744727075100, -0.058002114295959, 0.022053524851799, 0.068440325558186, -0.078820481896400, -0.014185473322868, 0.025554455816746, 0.011804275214672, 0.041222237050533, -0.069989100098610, 0.037324361503124, -0.045523654669523, 0.031029246747494, -0.007920615375042, -0.014141447842121, -0.047098405659199, 0.041573993861675, 0.087900288403034, -0.074563905596733, 0.019772164523602, 0.022870689630508, 0.084543056786060, 0.017696298658848, -0.020025588572025, -0.050369128584862, 0.033669263124466, -0.083022564649582, -0.077795661985874, 0.012834936380386, 0.023065663874149, 0.029911741614342, -0.053029291331768, -0.028762780129910, 0.042938493192196, 0.066803835332394, -0.040445275604725, -0.072849705815315, 0.031703576445580, -0.025682054460049, 0.031665414571762, 0.023339636623859, 0.050258584320545, 0.006591536104679, -0.065066277980804, 0.068016521632671, -0.008298672735691, 0.032217890024185, 0.048659004271030, 0.004038721323013, -0.018522866070271, -0.026456926018000, -0.071045719087124, 0.037242956459522, -0.078182362020016, 0.023564532399178, 0.028232254087925, 0.064277626574039, 0.073420964181423, 0.014351844787598, 0.008907251060009, 0.083365492522717, -0.002493783831596, -0.044750194996595, -0.057203032076359, -0.075695000588894, 0.032516419887543, 0.029300063848495, -0.087076023221016, 0.070284970104694, 0.053402207791805, 0.006047628819942, 0.064327083528042, 0.014936022460461, 0.060418702661991, 0.076434426009655, -0.086568884551525, -0.055890366435051, 0.046836994588375, -0.050779975950718, 0.083371020853519, -0.000914499163628, 0.074512697756290, -0.023062713444233, 0.020942263305187, -0.003267265856266, -0.009664945304394, -0.002573847770691, 0.055414386093616, -0.026283387094736, -0.019978426396847, 0.021673597395420, 0.059963844716549, -0.079494558274746, -0.065163195133209, 0.055921532213688, -0.061120726168156, 0.068762980401516, 0.049356572329998, 0.072471089661121, -0.079792812466621, -0.006146103143692, -0.024551257491112, 0.008610010147095, 0.050777338445187, 0.021199166774750, -0.043435700237751, 0.019167669117451, 0.041588090360165, -0.045374810695648, 0.003324814140797, -0.049929812550545, 0.072585023939610, -0.013787537813187, -0.077685430645943, 0.082590393722057, -0.076744750142097, 0.050429023802280, 0.015018291771412, -0.000505827367306, 0.081711225211620, 0.014273665845394, 0.016087770462036, -0.026107676327229, -0.042201679199934, 0.056335352361202, 0.070510648190975, -0.082754217088223, -0.042070012539625, -0.071037121117115, -0.061057463288307, -0.015044040977955, 0.055060319602489, 0.015599116683006, 0.001521922647953, 0.071069471538067, 0.059740968048573, -0.087215438485146, 0.022294819355011, 0.046126119792461, -0.064731255173683, 0.077200107276440, 0.077562458813190, 0.080645911395550, -0.068363808095455, -0.045082416385412, 0.034486934542656, 0.047610618174076, -0.082924008369446, -0.024747408926487, 0.080333985388279, -0.064491972327232, -0.085561834275723, -0.010869063436985, -0.050815232098103, -0.061953485012054, -0.005494497716427, -0.057776331901550, 0.019167989492416, -0.022037975490093, -0.038804013282061, 0.035972125828266, 0.017172522842884, -0.019983313977718, -0.088233605027199, -0.020855627954006, -0.071800716221333, -0.062290720641613, -0.033227268606424, 0.021526396274567, -0.024475350975990, -0.041917547583580, 0.060237787663937, 0.057495884597301, 0.072722651064396, 0.036928437650204, -0.082631930708885, 0.026508197188377, -0.064969114959240, 0.065839134156704, 0.065424047410488, -0.022075824439526, 0.047890074551105, 0.018103353679180, 0.046163268387318, 0.012281231582165, -0.031334053725004, 0.012346051633358, -0.064559444785118, -0.005302682518959, 0.012269899249077, 0.081649459898472, 0.029920175671577, 0.083387054502964, 0.046223990619183, -0.023113876581192, 0.054383106529713, -0.048247791826725, -0.042425248771906, -0.002745002508163, 0.072443984448910, 0.064727522432804, 0.039221785962582, -0.023339912295341, 0.060186348855495, -0.032408922910690, -0.050040740519762, 0.018699310719967, -0.054362922906876, 0.085245944559574, -0.001592874526978, 0.012553542852402, -0.075376898050308, 0.037728808820248, -0.034561786800623, -0.068766713142395, -0.077119268476963, -0.036146212369204, -0.048166912049055, -0.004384621977806, -0.063665494322777, -0.056185942143202, -0.087470047175884, 0.087622903287411, -0.055020414292812, 0.002425655722618, 0.068759836256504, -0.004472494125366, -0.045959830284119, -0.080336339771748, 0.019721478223801, -0.032046649605036, -0.073792703449726, 0.059047855436802, -0.063260860741138, 0.058881260454655, -0.039137139916420, -0.059685565531254, 0.036539591848850, -0.028556428849697, 0.064299292862415, 0.029492214322090, 0.062265954911709, 0.026179179549217, 0.042642407119274, -0.051169455051422, -0.048023782670498, -0.046442285180092, -0.045653000473976, 0.031434826552868, 0.069501854479313, -0.003997251391411, 0.060020543634892, -0.071857132017612, -0.000656202435493, 0.074818052351475, -0.074595913290977, 0.029432706534863, -0.028628583997488, 0.078787691891193, 0.023459441959858, -0.003864631056786, 0.084937997162342, -0.014514870941639, -0.013512976467609, 0.033608846366405, 0.031964972615242, -0.053033273667097, -0.023552246391773, -0.043865341693163, -0.035984221845865, 0.034556664526463, -0.063283219933510, -0.041621338576078, -0.011996828019619, -0.039684902876616, -0.069030486047268, -0.080286435782909, 0.042871691286564, -0.003005869686604, 0.008813180029392, 0.042404301464558, -0.018976703286171, 0.009415566921234, -0.020220391452312, -0.035201132297516, -0.018138930201530, -0.020014904439449, -0.086326420307159, 0.063389725983143, 0.035838767886162, 0.074530445039272, -0.034835256636143, 0.017937548458576, -0.066829562187195, -0.021099112927914, -0.011545836925507, -0.024224050343037, 0.081108279526234, -0.007005080580711, -0.053845167160034, 0.033852346241474, 0.082809634506702, -0.037012308835983, -0.071002222597599, 0.062668420374393, -0.073360443115234, 0.079446054995060, 0.052605994045734, -0.057056423276663, -0.061687432229519, -0.085714675486088, 0.014477379620075, 0.052429758012295, -0.022124208509922, 0.068722464144230, -0.079319313168526, 0.075536511838436, 0.079282514750957, -0.000379070639610, -0.080328837037086, -0.021648772060871, -0.072633072733879, 0.046284548938274, -0.013410031795502, 0.076720602810383, 0.016489133238792, 0.071870423853397, -0.022977404296398, 0.060843922197819, -0.033248066902161, 0.055189065635204, -0.023535557091236, 0.017320036888123, 0.034723885357380, -0.055935062468052, 0.060652203857899, -0.050087399780750, -0.045765787363052, -0.064536094665527, -0.012163013219833, 0.065743453800678, -0.016984991729259, 0.024863034486771, 0.025225058197975, -0.054592072963715, 0.080728448927402, 0.027969531714916, 0.070816121995449, 0.060170076787472, -0.055595546960831, 0.027406409382820, 0.025885373353958, 0.049747891724110, 0.087608434259892, -0.023870587348938, 0.030995614826679, 0.052548788487911, -0.055869229137897, 0.025098636746407, -0.017075605690479, 0.023544810712337, -0.051709733903408, -0.014043875038624, -0.022910542786121, -0.072052583098412, -0.053218148648739, -0.066167622804642, 0.004089087247849, 0.007072724401951, -0.010873973369598, -0.031033482402563, 0.054003812372684, -0.082576945424080, -0.033706899732351, 0.084832318127155, 0.074679858982563, 0.013294696807861, -0.022074729204178, -0.042777407914400, 0.071910448372364, 0.024063721299171, -0.039018731564283, 0.056484200060368, -0.023713737726212, -0.029210861772299, -0.078274071216583, 0.078226618468761, -0.054034747183323, 0.072032339870930, 0.000266872346401, -0.074092812836170, -0.066401936113834, -0.066139571368694, -0.044572357088327, 0.021080881357193, -0.083962529897690, -0.053949609398842, -0.071099601686001, -0.031802453100681, -0.059437952935696, -0.084693290293217, -0.035412140190601, 0.009873174130917, -0.021282494068146, -0.082576103508472, -0.049414038658142, 0.036159254610538, 0.032149910926819, 0.016735419631004, -0.036487855017185, -0.064750999212265, -0.022506244480610, -0.082534506917000, -0.078847035765648, -0.073899000883102, 0.010781481862068, 0.083398081362247, 0.047309018671513, -0.076317533850670, 0.038899712264538, -0.039795663207769, 0.072960682213306, 0.032951988279819, 0.003818757832050, -0.034932740032673, 0.024630449712276, -0.088010586798191, 0.074901588261127, 0.019331455230713, 0.025441519916058, 0.005566857755184, 0.066136099398136, 0.039637781679630, 0.003683887422085, -0.063421860337257, -0.075068823993206, -0.058337472379208, 0.047140173614025, -0.007929272949696, -0.029009506106377, 0.036010161042213, -0.051888015121222, -0.083296857774258, -0.047083485871553, -0.046464961022139, 0.041712708771229, -0.006536915898323, 0.012767925858498, 0.061053626239300, 0.052350245416164, 0.055041007697582, -0.070372194051743, -0.013681985437870, 0.070367045700550, 0.026489950716496, -0.028641037642956, 0.074225164949894, 0.078109495341778, -0.024123847484589, 0.046207450330257, -0.032669264823198, -0.050903592258692, 0.030425995588303, 0.053109876811504, 0.071381486952305, -0.020752519369125, -0.075452297925949, -0.036051526665688, 0.030996538698673, -0.017137877643108, 0.025906763970852, 0.029319956898689, -0.007759869098663, 0.007184416055679, -0.022778242826462, 0.004427276551723, -0.073036022484303, 0.070938535034657, 0.010708503425121, 0.039146788418293, 0.026310719549656, 0.032271333038807, -0.086290024220943, 0.027322940528393, 0.020939983427525, 0.057768218219280, -0.014921352267265, -0.081891559064388, 0.074791289865971, 0.025799579918385, -0.005174160003662, 0.036369927227497, -0.052926745265722, -0.012787163257599, -0.037151288241148, -0.059561230242252, 0.030104316771030, 0.057526879012585, 0.024602741003036, 0.065107814967632, -0.009847529232502, 0.061992086470127, -0.086841031908989, 0.077650867402554, 0.068954207003117, -0.079179242253304, -0.015506833791733, 0.041369087994099, -0.011907562613487, -0.072552949190140, -0.034979481250048, -0.084523417055607, 0.020279884338379, 0.017468266189098, -0.009166620671749, 0.010270237922668, 0.076673351228237, 0.003401733934879, -0.061406210064888, 0.018183223903179, -0.082259923219681, -0.064706787467003, 0.061850391328335, 0.029192104935646, 0.048884056508541, -0.020113341510296, 0.001194335520267, -0.065082594752312, -0.052757233381271, -0.004296638071537, -0.000599727034569, 0.009571045637131, 0.067395485937595, 0.058205641806126, 0.043250732123852, 0.079870365560055, -0.085574999451637, -0.022563233971596, 0.027835108339787, -0.031574204564095, -0.000923775136471, -0.048007536679506, 0.055274136364460, -0.073468342423439, 0.077032320201397, -0.039135266095400, 0.012381054461002, -0.027991387993097, 0.013832129538059, -0.045610032975674, 0.085799269378185, -0.049150831997395, 0.042708076536655, -0.010754778981209, 0.077677868306637, -0.020593494176865, 0.048445500433445, 0.057761453092098, 0.013444148004055, 0.008615218102932, 0.054498873651028, 0.003281660377979, -0.043567575514317, 0.032280057668686, 0.074781231582165, -0.044098816812038, 0.083990044891834, 0.000936776399612, 0.011826634407043, 0.026847392320633, -0.031949460506439, 0.027331009507179, -0.000861674547195, -0.052199628204107, 0.041942946612835, 0.078381039202213, 0.010029450058937, -0.068864956498146, 0.060381941497326, 0.086405046284199, 0.064137183129787, -0.035952210426331, 0.006626181304455, 0.067324273288250, 0.040160112082958, -0.087002180516720, -0.080682069063187, 0.055193968117237, 0.027528680860996, -0.020930670201778, 0.038877032697201, 0.071136124432087, 0.067104138433933, -0.054041173309088, 0.021834641695023, 0.034800775349140, 0.024955742061138, -0.079419456422329, 0.072994731366634, -0.068833872675896, -0.047341827303171, -0.026219744235277, -0.056188996881247, -0.030215095728636, -0.002783127129078, 0.056478567421436, -0.087637946009636, 0.056104265153408, -0.055275611579418, 0.083726190030575, 0.033416166901588, 0.032996617257595, -0.052034478634596, 0.028565824031830, -0.015680484473705, 0.064665324985981, -0.076368905603886, -0.072193063795567, 0.072977773845196, 0.070690058171749, -0.007161021232605, -0.066230311989784, -0.067611552774906, 0.005252175033092, -0.057189669460058, -0.051355637609959, -0.037959348410368, 0.014516830444336, 0.078306190669537, -0.048073012381792, -0.036736056208611, -0.067361958324909, 0.063386775553226, 0.086897037923336, 0.082266055047512, 0.071324400603771, 0.074721373617649, 0.051457293331623, -0.066870652139187, -0.056636195629835, -0.028411190956831, 0.037987165153027, 0.005125477910042, 0.012142889201641, -0.082468084990978, 0.037894181907177, -0.080179572105408, 0.008762098848820, -0.078466810286045, 0.031755648553371, 0.037040673196316, -0.011642351746559, 0.025930128991604, 0.052465550601482, -0.060399066656828, 0.003519132733345, -0.001457206904888, -0.059607338160276, -0.073313660919666, 0.013566903769970, -0.071410581469536, 0.017931416630745, -0.069123044610023, 0.075754977762699, -0.068590998649597, -0.080724976956844, 0.046804688870907, 0.021606266498566, -0.001201272010803, -0.058049634099007, -0.012993536889553, -0.005956575274467, -0.083012476563454, -0.051175776869059, -0.022658102214336, 0.027325525879860, 0.049140907824039, 0.034579947590828, -0.086872681975365, 0.030948892235756, -0.078518077731133, -0.023462243378162, 0.057359538972378, 0.058186478912830, 0.068656198680401, -0.012520037591457, 0.073004074394703, -0.018689431250095, 0.085283152759075, -0.078920267522335, -0.023373633623123, 0.077575661242008, -0.028956379741430, 0.074900411069393, 0.018782213330269, 0.028269745409489, 0.065149120986462, 0.042564310133457, 0.024142764508724, 0.027090772986412, -0.027854997664690, -0.073422484099865, 0.084700353443623, -0.012877233326435, -0.043348602950573, 0.071803145110607, 0.006687611341476, 0.070523105561733, -0.055665384978056, -0.025623597204685, -0.001736029982567, 0.035366557538509, -0.062464747577906, 0.009021617472172, -0.079370059072971, -0.020698383450508, 0.016981236636639, -0.033668018877506, -0.032382413744926, 0.070263825356960, -0.051413845270872, -0.060879521071911, 0.043757595121861, 0.043441154062748, 0.084789596498013, 0.082260496914387, -0.054219834506512, 0.052381388843060, 0.000299751758575, -0.079770751297474, 0.012117557227612, 0.044309563934803, -0.083661764860153, 0.016590662300587, 0.023207001388073, -0.032936245203018, 0.060887046158314, 0.020290248095989, 0.055313624441624, -0.079403758049011, -0.059343330562115, -0.082927778363228, -0.040157031267881, -0.024222023785114, 0.058683820068836, -0.048673074692488, -0.050811249762774, -0.000983707606792, 0.036872006952763, 0.066832445561886, -0.012158900499344, -0.049567177891731, 0.054208226501942, -0.013118185102940, -0.045831199735403, 0.012635476887226, -0.029889490455389, -0.029655829071999, 0.018910676240921, 0.083184577524662, -0.058493755757809, 0.086644314229488, 0.066527359187603, -0.050012692809105, -0.007268287241459, -0.043178245425224, -0.079740971326828, -0.009981662034988, -0.038801968097687, -0.052444797009230, 0.025004610419273, -0.087636597454548, 0.010457836091518, -0.016523674130440, 0.069836668670177, 0.079327009618282, -0.017130352556705, 0.013050772249699, -0.056125566363335, -0.022856570780277, -0.010871715843678, 0.007611237466335, -0.029384594410658, 0.078586943447590, -0.053652893751860, -0.005220100283623, -0.037356141954660, -0.048575907945633, 0.024626068770885, -0.040129110217094, 0.077375464141369, 0.072004519402981, -0.022423341870308, 0.012324832379818, -0.008536651730537, 0.051337219774723, -0.020671345293522, -0.086328417062759, 0.056115008890629, 0.005842588841915, -0.049552217125893, 0.021889932453632, 0.004250951111317, 0.080690421164036, -0.044565148651600, 0.085296846926212, -0.027836579829454, -0.018206112086773, -0.010042749345303, -0.032599363476038, 0.072041057050228, -0.008359782397747, -0.006025016307831, -0.059743769466877, 0.035530298948288, 0.021135486662388, 0.053023345768452, -0.006376542150974, 0.041550315916538, -0.048957355320454, -0.079573057591915, 0.085407547652721, -0.014239355921745, -0.011793173849583, 0.083740390837193, 0.085764221847057, 0.060610182583332, 0.027460776269436, -0.025252744555473, 0.015104860067368, -0.064396783709526, -0.087876327335835, -0.052677955478430, 0.032582692801952, 0.082484774291515, -0.038239918649197, 0.053507797420025, -0.056456312537193, 0.007829658687115, -0.050135973840952, 0.009243138134480, 0.077679149806499, 0.079573936760426, 0.062411375343800, -0.011827670037746, 0.047607459127903, 0.078800387680531, -0.007858321070671, 0.080754838883877, -0.054857283830643, -0.086292743682861, -0.037069313228130, -0.084248177707195, 0.057849623262882, -0.025904547423124, -0.067867890000343, 0.063493512570858, 0.030820980668068, -0.073783308267593, -0.074155271053314, -0.026228677481413, -0.013158395886421, -0.039683215320110, 0.009583011269569, -0.048849292099476, -0.079552240669727, 0.035672582685947, -0.013523660600185, -0.001642696559429, -0.079179383814335, 0.057010896503925, 0.078969158232212, 0.050614677369595, -0.055489402264357, 0.021147727966309, 0.049874909222126, -0.037796683609486, -0.082753650844097, -0.028408385813236, -0.085644498467445, 0.036290921270847, 0.074611656367779, 0.080560721457005, 0.077150098979473, 0.051725395023823, -0.025178864598274, 0.080757535994053, -0.020822651684284, 0.005254469811916, -0.040762070566416, -0.057248882949352, 0.020893037319183, -0.088186755776405, 0.000005058944225, -0.015827424824238, 0.040908105671406, -0.059611827135086, 0.023874670267105, -0.023328065872192, -0.068577326834202, 0.016506224870682, 0.007396206259727, 0.003468602895737, -0.021896719932556, -0.067932479083538, -0.052521653473377, 0.031301073729992, 0.081866495311260, 0.083416558802128, 0.084329672157764, 0.070452876389027, 0.041950143873692, 0.079846374690533, 0.042906917631626, -0.040030885487795, -0.039162807166576, -0.061167698353529, 0.040286593139172, -0.004679098725319, -0.010117158293724, 0.081306181848049, -0.021508313715458, 0.078517593443394, 0.013325735926628, 0.015209682285786, 0.003263875842094, 0.085583023726940, 0.067363671958447, 0.085282750427723, 0.065179280936718, -0.000132590532303, -0.005315601825714, -0.058955159038305, -0.069813050329685, 0.001512922346592, 0.084935195744038, 0.029558278620243, 0.017953015863895, 0.013871096074581, -0.046780832111835, -0.085823707282543, 0.072181828320026, 0.028258405625820, -0.063204020261765, 0.071553759276867, -0.001472987234592, -0.017159901559353, 0.087165124714375, -0.053831323981285, 0.045493714511395, 0.036483451724052, 0.021406762301922, -0.060268372297287, 0.075647585093975, -0.039225839078426, 0.060285098850727, 0.010432206094265, -0.043585762381554, -0.052686743438244, -0.060487512499094, 0.030100330710411, 0.068882174789906, 0.004638932645321, -0.009440705180168, -0.057281084358692, 0.086302779614925, -0.017183460295200, 0.021809160709381, 0.053966917097569, -0.043058589100838, -0.045373018831015, -0.053796235471964, 0.057054080069065, -0.004988946020603, 0.048570655286312, 0.002863228321075, -0.078055433928967, -0.087787836790085, 0.042817302048206, 0.003404855728149, 0.022850312292576, -0.086909979581833, -0.033113744109869, -0.071876198053360, -0.003182634711266, -0.053962167352438, 0.060113169252872, 0.034623779356480, 0.016131602227688, 0.058430455625057, 0.015487663447857, 0.068470574915409, -0.065764844417572, -0.079992190003395, 0.003021508455276, -0.026854392141104, 0.043774120509624, -0.006319604814053, 0.074365220963955, 0.086947344243526, 0.011391468346119, 0.030612878501415, 0.024588346481323, 0.000532925128937, -0.064113743603230, 0.053346209228039, -0.024147152900696, 0.021155461668968, 0.087899126112461, -0.066770091652870, 0.011757411062717, 0.009963743388653, 0.009102620184422, -0.087882608175278, -0.011491127312183, -0.066565148532391, 0.037371329963207, -0.003979526460171, 0.071292601525784, -0.003052018582821, -0.074064128100872, -0.041580837219954, -0.000406168401241, 0.005866147577763, -0.049735557287931, 0.037412829697132, -0.007155269384384, 0.081679366528988, 0.027526088058949, -0.061805024743080, -0.012984640896320, 0.010010905563831, 0.013609088957310, -0.070288889110088, 0.045466251671314, -0.032890219241381, 0.035519063472748, 0.041942261159420, -0.031140934675932, -0.084010340273380, 0.040672443807125, 0.051209889352322, -0.061478048563004, -0.075024172663689, 0.034717731177807, 0.062464199960232, -0.048118781298399, 0.015960820019245, 0.002992406487465, 0.062533713877201, 0.078824259340763, -0.084752403199673, 0.061812825500965, -0.045813959091902, -0.080168232321739, -0.087082408368587, -0.068341471254826, 0.058140791952610, -0.087824888527393, 0.014967717230320, -0.066179931163788, 0.041390590369701, 0.032747805118561, 0.026015944778919, -0.050557188689709, 0.024064712226391, 0.038821287453175, 0.059607781469822, -0.017207443714142, 0.051277749240398, 0.057250715792179, -0.035319544374943, -0.069886893033981, -0.073996528983116, 0.053840167820454, -0.027368202805519, -0.028690539300442, -0.044874213635921, 0.038199611008167, 0.062172271311283, -0.041732292622328, 0.004021421074867, 0.009167447686195, 0.018760681152344, 0.022683203220367, -0.069367282092571, 0.085022412240505, -0.051527030766010, -0.058701328933239, 0.063568599522114, 0.083539880812168, 0.019065439701080, 0.048789359629154, -0.011142067611217, 0.003146387636662, -0.003670148551464, -0.081235542893410, -0.086424723267555, -0.038136068731546, 0.063720621168613, 0.044580660760403, -0.048741649836302, -0.049289725720882, -0.035799112170935, -0.014697767794132, 0.070402748882771, 0.026988737285137, 0.028477214276791, 0.003401458263397, 0.035175316035748, 0.058687128126621, 0.025740407407284, 0.054808713495731, -0.017813995480537, -0.072673387825489, -0.080479048192501, -0.053583309054375, -0.064904540777206, 0.030031986534595, 0.074624709784985, -0.002862364053726, -0.080467648804188, -0.016056470572948, 0.056949742138386, 0.056919299066067, -0.056491862982512, -0.068991944193840, -0.071727231144905, 0.077347479760647, -0.082411818206310, 0.071842245757580, -0.039760239422321, 0.051597543060780, 0.063910357654095, 0.046212263405323, 0.030577577650547, -0.058330498635769, 0.010703295469284, -0.015095017850399, -0.057808510959148, 0.070949815213680, 0.045354731380939, 0.060296736657619, 0.026901029050350, -0.034514497965574, -0.042141135782003, 0.043424449861050, 0.017107762396336, 0.057560451328754, 0.049237884581089, 0.031259894371033, -0.025235675275326, 0.080194093286991, 0.007152892649174, -0.052840936928988, 0.039573736488819, 0.026845604181290, 0.052404902875423, 0.018106579780579, 0.034873187541962, -0.013842202723026, -0.036633111536503, 0.055145718157291, 0.030094765126705, 0.003240965306759, 0.006308309733868, -0.055828746408224, -0.083544597029686, 0.022662550210953, 0.027884542942047, -0.003714904189110, 0.078311078250408, 0.073144398629665, 0.018649913370609, -0.005793884396553, -0.026153825223446, -0.046997129917145, 0.045145742595196, -0.039155200123787, 0.071898199617863, -0.038849215954542, -0.007385283708572, -0.003457076847553, -0.069143988192081, 0.087484933435917, -0.043217927217484, 0.059648789465427, 0.031169660389423, 0.012160398066044, 0.040007404983044, 0.004421770572662, -0.045202597975731, -0.046668257564306, 0.077228344976902, -0.020531103014946, 0.067049898207188, 0.075354523956776, -0.081929281353951, 0.070574052631855, -0.004588045179844, -0.085508517920971, 0.038435481488705, -0.067543022334576, -0.087238013744354, 0.065806902945042, -0.013808593153954, 0.068032301962376, -0.016989648342133, 0.059136681258678, 0.056639589369297, 0.084010235965252, 0.016186036169529, -0.082092553377151, 0.060422055423260, -0.080417260527611, -0.035588882863522, -0.085558861494064, -0.028425097465515, 0.080711714923382, 0.052276782691479, 0.065335743129253, -0.028891012072563, 0.053514458239079, 0.036870039999485, 0.084947325289249, 0.019858144223690, -0.052525509148836, -0.078751303255558, -0.026086769998074, -0.080973029136658, 0.023392237722874, 0.025621823966503, 0.005890741944313, -0.066615745425224, 0.023034892976284, -0.013762250542641, -0.004627451300621, -0.048298686742783, 0.042163319885731, 0.032355882227421, 0.022757761180401, 0.075170941650867, 0.041779898107052, 0.007619410753250, -0.005817763507366, -0.000185213983059, -0.042628102004528, -0.085893087089062, 0.024082012474537, 0.054433532059193, 0.030129961669445, -0.027457594871521, 0.020770639181137, 0.031531363725662, -0.022678583860397, -0.018797956407070, -0.041082598268986, -0.046653147786856, 0.069163717329502, 0.087990961968899, -0.044881947338581, -0.070493787527084, -0.028493061661720, 0.008331105113029, -0.040640309453011, 0.022045731544495, -0.008288033306599, 0.066241465508938, 0.019734099507332, -0.027560159564018, -0.070708125829697, -0.033823180943727, 0.044453687965870, 0.078510202467442, 0.059192650020123, 0.000499337911606, 0.046056501567364, 0.005085989832878, -0.005450345575809, -0.021164990961552, -0.013735026121140, 0.027212113142014, -0.057910971343517, 0.058498851954937, -0.065634861588478, 0.070714958012104, -0.036494258791208, 0.083436600863934, 0.007719531655312, -0.041863601654768, 0.086121372878551, 0.059121526777744, -0.043089967221022, -0.072429001331329, -0.050255943089724, 0.039712302386761, -0.007739402353764, -0.083791114389896, -0.066525489091873, 0.025237090885639, 0.046038545668125, 0.005909115076065, 0.065154708921909, -0.046373650431633, -0.030906852334738, -0.080888420343399, 0.051075361669064, -0.070290893316269, 0.021211184561253, 0.024385787546635, -0.057786785066128, -0.020378358662128, -0.034630253911018, -0.067502662539482, 0.037314735352993, 0.041659392416477, 0.016182914376259, -0.052420921623707, -0.084535621106625, -0.060781531035900, 0.043216116726398, -0.027687866240740, -0.046875409781933, -0.029998376965523, 0.004316657781601, -0.036350771784782, 0.037635825574398, -0.030689608305693, 0.041828043758869, 0.000900402665138, -0.053200259804726, 0.062393926084042, 0.086961574852467, 0.037607230246067, 0.086710937321186, -0.054147783666849, -0.025045365095139, 0.030733168125153, 0.007541269063950, -0.084955886006355, -0.083491787314415, -0.014352396130562, 0.054089345037937, 0.057178758084774, -0.069800451397896, 0.024189300835133, 0.069675169885159, -0.047166623175144, 0.008645541965961, 0.028568081557751, -0.023680455982685, -0.071009323000908, 0.046669833362103, -0.023966215550900, 0.026554472744465, -0.005016103386879, 0.023279309272766, -0.026137769222260, 0.054841585457325, -0.002989858388901, -0.047883160412312, 0.086636848747730, 0.037579126656055, 0.071877472102642, -0.085416615009308, 0.054832898080349, -0.046426501125097, -0.017614938318729, -0.001159057021141, -0.076846368610859, -0.049514666199684, -0.078508026897907, 0.010766267776489, 0.056198664009571, 0.019668184220791, 0.042190514504910, -0.033473912626505, -0.006002217531204, 0.087844334542751, 0.045717261731625, 0.055438630282879, -0.043729610741138, 0.019244335591793, -0.035400170832872, -0.048126261681318, -0.012410268187523, -0.066637746989727, 0.009168520569801, 0.044632337987423, 0.010428205132484, -0.074750639498234, 0.025908619165421, 0.063235886394978, 0.023177519440651, 0.079069845378399, 0.027993179857731, 0.047709204256535, 0.041214250028133, 0.025347471237183, -0.033622395247221, 0.013244666159153, 0.033775158226490, 0.048851870000362, -0.065486341714859, 0.084971122443676, -0.013379983603954, -0.085288427770138, -0.049511168152094, -0.009117186069489, 0.029745116829872, -0.022656753659248, -0.055965851992369, 0.043381981551647, 0.071786172688007, 0.080020390450954, 0.021200641989708, 0.081131897866726, -0.054613441228867, 0.049753211438656, -0.008723154664040, -0.003006227314472, -0.043274506926537, 0.059490151703358, 0.042238391935825, 0.086942307651043, -0.077785298228264, 0.039599306881428, 0.082845903933048, -0.021733567118645, -0.065700024366379, -0.023637220263481, -0.063832789659500, -0.000336080789566, 0.033520735800266, -0.050862353295088, 0.048559762537479, -0.028692815452814, -0.036094982177019, -0.072227731347084, -0.043711759150028, 0.042759858071804, 0.076389305293560, -0.038435250520706, -0.027377624064684, 0.079983375966549, 0.035747461020947, 0.002839893102646, -0.074692495167255, 0.054245688021183, 0.068217135965824, -0.023749850690365, 0.067906685173512, 0.005274549126625, -0.061270050704479, 0.068356223404408, -0.004683718085289, 0.043844349682331, -0.037217438220978, -0.034820713102818, -0.064314953982830, 0.071569941937923, 0.048188246786594, 0.069672323763371, -0.004921615123749, 0.075330950319767, -0.049468554556370, 0.063578583300114, 0.078120820224285, 0.052506633102894, -0.007277414202690, 0.051045410335064, 0.053240410983562, 0.050542376935482, 0.063819311559200, -0.060288496315479, -0.036787495017052, -0.009270474314690, 0.006383121013641, 0.015762880444527, 0.079928465187550, -0.028936129063368, 0.050270415842533, 0.053896225988865, -0.079470828175545, 0.025334872305393, 0.051835812628269, -0.030058626085520, 0.044654093682766, 0.087487541139126, 0.003747068345547, 0.063930131494999, -0.031540151685476, -0.033933587372303, -0.031348276883364, -0.020242542028427, 0.043973810970783, 0.000152990221977, -0.027564924210310, -0.014154426753521, 0.081331007182598, 0.081011153757572, 0.028450958430767, 0.063812367618084, -0.081873916089535, -0.063340790569782, -0.032927457243204, 0.054540358483791, -0.050740085542202, 0.046114660799503, -0.007008217275143, -0.033350441604853, -0.053367309272289, -0.028599586337805, -0.048582799732685, 0.062804751098156, 0.003408245742321, -0.023049503564835, -0.014575876295567, -0.037663012742996, -0.072344012558460, -0.041082408279181, 0.084006927907467, -0.061954516917467, -0.013390347361565, -0.018404707312584, -0.046741168946028, 0.062089093029499, 0.039177499711514, -0.021138690412045, -0.033637292683125, 0.034813672304153, -0.066728048026562, -0.027298849076033, -0.003844298422337, 0.053155623376369, 0.008230775594711, 0.058021001517773, 0.045328907668591, -0.069705598056316, -0.022587887942791, -0.076425701379776, 0.011372461915016, 0.057085074484348, 0.081127263605595, 0.028875797986984, 0.021481849253178, -0.010141775012016, 0.004860565066338, 0.082086764276028, 0.054100833833218, -0.036100290715694, -0.069756634533405, 0.083337284624577, -0.040054637938738, -0.018785566091537, 0.074044741690159, -0.044256232678890, 0.030225589871407, 0.019554428756237, 0.064661718904972, -0.047216903418303, 0.029469475150108, -0.020844712853432, 0.050420843064785, 0.037856124341488, 0.073000453412533, 0.010881096124649, 0.019244670867920, 0.009766265749931, -0.030031021684408, 0.028149686753750, -0.006314188241959, -0.058499194681644, -0.052386298775673, -0.018574893474579, 0.067640148103237, -0.010410420596600, 0.045658551156521, -0.043130680918694, 0.047665305435658, -0.016577810049057, -0.012702599167824, 0.042708329856396, -0.009211637079716, -0.035981480032206, 0.000555872917175, -0.086941637098789, 0.044839106500149, -0.021607130765915, -0.007908076047897, -0.053666401654482, -0.020725816488266, -0.008771896362305, 0.049624674022198, -0.062947772443295, -0.074425831437111, -0.085748076438904, -0.038273572921753, 0.041024662554264, -0.049874156713486, -0.083716154098511, 0.033270679414272, 0.053426973521709, -0.047819498926401, -0.024515114724636, 0.086467631161213, 0.072497777640820, -0.082285419106483, -0.049173612147570, -0.025311164557934, -0.038343474268913, -0.004940830171108, -0.022432491183281, 0.021598048508167, 0.066903807222843, 0.078076578676701, 0.040393598377705, -0.062404520809650, 0.059554763138294, 0.082101680338383, -0.005619525909424, -0.008347481489182, -0.051498875021935, -0.063930951058865, -0.042729295790195, 0.007189244031906, -0.005249135196209, 0.036906518042088, 0.051043756306171, -0.071325890719891, -0.076481506228447, -0.075956270098686, 0.079558558762074, 0.014695763587952, 0.070860885083675, 0.019749805331230, 0.009576648473740, 0.079990603029728, -0.025343552231789, 0.079451568424702, -0.024307519197464, 0.048585839569569, 0.085389323532581, 0.082399703562260, -0.050430513918400, -0.064810112118721, 0.046852819621563, 0.009447112679482, 0.031684190034866, 0.007298737764359, -0.068824790418148, -0.052363075315952, -0.071252048015594, -0.062544047832489, -0.082499422132969, -0.056409530341625, -0.078372210264206, -0.075648196041584, -0.009156212210655, 0.040638871490955, 0.004164360463619, -0.078066833317280, -0.087966501712799, 0.029013171792030, -0.071278832852840, -0.038198046386242, 0.044336758553982, -0.015524096786976, -0.070951879024506, -0.060541838407516, -0.014439970254898, -0.084908954799175, -0.032877027988434, 0.068662144243717, -0.036174092441797, 0.086374290287495, 0.006428577005863, 0.016538761556149, 0.055200450122356, 0.036739327013493, 0.085062704980373, 0.040997229516506, -0.023497626185417, 0.046436913311481, 0.044586859643459, 0.029523149132729, 0.044454149901867, -0.037019576877356, 0.032901033759117, 0.010421231389046, 0.027634799480438, 0.029675260186195, -0.077981278300285, 0.016654156148434, 0.007375255227089, 0.074298419058323, 0.062145911157131, -0.061844408512115, -0.022720016539097, -0.016241118311882, -0.061226494610310, 0.013839215040207, 0.056929133832455, 0.027894660830498, 0.041668169200420, -0.085711136460304, -0.044513393193483, -0.020318239927292, -0.042320385575294, 0.075232587754726, 0.030145764350891, -0.046335801482201, 0.069775052368641, 0.012126304209232, 0.084238372743130, 0.001188181340694, -0.019945070147514, -0.054074089974165, -0.063569270074368, -0.061134636402130, 0.053683601319790, -0.065355874598026, 0.057863034307957, -0.018721900880337, 0.015570938587189, -0.039189402014017, 0.081146650016308, 0.084342874586582, 0.024221494793892, -0.021719008684158, 0.057086430490017, -0.033003784716129, 0.046356774866581, 0.050079680979252, -0.012061245739460, -0.079346895217896, -0.011817894876003, 0.043178923428059, -0.075593911111355, 0.008643604815006, -0.042821954935789, -0.018685258924961, -0.014386065304279, 0.054402239620686, -0.061517179012299, -0.021811582148075, 0.050143174827099, 0.076719753444195, 0.079989992082119, -0.011772267520428, -0.044434640556574, 0.072238288819790, -0.050619840621948, 0.036929674446583, -0.013301543891430, 0.029131248593330, 0.032504282891750, -0.081044934689999, -0.016916692256927, 0.016088671982288, -0.052686318755150, -0.004501029849052, 0.037192173302174, -0.046765889972448, 0.005949407815933, -0.078758105635643, 0.017953254282475, -0.087302409112453, 0.077657990157604, 0.030752070248127, 0.073687143623829, 0.058121971786022, 0.069068990647793, 0.071875162422657, 0.027893833816051, 0.004327431321144, -0.002713918685913, 0.009166307747364, -0.033870704472065, -0.081308811903000, 0.039855577051640, -0.026682812720537, 0.048641152679920, 0.054959483444691, -0.039176464080811, -0.086268588900566, -0.026884969323874, 0.009766437113285, -0.065852068364620, -0.075014978647232, 0.079561300575733, -0.059410449117422, 0.004950486123562, -0.026286777108908, -0.022211514413357, 0.064652167260647, -0.079939648509026, -0.044392451643944, 0.054786734282970, 0.016039654612541, -0.080202966928482, -0.064397767186165, -0.045344907790422, 0.032687492668629, 0.029984869062901, -0.064569853246212, -0.081480875611305, -0.019177213311195, 0.018500231206417, -0.024556457996368, -0.024497263133526, -0.022909045219421, 0.063353367149830, -0.026235654950142, 0.033764638006687, -0.065653175115585, 0.083971567451954, 0.008728042244911, -0.005258686840534, 0.068405218422413, 0.029879815876484, -0.027154561132193, 0.028969109058380, -0.078884966671467, 0.034703969955444, -0.048779454082251, -0.012530803680420, 0.066653467714787, 0.060794405639172, 0.061226136982441, -0.074692666530609, 0.060598857700825, -0.071629196405411, -0.031721297651529, -0.087886042892933, -0.081742227077484, 0.075777836143970, 0.083198346197605, 0.035250127315521, -0.025618076324463, -0.060139276087284, -0.069296412169933, 0.064326204359531, 0.006649658083916, 0.054021216928959, 0.022487662732601, 0.057183943688869, -0.000414513051510, -0.029697176069021, -0.019670121371746, -0.059229239821434, -0.046715967357159, 0.040309898555279, 0.024565413594246, 0.072360567748547, 0.017268091440201, 0.079710774123669, -0.023378625512123, -0.038922846317291, 0.005396738648415, -0.014073148369789, 0.047208033502102, -0.007614523172379, -0.013610206544399, -0.039231613278389, 0.046672634780407, 0.042371012270451, -0.012514472007751, -0.071693114936352, -0.078282669186592, -0.034008163958788, 0.041085399687290, -0.037138558924198, 0.075546599924564, -0.033758677542210, 0.053841836750507, 0.023846328258514, -0.034876052290201, -0.036141742020845, 0.049973376095295, -0.025319464504719, 0.039566509425640, -0.062903665006161, -0.069108545780182, -0.010068774223328, -0.071400277316570, 0.082039214670658, 0.055419705808163, -0.053470186889172, 0.068475998938084, 0.046430237591267, 0.088084168732166, -0.038376241922379, 0.019662007689476, -0.052873369306326, 0.054467000067234, 0.059550128877163, -0.021052815020084, 0.020016990602016, 0.066899754106998, -0.064462468028069, 0.049410842359066, -0.034796584397554, 0.070861808955669, -0.014649614691734, 0.088124163448811, 0.015683792531490, -0.022192277014256, 0.039156042039394, 0.018682725727558, -0.049500312656164, -0.007646553218365, 0.083247356116772, 0.080272503197193, -0.027352947741747, -0.070705637335777, -0.058400526642799, 0.080591268837452, -0.046041175723076, 0.029762186110020, -0.053122412413359, 0.013728700578213, -0.074464924633503, 0.051705591380596, -0.056070163846016, 0.014261186122894, 0.087773211300373, -0.002977780997753, 0.077450789511204, 0.065744616091251, 0.077140621840954, 0.055007196962833, -0.052004449069500, 0.069967113435268, -0.088180474936962, -0.067476429045200, 0.081440500915051, 0.029489330947399, -0.035467606037855, 0.086710564792156, 0.086327381432056, 0.040787480771542, 0.076119773089886, -0.010781250894070, -0.067948132753372, -0.039226744323969, 0.019706726074219, 0.041868366301060, 0.019606731832027, -0.069590575993061, -0.064083859324455, 0.022351190447807, -0.020994395017624, -0.042283784598112, -0.081176832318306, -0.056030526757240, -0.073771439492702, -0.038575787097216, -0.073577225208282, 0.047609247267246, -0.080918215215206, 0.015444837510586, -0.047539368271828, 0.072853334248066, 0.023605100810528, -0.078100092709064, 0.038097985088825, 0.081727378070354, -0.033077690750360, -0.045322041958570, 0.054019801318645, 0.039419986307621, -0.027213778346777, -0.084377884864807, 0.034590423107147, 0.088153399527073, 0.026734083890915, 0.082621477544308, 0.002680137753487, -0.009676113724709, -0.001084797084332, -0.049408495426178, -0.056289054453373, -0.088179193437099, 0.086655460298061, 0.028060697019100, 0.048226676881313, -0.048511717468500, -0.079266712069511, -0.026007808744907, -0.064623422920704, 0.065326072275639, 0.001756973564625, 0.029738247394562, -0.036529872566462, -0.076270706951618, 0.001650616526604, 0.049798063933849, 0.022235706448555, -0.053451687097549, -0.062939323484898, 0.084671549499035, -0.056159935891628, -0.003838226199150, -0.074720121920109, -0.020684301853180, -0.030484456568956, 0.034515842795372, -0.037471689283848, 0.042612113058567, 0.068294160068035, 0.077399678528309, -0.081893704831600, -0.035877168178558, -0.017091915011406, -0.041528217494488, -0.060265883803368, 0.078733153641224, -0.043232277035713, -0.036219187080860, -0.051031742244959, 0.033550217747688, -0.082075066864491, 0.012862898409367, -0.064353406429291, 0.024216189980507, 0.035138204693794, 0.083135776221752, 0.019448645412922, 0.065403081476688, 0.085856072604656, 0.087141133844852, 0.041586674749851, 0.013223342597485, 0.064826406538486, -0.007813774049282, 0.069936372339725, -0.050211034715176, 0.001232229173183, -0.066621288657188, 0.032953120768070, 0.060132406651974, -0.057494051754475, -0.014622785151005, 0.081856034696102, 0.025113433599472, 0.024482935667038, 0.066591046750546, 0.034554876387119, 0.033278875052929, 0.075189255177975, -0.005070663988590, -0.004687175154686, -0.088206015527248, -0.058218874037266, 0.009146012365818, -0.028935980051756, -0.062831826508045, 0.059256248176098, -0.056605093181133, -0.073703370988369, -0.084077037870884, -0.008308894932270, 0.065077535808086, -0.032748837023973, 0.066909156739712, -0.050645042210817, 0.081643693149090, -0.043063353747129, -0.065266862511635, 0.052101366221905, 0.043070994317532, -0.001323513686657, -0.068857394158840, -0.007048763334751, 0.043868549168110, 0.023401618003845, 0.054593659937382, 0.047597028315067, 0.074937246739864, -0.060119632631540, -0.011728607118130, 0.049810193479061, 0.065008960664272, -0.028689824044704, 0.082141734659672, 0.058260031044483, -0.077261112630367, -0.031124223023653, -0.052867952734232, 0.052210099995136, 0.008167572319508, 0.047859467566013, 0.074848748743534, 0.048111952841282, 0.032048672437668, 0.058087624609470, 0.036183387041092, 0.070405341684818, -0.046589884907007, 0.024455264210701, 0.024507254362106, 0.073705770075321, 0.026731193065643, -0.031899556517601, 0.063481293618679, 0.051975347101688, 0.074312813580036, -0.056438378989697, -0.050421621650457, 0.066716946661472, 0.024759098887444, -0.073155865073204, 0.033257827162743, -0.015144899487495, 0.067004851996899, 0.049002222716808, 0.023431770503521, -0.050764422863722, 0.076441206037998, 0.054221726953983, -0.062514796853065, -0.045989524573088, -0.018199220299721, -0.020356319844723, 0.064910240471363, 0.071154735982418, 0.025276564061642, -0.007705494761467, -0.053736008703709, 0.006948627531528, -0.021749898791313, 0.014832235872746, -0.004195868968964, 0.079048328101635, 0.045769847929478, 0.003331266343594, -0.061084922403097, 0.023410066962242, 0.020767308771610, 0.021108239889145, 0.020408429205418, -0.079900264739990, -0.019957460463047, 0.033043764531612, 0.006168127059937, 0.008294753730297, -0.070475831627846, 0.075294665992260, -0.009380646049976, 0.082668177783489, 0.082771606743336, -0.026298388838768, -0.060809344053268, 0.052168108522892, 0.002849504351616, -0.086232848465443, 0.028061836957932, 0.060137502849102, 0.033404260873795, 0.017040394246578, 0.040658868849277, -0.058776918798685, -0.072872593998909, -0.056548066437244, 0.062709234654903, -0.083303436636925, 0.050356321036816, -0.055072065442801, -0.018893122673035, -0.047087956219912, -0.080455154180527, -0.074754454195499, 0.049161575734615, -0.006431840360165, -0.055425591766834, -0.023580022156239, -0.041686225682497, -0.056902796030045, 0.076478995382786, -0.071591794490814, -0.061437733471394, 0.073055990040302, 0.021014399826527, -0.008255198597908, 0.026478841900826, -0.045903373509645, 0.077354378998280, 0.023300863802433, -0.041243579238653, 0.002280920743942, 0.042756401002407, 0.062493510544300, -0.087623529136181, -0.041313245892525, 0.067734993994236, -0.033673960715532, 0.078221045434475, -0.083593845367432, 0.085549034178257, -0.043785370886326, 0.033516481518745, -0.009327836334705, 0.051269315183163, 0.061603628098965, 0.056197486817837, 0.056165777146816, -0.017342939972878, -0.032355103641748, 0.025155536830425, -0.009914748370647, 0.058733008801937, -0.076817162334919, -0.051751270890236, 0.006616130471230, -0.052469305694103, -0.054963305592537, -0.030636459589005, -0.041730206459761, -0.068328619003296, 0.023936100304127, -0.061523251235485, 0.032876588404179, 0.024601727724075, 0.078835658729076, 0.039941675961018, 0.078858144581318, -0.072746701538563, -0.086667910218239, -0.064954146742821, 0.055233605206013, -0.027751274406910, -0.086530238389969, -0.055476378649473, 0.012735657393932, -0.041690185666084, -0.005825325846672, 0.061808608472347, -0.002841733396053, 0.055697970092297, 0.021103940904140, 0.032770164310932, -0.030309148132801, 0.028208777308464, 0.050261028110981, -0.010692067444324, 0.038598395884037, -0.019260965287685, 0.066596992313862, -0.010850854218006, 0.074031196534634, -0.013754181563854, -0.050867453217506, 0.004131317138672, 0.035940453410149, -0.039567504078150, 0.079533614218235, -0.074834950268269, -0.017645813524723, -0.009796530008316, 0.042704530060291, -0.029025733470917, 0.009443759918213, -0.027282137423754, 0.078924097120762, 0.017403274774551, -0.000967308878899, -0.036730092018843, -0.082392618060112, 0.065516747534275, -0.055213253945112, 0.012934722006321, -0.068891234695911, 0.014792844653130, 0.011164613068104, -0.001633904874325, 0.026527836918831, -0.058526523411274, -0.009492523968220, -0.042738758027554, -0.052253935486078, 0.070352427661419, 0.040353037416935, 0.007239140570164, 0.000372938811779, 0.012332357466221, 0.019398696720600, 0.020795129239559, 0.075187347829342, -0.044090807437897, -0.063853651285172, 0.018646106123924, 0.018912218511105, -0.039359424263239, -0.017561033368111, -0.051472555845976, -0.020810768008232, -0.068012014031410, -0.000967904925346, -0.016695104539394, 0.025552749633789, 0.065036840736866, -0.075421698391438, -0.084143444895744, 0.059697680175304, -0.010340392589569, -0.020638659596443, -0.074412241578102, -0.031055018305779, -0.078677840530872, -0.041768644005060, 0.052003733813763, 0.072656713426113, 0.011488385498524, 0.016328170895576, -0.045535031706095, 0.027192048728466, -0.082126125693321, -0.050028834491968, -0.019002161920071, 0.007055908441544, 0.009013481438160, 0.058206401765347, -0.059796601533890, -0.039832331240177, -0.020460776984692, 0.010474421083927, -0.076016858220100, -0.027860708534718, -0.039297826588154, 0.069753848016262, 0.005747526884079, -0.068145446479321, 0.058441214263439, -0.023621387779713, 0.061003796756268, -0.064023487269878, -0.063053205609322, -0.078404136002064, 0.043414779007435, 0.042813532054424, -0.048317987471819, -0.014200240373611, 0.048804201185703, -0.011466011404991, -0.058304011821747, 0.044078685343266, 0.005809396505356, 0.004193507134914, 0.074960313737392, -0.018742114305496, -0.070609666407108, -0.039983723312616, -0.070296980440617, -0.042920012027025, -0.033703673630953, -0.076289884746075, 0.015718452632427, 0.051196031272411, -0.025831446051598, 0.067671962082386, 0.037436746060848, 0.084654457867146, -0.075611427426338, -0.006272397935390, 0.045172058045864, -0.064903616905212, 0.071273125708103, 0.004610419273376, -0.080509036779404, 0.010186806321144, -0.069927372038364, 0.059088908135891, -0.006580241024494, 0.019636176526546, -0.086087971925735, -0.083409078419209, -0.062412567436695, -0.075573787093163, -0.083363026380539, -0.014572590589523, 0.085252515971661, -0.062254667282104, 0.053453497588634, 0.000830732285976, -0.074305437505245, 0.046526364982128, 0.040378116071224, -0.026615060865879, -0.026198375970125, -0.085408627986908, 0.009134992957115, -0.058566562831402, 0.001715525984764, -0.070744641125202, -0.031900443136692, 0.071099840104580, -0.069266110658646, 0.014330014586449, 0.027236536145210, 0.049557752907276, -0.012138731777668, 0.084892414510250, -0.000790297985077, 0.034306772053242, -0.053673926740885, 0.076570816338062, 0.012667320668697, -0.017737671732903, -0.030771855264902, 0.014858976006508, -0.017264589667320, 0.008808143436909, -0.071420401334763, -0.028900999575853, 0.063570655882359, -0.055853571742773, 0.044345878064632, 0.049357675015926, -0.039489995688200, -0.019694417715073, 0.002930551767349, 0.021385774016380, 0.031854122877121, 0.031563498079777, -0.055670928210020, 0.083710409700871, 0.030252330005169, 0.073838807642460, -0.045470885932446, 0.071321509778500, -0.043675515800714, -0.030233830213547, -0.006639748811722, 0.074617363512516, 0.015362210571766, 0.065092332661152, -0.019007556140423, 0.062988422811031, -0.080034464597702, -0.073660485446453, -0.004261091351509, 0.059493176639080, -0.062135159969330, 0.077576480805874, -0.078974068164825, -0.002938605844975, -0.023837246000767, -0.023582994937897, 0.041628457605839, -0.076401084661484, 0.075238145887852, 0.063525669276714, 0.061691991984844, -0.041389446705580, 0.065421812236309, -0.054287541657686, -0.027921147644520, -0.033196646720171, -0.004632256925106, 0.086329363286495, -0.052506815642118, -0.047503184527159, 0.061475209891796, 0.055668734014034, 0.078002639114857, 0.025279849767685, 0.011317819356918, 0.082494907081127, -0.079158984124660, 0.074057303369045, -0.058208126574755, -0.086613439023495, 0.078258059918880, -0.076539203524590, -0.029037259519100, -0.003983676433563, -0.011732667684555, 0.003520756959915, 0.009366020560265, -0.027241658419371, -0.019335202872753, -0.018823392689228, -0.087812788784504, 0.001930497586727, -0.016134575009346, -0.071912929415703, -0.055063802748919, 0.030765935778618, -0.052359219640493, 0.037691675126553, 0.080208949744701, -0.059529893100262, -0.065660826861858, -0.034730900079012, -0.038628451526165, -0.075439698994160, -0.043277099728584, -0.084480091929436, -0.080656804144382, 0.074362121522427, 0.002748712897301, -0.031743299216032, 0.006185889244080, -0.009237237274647, -0.087681964039803, 0.034509293735027, 0.011804170906544, 0.028363056480885, -0.061196424067020, 0.083350516855717, -0.076468288898468, -0.027318827807903, -0.062706649303436, -0.077186912298203, -0.034503560513258, 0.031306929886341, -0.085273548960686, -0.016706399619579, 0.004025004804134, 0.015142478048801, 0.043192707002163, -0.060191366821527, -0.040633268654346, -0.056033223867416, -0.024069346487522, 0.064069263637066, -0.086630403995514, 0.025222234427929, -0.055869840085506, -0.040478400886059, 0.063909433782101, -0.011377669870853, -0.076659575104713, 0.086281545460224, -0.064202845096588, 0.041055522859097, -0.005922667682171, -0.081031635403633, 0.049042411148548, -0.038481209427118, 0.005899228155613, -0.033040411770344, 0.004195041954517, -0.071659520268440, 0.060400314629078, 0.061556003987789, 0.066183872520924, -0.013560138642788, -0.087978512048721, -0.055417057126760, -0.060272477567196, 0.084303744137287, -0.059158664196730, -0.066275246441364, 0.037199921905994, 0.012326434254646, -0.039589546620846, -0.006836369633675, -0.049676783382893, 0.036806859076023, -0.081834092736244, -0.067597687244415, 0.045315720140934, -0.073576487600803, -0.014228396117687, -0.020999014377594, 0.058773301541805, -0.065887644886971, 0.041755028069019, -0.061023157089949, -0.064291268587112, 0.053560696542263, 0.021968521177769, 0.032568871974945, -0.017293311655521, -0.027763035148382, -0.061619661748409, -0.087888948619366, 0.057176209986210, -0.040412083268166, -0.010357253253460, -0.057594552636147, 0.087338916957378, -0.005641885101795, -0.080830112099648, 0.064550988376141, -0.080145053565502, -0.079368285834789, 0.007364086806774, -0.082719340920448, -0.041074063628912, -0.060282193124294, 0.023601412773132, -0.022958062589169, 0.083546705543995, 0.048598892986774, -0.010359883308411, 0.085598267614841, 0.049290738999844, -0.022139422595501, -0.063950762152672, -0.001600399613380, -0.051866460591555, 0.042011268436909, -0.042319566011429, -0.047631099820137, 0.056902267038822, 0.053347356617451, -0.029870841652155, -0.009715609252453, -0.030358627438545, 0.034707173705101, 0.086238093674183, -0.074229516088963, -0.068562723696232, 0.052532948553562, -0.017116867005825, 0.023170880973339, -0.044033404439688, -0.080444633960724, 0.024660713970661, -0.054440051317215, -0.065011426806450, 0.053844340145588, -0.075111560523510, 0.003890261054039, 0.055908240377903, -0.031277406960726, -0.071481078863144, 0.088359139859676, 0.077742077410221, -0.087297879159451, -0.083880864083767, 0.060725890100002, 0.034044854342937, -0.072194561362267, -0.019875906407833, 0.034911036491394, -0.058317452669144, 0.063141055405140, -0.013298682868481, -0.060336057096720, 0.003453426063061, 0.004716716706753, -0.074414938688278, -0.003579154610634, -0.061060477048159, 0.009092912077904, 0.052017681300640, 0.060477100312710, -0.000927127897739, -0.038214884698391, -0.067554466426373, 0.033731281757355, -0.033855024725199, 0.029076814651489, 0.064648307859898, -0.025885581970215, 0.048792473971844, -0.043884623795748, 0.027497343719006, 0.007410213351250, 0.069954849779606, -0.066732287406921, -0.077442869544029, 0.014371275901794, -0.059551347047091, -0.005336910486221, 0.087249450385571, 0.054480411112309, -0.024800024926662, 0.013042092323303, 0.017072737216949, -0.011324018239975, -0.066707588732243, 0.030501313507557, -0.008784264326096, -0.042183116078377, 0.049157448112965, -0.042587283998728, 0.012706577777863, -0.017980664968491, -0.087226420640945, -0.015720650553703, 0.016395017504692, -0.039812818169594, -0.061919175088406, -0.024511933326721, -0.085738681256771, -0.000294141471386, -0.020722173154354, 0.068801023066044, 0.001340776681900, -0.039853721857071, -0.050229452550411, 0.080270953476429, -0.071273922920227, -0.018210090696812, 0.049218393862247, 0.003343969583511, 0.057136990129948, 0.088018722832203, 0.082274459302425, 0.067796386778355, 0.037104003131390, -0.078745633363724, -0.060489870607853, 0.056176684796810, -0.017018795013428, 0.033297635614872, -0.078433930873871, -0.034633453935385, -0.009604021906853, 0.001712359488010, -0.078633651137352, 0.080680765211582, -0.039323765784502, 0.050664804875851, 0.041434772312641, 0.045269049704075, 0.051382996141911, 0.043913073837757, -0.002261370420456, -0.005101390182972, 0.020805962383747, -0.037510231137276, -0.071000307798386, -0.042096544057131, -0.012640640139580, -0.065261483192444, 0.032127782702446, 0.021210484206676, -0.057914257049561, 0.028884038329124, -0.029641162604094, 0.014884456992149, -0.080092668533325, -0.003961928188801, -0.081348538398743, 0.071138210594654, -0.076257385313511, -0.014534890651703, 0.085634835064411, -0.079056739807129, 0.065098546445370, -0.072400338947773, 0.021784886717796, 0.061196394264698, -0.084917321801186, 0.082682274281979, -0.019531689584255, -0.083537288010120, 0.046268053352833, -0.007397972047329, 0.059578619897366, 0.011395476758480, 0.068629257380962, 0.048805586993694, -0.003379166126251, -0.001359529793262, -0.054009605199099, 0.080760337412357, 0.060041256248951, 0.055533401668072, -0.043890587985516, -0.031039740890265, -0.062852755188942, 0.033664584159851, -0.038415733724833, -0.024787783622742, 0.069751553237438, -0.072711803019047, -0.024534121155739, -0.038880404084921, -0.027677077800035, 0.065017409622669, -0.039296202361584, 0.054487355053425, -0.066278487443924, 0.002768687903881, -0.004384346306324, 0.037838958203793, -0.072096183896065, -0.046706400811672, -0.028045840561390, -0.066596210002899, 0.053745485842228, 0.077589295804501, 0.051785804331303, 0.065025798976421, -0.006979115307331, -0.061667159199715, -0.004606269299984, -0.076148271560669, -0.014585927128792, -0.056910805404186, 0.071133159101009, -0.059919942170382, 0.039488442242146, -0.024166435003281, 0.064743630588055, 0.050958655774593, -0.039033375680447, -0.047150626778603, 0.056211374700069, -0.082404375076294, -0.007099866867065, -0.086839891970158, 0.062163420021534, -0.010879009962082, -0.037656038999557, -0.041203770786524, 0.044484667479992, 0.004510976374149, -0.070131212472916, 0.013483218848705, 0.023906663060188, -0.057233922183514, -0.071633979678154, -0.071783497929573, 0.031785488128662, -0.065776452422142, -0.069024838507175, 0.070360995829105, 0.080561779439449, -0.082771159708500, -0.043158456683159, -0.081460185348988, 0.049449659883976, 0.068956248462200, 0.020736314356327, 0.034040197730064, -0.025432229042053, 0.003078259527683, -0.084063068032265, 0.021576091647148, 0.026139959692955, -0.059144165366888, 0.051541902124882, -0.081105478107929, 0.005404382944107, -0.062042690813541, 0.020340427756310, -0.001030385494232, 0.023926407098770, -0.007217265665531, 0.059120915830135, 0.022468484938145, -0.006928689777851, 0.040698222815990, -0.012009404599667, 0.045798443257809, 0.054153285920620, 0.088048361241817, -0.037234485149384, 0.042429722845554, -0.010029725730419, -0.066850677132607, -0.087723731994629, -0.019314087927341, 0.084648691117764, -0.001633696258068, -0.046337127685547, 0.061895556747913, 0.085969917476177, 0.080936022102833, -0.041990105062723, -0.023164242506027, 0.011225029826164, 0.006584793329239, -0.020062744617462, -0.060429118573666, -0.039927206933498, -0.071123711764812, -0.072183199226856, 0.057932682335377, -0.046848729252815, 0.070038430392742, 0.057533584535122, 0.018884271383286, -0.072774581611156, 0.086710043251514, 0.063557274639606, 0.063290022313595, -0.050805810838938, -0.074975699186325, -0.010402999818325, -0.051153503358364, 0.036556005477905, 0.042492680251598, -0.076292663812637, 0.029508270323277, 0.079591281712055, -0.010065995156765, -0.041380658745766, -0.084117248654366, 0.068497769534588, -0.037097107619047, 0.080421157181263, -0.016365453600883, 0.035909958183765, -0.014377847313881, -0.080206148326397, -0.004141367971897, 0.061131097376347, 0.016527675092220, -0.025940224528313, -0.013213016092777, 0.029945105314255, -0.021206416189671, 0.030758813023567, 0.035497762262821, -0.003500573337078, -0.002438910305500, -0.061838805675507, -0.073568463325500, 0.060864679515362, 0.042394183576107, 0.034612886607647, -0.041701901704073, -0.044478684663773, -0.031768586486578, 0.056817092001438, 0.020738609135151, -0.051635410636663, -0.005582012236118, -0.039743002504110, 0.055176623165607, -0.049840208142996, 0.030685283243656, -0.069921240210533, 0.040884442627430, -0.020751692354679, -0.033829398453236, -0.079181812703609, -0.065506502985954, -0.049960725009441, -0.012131273746490, -0.060363452881575, -0.040693391114473, 0.067614607512951, 0.013806484639645, 0.047918178141117, -0.043656378984451, -0.062653020024300, 0.002720810472965, 0.075536169111729, 0.000015065073967, -0.018958181142807, 0.064033932983875, 0.062607564032078, -0.000459797680378, 0.024164728820324, 0.033719375729561, -0.058302491903305, 0.018158696591854, -0.009022228419781, -0.080027848482132, -0.065159007906914, 0.032114654779434, 0.072446830570698, -0.023032240569592, -0.030903290957212, -0.002890303730965, -0.016577661037445, -0.066215626895428, -0.041210766881704, 0.061295948922634, -0.038817077875137, 0.083330638706684, -0.057756207883358, -0.039178866893053, 0.022859647870064, -0.050032965838909, 0.032115750014782, 0.011284291744232, -0.071362704038620, 0.009264655411243, -0.056488238275051, -0.081561207771301, 0.012789733707905, 0.080219782888889, 0.057397045195103, 0.083066932857037, 0.007356479763985, 0.060381434857845, -0.033508408814669, -0.022344067692757, -0.051533054560423, 0.027022138237953, -0.060906030237675, -0.072371616959572, 0.062358267605305, 0.059568591415882, 0.065920956432819, 0.041093237698078, 0.076104350388050, -0.038984507322311, 0.038260482251644, 0.020993411540985, -0.045416619628668, 0.035854153335094, 0.076596163213253, 0.034120738506317, -0.010532602667809, -0.010956048965454, -0.002853088080883, 0.030679851770401, -0.047818802297115, -0.032031901180744, -0.058631744235754, 0.051295109093189, -0.017292365431786, 0.001101680099964, -0.056853611022234, 0.018463522195816, 0.026519306004047, 0.005745351314545, -0.067955613136292, -0.061248749494553, 0.055912010371685, -0.086815275251865, -0.086081944406033, -0.019642263650894, -0.042431991547346, 0.037438474595547, -0.044236235320568, -0.054660227149725, -0.085922211408615, 0.016392044723034, 0.086296878755093, -0.001169025897980, -0.086178377270699, -0.073213584721088, -0.017559237778187, 0.082006432116032, -0.082757756114006, -0.087634526193142, 0.049726881086826, -0.033099204301834, -0.002991288900375, -0.015689246356487, -0.017730422317982, -0.025429613888264, -0.069650575518608, -0.002568848431110, -0.075129285454750, 0.059930138289928, -0.084160216152668, 0.025040477514267, 0.085056580603123, 0.072930671274662, 0.081331826746464, -0.025854080915451, -0.010151296854019, -0.022987164556980, 0.022219583392143, 0.081247366964817, -0.010081335902214, 0.029720589518547, -0.004593037068844, 0.035003297030926, 0.020076058804989, 0.088019870221615, -0.025133788585663, -0.084381446242332, 0.065486662089825, -0.068217158317566, 0.009060770273209, -0.041575126349926, -0.043128069490194, -0.021681308746338, -0.050034631043673, 0.046470530331135, -0.053752318024635, 0.080517522990704, 0.008662037551403, -0.044959980994463, -0.057016465812922, 0.027787521481514, 0.087518282234669, -0.073740459978580, -0.077306911349297, -0.017184600234032, -0.029083348810673, 0.055120490491390, -0.062749937176704, 0.059283025562763, 0.012496121227741, -0.038540594279766, 0.054560996592045, 0.015539899468422, -0.036384005099535, -0.017393015325069, -0.049145311117172, -0.084093749523163, 0.047851465642452, 0.024176739156246, 0.051464878022671, -0.068086802959442, -0.045407034456730, -0.049633961170912, 0.014166228473186, -0.014610223472118, -0.000639095902443, 0.075078584253788, -0.034940812736750, -0.053051102906466, -0.052210651338100, 0.031517751514912, -0.081467345356941, 0.069707088172436, 0.078451208770275, -0.038149010390043, 0.078601069748402, 0.000497750937939, 0.055130220949650, 0.014555916190147, 0.023295886814594, 0.029999956488609, -0.048257928341627, -0.033604566007853, -0.040413390845060, 0.051856540143490, 0.012986920773983, -0.050185896456242, -0.022664740681648, -0.005857676267624, 0.024823859333992, 0.008991964161396, 0.013937748968601, 0.084720008075237, -0.056919530034065, 0.042658112943172, -0.005391843616962, -0.083207167685032, 0.011454708874226, -0.011098489165306, 0.081975497305393, 0.083032034337521, 0.031802430748940, 0.007906302809715, -0.074909359216690, -0.078943893313408, -0.084557726979256, 0.080836690962315, -0.020195439457893, 0.058905221521854, 0.065131984651089, -0.038853723555803, 0.005358949303627, -0.077833324670792, 0.026480503380299, 0.085587568581104, 0.012247301638126, -0.079523578286171, 0.056809119880199, 0.046255595982075, 0.011955037713051, 0.066364116966724, -0.024894624948502, 0.002353899180889, 0.021140396595001, -0.056057456880808, 0.008667565882206, -0.024342797696590, -0.084458425641060, 0.056326098740101, 0.064353741705418, 0.063079021871090, -0.038297027349472, -0.015691354870796, 0.081565029919147, 0.019529983401299, 0.051252298057079, -0.064219467341900, -0.005328834056854, 0.075854443013668, -0.051115844398737, 0.081680379807949, 0.035379268229008, -0.018222250044346, 0.070732794702053, 0.030319623649120, -0.018686249852180, -0.034759495407343, 0.077765531837940, 0.013768002390862, 0.053989402949810, 0.085267372429371, 0.087077520787716, -0.077437981963158, 0.046111412346363, 0.040713004767895, -0.082569703459740, 0.046115525066853, -0.049735724925995, 0.030216611921787, 0.017480634152889, 0.048342563211918, -0.001047432422638, -0.071766048669815, 0.030712723731995, 0.031189844012260, -0.080903552472591, 0.026401519775391, -0.019413515925407, 0.002196021378040, 0.072415508329868, -0.060000885277987, 0.002256333827972, 0.052946247160435, 0.085359491407871, -0.028365798294544, 0.011671096086502, 0.036744840443134, -0.016158238053322, -0.087658949196339, 0.032082729041576, 0.024333693087101, -0.057162757962942, 0.086924798786640, -0.025827422738075, -0.049719098955393, 0.074999772012234, -0.081345379352570, -0.044888585805893, 0.001784265041351, 0.000880256295204, -0.046409286558628, 0.035769462585449, 0.060816399753094, 0.029186926782131, -0.045683726668358, 0.031567841768265, -0.038326594978571, 0.013885468244553, 0.015510544180870, -0.049503307789564, -0.009128436446190, 0.083593659102917, 0.009099297225475, -0.061398155987263, 0.067758373916149, 0.070333652198315, -0.007297217845917, 0.036015175282955, 0.009176000952721, 0.052925519645214, -0.023691900074482, -0.045286156237125, -0.072501026093960, -0.040629815310240, 0.012050688266754, 0.068585582077503, -0.076955951750278, -0.021576464176178, -0.025048188865185, 0.074834235012531, -0.001514650881290, 0.052648745477200, 0.055553890764713, 0.002686247229576, -0.015957303345203, 0.046510122716427, 0.039237014949322, 0.067743279039860, 0.014605633914471, 0.005430072546005, -0.083601810038090, 0.037244163453579, 0.006047062575817, 0.011507645249367, 0.065235920250416, -0.040508661419153, 0.032076999545097, 0.082423098385334, -0.041436735540628, -0.070957802236080, -0.030325416475534, 0.082270167768002, -0.012423120439053, -0.008084818720818, 0.020632378757000, 0.060420878231525, 0.066514320671558, 0.046403981745243, 0.082019276916981, 0.074615977704525, 0.036154516041279, -0.019991092383862, -0.015112489461899, 0.075355999171734, -0.055378828197718, -0.075320862233639, -0.086612530052662, 0.044070787727833, 0.045301161706448, -0.061112381517887, -0.073011256754398, -0.013625398278236, 0.072596319019794, -0.065223380923271, -0.017052173614502, 0.071358643472195, -0.042500756680965, 0.002872392535210, -0.080850109457970, -0.005525283515453, 0.068789832293987, -0.079558707773685, -0.036377787590027, -0.064901739358902, -0.055178843438625, 0.037718556821346, -0.069211155176163, -0.000126063823700, -0.029691465198994, 0.034149482846260, 0.077456913888454, -0.051724381744862, -0.083209678530693, -0.059079512953758, -0.060479253530502, 0.066606454551220, 0.081821300089359, 0.004741601645947, 0.060275994241238, 0.001111559569836, 0.011676214635372, 0.048848889768124, -0.045153539627790, -0.015662930905819, 0.078188158571720, 0.016304843127728, -0.069672428071499, 0.041997395455837, 0.032018013298512, -0.004906184971333, -0.042504064738750, -0.044139422476292, 0.084664411842823, 0.046541862189770, 0.024557746946812, 0.040297739207745, 0.038606725633144, 0.069701217114925, -0.055526260286570, 0.035138309001923, 0.087595097720623, -0.066431879997253, 0.053015820682049, 0.030854672193527, -0.061747722327709, 0.021297536790371, -0.076084226369858, -0.001391418278217, -0.051787413656712, 0.085390232503414, 0.025482133030891, 0.024157918989658, -0.086191818118095, -0.059390619397163, -0.032864045351744, 0.045960821211338, -0.019471906125546, -0.074228271842003, 0.041952334344387, -0.004380889236927, 0.002445884048939, -0.073659747838974, -0.068310007452965, -0.057175636291504, 0.005638487637043, 0.078172765672207, -0.015193477272987, -0.067404061555862, 0.002662293612957, -0.070968106389046, 0.074803061783314, -0.074065074324608, 0.022019959986210, -0.061992004513741, -0.003740407526493, -0.074949398636818, -0.008633174002171, -0.022777654230595, -0.004208154976368, -0.040965937077999, 0.001848518848419, -0.031192861497402, -0.007212020456791, -0.032605856657028, 0.028157487511635, -0.049245178699493, -0.082438051700592, -0.074037283658981, -0.031594563275576, 0.052039317786694, 0.054761670529842, -0.083099864423275, 0.064562328159809, -0.036730092018843, -0.009105555713177, -0.041653182357550, -0.068118259310722, 0.053585775196552, 0.078903727233410, -0.048252280801535, 0.080993153154850, -0.002762518823147, 0.046304397284985, -0.074969507753849, -0.084496505558491, 0.066399328410625, -0.033616431057453, -0.040632467716932, 0.036003015935421, -0.027741033583879, 0.057696528732777, -0.068006403744221, 0.016592688858509, -0.045420225709677, -0.037416286766529, -0.028403434902430, 0.034429147839546, -0.002272009849548, -0.012434624135494, -0.081544943153858, -0.026297021657228, 0.081929631531239, 0.086835123598576, 0.026924289762974, 0.049829833209515, 0.054082714021206, 0.024853490293026, -0.015994034707546, 0.047520108520985, -0.011392712593079, 0.042970530688763, -0.005965910851955, 0.074135400354862, -0.006224371492863, -0.076400205492973, 0.052480228245258, -0.001774549484253, 0.087096400558949, -0.041161876171827, 0.031337827444077, -0.029375761747360, 0.045156307518482, 0.040801621973515, -0.060708507895470, -0.008284576237202, 0.068915434181690, 0.047211341559887, 0.036273434758186, -0.057590782642365, -0.005828969180584, 0.035799510776997, -0.086495466530323, -0.021568901836872, -0.021959267556667, 0.051599942147732, -0.015413567423820, -0.060484349727631, -0.082752451300621, 0.030313089489937, -0.031373482197523, 0.027394689619541, 0.082719199359417, -0.034923363476992, -0.048898141831160, 0.053300730884075, 0.064641289412975, -0.037158768624067, 0.024791769683361, -0.004407510161400, -0.045877814292908, 0.012211203575134, 0.086512215435505, 0.026027806103230, 0.065029419958591, 0.015051946043968, 0.057122699916363, -0.064316131174564, 0.005346283316612, -0.040456105023623, 0.080819703638554, -0.039624210447073, 0.046815283596516, -0.021990813314915, -0.038723554462194, -0.064171083271503, 0.016255810856819, 0.061391927301884, -0.003035500645638, 0.016625963151455, 0.026710435748100, -0.075090192258358, -0.038706947118044, -0.030082546174526, 0.063635863363743, -0.026581194251776, 0.046746455132961, -0.021541088819504, 0.021572589874268, -0.013414010405540, -0.028257310390472, 0.016283959150314, 0.077665962278843, -0.059611722826958, 0.077028341591358, 0.008467219769955, -0.077457860112190, -0.065829433500767, -0.032941155135632, -0.064101688563824, -0.047786939889193, -0.004862628877163, 0.066243775188923, 0.039337374269962, -0.055995184928179, -0.066316232085228, -0.008074365556240, 0.047451801598072, -0.062974050641060, -0.087717659771442, -0.004332169890404, 0.069437138736248, -0.043010037392378, 0.043368004262447, 0.080713130533695, -0.006832212209702, -0.036955218762159, -0.032774988561869, 0.088369868695736, 0.007883481681347, 0.069651924073696, -0.035766404122114, 0.027835629880428, -0.070644035935402, 0.076470308005810, 0.076689861714840, 0.053757794201374, -0.011268444359303, -0.071926884353161, -0.077777072787285, 0.009751409292221, -0.060258209705353, 0.061238490045071, 0.050338976085186, 0.022462479770184, 0.069061569869518, 0.064901210367680, -0.068837583065033, 0.057854138314724, -0.042087379842997, -0.059281058609486, -0.015282154083252, 0.001395374536514, -0.038893658667803, -0.084097124636173, -0.036178939044476, -0.064494349062443, 0.082310207188129, -0.087249435484409, 0.048042111098766, -0.053898401558399, 0.081843443214893, 0.063797108829021, -0.045113142579794, -0.055664882063866, -0.049295775592327, 0.071884416043758, 0.057987146079540, 0.044966407120228, -0.029353573918343, 0.016725301742554, 0.011464260518551, -0.034794602543116, -0.085239306092262, 0.032268702983856, 0.008909486234188, -0.039732024073601, 0.066916100680828, 0.044461511075497, -0.073494620621204, 0.040896885097027, -0.037065625190735, -0.005364306271076, 0.043235413730145, -0.007015660405159, -0.064685925841331, -0.037905208766460, 0.016822725534439, 0.021161742508411, -0.025501981377602, 0.052039809525013, -0.027696464210749, -0.063085675239563, 0.049597777426243, -0.080233566462994, -0.078535296022892, -0.031196802854538, -0.043692730367184, -0.023688130080700, -0.054665915668011, -0.070334240794182, -0.069246158003807, -0.021318040788174, -0.007946133613586, -0.061633631587029, 0.069840081036091, -0.001720078289509, -0.088234297931194, -0.021524563431740, -0.038001433014870, 0.050930149853230, -0.083720371127129, -0.073928035795689, -0.057109780609608, 0.044020868837833, -0.028749082237482, -0.019639611244202, -0.007347479462624, 0.045568965375423, -0.039797939360142, 0.080297015607357, 0.078876815736294, -0.009608723223209, -0.086900502443314, 0.070576630532742, 0.069093562662601, 0.077200196683407, -0.068767853081226, 0.084404267370701, 0.057972319424152, -0.068907082080841, 0.010155960917473, -0.016208752989769, -0.067222222685814, 0.067105941474438, 0.037563227117062, 0.084535069763660, 0.061210013926029, -0.059608899056911, -0.072713680565357, 0.065336994826794, 0.013624660670757, -0.066551029682159, 0.007287293672562, -0.047129489481449, -0.060151096433401, 0.058443643152714, -0.034180693328381, 0.003781244158745, -0.074130341410637, 0.055273212492466, -0.042812008410692, -0.053730718791485, 0.019815318286419, 0.023958161473274, 0.016841314733028, 0.068350531160831, -0.081294655799866, -0.041291307657957, 0.022041998803616, 0.046261288225651, 0.071629203855991, 0.069192208349705, 0.046298019587994, 0.019685171544552, -0.029639013111591, -0.066686108708382, -0.018829822540283, -0.082561731338501, -0.020035870373249, 0.027502715587616, 0.038250051438808, 0.087432749569416, -0.005781874060631, 0.035483933985233, 0.086964808404446, -0.009983047842979, 0.042962558567524, 0.019350923597813, -0.005694083869457, 0.040201626718044, -0.008908428251743, 0.042876385152340, -0.037222895771265, 0.026999272406101, -0.043492872267962, 0.078268744051456, 0.014774091541767, -0.028091084212065, 0.068379871547222, 0.082943357527256, -0.004565365612507, 0.066517122089863, 0.043093957006931, 0.010556414723396, -0.059644449502230, -0.031335063278675, -0.053040143102407, -0.084229186177254, -0.084683090448380, -0.078004524111748, -0.074044235050678, 0.052665270864964, 0.076255656778812, 0.076794110238552, 0.060749523341656, -0.067295134067535, -0.055926002562046, 0.060807995498180, 0.001812838017941, -0.027791924774647, -0.043266940861940, 0.084376655519009, 0.081234000623226, 0.015796557068825, 0.045088462531567, 0.086104594171047, -0.007781274616718, 0.024897515773773, -0.039331249892712, 0.073704265058041, -0.060128990560770, -0.007453247904778, 0.009981028735638, -0.034402616322041, 0.010313123464584, -0.075458012521267, 0.024777770042419, 0.030244216322899, 0.078983955085278, -0.032581977546215, -0.060138493776321, 0.058013893663883, 0.059312231838703, -0.054916627705097, 0.054348044097424, -0.033664606511593, -0.028748258948326, -0.038140833377838, 0.047383762896061, -0.031569737941027, 0.048247329890728, -0.018684223294258, -0.031234271824360, -0.049803309142590, 0.085610173642635, 0.064849711954594, 0.019918389618397, 0.048916645348072, 0.067383684217930, 0.088026814162731, -0.050203345716000, -0.020559802651405, 0.048279874026775, -0.066068701446056, -0.044190715998411, 0.001209467649460, -0.040462974458933, 0.001150988042355, 0.053523771464825, -0.010228618979454, -0.041286483407021, -0.046817708760500, -0.020942576229572, 0.060497276484966, 0.085942231118679, 0.073908351361752, -0.025428898632526, -0.061130546033382, -0.068359911441803, 0.050663717091084, 0.002363555133343, 0.067353762686253, -0.076313927769661, 0.027572214603424, 0.043749161064625, -0.015853956341743, -0.005031868815422, 0.012060344219208, -0.085178017616272, 0.075842075049877, -0.070990651845932, 0.009688526391983, -0.064278535544872, -0.070204928517342, 0.083506308495998, 0.054716892540455, -0.017089553177357, 0.059164129197598, 0.073793329298496, 0.062247566878796, -0.012130372226238, 0.062214352190495, 0.019004791975021, -0.073518998920918, -0.064492367208004, 0.071036718785763, 0.033006481826305, 0.066325731575489, -0.003739796578884, -0.012497365474701, -0.071111045777798, 0.010200507938862, -0.068671964108944, -0.063703551888466, 0.020775422453880, -0.071855463087559, -0.083659447729588, -0.014944769442081, -0.044510338455439, 0.023248225450516, -0.085307158529758, -0.041653014719486, 0.065519146621227, 0.041992105543613, -0.015172906219959, 0.055522628128529, 0.039688237011433, 0.036955408751965, 0.038092292845249, -0.081226624548435, -0.051247362047434, 0.005239546298981, 0.066429652273655, 0.010043323040009, -0.012749530375004, -0.054619554430246, 0.084786869585514, -0.076500073075294, -0.045212168246508, -0.026549499481916, -0.076430253684521, -0.023493707180023, -0.007532149553299, 0.081600137054920, 0.064127825200558, -0.067947737872601, -0.026935208588839, 0.076409183442593, 0.016601055860519, -0.078295506536961, 0.077383615076542, 0.004036210477352, 0.034857824444771, 0.047341175377369, -0.004474669694901, 0.024600669741631, -0.066682040691376, -0.043759766966105, -0.022011190652847, 0.065909259021282, -0.085754424333572, 0.014415673911572, -0.075961604714394, -0.079657919704914, 0.067351885139942, 0.019363127648830, -0.068028531968594, 0.083440326154232, 0.028988264501095, -0.064771026372910, -0.033950064331293, 0.011025317013264, -0.062622271478176, -0.055729489773512, -0.064216285943985, 0.030537374317646, -0.051777359098196, 0.005612023174763, -0.075103826820850, -0.045647311955690, -0.027208656072617, 0.043454416096210, -0.022301122546196, 0.069092102348804, -0.007895916700363, -0.050892889499664, -0.076767809689045, -0.040143650025129, 0.056100971996784, 0.025172017514706, 0.085265286266804, -0.010462783277035, 0.063514389097691, 0.047720812261105, 0.045872487127781, -0.068822786211967, 0.061458282172680, 0.071283660829067, 0.010662734508514, -0.077833130955696, -0.070245496928692, 0.056893952190876, -0.019160062074661, 0.052038900554180, 0.084802068769932, 0.074779994785786, 0.009235426783562, 0.073087476193905, -0.052848100662231, 0.008240617811680, 0.053808607161045, -0.030565064400434, -0.008403830230236, 0.015737086534500, -0.034232597798109, -0.087734609842300, 0.087986774742603, -0.051091063767672, 0.054330341517925, 0.076893083751202, 0.072932250797749, 0.087339453399181, 0.057843767106533, 0.042862944304943, 0.033385552465916, 0.069411985576153, 0.073603235185146, 0.026005007326603, 0.003994613885880, -0.040466114878654, 0.001935780048370, 0.038574837148190, 0.024504490196705, 0.084456928074360, 0.013492323458195, 0.062241278588772, -0.052085958421230, -0.027989048510790, 0.073646180331707, 0.080178104341030, -0.000290453433990, -0.004993051290512, -0.059700734913349, -0.076373226940632, -0.069791831076145, 0.080531843006611, 0.072652690112591, 0.064043782651424, 0.016294077038765, -0.002502866089344, 0.035865113139153, 0.027500547468662, 0.046197406947613, -0.058887869119644, 0.074004508554935, 0.063384242355824, -0.022072747349739, -0.062434382736683, -0.008762769401073, -0.050161641091108, 0.073832087218761, -0.071836769580841, -0.004136964678764, 0.029598131775856, 0.080445326864719, 0.015523061156273, -0.068342313170433, -0.030223671346903, -0.037060376256704, -0.046455457806587, -0.020726703107357, -0.068136066198349, -0.076068803668022, 0.074363283813000, -0.080355197191238, 0.040899895131588, 0.037686698138714, 0.086635775864124, -0.055353268980980, -0.065578371286392, 0.030251197516918, 0.019360996782780, 0.074834622442722, -0.087018676102161, -0.070943027734756, -0.025388501584530, 0.028589725494385, -0.017862886190414, 0.038833491504192, 0.038666345179081, -0.044287633150816, 0.034160569310188, 0.054605536162853, -0.007553450763226, 0.035867221653461, 0.054187871515751, 0.026432625949383, -0.067059114575386, 0.031951501965523, 0.036844335496426, -0.047767698764801, -0.065801888704300, -0.065917611122131, 0.013174220919609, -0.055474966764450, 0.021257966756821, 0.039818637073040, 0.017758890986443, -0.080970712006092, -0.002367578446865, -0.055250070989132, 0.038008518517017, -0.027954213321209, -0.007677026093006, -0.055651370435953, 0.069470666348934, -0.026806026697159, -0.086631327867508, -0.046657383441925, -0.074232235550880, -0.029191896319389, 0.015559501945972, 0.087513335049152, 0.058690764009953, 0.071081183850765, 0.016940250992775, 0.051835708320141, 0.040047369897366, -0.076786115765572, -0.046438049525023, -0.058298341929913, 0.086275212466717, -0.053183253854513, -0.061649039387703, 0.068515859544277, -0.027081519365311, 0.022764123976231, 0.057357616722584, -0.022149562835693, 0.077499218285084, -0.040836039930582, -0.070282436907291, -0.078288696706295, 0.060013718903065, 0.077327661216259, -0.008119821548462, -0.051142018288374, 0.025823123753071, -0.021122626960278, -0.046124331653118, -0.019976131618023, -0.044619750231504, -0.030166313052177, 0.069860614836216, 0.050913177430630, -0.020330205559731, -0.070643424987793, 0.082484923303127, 0.063600875437260, -0.019042491912842, 0.017350785434246, -0.031860973685980, 0.051879249513149, 0.002673521637917, 0.054242007434368, -0.034374546259642, -0.054334934800863, 0.051171787083149, -0.030425596982241, 0.065009094774723, 0.078386269509792, 0.039652876555920, -0.075229428708553, -0.053592540323734, 0.078492499887943, -0.081534005701542, -0.045626070350409, -0.014231301844120, -0.057178225368261, 0.010425172746181, -0.033465314656496, 0.052431799471378, -0.064972087740898, -0.037697087973356, 0.009482875466347, 0.041939102113247, 0.083759866654873, 0.049362815916538, 0.035857081413269, -0.035373594611883, -0.076077908277512, 0.057409949600697, -0.080306984484196, 0.046476043760777, 0.036821134388447, 0.070656366646290, 0.077823080122471, 0.024662651121616, -0.001102775335312, 0.009210221469402, 0.004197150468826, 0.024222657084465, -0.023801907896996, -0.029626514762640, 0.071924351155758, 0.060391418635845, -0.061191193759441, 0.034644268453121, 0.028555773198605, 0.079172857105732, 0.049717552959919, 0.055995292961597, 0.039747424423695, -0.029928687959909, 0.052486948668957, 0.057290457189083, 0.037975050508976, 0.045672826468945, -0.047927584499121, 0.038021676242352, 0.040902145206928, 0.046047039330006, 0.019988819956779, 0.026407800614834, -0.019756250083447, -0.083198174834251, 0.045317031443119, -0.028957203030586, -0.018255762755871, 0.026782363653183, -0.078256830573082, -0.017667770385742, 0.010825857520103, -0.070672489702702, -0.012975372374058, 0.038480468094349, -0.040806241333485, -0.029163658618927, -0.074586562812328, 0.074304111301899, -0.026446092873812, 0.009372808039188, 0.055293060839176, 0.072212748229504, 0.015724800527096, 0.086680404841900, -0.007955051958561, 0.006768360733986, -0.026733029633760, 0.043304584920406, 0.053740270435810, -0.064389318227768, 0.036662153899670, 0.049432031810284, -0.007083639502525, -0.030839670449495, 0.034717686474323, -0.057338930666447, -0.085683993995190, 0.008805379271507, -0.031667876988649, -0.049916386604309, -0.079173803329468, 0.001089662313461, -0.044501677155495, -0.058181509375572, 0.020722590386868, 0.002320878207684, -0.076352387666702, 0.023777164518833, -0.071598939597607, -0.040941976010799, -0.010174103081226, 0.072184063494205, 0.043668977916241, 0.074617348611355, 0.082442693412304, -0.016170799732208, 0.065498076379299, 0.012871496379375, 0.050243087112904, -0.061735037714243, -0.083324462175369, -0.058438163250685, -0.038483127951622, 0.069624267518520, -0.031806118786335, 0.018127404153347, -0.019054926931858, -0.011622227728367, 0.021470256149769, 0.050267823040485, 0.084666259586811, 0.011718109250069, 0.072057165205479, -0.028089758008718, 0.006702423095703, -0.017316244542599, -0.062540173530579, -0.042916301637888, 0.040855653584003, 0.004487141966820, -0.067537859082222, -0.025440409779549, -0.029968198388815, 0.010959193110466, 0.068571768701077, 0.001517623662949, -0.077134676277637, 0.072246424853802, -0.046608723700047, -0.029081936925650, 0.051371298730373, 0.075813554227352, -0.007232464849949, 0.067549981176853, 0.023677632212639, 0.071329407393932, 0.048875756561756, -0.030270349234343, -0.076733797788620, 0.084968231618404, 0.025038897991180, -0.013889133930206, 0.053772427141666, 0.048030249774456, -0.071283787488937, -0.002804011106491, -0.008843585848808, -0.047497536987066, -0.022872038185596, -0.056692864745855, -0.046533364802599, -0.043358504772186, -0.035924520343542, 0.076963745057583, -0.024491533637047, 0.007269740104675, 0.077663190662861, -0.063917614519596, 0.081462971866131, -0.023115098476410, -0.045851301401854, -0.076963134109974, 0.067782185971737, 0.002897299826145, 0.084113799035549, 0.048272751271725, 0.081009425222874, -0.076587080955505, 0.044918783009052, -0.044501319527626, -0.085097670555115, 0.045940212905407, 0.078975535929203, -0.062972784042358, -0.065973557531834, 0.020254760980606, -0.066251702606678, -0.074349924921989, 0.077887929975986, 0.057206042110920, 0.051428936421871, 0.084197439253330, -0.037768378853798, -0.022054120898247, 0.085552789270878, 0.049628369510174, 0.074767492711544, -0.052436683326960, 0.013245068490505, -0.039356704801321, 0.059535853564739, -0.058211475610733, -0.068454317748547, 0.073009230196476, -0.080671086907387, 0.005113489925861, -0.012447126209736, -0.072498410940170, -0.020872674882412, -0.045961599797010, -0.010188728570938, 0.029506273567677, -0.004503034055233, -0.071842357516289, 0.069020815193653, -0.002347983419895, 0.049663446843624, 0.010862611234188, 0.076351262629032, -0.076928891241550, -0.047461818903685, 0.052038632333279, 0.074556417763233, -0.034656889736652, 0.054424457252026, 0.005054481327534, -0.011835552752018, -0.033078975975513, 0.023323372006416, 0.018625721335411, -0.036298654973507, -0.004644311964512, 0.056134305894375, 0.018526025116444, 0.063000477850437, 0.026040807366371, 0.030810929834843, 0.004501260817051, 0.049728713929653, -0.049423415213823, -0.051625672727823, -0.044736076146364, 0.073587410151958, -0.037284385412931, -0.079243600368500, 0.076536796987057, 0.006214998662472, -0.055549483746290, -0.067005187273026, -0.048970274627209, 0.081190802156925, 0.009095206856728, -0.016606450080872, -0.047011625021696, 0.038980655372143, 0.025617234408855, 0.082578279078007, 0.037341304123402, -0.068761043250561, -0.022416457533836, -0.027669217437506, -0.010509423911572, -0.027971640229225, 0.027065016329288, 0.013147495687008, 0.056276731193066, 0.028807498514652, 0.016100287437439, 0.088031493127346, -0.043919313699007, -0.087815694510937, -0.080945342779160, 0.085646696388721, -0.043944094330072, -0.086824528872967, -0.031699340790510, 0.023848854005337, -0.045511219650507, -0.027784615755081, 0.050252206623554, -0.073470741510391, -0.060006491839886, 0.080909065902233, 0.080111585557461, -0.023840196430683, 0.083102859556675, -0.005092009902000, 0.056647114455700, 0.016005836427212, -0.012166231870651, -0.056367762386799, 0.076972760260105, 0.014514677226543, -0.034828301519156, 0.015958167612553, 0.026337355375290, -0.079933226108551, -0.077554687857628, -0.034932952374220, 0.072247512638569, -0.071292698383331, 0.072171501815319, 0.046161569654942, 0.005045652389526, -0.034979544579983, 0.018889203667641, 0.086558960378170, -0.047380853444338, -0.085836119949818, -0.002274557948112, -0.061703175306320, -0.068934224545956, 0.022191897034645, -0.061761461198330, 0.082404799759388, 0.061811111867428, 0.047961674630642, -0.039827339351177, -0.024721339344978, 0.054053731262684, 0.016652345657349, -0.073874466121197, -0.045438852161169, -0.071967318654060, -0.077218189835548, 0.001934498548508, -0.076812230050564, 0.035827957093716, -0.018770501017570, 0.088104195892811, 0.014150090515614, 0.085692591965199, 0.077978976070881, 0.013154767453671, -0.004163645207882, -0.063140824437141, -0.064641803503036, -0.043001145124435, 0.062101356685162, -0.039022143930197, 0.070138715207577, -0.085448645055294, -0.036643967032433, 0.077600054442883, -0.059522517025471, 0.038911588490009, 0.028874360024929, 0.021144375205040, -0.044949319213629, 0.068284593522549, 0.080227784812450, -0.058587785810232, 0.033901199698448, -0.053527593612671, -0.030804350972176, -0.053993988782167, 0.043255187571049, -0.021244436502457, -0.032709684222937, -0.018966041505337, 0.017126984894276, -0.076374135911465, 0.069420747458935, -0.024489887058735, 0.017458632588387, 0.086825124919415, 0.053428940474987, -0.040595065802336, 0.063940100371838, 0.039032809436321, 0.003026098012924, -0.006585210561752, 0.077887795865536, -0.036481678485870, -0.020350836217403, -0.047380391508341, 0.076484940946102, 0.057834811508656, 0.015639476478100, 0.062942229211330, -0.026292786002159, -0.076648443937302, -0.042934298515320, -0.043997410684824, 0.051264278590679, 0.068429879844189, -0.038987919688225, 0.046739123761654, 0.021307341754436, 0.030728295445442, 0.023940697312355, 0.042051993310452, 0.013344280421734, -0.018724665045738, -0.071905516088009, -0.060654141008854, -0.048582609742880, -0.012328460812569, -0.002759926021099, -0.015204161405563, -0.020973533391953, -0.067063219845295, 0.024221733212471, -0.022400334477425, -0.014832973480225, -0.078359588980675, -0.007342383265495, -0.085692696273327, -0.008686296641827, -0.076388821005821, 0.034330628812313, 0.007239371538162, 0.015776850283146, 0.017640650272369, 0.062022246420383, -0.068464688956738, 0.058524347841740, 0.082997716963291, -0.039611905813217, -0.014962762594223, 0.016430445015430, -0.041504234075546, -0.035970035940409, -0.086786277592182, 0.044360660016537, 0.070245899260044, 0.048348583281040, 0.074370034039021, -0.024955399334431, -0.035242982208729, -0.053868707269430, -0.038878843188286, -0.024423211812973, -0.052000086754560, -0.059282511472702, -0.026788197457790, -0.069388948380947, 0.038355551660061, 0.001001216471195, 0.070563383400440, 0.000134512782097, 0.077037371695042, 0.070113159716129, 0.052251465618610, 0.071292527019978, -0.005718693137169, 0.036437891423702, 0.057564802467823, 0.017389133572578, 0.060317806899548, -0.003619655966759, 0.030985496938229, -0.074485555291176, 0.056568570435047, -0.049901384860277, -0.026185560971498, 0.009268768131733, 0.008953131735325, 0.010632619261742, -0.016834437847137, -0.020857401192188, -0.029795862734318, 0.071603469550610, 0.036229453980923, 0.079804532229900, 0.022698372602463, -0.061318859457970, 0.025750100612640, -0.031970575451851, 0.076227210462093, -0.072684176266193, -0.087483309209347, -0.029082674533129, 0.058929704129696, -0.001933299005032, -0.053280297666788, 0.051836036145687, 0.007822833955288, -0.014707498252392, 0.066710807383060, -0.042609155178070, -0.075618818402290, 0.081668324768543, 0.005761116743088, -0.049101203680038, -0.026296682655811, 0.068639643490314, 0.025450624525547, -0.062135115265846, -0.043703921139240, 0.076107941567898, 0.053572438657284, 0.041763685643673, 0.033894747495651, 0.023189134895802, -0.026538122445345, 0.076329968869686, -0.058304242789745, 0.068001069128513, 0.075208283960819, 0.059821121394634, -0.086498692631721, 0.082905553281307, 0.044960387051105, 0.020677812397480, 0.043212912976742, -0.007428780198097, 0.075996033847332, 0.065782822668552, -0.053290810436010, 0.042754210531712, 0.053848274052143, 0.086111761629581, 0.081784687936306, -0.069122076034546, 0.051472283899784, 0.056602962315083, -0.037239879369736, 0.053241275250912, 0.035900138318539, -0.014678269624710, -0.042857106775045, 0.013770006597042, 0.003582693636417, -0.029739428311586, 0.087874390184879, 0.070626191794872, -0.055914264172316, -0.031962081789970, -0.023644231259823, -0.012173905968666, 0.006961226463318, -0.049247328191996, -0.077376425266266, -0.030758854001760, 0.007862538099289, 0.018393136560917, -0.055581912398338, 0.059723131358624, -0.081532381474972, 0.069497145712376, 0.057431407272816, 0.080464564263821, -0.012584351003170, 0.056732289493084, -0.058157633990049, -0.001746229827404, -0.043318741023540, -0.078606165945530, -0.031759418547153, -0.041814815253019, -0.052456028759480, -0.040578965097666, -0.075725451111794, 0.006812259554863, 0.082423917949200, 0.025354675948620, 0.054650820791721, -0.028443980962038, -0.075682081282139, -0.014651991426945, -0.013195186853409, -0.057114880532026, 0.042171441018581, -0.048434250056744, 0.041525132954121, -0.057425081729889, -0.019991874694824, 0.038137368857861, -0.044603925198317, 0.054992087185383, -0.020032502710819, 0.000902175903320, 0.068400539457798, -0.077821671962738, 0.065169416368008, 0.059822179377079, -0.071179643273354, 0.080933786928654, 0.085956372320652, 0.050337217748165, -0.076849952340126, 0.067850269377232, 0.005770832300186, -0.031323201954365, 0.067885510623455, 0.066910497844219, 0.067472361028194, -0.058474071323872, -0.075824581086636, -0.038853958249092, -0.045982673764229, 0.039230920374393, 0.067482285201550, 0.083114095032215, -0.077017255127430, 0.035173736512661, -0.086461432278156, -0.018264397978783, 0.034971006214619, -0.001512020826340, 0.048579759895802, 0.063376642763615, 0.018976494669914, 0.062260173261166, 0.040089912712574, -0.011366479098797, -0.059126000851393, -0.080654464662075, -0.057446110993624, -0.010608196258545, 0.078059844672680, 0.031528264284134, 0.014371171593666, -0.081440776586533, -0.061311691999435, 0.027167268097401, -0.044157043099403, -0.007820345461369, -0.036482606083155, 0.068866349756718, 0.088041968643665, -0.005138650536537, -0.065611258149147, 0.054617993533611, -0.008719570934772, -0.050746470689774, -0.023020796477795, 0.055111400783062, -0.060224980115891, -0.014769434928894, -0.033511083573103, 0.054891146719456, -0.085072755813599, 0.038925461471081, -0.061513766646385, 0.036857984960079, 0.057689420878887, -0.065626814961433, 0.070102371275425, 0.066855542361736, 0.004038281738758, 0.023395821452141, -0.071507096290588, 0.024582654237747, 0.023825339972973, -0.008641034364700, 0.068454988300800, -0.032644968479872, 0.069231860339642, 0.087646968662739, 0.012458816170692, -0.037241354584694, -0.007487110793591, 0.055251486599445, -0.005823470652103, 0.044095762073994, 0.023417696356773, 0.024906471371651, 0.018196672201157, -0.056317862123251, -0.036889575421810, 0.053696312010288, 0.059146337211132, -0.066204860806465, -0.019579276442528, 0.065570063889027, 0.055302761495113, -0.059593260288239, 0.057399578392506, 0.081493921577930, -0.063127502799034, -0.006670370697975, -0.052154131233692, -0.068985834717751, 0.018786475062370, -0.061565309762955, -0.046526979655027, 0.016832605004311, -0.045873388648033, -0.084446035325527, 0.045230232179165, -0.018676362931728, -0.059933952987194, -0.062324881553650, -0.068234086036682, 0.047350324690342, 0.019124299287796, -0.055156864225864, -0.004081897437572, 0.074181966483593, -0.058024764060974, 0.013977684080601, 0.043764777481556, -0.033261954784393, -0.022847108542919, -0.072868213057518, 0.062429152429104, 0.087945111095905, 0.041094802320004, 0.007057152688503, -0.085100784897804, 0.066965214908123, -0.009705916047096, 0.044153504073620, -0.002134002745152, 0.082808248698711, -0.051005505025387, 0.055978216230869, -0.010076805949211, -0.070325322449207, -0.022219650447369, -0.056210111826658, -0.001222170889378, 0.044506125152111, 0.042967326939106, 0.032864995300770, -0.048954807221889, 0.046126924455166, -0.049602266401052, 0.024472102522850, 0.037139885127544, -0.008321665227413, 0.044876702129841, -0.080346368253231, 0.014011338353157, -0.065329000353813, -0.076276205480099, -0.067561566829681, -0.033103313297033, -0.040122345089912, 0.063915573060513, 0.061945788562298, 0.009900234639645, 0.021001249551773, 0.022402040660381, 0.024570412933826, -0.026910953223705, 0.004982493817806, -0.000478707253933, 0.004218623042107, 0.024534061551094, -0.040037818253040, 0.013406597077847, 0.047677122056484, -0.028827328234911, 0.013124190270901, -0.061420515179634, -0.053674135357141, -0.030577305704355, 0.079938955605030, -0.002424031496048, -0.036237228661776, -0.071542628109455, -0.058086998760700, -0.028211962431669, 0.009284488856792, 0.012757621705532, -0.051896572113037, -0.031858548521996, 0.005792073905468, -0.017191931605339, -0.076325327157974, 0.032538652420044, -0.005215167999268, -0.010814733803272, 0.040330566465855, 0.086055643856525, -0.067526862025261, -0.072747252881527, -0.057934068143368, -0.075906179845333, -0.047357738018036, 0.010530687868595, -0.014801383018494, 0.041203729808331, -0.007363162934780, 0.040856651961803, -0.068656541407108, 0.009461522102356, -0.006740458309650, 0.019820779561996, -0.046283751726151, 0.002315782010555, 0.073645822703838, 0.061068795621395, 0.010044835507870, -0.083547674119473, 0.023931592702866, -0.085924148559570, -0.043638277798891, -0.059373274445534, -0.074264049530029, -0.062040518969297, -0.087440818548203, 0.004304729402065, -0.003687910735607, 0.005243450403214, 0.026312656700611, 0.076619066298008, -0.034905999898911, 0.053674586117268, 0.033062517642975, -0.027264226227999, -0.056489020586014, 0.021842859685421, 0.066032253205776, 0.033606611192226, -0.045189365744591, 0.076597578823566, 0.069498382508755, -0.052470274269581, -0.078651413321495, 0.036301523447037, -0.038026951253414, 0.070877872407436, 0.011835403740406, -0.041148938238621, 0.052533648908138, -0.023992791771889, -0.085730969905853, 0.044195167720318, 0.046116508543491, -0.036334756761789, 0.057409547269344, -0.078788116574287, -0.071673475205898, 0.009200826287270, 0.008826687932014, -0.035091992467642, 0.036776967346668, -0.004284143447876, -0.065833799540997, 0.073858939111233, -0.035970438271761, 0.034309580922127, 0.061962760984898, 0.067926682531834, -0.028181090950966, -0.010056994855404, 0.066045813262463, 0.085448332130909, -0.003816016018391, -0.043170277029276, 0.056995935738087, -0.082341134548187, -0.077727153897285, 0.052560769021511, -0.027418188750744, -0.049369446933270, 0.059170655906200, 0.068606995046139, -0.051911577582359, 0.065374739468098, 0.074118293821812, 0.087581135332584, 0.083969719707966, -0.077775813639164, 0.018243201076984, -0.065394967794418, 0.019418716430664, 0.075707532465458, -0.055603239685297, 0.067067019641399, 0.012557692825794, -0.087828867137432, 0.031052298843861, 0.034662872552872, 0.001361787319183, 0.026923239231110, 0.005915857851505, -0.040219262242317, -0.057175297290087, 0.012916363775730, -0.054746754467487, -0.056031264364719, -0.007418289780617, 0.001839734613895, 0.020944558084011, -0.074365772306919, 0.078907556831837, -0.049237780272961, 0.034740954637527, 0.079921387135983, 0.013281501829624, -0.029028747230768, 0.054811425507069, 0.000970155000687, 0.042965359985828, 0.012424342334270, 0.070683009922504, 0.080006711184978, 0.057783626019955, -0.071467168629169, 0.069770418107510, -0.031500976532698, 0.066856421530247, 0.075740091502666, 0.034017734229565, -0.036989338696003, -0.034140802919865, -0.027266040444374, -0.051310732960701, -0.041114438325167, -0.045158661901951, -0.043443072587252, -0.025813743472099, -0.025979064404964, -0.036993931978941, 0.033990971744061, 0.062181018292904, -0.059655383229256, 0.018431171774864, -0.053013801574707, 0.040909789502621, 0.069996036589146, -0.032480824738741, -0.008472695946693, 0.085522092878819, 0.002031058073044, 0.058044590055943, 0.054684989154339, 0.006553329527378, -0.067611299455166, -0.088168799877167, -0.010295212268829, -0.032339528203011, 0.031654894351959, 0.056329809129238, 0.073773883283138, 0.011633180081844, -0.020318113267422, -0.072416000068188, 0.041403464972973, -0.077458828687668, 0.068870268762112, 0.047864072024822, -0.000850141048431, -0.060650430619717, 0.048799641430378, 0.018882423639297, -0.007990263402462, 0.043754450976849, -0.041794583201408, 0.039190210402012, -0.065658569335938, -0.075719743967056, 0.085460431873798, 0.032354936003685, -0.021726317703724, 0.049786530435085, -0.012874931097031, 0.045041508972645, -0.026393704116344, -0.052296102046967, -0.013698630034924, 0.033215969800949, 0.041273929178715, 0.003555148839951, 0.058771036565304, 0.006944619119167, 0.058216698467731, -0.083942040801048, 