//Numpy array shape [3, 3, 128, 64]
//Min -0.058924961835
//Max 0.058923486620
//Number of zeros 0

#ifndef W174_H_
#define W174_H_

#ifndef __SYNTHESIS__
model_default_t w174[73728];
#else
model_default_t w174[73728] = {-0.036798633635044, -0.050016824156046, -0.022729814052582, -0.055887389928102, -0.004687603563070, -0.001387383206747, 0.022297952324152, -0.042453028261662, 0.052148006856441, 0.029562169685960, 0.010715496726334, 0.015105524100363, -0.001116012223065, -0.034032009541988, -0.005420832429081, 0.027431519702077, -0.008889385499060, 0.056949384510517, -0.046618916094303, -0.021171607077122, 0.044402506202459, -0.020386861637235, -0.046952437609434, -0.015405360609293, -0.009064684621990, -0.000275980564766, 0.051350485533476, 0.056012343615294, -0.026321288198233, 0.014524735510349, -0.010545589029789, 0.011993451975286, 0.055751375854015, -0.019200807437301, 0.055319264531136, -0.028563562780619, -0.023044832050800, 0.040183048695326, -0.025753827765584, 0.001016719499603, -0.005795144941658, -0.015449661761522, 0.021907126531005, -0.004120998084545, -0.047883037477732, -0.037624612450600, 0.008337871171534, -0.000495540036354, 0.014656404033303, -0.031745843589306, 0.039388455450535, -0.018206473439932, -0.041175868362188, -0.058572951704264, -0.037960954010487, 0.020757874473929, -0.056764855980873, 0.025517333298922, -0.052369575947523, -0.023365925997496, -0.057109218090773, -0.045585006475449, -0.048001706600189, -0.049925815314054, -0.017237987369299, -0.040238823741674, -0.052997041493654, 0.032234027981758, 0.006777747068554, 0.027914715930820, -0.044878836721182, 0.034596126526594, -0.021109921857715, 0.057152509689331, 0.000225736614084, 0.030748192220926, -0.048090379685163, 0.050583221018314, 0.014979328960180, 0.012516846880317, -0.006870534736663, 0.024741698056459, 0.053636975586414, 0.020029058679938, -0.019805414602160, -0.018941076472402, 0.038195438683033, -0.047777697443962, -0.028328429907560, 0.013457727618515, -0.051469180732965, -0.027181234210730, -0.008094329386950, 0.003754322417080, -0.018022004514933, 0.032508824020624, 0.012908633798361, 0.011633373796940, 0.058437600731850, 0.041290480643511, -0.014473930001259, -0.054620258510113, -0.003549027489498, -0.040648467838764, 0.021582450717688, -0.039343860000372, -0.026173159480095, 0.024772826582193, -0.014170454815030, -0.016318829730153, 0.031315807253122, -0.020566051825881, -0.014467808417976, 0.018383825197816, -0.050661079585552, -0.000705746177118, -0.047189816832542, 0.019079882651567, 0.014154239557683, -0.057464662939310, 0.023022085428238, 0.024037202820182, -0.038344625383615, -0.025489319115877, -0.020938230678439, -0.022138284519315, -0.049400229007006, -0.032166957855225, -0.058855757117271, 0.021297214552760, 0.014041777700186, -0.013295631855726, -0.054038461297750, -0.012091575190425, 0.039409954100847, 0.011000957340002, 0.004473860375583, -0.004515815991908, 0.022351540625095, -0.049893405288458, -0.019601706415415, -0.026792030781507, 0.044661357998848, 0.017183436080813, -0.004037969745696, 0.046606216579676, -0.040116462856531, -0.035438928753138, 0.034386720508337, 0.002236444270238, -0.028691049665213, 0.057934213429689, -0.022946663200855, 0.005217533092946, -0.006538821849972, 0.002944171195850, 0.033568102866411, -0.057447519153357, 0.017896858975291, 0.023929104208946, 0.017624504864216, -0.052005890756845, -0.030155004933476, -0.014435708522797, 0.057112954556942, -0.031968854367733, 0.034161042422056, -0.001930117723532, -0.014278661459684, 0.044722862541676, 0.027735723182559, 0.032308913767338, -0.037819705903530, -0.041591931134462, 0.042649403214455, -0.041109338402748, 0.010299336165190, 0.007752272300422, 0.021764473989606, 0.029760189354420, 0.022674920037389, -0.013801013119519, -0.018896451219916, 0.026224993169308, -0.043155625462532, -0.012473319657147, -0.019917158409953, 0.017450077459216, -0.012449407950044, -0.003179838182405, -0.019700182601810, 0.037295777350664, 0.047559484839439, 0.027216192334890, 0.018062068149447, -0.033712361007929, 0.021133681759238, 0.010675111785531, 0.056729499250650, 0.041105255484581, -0.042209871113300, -0.000621384475380, 0.041100673377514, 0.049150563776493, -0.043370921164751, -0.008363234810531, 0.050118848681450, 0.048208937048912, -0.028107760474086, 0.005731441080570, 0.055655192583799, 0.003765723668039, 0.038597181439400, 0.023576399311423, 0.054289374500513, 0.056065678596497, 0.000222538190428, 0.037598446011543, -0.051529251039028, -0.038250431418419, -0.004058623220772, 0.012357477098703, -0.017320793122053, 0.038690142333508, 0.041472375392914, -0.046132531017065, 0.034143038094044, -0.024994386360049, -0.008318736217916, 0.035526715219021, 0.033071521669626, -0.034500420093536, 0.057610038667917, -0.023750100284815, -0.036199439316988, -0.030170099809766, 0.004905479960144, -0.045715890824795, 0.051281116902828, 0.010227481834590, 0.050059005618095, -0.056159425526857, -0.034170307219028, -0.023574814200401, -0.026103472337127, 0.013159942813218, -0.027676701545715, -0.036895763128996, -0.051229540258646, -0.049920789897442, -0.032358773052692, -0.055391050875187, 0.018655434250832, 0.018795672804117, -0.033293571323156, 0.042849991470575, 0.021849049255252, 0.050940640270710, -0.003803803119808, 0.015462213195860, -0.011757394298911, -0.004016288090497, 0.006418353877962, -0.036239244043827, 0.004702091682702, 0.021709106862545, -0.038931123912334, -0.005188873969018, 0.007989075034857, -0.038495939224958, 0.044336691498756, 0.017346119508147, -0.037132538855076, -0.042659159749746, 0.055235117673874, 0.055121090263128, 0.022127471864223, 0.038100365549326, 0.003716663690284, -0.030003659427166, 0.007643079385161, -0.034829523414373, -0.022716447710991, -0.036966674029827, -0.041846834123135, -0.058377277106047, -0.055010851472616, 0.019545653834939, -0.038819659501314, -0.043665025383234, -0.047184761613607, -0.032262008637190, 0.025421008467674, -0.052611760795116, -0.047755286097527, -0.008385237306356, 0.023014370352030, 0.008503288030624, -0.053872652351856, -0.015076216310263, -0.025784270837903, -0.027172610163689, -0.026344556361437, -0.026227913796902, -0.001516936230473, 0.006447970401496, -0.056402981281281, -0.000769763137214, -0.043425891548395, -0.031777169555426, 0.016433104872704, 0.004280286375433, -0.057758025825024, -0.013999173417687, 0.000780534988735, 0.002215775428340, -0.052531365305185, -0.033557448536158, 0.040367629379034, 0.006888831499964, 0.041465234011412, 0.033799476921558, -0.015513105317950, 0.008217127993703, 0.030191332101822, 0.025184541940689, 0.056472197175026, -0.042687132954597, -0.010085209272802, 0.003776380093768, 0.054640930145979, -0.036962557584047, -0.031506147235632, 0.016716934740543, -0.047895267605782, 0.013159659691155, 0.006736394483596, -0.044840853661299, -0.051975235342979, 0.035668555647135, 0.035214856266975, -0.037568751722574, 0.050801377743483, 0.055276624858379, 0.011870236136019, 0.048558205366135, 0.043058592826128, 0.030519828200340, 0.021879937499762, 0.037032686173916, -0.051695734262466, 0.012330750003457, 0.049542862921953, 0.032126069068909, 0.011929065920413, 0.052342817187309, -0.012580040842295, -0.049109406769276, 0.031210448592901, 0.057697732001543, -0.043518528342247, -0.013525159098208, 0.008859843946993, -0.039000298827887, 0.055361691862345, 0.023173792287707, -0.045701358467340, 0.048688158392906, -0.026989487931132, -0.045169536024332, -0.045275200158358, -0.009755518287420, 0.057903125882149, -0.023265961557627, -0.030064966529608, 0.041473835706711, -0.035821948200464, 0.005134210456163, 0.036173555999994, -0.046613436192274, -0.044678248465061, -0.049222722649574, -0.037991046905518, -0.030840517953038, 0.037330582737923, 0.007413447834551, -0.054156918078661, -0.044559173285961, 0.037141006439924, -0.017586423084140, -0.057100415229797, -0.008069363422692, -0.004635479301214, 0.051577389240265, 0.047970406711102, 0.028118796646595, 0.058254532516003, -0.048001382499933, 0.037974841892719, -0.045137684792280, -0.043753981590271, 0.022761348634958, 0.013555080629885, 0.052957918494940, 0.010256032459438, 0.018302727490664, -0.006489367224276, -0.052115824073553, -0.013998667709529, -0.006246916018426, -0.032572489231825, -0.010786659084260, -0.005773128475994, -0.022978959605098, -0.039760217070580, -0.038907997310162, 0.032918497920036, 0.048703610897064, -0.015754848718643, -0.042300105094910, 0.043552335351706, -0.016915487125516, 0.003444078844041, 0.017405224964023, -0.001449195900932, 0.043106045573950, -0.033684246242046, -0.042222347110510, 0.050552017986774, -0.045029591768980, -0.029023813083768, -0.002562259091064, 0.038286894559860, -0.025170342996716, 0.011417198926210, 0.014907109551132, 0.024409933015704, 0.001997563987970, 0.038486544042826, -0.056741353124380, 0.006018695887178, -0.048827119171619, 0.027544017881155, -0.004551761783659, -0.036176607012749, -0.001502206316218, -0.052775193005800, 0.055377420037985, 0.033942367881536, -0.018316885456443, 0.031336747109890, 0.010641831904650, -0.010474281385541, -0.006890935357660, 0.004505732562393, -0.031875099986792, -0.042618464678526, 0.036730561405420, -0.022667946293950, -0.031684201210737, 0.039050970226526, -0.016913687810302, -0.029291242361069, 0.024648850783706, 0.031402897089720, -0.054081428796053, 0.024429377168417, 0.013412696309388, -0.000693686015438, -0.040753811597824, -0.032934788614511, -0.056866772472858, 0.016278516501188, 0.031881753355265, 0.004998811520636, -0.012469291687012, -0.036850489675999, -0.036296539008617, 0.014804573729634, 0.003265886800364, -0.008010738529265, -0.039048504084349, 0.044294655323029, -0.030776569619775, -0.039915069937706, 0.057766355574131, -0.000645746884402, -0.045618455857038, -0.035908192396164, 0.013860230334103, 0.027218598872423, 0.027493074536324, -0.010804072953761, -0.019374946132302, 0.043415829539299, -0.009730678983033, -0.044241532683372, 0.001569071668200, -0.011079056188464, -0.020239675417542, 0.036623436957598, -0.008213954977691, 0.017226388677955, -0.022554794326425, 0.005024257581681, 0.025660209357738, 0.049986481666565, 0.051079306751490, 0.023830799385905, 0.007453541737050, -0.050127796828747, -0.001348838210106, 0.036372181028128, -0.042550619691610, 0.003181115491316, -0.022512150928378, -0.021807808429003, -0.044769536703825, -0.045374352484941, -0.051960818469524, -0.047503881156445, -0.049836371093988, 0.037012014538050, -0.013629787601531, -0.039127025753260, 0.035387676209211, -0.010241567157209, -0.042718894779682, -0.011907727457583, 0.004043699707836, 0.041006017476320, 0.028487453237176, 0.042996995151043, 0.015190782956779, 0.038228213787079, -0.028186339884996, -0.002042159438133, -0.013203863985837, -0.015019840560853, 0.020507832989097, -0.005265107378364, -0.040020778775215, 0.041126076132059, -0.019164117053151, 0.005823975428939, -0.023882037028670, 0.018249610438943, -0.024746770039201, -0.057611614465714, 0.020445106551051, -0.018139857798815, -0.052937585860491, -0.014103013090789, 0.035040583461523, 0.040900889784098, 0.000036619923776, 0.007408116012812, -0.009603234007955, -0.009850398637354, 0.042047817260027, 0.045730959624052, 0.024559183046222, 0.033987369388342, -0.033981245011091, 0.019487909972668, 0.043451067060232, -0.042273104190826, 0.009507988579571, 0.031096668913960, 0.007328129373491, 0.019205711781979, 0.044167388230562, 0.042082361876965, 0.052900474518538, -0.036897096782923, 0.004284233320504, -0.028747834265232, 0.053990367799997, -0.025659058243036, -0.030440559610724, -0.047875724732876, -0.036676216870546, -0.014770887792110, -0.014711897820234, -0.002869088202715, -0.012243595905602, 0.005875507835299, -0.023001553490758, -0.044779855757952, 0.045740455389023, 0.027244670316577, 0.012895817868412, 0.020737575367093, -0.009879382327199, -0.001526118139736, 0.018088869750500, 0.011973159387708, 0.048283047974110, 0.009888724423945, -0.038985256105661, 0.010662236250937, -0.031309138983488, 0.004192130640149, -0.043001517653465, 0.024397110566497, 0.016139542683959, 0.045490290969610, 0.018681580200791, -0.042274340987206, -0.035448785871267, -0.019118903204799, 0.011453651823103, 0.052966214716434, -0.005543739069253, -0.031432650983334, 0.022578386589885, -0.027840670198202, 0.023536060005426, 0.024908658117056, 0.048702515661716, -0.029158264398575, -0.044031985104084, 0.015409445390105, 0.003391057252884, -0.023290030658245, -0.054155636578798, 0.009586359374225, 0.014872705563903, 0.041821260005236, -0.037381179630756, -0.015101729892194, 0.045926112681627, 0.009071691893041, 0.002136592986062, -0.022957207635045, -0.040373302996159, 0.054553661495447, 0.012289613485336, 0.014080069027841, -0.020429790019989, 0.022828236222267, -0.035087652504444, -0.031171120703220, 0.016576033085585, 0.027801053598523, -0.044949147850275, 0.015821166336536, 0.034743133932352, 0.030701069161296, -0.039697278290987, 0.021208707243204, 0.032193820923567, 0.018022324889898, -0.011103433556855, 0.039921574294567, 0.057208623737097, -0.036898542195559, 0.055984277278185, -0.021763391792774, -0.006491809617728, 0.042034883052111, 0.035024914890528, 0.043276824057102, 0.022754989564419, 0.009208304807544, -0.043755974620581, 0.011066377162933, -0.046627368777990, -0.034255150705576, -0.044772818684578, 0.052006464451551, 0.020065875723958, -0.009872065857053, -0.014274844899774, 0.006138218101114, -0.030701825395226, -0.048090130090714, 0.039381463080645, -0.017517575994134, -0.002394794253632, 0.048727702349424, -0.051590308547020, -0.047893486917019, 0.016645742580295, 0.043037854135036, 0.039340645074844, 0.003569625318050, -0.039612807333469, -0.040148857980967, -0.048162586987019, 0.055246420204639, -0.031453914940357, 0.048809193074703, -0.004311112686992, 0.027897832915187, -0.036913160234690, -0.042359367012978, -0.000234065926634, -0.042778544127941, 0.042862050235271, -0.027446623891592, -0.014763601124287, 0.013642618432641, -0.056529738008976, 0.053013131022453, -0.000946860585827, -0.014881835319102, 0.041435871273279, 0.039623871445656, 0.023664301261306, 0.001477773184888, 0.018144870176911, -0.006644611712545, 0.028153946623206, 0.057489123195410, 0.034651398658752, 0.024038521572948, -0.006138891912997, 0.008626392111182, -0.019009305164218, 0.010718475095928, 0.045849163085222, 0.057606693357229, -0.047971066087484, -0.010105624794960, 0.013975485228002, 0.048222843557596, -0.002218061592430, 0.045741345733404, 0.046948283910751, -0.008603421971202, -0.036696873605251, 0.002646341687068, 0.039445564150810, -0.038244236260653, -0.018654648214579, -0.053402446210384, -0.020976101979613, 0.043317604809999, 0.041497994214296, -0.033167954534292, 0.020766163244843, -0.006291712634265, -0.035639569163322, 0.058839477598667, 0.037419304251671, -0.020112650468946, 0.004016637802124, -0.055427223443985, 0.040820859372616, -0.012067633680999, -0.055625479668379, 0.038600414991379, -0.034137044101954, -0.021231144666672, 0.010400241240859, -0.048701670020819, -0.032795909792185, 0.023374194279313, -0.023269472643733, 0.030092712491751, -0.037687741219997, -0.018381098285317, -0.000948699947912, -0.020904600620270, -0.033137552440166, -0.030545931309462, 0.017607556656003, -0.015447386540473, -0.004691099748015, -0.039264958351851, -0.006767310202122, 0.024804757907987, -0.015635337680578, 0.001861636410467, -0.056824617087841, 0.023316780105233, 0.011891705915332, 0.041891813278198, 0.005063703283668, -0.045002255588770, 0.019693763926625, 0.058092944324017, 0.058018811047077, -0.042777378112078, -0.047333270311356, -0.044884469360113, 0.009340091608465, -0.024511214345694, 0.028737220913172, -0.016362065449357, -0.026271738111973, -0.025210753083229, -0.055996593087912, 0.011343706399202, 0.044605500996113, -0.048632655292749, -0.017495473846793, -0.050457529723644, 0.027239255607128, -0.001269908971153, -0.003915520850569, 0.049050498753786, -0.032297927886248, 0.017829896882176, 0.044622451066971, 0.000491384649649, 0.030585546046495, 0.056636966764927, 0.002031655516475, 0.039355203509331, -0.013805168680847, -0.006296206731349, 0.040937997400761, 0.044211227446795, -0.006006394047290, -0.055231194943190, -0.037844561040401, -0.010601082816720, -0.055271327495575, 0.044596444815397, 0.033898357301950, -0.045095898211002, -0.056782718747854, -0.049208991229534, -0.050082005560398, -0.039003387093544, -0.001761252759025, -0.053242675960064, -0.038856461644173, -0.057518765330315, -0.046733945608139, -0.058614879846573, -0.001784997060895, -0.051598578691483, -0.049355462193489, 0.027097586542368, 0.040553979575634, -0.053782697767019, -0.022462751716375, 0.048698302358389, 0.051343336701393, -0.054320983588696, -0.008164061233401, 0.015199055895209, 0.018386095762253, 0.051464803516865, -0.057330153882504, -0.024107776582241, 0.017222613096237, -0.057897590100765, 0.004554524552077, -0.007415149360895, -0.030967105180025, 0.040671035647392, 0.050813887268305, -0.027678610756993, 0.006930280942470, 0.026070740073919, 0.006392423994839, -0.044159259647131, 0.028069371357560, -0.003004747675732, 0.036071125417948, 0.001643227413297, -0.025259213522077, -0.013451691716909, 0.020774556323886, -0.021393178030849, 0.030542250722647, 0.019731638953090, -0.004626744426787, 0.006862909067422, 0.031266748905182, 0.015074477531016, 0.025789590552449, 0.003225781721994, -0.043221261352301, 0.025779455900192, 0.052207432687283, -0.007833755575120, -0.013946811668575, -0.027405874803662, 0.021819097921252, -0.003206922439858, -0.017014607787132, 0.033981893211603, -0.018177278339863, -0.029494892805815, 0.009879690594971, 0.025316268205643, -0.000666780513711, 0.054338045418262, 0.038589905947447, -0.033370420336723, -0.030038427561522, -0.030055418610573, 0.036437675356865, -0.035406108945608, -0.011530644260347, 0.026673562824726, 0.018398160114884, -0.003263064427301, -0.038048688322306, -0.000618111575022, -0.006020029075444, -0.056448869407177, -0.052366502583027, -0.020967705175281, -0.042879883199930, -0.055045533925295, -0.013848952017725, 0.046460423618555, 0.036318384110928, -0.010566384531558, 0.050568401813507, 0.049964603036642, 0.002111091278493, 0.050592906773090, -0.012137664481997, 0.042364012449980, -0.044965799897909, 0.049235027283430, 0.018962712958455, 0.039398062974215, -0.056252732872963, 0.034535188227892, 0.044136244803667, 0.016801098361611, 0.057009063661098, 0.008555751293898, -0.052304059267044, 0.013239810243249, 0.003473285352811, 0.054800137877464, -0.006668147630990, 0.057451449334621, 0.025040145963430, 0.050109628587961, 0.043146401643753, 0.006520822644234, 0.047322962433100, 0.040526557713747, 0.036903019994497, 0.013014036230743, 0.033533409237862, -0.043658666312695, -0.013668414205313, 0.024434829130769, -0.029641432687640, 0.045812614262104, -0.047762572765350, -0.056235823780298, 0.012197295203805, -0.033039201050997, -0.021983401849866, -0.044537536799908, 0.003033701097593, -0.019957065582275, 0.028384426608682, -0.058870106935501, 0.053543087095022, -0.027926592156291, -0.013926954008639, -0.005165550392121, -0.034436400979757, 0.046250496059656, 0.029947759583592, -0.017726505175233, -0.011405615136027, 0.046452753245831, -0.008871088735759, -0.055212758481503, 0.010841534473002, 0.056239727884531, 0.048648480325937, 0.049776300787926, -0.013619927689433, 0.051310226321220, -0.031880319118500, 0.028026947751641, 0.050399944186211, 0.014650617726147, 0.053929526358843, 0.031254235655069, -0.052885632961988, 0.049258761107922, 0.055021449923515, 0.041385374963284, 0.000935444550123, -0.041738897562027, -0.026886111125350, -0.009660917334259, -0.046802219003439, 0.049230489879847, -0.021831015124917, -0.057990379631519, -0.056058321148157, -0.030899535864592, 0.020269257947803, -0.040888518095016, -0.040969692170620, 0.033032719045877, 0.055967550724745, -0.030717777088284, 0.016930904239416, -0.028626006096601, -0.006179347168654, -0.027486629784107, -0.055677082389593, 0.049089364707470, 0.003045187797397, -0.029460096731782, 0.030894158408046, 0.013316781260073, 0.029590630903840, -0.052054516971111, 0.047144416719675, -0.022221958264709, -0.044375155121088, -0.018088154494762, 0.055543668568134, 0.055979110300541, 0.027747966349125, -0.032573189586401, -0.028642604127526, -0.028126478195190, -0.036543942987919, 0.019107516855001, -0.048447452485561, -0.028253754600883, 0.015190067701042, -0.052823901176453, -0.043224640190601, 0.054502055048943, -0.029868451878428, 0.039292324334383, -0.014931051060557, 0.027721976861358, -0.019683107733727, 0.041792798787355, 0.007012583315372, 0.053496439009905, -0.042786326259375, 0.056191381067038, -0.015884933993220, -0.022408615797758, -0.039783053100109, 0.018810074776411, -0.044170293956995, 0.019584957510233, -0.038479212671518, 0.026057178154588, 0.019376967102289, -0.001573919551447, 0.028130875900388, 0.028922177851200, -0.058865427970886, 0.030337633565068, 0.043537456542253, -0.010447097010911, -0.012850205413997, 0.030411170795560, -0.042397838085890, 0.010743943974376, 0.041785404086113, -0.006836580578238, 0.055449340492487, 0.046357523649931, 0.029782075434923, 0.046800490468740, -0.051554933190346, -0.057229503989220, 0.007939196191728, -0.038621108978987, 0.008333872072399, -0.051386415958405, -0.005476296879351, -0.025713821873069, 0.044381938874722, -0.042861755937338, 0.050005268305540, -0.033248763531446, 0.012039301916957, 0.018810320645571, 0.049237772822380, 0.046941384673119, 0.037595096975565, 0.028332879766822, 0.055008545517921, -0.027476813644171, -0.035639248788357, 0.054018970578909, 0.015901995822787, -0.014640958979726, -0.013997081667185, -0.025552550330758, -0.019260050728917, 0.002713180845603, -0.045050952583551, -0.033616352826357, 0.052103906869888, -0.040695160627365, 0.043096773326397, 0.057528272271156, 0.018785858526826, 0.015064648352563, -0.048456203192472, 0.047031581401825, -0.051196694374084, -0.048190727829933, -0.047087773680687, -0.051863085478544, 0.051096986979246, 0.052164793014526, 0.031468700617552, -0.032688029110432, -0.058220148086548, -0.056198853999376, -0.000236731895711, 0.056704070419073, -0.004710968118161, 0.030046572908759, 0.028237998485565, -0.019087336957455, -0.032156188040972, -0.013495658524334, -0.047386053949594, -0.032133147120476, -0.040615905076265, 0.041166428476572, 0.012864652089775, -0.002363312523812, 0.022575676441193, 0.002353117801249, 0.041785642504692, 0.057193089276552, 0.045836810022593, 0.018107308074832, -0.007935487665236, 0.024697694927454, 0.015446389093995, 0.030214656144381, 0.042989004403353, 0.034881521016359, -0.058682829141617, -0.050944305956364, -0.029564399272203, 0.007182744331658, -0.015601737424731, 0.022596161812544, -0.031395748257637, 0.037733852863312, 0.004276257939637, -0.057926811277866, -0.053811162710190, 0.046961076557636, 0.048659428954124, 0.050562832504511, 0.006618637125939, -0.042419210076332, -0.005262296181172, -0.026602366939187, 0.003210124559700, -0.003116606967524, -0.042728681117296, 0.029450563713908, 0.055881675332785, 0.007700189016759, 0.046035669744015, 0.052323587238789, -0.048279188573360, 0.041191950440407, 0.056011226028204, -0.009391411207616, 0.056735411286354, -0.056989215314388, -0.007945485413074, -0.001206539920531, -0.046800039708614, 0.041814029216766, 0.047891732305288, -0.016063841059804, -0.037577949464321, 0.018268568441272, 0.015376306138933, -0.051972609013319, -0.026054266840219, 0.014350755140185, 0.044693835079670, -0.006806655786932, 0.052056044340134, 0.044344518333673, -0.034610383212566, 0.027334472164512, -0.057695988565683, -0.057665616273880, 0.001457707607187, 0.008492698892951, 0.053389851003885, 0.050991054624319, 0.043703626841307, -0.040161814540625, 0.058685522526503, -0.046458132565022, 0.005449085962027, 0.030879212543368, 0.046296317130327, 0.034866128116846, 0.036769118160009, 0.022249003872275, -0.012206844985485, -0.003813997842371, -0.010273499414325, 0.006365980487317, -0.038341630250216, -0.058228138834238, -0.022117460146546, -0.003775523509830, 0.032556150108576, 0.006272701080889, -0.027159579098225, 0.035672992467880, 0.034558482468128, -0.033121630549431, 0.030219174921513, -0.020068965852261, 0.046992093324661, 0.001455711899325, -0.033228360116482, -0.039624195545912, -0.056641917675734, 0.018029391765594, -0.058284990489483, 0.012721747159958, 0.000168995276908, -0.010447644628584, 0.009522085078061, 0.051968723535538, 0.050837717950344, -0.049483735114336, -0.052207745611668, -0.010923472233117, -0.022319242358208, 0.051746070384979, -0.057632982730865, 0.017849244177341, -0.025667805224657, 0.042390380054712, 0.047214128077030, 0.049640119075775, -0.010182267986238, -0.032528523355722, 0.042683117091656, -0.050940826535225, 0.044868137687445, 0.020916270092130, 0.031203582882881, 0.046440750360489, 0.011554094962776, -0.053888883441687, -0.030420774593949, -0.028323346748948, -0.015981780365109, 0.008556377142668, 0.027407435700297, 0.011164475232363, 0.055366717278957, 0.020997023209929, -0.050762940198183, -0.007083213422447, 0.010257641784847, 0.049839839339256, -0.058596204966307, 0.028328880667686, 0.011525617912412, -0.023730553686619, -0.006837381515652, 0.013235654681921, -0.038529526442289, -0.032050549983978, -0.041984841227531, 0.014905955642462, 0.042832314968109, 0.035308893769979, -0.015420678071678, 0.015215803869069, -0.022097464650869, 0.035451464354992, -0.022663086652756, -0.051535863429308, -0.016870932653546, -0.038922235369682, -0.000099486300314, 0.028614452108741, -0.039701763540506, 0.052900221198797, 0.008447585627437, 0.049208641052246, 0.005332706496119, 0.054803423583508, -0.028943916782737, -0.031381580978632, 0.041301105171442, -0.009315319359303, -0.039698671549559, 0.001424706890248, 0.016024161130190, 0.023377776145935, -0.026799488812685, -0.003667920129374, -0.014603143557906, 0.002318296348676, -0.000835790706333, 0.057969372719526, 0.018800893798470, 0.021072981879115, 0.054177254438400, -0.043003637343645, -0.019961377605796, 0.022681495174766, 0.048988915979862, -0.017095107585192, -0.035177648067474, 0.032933309674263, -0.054544236510992, -0.028068527579308, 0.020431978628039, 0.058013398200274, -0.030341327190399, 0.000466556841275, 0.041625045239925, -0.004008803982288, -0.016720304265618, 0.019043087959290, 0.042308337986469, 0.019193200394511, -0.052025843411684, -0.034410241991282, 0.007399954367429, 0.039121210575104, -0.058408252894878, -0.044701825827360, 0.008023457601666, 0.000307700451231, -0.026045463979244, 0.033354625105858, 0.032620571553707, -0.015918254852295, -0.015869727358222, -0.038881275802851, -0.000291298754746, 0.055730652064085, -0.004098799079657, -0.008488457649946, -0.015701111406088, 0.016132155433297, -0.013388292863965, 0.054471455514431, 0.057453148066998, 0.042970482259989, -0.015943756327033, -0.019467394798994, -0.009286757558584, 0.052996784448624, 0.021813042461872, 0.048072103410959, 0.002878076629713, 0.033686917275190, -0.025754516944289, -0.033162504434586, -0.025899525731802, 0.021525533869863, -0.022241799160838, 0.054926175624132, -0.011547016911209, 0.011184581555426, 0.000098194272141, 0.004590500146151, -0.028305359184742, -0.045732378959656, -0.029112040996552, 0.035832453519106, 0.011675932444632, 0.004102813079953, 0.031614001840353, 0.012220029719174, 0.031544327735901, 0.035884238779545, 0.021264551207423, -0.022502345964313, 0.058840394020081, -0.038644585758448, 0.033647626638412, -0.038252744823694, 0.035882100462914, 0.009363481774926, 0.052589949220419, -0.018768472597003, -0.002683665370569, -0.015545261092484, 0.014687323011458, -0.042514428496361, 0.025887100026011, -0.052791368216276, -0.035766761749983, 0.035640526562929, -0.019539780914783, -0.020645245909691, 0.056818034499884, 0.032426550984383, -0.039594169706106, 0.026321891695261, 0.019580854102969, -0.006577337160707, -0.011119298636913, -0.027391916140914, -0.003607455408201, 0.040809344500303, -0.027364730834961, 0.045271325856447, 0.040721613913774, 0.008213880471885, -0.046303629875183, 0.040914144366980, 0.053471602499485, 0.008774279616773, 0.048258550465107, -0.024444136768579, 0.044773694127798, -0.009994696825743, 0.021650090813637, -0.002559958025813, -0.000672090100124, 0.027156855911016, 0.025498224422336, 0.042185220867395, 0.046131405979395, -0.053101163357496, -0.036176338791847, 0.049663823097944, 0.030342733487487, -0.011563656851649, -0.035222273319960, 0.024213738739491, -0.002372539136559, -0.038557145744562, 0.057116087526083, -0.007096018176526, -0.046660225838423, -0.015355060808361, -0.039737500250340, -0.042064640671015, 0.054747324436903, -0.008487083949149, -0.049540858715773, -0.001786188571714, 0.039513681083918, -0.002333655487746, -0.050734899938107, -0.024458583444357, -0.035572800785303, 0.041956152766943, 0.045640405267477, 0.056245557963848, 0.005812068004161, -0.039288435131311, -0.032210178673267, -0.031279075890779, 0.042827196419239, 0.054408226162195, -0.025496367365122, -0.048614580184221, 0.042323909699917, -0.049600284546614, 0.033757347613573, -0.046097692102194, 0.017694193869829, 0.013683523982763, 0.010775972157717, -0.000010939435015, 0.038060173392296, 0.015518288128078, 0.048512540757656, 0.010691301897168, 0.040022987872362, -0.043854635208845, -0.025566073134542, -0.026187524199486, -0.054897334426641, 0.011307223699987, 0.028797063976526, -0.006148722022772, -0.058739628642797, -0.009177988395095, -0.008863068185747, -0.033936604857445, 0.007215301971883, -0.052571050822735, 0.002737122587860, -0.015573483891785, 0.056483753025532, -0.045273642987013, -0.052266381680965, -0.023158261552453, 0.007341191172600, 0.022136133164167, 0.024109110236168, 0.058738283813000, 0.001911709085107, 0.014521853998303, -0.055610101670027, -0.004128441214561, 0.022840760648251, 0.029315618798137, 0.043762352317572, 0.035127095878124, 0.036955296993256, -0.037687528878450, -0.038037709891796, 0.002386397914961, 0.048075817525387, 0.002874539466575, -0.044972218573093, 0.048516709357500, 0.022119086235762, -0.028930013999343, -0.053050093352795, 0.030668981373310, -0.032327838242054, -0.019669193774462, -0.010628941468894, 0.016721425577998, 0.022621689364314, -0.046562325209379, -0.030168946832418, 0.016639040783048, -0.052605871111155, -0.024269973859191, 0.033414456993341, -0.022763343527913, -0.036382921040058, 0.024451464414597, 0.036022454500198, 0.018657749518752, 0.043901786208153, 0.023915432393551, -0.046357259154320, -0.046045668423176, -0.042423579841852, -0.000407413899666, 0.032636620104313, -0.010642126202583, 0.010530099272728, -0.025784062221646, -0.050043176859617, -0.016979038715363, 0.036922249943018, -0.048363976180553, -0.039580341428518, 0.045537505298853, -0.053957045078278, -0.005044029094279, 0.014692550525069, 0.015531782060862, -0.016006790101528, 0.052346859127283, 0.000262740039034, -0.013733808882535, 0.053843304514885, 0.021297438070178, -0.024508250877261, -0.049265734851360, -0.038251679390669, 0.014702887274325, 0.020751023665071, 0.013940507546067, -0.052666969597340, 0.029241031035781, 0.053909167647362, -0.058450039476156, 0.017342895269394, 0.037857208400965, -0.021427072584629, -0.047384943813086, -0.023655992001295, -0.027540339156985, -0.047216329723597, 0.057409182190895, -0.023632682859898, -0.056466337293386, 0.023253623396158, -0.020584587007761, -0.010518475435674, 0.008642678149045, -0.041537057608366, 0.021393427625299, 0.044966783374548, 0.052331510931253, 0.022702459245920, 0.045561335980892, 0.019886994734406, -0.015788620337844, -0.008582668378949, 0.002567974617705, 0.053311944007874, 0.042409814894199, 0.009171219542623, -0.055213570594788, 0.048210583627224, -0.018427042290568, 0.012163754552603, -0.014038321562111, 0.053131170570850, 0.013809815049171, 0.007774985395372, -0.039842069149017, -0.006049306131899, -0.028414787724614, 0.016351211816072, -0.028895415365696, 0.013824783265591, -0.010319904424250, -0.045316021889448, -0.032601796090603, -0.003272570203990, 0.000783133960795, 0.041531257331371, 0.025257147848606, -0.007413801737130, 0.010502940975130, -0.026043524965644, 0.002026137430221, -0.038256637752056, -0.018422339111567, 0.025378851220012, 0.052147656679153, -0.001628512516618, 0.022416260093451, -0.056655369699001, 0.005676647182554, 0.004248726647347, 0.042877092957497, 0.031859710812569, 0.008494374342263, -0.003707306692377, -0.046948309987783, -0.057562336325645, -0.002230520127341, 0.037966098636389, 0.006346558686346, 0.020523462444544, -0.016409076750278, 0.000718510127626, 0.001244720071554, -0.057457670569420, -0.012419315055013, 0.047506634145975, -0.048644606024027, -0.006962592713535, 0.043317306786776, -0.000280430074781, -0.013829434290528, -0.011266921646893, -0.003877102397382, -0.010055131278932, 0.024835960939527, 0.016655147075653, 0.005115533713251, -0.024967886507511, -0.028540393337607, 0.050913035869598, 0.054310522973537, -0.019988182932138, 0.047578740864992, -0.040173389017582, -0.012532213702798, -0.048714950680733, -0.034210920333862, -0.004814263433218, -0.040142409503460, 0.016174044460058, 0.038363251835108, -0.015209277160466, 0.030108612030745, -0.028560962527990, 0.053845450282097, -0.011035875417292, -0.043049581348896, 0.006349917501211, 0.003810642985627, 0.009552475996315, 0.038671940565109, -0.043754879385233, -0.011519324965775, -0.004232112783939, 0.044029247015715, -0.051948979496956, 0.051286097615957, -0.012207210063934, 0.013531615026295, 0.043026007711887, 0.042198259383440, 0.041156996041536, 0.038132153451443, -0.021950066089630, 0.006506949197501, -0.007646828889847, 0.007565550040454, -0.057727694511414, -0.017053488641977, -0.022698724642396, -0.037054054439068, -0.034845750778913, -0.050921428948641, -0.029681032523513, -0.047706630080938, 0.055478643625975, 0.043302986770868, 0.044717598706484, -0.033322274684906, -0.016808317974210, -0.015760887414217, -0.058380309492350, 0.000650378817227, -0.043153170496225, -0.015940833836794, -0.046259861439466, -0.016054321080446, -0.025761382654309, -0.042851421982050, -0.031029745936394, 0.025486370548606, -0.006207741796970, 0.015439240261912, 0.058676324784756, 0.027496961876750, -0.015435899607837, 0.043325476348400, -0.050503112375736, 0.047823250293732, 0.056040704250336, -0.022818837314844, -0.053147304803133, -0.039832826703787, 0.050306085497141, 0.035006225109100, 0.043416861444712, -0.034707341343164, 0.054601896554232, 0.006700120866299, 0.014000551775098, -0.033788420259953, 0.015413109213114, 0.002542137634009, -0.033725529909134, -0.018364403396845, 0.012902832590044, -0.038312353193760, -0.047900985926390, -0.032199442386627, -0.050469268113375, 0.032452296465635, 0.042447645217180, -0.000017258093067, 0.020417122170329, 0.024860089644790, 0.010506604798138, 0.053639084100723, 0.051876083016396, -0.017864227294922, 0.024767100811005, 0.024350544437766, -0.051902797073126, 0.011652721092105, -0.011066738516092, 0.055007353425026, 0.041253142058849, 0.017340013757348, 0.015713380649686, -0.036189734935760, -0.016320176422596, -0.012400289066136, -0.040702614933252, -0.025700272992253, -0.050940740853548, 0.017182355746627, -0.040737368166447, -0.011787218973041, 0.010003763251007, 0.021483520045877, 0.020498732104897, 0.029714211821556, 0.051801800727844, 0.057435423135757, -0.021311072632670, 0.033584412187338, -0.010718445293605, 0.007935927249491, -0.014532767236233, 0.017242087051272, -0.027195822447538, -0.041621573269367, -0.050048153847456, -0.035733189433813, -0.000742060830817, 0.016493514180183, -0.027946712449193, -0.047479387372732, -0.011994251981378, 0.055246673524380, 0.026260672137141, -0.056718982756138, -0.014955413527787, 0.014242433011532, 0.014641465619206, -0.021425683051348, -0.017869381234050, -0.006871152669191, 0.022906070575118, -0.045963440090418, 0.047180578112602, 0.047934304922819, -0.053892299532890, 0.020923053845763, 0.018788874149323, 0.051668182015419, -0.001007410930470, -0.043593611568213, -0.014758168719709, 0.057344932109118, 0.042974796146154, -0.042162146419287, 0.044203393161297, 0.045356277376413, 0.011736066080630, 0.031406801193953, -0.056589979678392, -0.011700283735991, -0.030508721247315, -0.030775334686041, -0.005061413627118, -0.006573855411261, -0.005121401976794, -0.030990751460195, -0.030780853703618, 0.042961664497852, 0.056914374232292, -0.056379936635494, -0.004598129540682, 0.000358391233021, -0.011282172985375, -0.015134264715016, 0.040295675396919, 0.046862106770277, -0.021719677373767, -0.029472678899765, -0.032304342836142, -0.018303588032722, 0.006655044853687, 0.056743007153273, 0.040282763540745, 0.012891967780888, 0.051291268318892, -0.018141094595194, 0.033836167305708, -0.046307995915413, -0.021668946370482, -0.029494119808078, -0.022886633872986, -0.039755962789059, 0.025016510859132, 0.028701499104500, -0.047198761254549, 0.044193241745234, 0.031307652592659, -0.028261238709092, 0.056060332804918, 0.003063965123147, 0.004243320319802, 0.053450282663107, -0.052700221538544, -0.007125548552722, 0.029896644875407, -0.004755187779665, -0.004367195069790, 0.025677843019366, -0.007548269350082, 0.037316069006920, -0.002767397789285, -0.001871410408057, 0.029854606837034, 0.042253252118826, -0.046488970518112, 0.041726619005203, 0.006361385341734, 0.008746070787311, 0.016780218109488, -0.053571172058582, 0.003947635181248, 0.003709179582074, -0.026309482753277, 0.006345002446324, -0.010618143714964, -0.053969837725163, -0.001930542173795, 0.045852098613977, -0.005314070731401, 0.015568144619465, 0.033851232379675, -0.010480194352567, -0.035900708287954, -0.032089095562696, -0.044439002871513, 0.017228228971362, 0.049531158059835, -0.036926697939634, 0.020462578162551, 0.036229319870472, 0.014181986451149, -0.040597315877676, -0.038734514266253, 0.027076102793217, 0.033419471234083, 0.017417922616005, 0.041570488363504, -0.000820092682261, -0.029471723362803, 0.007846475578845, -0.030162053182721, 0.009893639013171, -0.031212221831083, 0.049133919179440, 0.057835992425680, 0.047883279621601, 0.039514105767012, 0.008127482607961, 0.009549087844789, -0.039292886853218, -0.055454757064581, 0.041935160756111, 0.013712082989514, -0.010846394114196, 0.042672555893660, -0.037858828902245, -0.046919073909521, 0.025961888954043, 0.014446774497628, -0.041153460741043, 0.035997826606035, -0.004025358241051, -0.048770334571600, -0.047055616974831, -0.044136665761471, 0.001931495382451, -0.009551868773997, 0.018223516643047, 0.003121857065707, 0.006519273854792, -0.010744226165116, -0.023751702159643, 0.049958899617195, 0.003013594541699, -0.035885673016310, 0.020472176373005, -0.043899107724428, 0.051383912563324, 0.040064658969641, -0.018991347402334, 0.049384322017431, -0.051016833633184, -0.041803110390902, -0.024240741506219, 0.055122833698988, -0.056311242282391, 0.014319835230708, 0.010885627940297, -0.010459003970027, 0.002353102900088, -0.040344979614019, -0.003385732648894, -0.043789155781269, -0.017437128350139, -0.007096524350345, 0.029009098187089, -0.003534409217536, -0.038459502160549, -0.008246740326285, -0.038441285490990, 0.056742977350950, 0.025892335921526, 0.014584310352802, -0.029705436900258, 0.008572067134082, -0.055337339639664, 0.003569923341274, 0.057927444577217, 0.058641910552979, -0.000946972286329, -0.007801541127264, -0.052941784262657, 0.047413494437933, -0.027859246358275, -0.043284136801958, -0.023298189043999, -0.041124731302261, -0.032517168670893, -0.031915638595819, -0.038284327834845, 0.029455782845616, -0.039019688963890, -0.014860011637211, 0.005506121553481, 0.047420427203178, -0.017343286424875, -0.046905778348446, -0.043002642691135, 0.030327519401908, -0.036744460463524, -0.028670491650701, 0.002908407710493, 0.047564525157213, -0.009773759171367, 0.028162285685539, -0.028398118913174, -0.013623382896185, -0.002005524467677, 0.054874323308468, 0.058497674763203, -0.056404177099466, -0.021553676575422, 0.019787423312664, 0.047440007328987, 0.000379454664653, 0.013048619963229, -0.020398486405611, 0.057397637516260, 0.018730683252215, 0.031110489740968, 0.016832413151860, -0.036626003682613, 0.023113084957004, 0.051902767270803, -0.023576175794005, -0.026392297819257, 0.009806882590055, 0.030940635129809, 0.010193740017712, -0.015763498842716, 0.041632290929556, -0.035024367272854, 0.002398264361545, 0.013950404711068, 0.032298590987921, -0.025709344074130, -0.050317138433456, 0.021696582436562, 0.022654827684164, -0.057024184614420, 0.049638312309980, 0.022012619301677, 0.015942029654980, -0.027363033965230, -0.010665703564882, 0.011057388968766, 0.040996104478836, -0.055042482912540, 0.042313162237406, 0.029914166778326, -0.036085836589336, 0.013317972421646, -0.054159671068192, -0.001849702792242, -0.016745351254940, 0.056397326290607, 0.047098349779844, -0.011763753369451, -0.023833043873310, -0.057158757001162, -0.056194331496954, 0.023291824385524, 0.022630469873548, 0.020337603986263, -0.021286752074957, -0.010890654288232, 0.025324579328299, -0.014046535827219, 0.018592165783048, -0.043143186718225, -0.027799947187304, 0.032859973609447, -0.058698542416096, -0.023466298356652, -0.020401859655976, 0.028095629066229, 0.007750656455755, -0.027905443683267, 0.034983444958925, 0.055521737784147, 0.029501559212804, 0.049122534692287, 0.045759815722704, -0.011470696888864, -0.022727524861693, 0.002421476179734, -0.003035935107619, 0.007944379001856, -0.033275764435530, 0.031083287671208, -0.033531006425619, 0.006183770485222, -0.011932663619518, -0.044835954904556, -0.001077660941519, 0.011471888981760, 0.048051852732897, 0.036974132061005, -0.033597931265831, -0.044525783509016, 0.002253758022562, 0.042116694152355, -0.005103190429509, -0.005239058285952, -0.031506117433310, -0.012449489906430, -0.058415483683348, -0.046659257262945, -0.057814601808786, 0.012325953692198, 0.043994762003422, -0.001021761097945, 0.056798949837685, 0.002198264235631, -0.000088729313575, 0.052265204489231, 0.027885293588042, -0.017074413597584, -0.027092752978206, 0.045288078486919, 0.013301738537848, 0.051062848418951, -0.004382933955640, 0.050565607845783, 0.016624519601464, 0.006379429250956, 0.050920743495226, -0.035136673599482, 0.051206804811954, -0.012260681949556, 0.006580345332623, 0.006725090090185, -0.011939700692892, -0.050550568848848, -0.025274449959397, -0.012671734206378, 0.006225339137018, -0.014910032972693, -0.022770533338189, -0.011245284229517, -0.057841002941132, -0.042411711066961, -0.039464116096497, -0.019394392147660, 0.010300461202860, -0.057246748358011, -0.045884646475315, 0.021946089342237, -0.004426114726812, 0.006158369127661, 0.042700905352831, 0.010592534206808, 0.008149852976203, -0.047152016311884, -0.043795645236969, 0.025082303211093, -0.004000772256404, 0.055178958922625, 0.030100509524345, -0.042381059378386, -0.031305853277445, -0.019183356314898, -0.044310994446278, 0.007984495721757, -0.018331741914153, -0.034684032201767, 0.022082567214966, -0.044184125959873, -0.019630171358585, -0.045785568654537, -0.029926260933280, 0.011541777290404, 0.003607328981161, -0.052999399602413, 0.034695789217949, -0.027369813993573, -0.029342342168093, 0.022520137950778, -0.001523507991806, -0.053517941385508, 0.032757125794888, -0.039309892803431, 0.024025393649936, -0.004072593525052, -0.058292895555496, -0.007561439182609, 0.037421897053719, -0.040221679955721, -0.019331440329552, 0.021139973774552, 0.017330704256892, -0.036711744964123, -0.031841665506363, -0.019433809444308, -0.008034680038691, -0.003800954669714, -0.002930819056928, -0.045352503657341, -0.008459786884487, 0.021366849541664, 0.031940702348948, 0.029386110603809, 0.042651481926441, -0.053834009915590, 0.050896577537060, 0.005123047623783, 0.011473027989268, -0.035093266516924, 0.005762583576143, -0.004712680820376, -0.022609433159232, -0.052418697625399, -0.021352946758270, 0.047939125448465, -0.031610254198313, -0.042220618575811, 0.039731547236443, -0.017501750960946, -0.027371345087886, 0.018090134486556, -0.038345184177160, -0.014862134121358, -0.025648498907685, -0.007228434551507, 0.007325604557991, -0.013678426854312, 0.058019936084747, -0.046182516962290, -0.001702146953903, 0.004913075827062, -0.058503512293100, -0.056444600224495, 0.008274952881038, -0.021499879658222, 0.014000410214067, 0.053654961287975, 0.042438212782145, -0.007046477869153, 0.033250264823437, 0.050710450857878, -0.024078525602818, -0.004015249200165, 0.030052060261369, 0.002200174378231, 0.055368937551975, -0.014024351723492, -0.003931263461709, 0.004784580320120, -0.009589162655175, 0.011856712400913, -0.019740117713809, 0.050176776945591, 0.036807253956795, 0.001885425299406, 0.040053833276033, 0.018377531319857, 0.003746413858607, 0.045079484581947, -0.030471228063107, 0.019408535212278, 0.058381978422403, 0.011730853468180, 0.044135022908449, -0.002193166874349, 0.034200705587864, -0.004883348010480, 0.019827755168080, -0.025226425379515, -0.025611316785216, 0.033461298793554, -0.055842790752649, -0.007927750237286, 0.015379776246846, -0.012014120817184, 0.031314264982939, -0.024943623691797, 0.045904859900475, -0.032120030373335, -0.041280608624220, -0.008951127529144, -0.004191684070975, 0.027679245918989, 0.053840298205614, 0.040792487561703, 0.030809652060270, 0.013908605091274, -0.004062246065587, 0.042111460119486, 0.028361706063151, -0.058783873915672, 0.038721311837435, -0.028926460072398, 0.043987203389406, -0.008519786410034, 0.033257652074099, -0.021835185587406, 0.055982436984777, 0.043453678488731, -0.047589354217052, 0.054638400673866, 0.036339227110147, -0.052172400057316, 0.049786765128374, -0.023084035143256, -0.058595377951860, -0.036183979362249, -0.000999323674478, -0.002152923960239, 0.027426023036242, -0.038868892937899, -0.047184720635414, 0.041596442461014, 0.004868081770837, -0.040857538580894, -0.039905469864607, 0.028870645910501, 0.042172677814960, 0.017838781699538, 0.058770503848791, 0.032229386270046, -0.003492215415463, 0.015060939826071, -0.016853390261531, -0.033081438392401, -0.035980731248856, 0.055762935429811, 0.009135161526501, -0.032194048166275, 0.007819063030183, -0.052883610129356, 0.020105782896280, -0.044060714542866, -0.012230493128300, -0.046704005450010, 0.029557351022959, -0.019555270671844, -0.015674643218517, 0.001563471625559, 0.024971211329103, -0.042354818433523, -0.046043518930674, -0.055461090058088, -0.032483633607626, -0.013128573074937, -0.011543408036232, -0.007013704162091, -0.025445103645325, 0.017784269526601, 0.032772675156593, -0.031048633158207, -0.016570391133428, -0.050459619611502, 0.042523812502623, 0.019478207454085, -0.020430291071534, 0.035673737525940, 0.007283552549779, -0.003723682370037, -0.018123876303434, 0.039207950234413, -0.023317862302065, 0.036292325705290, 0.014602570794523, -0.054259482771158, 0.044874384999275, -0.040097564458847, 0.031492765992880, -0.008155482821167, 0.026993606239557, 0.042183618992567, -0.045340340584517, 0.004202943295240, 0.023663491010666, -0.023389967158437, -0.033708103001118, -0.010607204400003, -0.010990985669196, 0.044423639774323, -0.009095335379243, 0.001837851130404, -0.028640188276768, 0.009616079740226, -0.041072506457567, -0.012166475877166, -0.005675202235579, 0.024458374828100, -0.055988479405642, 0.010466027073562, -0.022670064121485, 0.042030390352011, -0.020546715706587, -0.020420406013727, 0.050215106457472, -0.049823775887489, 0.046956002712250, -0.011120256036520, 0.020730352029204, -0.058437585830688, 0.015886185690761, 0.007517897523940, 0.053441300988197, 0.016119107604027, -0.046740572899580, 0.032089430838823, -0.058690145611763, 0.050156343728304, 0.055013168603182, 0.026352155953646, -0.005357671994716, -0.001915949978866, 0.002838827902451, -0.026417097076774, 0.035090785473585, 0.048182003200054, 0.018524898216128, 0.036429952830076, -0.007205207832158, -0.015833960846066, -0.056815367192030, -0.032774973660707, 0.038120262324810, 0.028466729447246, -0.006849400699139, 0.034156620502472, 0.029640562832355, 0.035052299499512, -0.023701023310423, 0.022015769034624, 0.033946029841900, -0.010255821049213, 0.011552798561752, 0.011670414358377, 0.023741452023387, 0.000005492057880, -0.025344366207719, -0.034027218818665, 0.004941329360008, -0.017760753631592, -0.011378851719201, 0.028664860874414, 0.044184409081936, 0.045345541089773, 0.036788929253817, -0.004195448011160, -0.024473540484905, 0.029829921200871, -0.021067794412374, 0.007459506858140, -0.007173279300332, 0.003800828009844, -0.043632812798023, 0.052506849169731, -0.028487678617239, -0.044346779584885, 0.022011188790202, 0.036340054124594, -0.040225442498922, 0.049567803740501, 0.001904943608679, 0.055584277957678, 0.026277240365744, 0.046238269656897, 0.011233477853239, -0.007865137420595, -0.032514620572329, 0.052373394370079, -0.002837480045855, 0.057734295725822, -0.053554363548756, 0.001214683055878, -0.007345979567617, -0.038565587252378, 0.020046930760145, 0.025761807337403, -0.047961186617613, -0.053502786904573, 0.023468039929867, -0.033874809741974, 0.025141065940261, 0.040829274803400, -0.050177041441202, 0.003246718551964, 0.018265828490257, 0.031924862414598, 0.005406534299254, 0.007600081153214, -0.001794670475647, 0.046223353594542, 0.027394685894251, -0.049744199961424, 0.024642968550324, 0.009296415373683, 0.049895882606506, 0.033736832439899, -0.038108061999083, -0.054340403527021, 0.043846547603607, -0.051182568073273, -0.058653298765421, -0.037718717008829, 0.013420985080302, 0.031523812562227, -0.008785910904408, -0.053138852119446, -0.012635378167033, -0.031467378139496, 0.043692670762539, -0.033341370522976, -0.002686670050025, 0.032292380928993, 0.017573501914740, 0.058652993291616, -0.010549070313573, 0.009398281574249, -0.005881379824132, -0.049623958766460, -0.026883739978075, 0.044170364737511, 0.039990913122892, 0.036279741674662, 0.018225109204650, 0.030424000695348, 0.034201510250568, -0.022915698587894, 0.054593779146671, 0.050100404769182, -0.026255026459694, -0.057532273232937, 0.025627115741372, -0.023561866953969, -0.002548791468143, 0.012915879487991, -0.038974262773991, 0.002418315038085, -0.018317669630051, -0.046628069132566, 0.017107201740146, 0.022007286548615, -0.008058539591730, -0.020145930349827, -0.013288974761963, 0.010733935050666, -0.008543869480491, -0.009811742231250, 0.048815097659826, 0.026292543858290, -0.009625168517232, 0.056192588061094, 0.042721565812826, -0.042802445590496, 0.058081850409508, -0.055996410548687, -0.055905561894178, -0.050198987126350, 0.008732494898140, 0.041712254285812, 0.052590623497963, 0.020292177796364, 0.029081512242556, 0.007993871346116, 0.015227361582220, 0.046976841986179, 0.036619823426008, 0.053452912718058, -0.013764910399914, 0.019638173282146, 0.015248972922564, -0.025138299912214, 0.052861310541630, -0.032453808933496, -0.049641381949186, 0.021995155140758, -0.013852589763701, -0.050794631242752, -0.042134355753660, 0.004631986841559, 0.047893334180117, 0.025667119771242, 0.043204098939896, 0.027094168588519, 0.047933895140886, -0.058881673961878, 0.034537564963102, 0.019670283421874, 0.001427585026249, 0.057615727186203, 0.012754833325744, 0.027803907170892, 0.047747015953064, 0.009986001998186, -0.019157839938998, -0.025121912360191, 0.011736431159079, -0.012219274416566, 0.020940642803907, 0.040139149874449, -0.024837451055646, 0.034598264843225, -0.010008119046688, 0.029686098918319, -0.040284644812346, -0.006550323683769, 0.038225658237934, 0.036034040153027, -0.018467597663403, -0.008019670844078, -0.013099716044962, 0.025972470641136, -0.026776164770126, -0.050003696233034, -0.044228710234165, -0.001626393874176, 0.021388728171587, -0.031609367579222, -0.030685957521200, -0.044507373124361, 0.001091828569770, 0.042770452797413, 0.058318592607975, -0.039496690034866, -0.037318229675293, 0.042066182941198, -0.034702077507973, 0.031966172158718, 0.049107246100903, -0.034639239311218, 0.043752156198025, -0.046275701373816, 0.051261935383081, 0.053874745965004, 0.049915466457605, 0.000514846004080, -0.044386457651854, -0.016997801139951, 0.044954415410757, 0.026761323213577, 0.025499133393168, -0.050288546830416, 0.004734894726425, 0.037886265665293, 0.027201931923628, 0.034887120127678, 0.038737501949072, -0.050415206700563, -0.022320251911879, 0.009039871394634, 0.057553116232157, -0.044642794877291, -0.052036952227354, 0.016909770667553, 0.043158419430256, -0.020722279325128, -0.035073220729828, 0.018718359991908, 0.032902590930462, -0.054267130792141, -0.007101931143552, -0.021126491948962, 0.033591054379940, 0.048624325543642, -0.018211977556348, 0.041057370603085, 0.020237876102328, -0.049838982522488, 0.058384660631418, 0.030695410445333, 0.046432469040155, -0.035539072006941, 0.035844523459673, 0.054610501974821, -0.006824475713074, 0.037199296057224, 0.005571415182203, 0.031905315816402, 0.037604991346598, 0.051111150532961, -0.054870795458555, -0.050960116088390, 0.011474234983325, 0.000656783115119, 0.052957613021135, -0.012018584646285, -0.003919341135770, -0.054003272205591, 0.041587878018618, -0.029492335394025, -0.012197075411677, -0.010034391656518, -0.058283254504204, -0.057051312178373, -0.009602939710021, 0.048385981470346, -0.017601910978556, 0.058681342750788, 0.010534552857280, 0.015833387151361, -0.037179365754128, -0.026946367695928, -0.012953820638359, 0.007026821840554, 0.020621977746487, 0.021938441321254, 0.035464592278004, 0.035017117857933, -0.031327798962593, 0.040196839720011, 0.035522688180208, 0.002781286137179, 0.016988879069686, 0.048708144575357, 0.004488336853683, 0.004688977729529, 0.011222061701119, -0.033211793750525, 0.032046999782324, -0.051655434072018, -0.029309960082173, 0.025354813784361, -0.032220698893070, 0.033076006919146, 0.000851276447065, -0.039646014571190, 0.048586919903755, -0.052744470536709, -0.018035847693682, 0.049629814922810, 0.020765084773302, -0.036620341241360, 0.011876915581524, -0.008351592347026, 0.040813852101564, -0.013178884051740, -0.053814534097910, -0.002083288272843, 0.035296712070704, 0.028326705098152, 0.032518304884434, 0.013033160008490, -0.025270503014326, -0.051721401512623, 0.001257748343050, 0.025473494082689, 0.032933533191681, -0.040910478681326, 0.040600556880236, 0.005936773028225, 0.018775565549731, -0.016002155840397, -0.023054393008351, -0.005577216390520, 0.046528905630112, -0.044747028499842, 0.047350034117699, 0.041766669601202, 0.014026824384928, -0.036669619381428, 0.048195205628872, -0.051266737282276, 0.050460867583752, -0.056436188519001, 0.031795371323824, 0.024329895153642, -0.029346877709031, -0.009548033587635, -0.053574610501528, 0.055756382644176, 0.052455794066191, -0.032067600637674, -0.004023686517030, -0.049665577709675, -0.013759209774435, 0.033887028694153, -0.017682204023004, -0.047780815511942, -0.021534563973546, 0.050081107765436, -0.028445594012737, 0.053494464606047, -0.044533383101225, 0.033944934606552, 0.055143475532532, -0.051623359322548, 0.017420148476958, 0.008196641691029, 0.021943995729089, -0.003037312766537, 0.039033871144056, 0.001697135274298, -0.006590439938009, -0.002075469121337, 0.016692262142897, 0.047361828386784, -0.019901866093278, -0.023373074829578, -0.019488010555506, 0.053146123886108, -0.045537125319242, -0.003823239356279, 0.036304742097855, 0.037292879074812, -0.041737224906683, 0.027817459776998, 0.010784402489662, 0.007014311384410, -0.056406419724226, -0.014613465406001, 0.018355049192905, 0.019376713782549, -0.009373185224831, -0.039098970592022, -0.004498583730310, 0.041417196393013, -0.008606721647084, 0.015883905813098, 0.006884788163006, -0.002715794835240, -0.030856622382998, -0.043389495462179, -0.058210596442223, 0.027695056051016, -0.050458431243896, -0.012218331918120, -0.040559440851212, -0.047968991100788, -0.006261887960136, 0.013605197891593, -0.021917935460806, 0.056104812771082, -0.048587933182716, -0.041259981691837, 0.014527372084558, 0.024851115420461, 0.053976032882929, 0.005100729409605, 0.015682186931372, 0.051007550209761, -0.043257586658001, 0.037619438022375, -0.011542242951691, 0.000696873292327, -0.049093063920736, -0.042712070047855, -0.038453586399555, 0.019855992868543, -0.022027550265193, 0.053936235606670, 0.056312974542379, 0.027418509125710, -0.006504376418889, 0.029813842847943, 0.009059010073543, 0.032149691134691, -0.038892466574907, -0.040431492030621, -0.053755134344101, 0.033108845353127, 0.009812750853598, -0.046994760632515, -0.027185389772058, -0.037258576601744, 0.005748680327088, 0.039722245186567, 0.038896135985851, -0.012064238078892, 0.009789777919650, 0.047279316931963, -0.017359253019094, -0.023656819015741, -0.013398037292063, -0.002527996199206, 0.057706981897354, 0.033265318721533, 0.009978830814362, -0.056468695402145, -0.004845856688917, 0.046474043279886, -0.013631161302328, -0.023901008069515, -0.047471202909946, -0.033541437238455, -0.020111357793212, -0.014228309504688, 0.039259660989046, 0.014932228252292, -0.022730458527803, -0.043935645371675, 0.007060988340527, -0.032097648829222, 0.016896434128284, 0.020784400403500, -0.042266238480806, 0.051286537200212, 0.034502178430557, 0.013268949463964, -0.010418649762869, -0.030705574899912, -0.043431140482426, -0.031917896121740, 0.003779880004004, 0.039572473615408, 0.029358772560954, 0.049635920673609, -0.044685326516628, 0.056265730410814, -0.035915482789278, -0.058470360934734, -0.022080667316914, 0.011685620993376, 0.019268041476607, 0.010233186185360, 0.014025148004293, -0.037497714161873, -0.016921693459153, 0.038663711398840, -0.023179311305285, 0.016609596088529, 0.037375211715698, 0.032945975661278, -0.050452429801226, -0.007237478625029, -0.020235870033503, -0.040710952132940, -0.031123293563724, -0.025614138692617, -0.044913943856955, -0.004834426101297, -0.053818479180336, 0.056348860263824, 0.027801746502519, -0.040243595838547, 0.025600984692574, -0.014118011109531, 0.042727768421173, -0.042979836463928, 0.001940960297361, 0.050743110477924, -0.040780898183584, -0.009525161236525, -0.055145654827356, -0.037204403430223, -0.034320179373026, 0.011282254941761, 0.033021524548531, 0.047353979200125, 0.002154860179871, -0.032251056283712, 0.023014862090349, 0.048452593386173, 0.024131406098604, -0.015668759122491, -0.001078238012269, 0.040681704878807, 0.013197817839682, 0.044329699128866, 0.008014654740691, -0.055377416312695, 0.033046390861273, 0.043469853699207, -0.054038178175688, -0.012981779873371, 0.050720911473036, 0.011539573781192, -0.033517710864544, 0.028755011036992, -0.042744748294353, -0.038593895733356, 0.048575837165117, 0.027051765471697, 0.044759381562471, 0.036089744418859, -0.030715612694621, -0.047380786389112, 0.017407095059752, 0.019108045846224, 0.056183435022831, 0.035646982491016, 0.038166671991348, -0.056923907250166, -0.052388899028301, 0.013665286824107, 0.034748289734125, 0.056703183799982, 0.023384114727378, 0.004086705390364, -0.033348951488733, -0.031708318740129, 0.030196610838175, 0.040904462337494, 0.035077527165413, 0.048500295728445, 0.058101762086153, -0.041207294911146, 0.009964957833290, -0.046301987022161, 0.049062266945839, -0.018792511895299, -0.013230769895017, -0.048662424087524, 0.000625763204880, 0.043678112328053, -0.014836703427136, 0.034260094165802, -0.043623294681311, -0.006606067065150, -0.014349801465869, 0.015641517937183, -0.001498765894212, 0.011598411016166, 0.051368199288845, -0.006059638690203, 0.014854437671602, -0.048049703240395, 0.018144885078073, 0.021989608183503, -0.038361713290215, 0.056825317442417, -0.057214602828026, -0.054593931883574, -0.013868247158825, -0.009623649530113, -0.019818458706141, -0.003089128062129, 0.019009331241250, 0.024339888244867, -0.016097120940685, -0.022010853514075, 0.009364912286401, 0.019351476803422, 0.031437788158655, -0.019923070445657, 0.041804738342762, -0.032471176236868, 0.005218642763793, -0.036951072514057, 0.049394298344851, -0.005560673307627, 0.002574445912614, 0.027647158131003, 0.017329989001155, 0.010757764801383, -0.000361831684131, 0.043165046721697, 0.009057215414941, 0.024341519922018, -0.030250221490860, 0.010173432528973, 0.052386134862900, 0.050061181187630, -0.041439197957516, -0.011242782697082, -0.040384620428085, -0.039529185742140, 0.030711740255356, 0.017820686101913, -0.046199817210436, -0.015649463981390, -0.007514595054090, 0.000184581556823, 0.042825926095247, -0.047248959541321, -0.012430199421942, 0.024325791746378, 0.047951254993677, -0.031851351261139, -0.021577406674623, -0.009298806078732, 0.044976666569710, 0.049047507345676, -0.048282451927662, -0.042524553835392, 0.053900200873613, 0.032197069376707, 0.054107170552015, -0.001037418143824, -0.030861087143421, 0.020241063088179, 0.020915271714330, -0.030328689143062, -0.014542049728334, -0.043257236480713, -0.052247874438763, -0.050006445497274, -0.008031466044486, -0.049345999956131, -0.030028093606234, 0.013076635077596, -0.026806071400642, -0.057878423482180, -0.024600028991699, -0.029464703053236, -0.017949407920241, 0.029292533174157, 0.003954210784286, 0.045528627932072, 0.031583812087774, -0.037001509219408, 0.012384516187012, 0.053163267672062, -0.011125900782645, -0.038151685148478, 0.007186139933765, 0.039973247796297, 0.054284457117319, 0.006579854059964, -0.013359760865569, -0.040447711944580, -0.031326636672020, 0.016973940655589, 0.004099037498236, 0.053875394165516, 0.020230771973729, 0.030596045777202, 0.016006005927920, 0.041493590921164, 0.032700229436159, 0.044567387551069, 0.030960101634264, -0.003570370143279, -0.052652817219496, -0.040423966944218, 0.007848523557186, 0.006196042988449, -0.028318207710981, -0.000997327966616, 0.043598484247923, -0.005130866542459, -0.032854650169611, -0.031665943562984, 0.003589620348066, 0.008652888238430, 0.011049957014620, -0.045116033405066, 0.000044878492190, 0.049228146672249, -0.006857543718070, 0.014514034613967, 0.040530208498240, 0.055199898779392, -0.001330485451035, 0.044531740248203, -0.016534669324756, 0.050333004444838, 0.045826427638531, 0.001084683346562, 0.037535008043051, 0.047565806657076, 0.040599111467600, -0.024348244071007, -0.005405231378973, -0.006126325577497, 0.007498982362449, 0.008061935193837, 0.009825053624809, 0.019079770892859, 0.030976528301835, -0.047837417572737, -0.016724038869143, 0.000246956449701, -0.052019976079464, -0.054374471306801, -0.002350772032514, -0.049264892935753, -0.003475448815152, 0.021443359553814, -0.005032318644226, -0.018726205453277, -0.005268938839436, -0.015433416701853, -0.027008235454559, 0.000636438315269, -0.016266522929072, 0.027743572369218, 0.013800931163132, 0.032368600368500, -0.026675175875425, 0.032867621630430, 0.006322058849037, 0.022052936255932, 0.036126039922237, 0.020566245540977, 0.016933139413595, 0.001931480481289, -0.056310217827559, 0.048363327980042, -0.030287137255073, -0.002785653807223, 0.027932208031416, -0.014379961416125, -0.052432022988796, 0.026989346370101, -0.047891519963741, -0.019161142408848, -0.000811089470517, 0.003225320018828, 0.027570514008403, -0.014481610618532, 0.010917083360255, -0.004631841555238, 0.051950111985207, 0.031955640763044, 0.001273911679164, -0.040188819169998, -0.018503194674850, -0.004667497240007, 0.026163825765252, -0.012316682375968, 0.018450690433383, 0.040862143039703, 0.017488958314061, 0.052643124014139, 0.012785231694579, -0.005394712556154, -0.037875384092331, -0.025793354958296, -0.029205011203885, 0.031461142003536, 0.045186415314674, 0.054722808301449, -0.001156858284958, -0.008283151313663, 0.009036192670465, 0.025932935997844, 0.023431640118361, 0.046108491718769, -0.012171431444585, 0.001818120595999, -0.020883847028017, -0.043936163187027, 0.008966095745564, -0.031617723405361, 0.011480877175927, -0.031255625188351, 0.058758940547705, 0.028057115152478, -0.035558003932238, -0.008728126995265, -0.014575173147023, -0.003697324078530, 0.045207757502794, -0.049939636141062, -0.003256898373365, -0.027368830516934, -0.018644692376256, -0.045744620263577, -0.042207080870867, 0.037567853927612, 0.049127448350191, 0.029002470895648, -0.028270758688450, 0.042481940239668, -0.012723687104881, -0.022362152114511, -0.017220826819539, -0.040951900184155, -0.007159249391407, 0.034594278782606, 0.004561308771372, -0.021100066602230, -0.038864944130182, 0.037280809134245, -0.056989483535290, 0.037614107131958, 0.013681796379387, 0.032094206660986, 0.054950892925262, -0.052561488002539, 0.032701056450605, 0.009066702798009, 0.004330500960350, 0.051667436957359, -0.031234167516232, -0.015906615182757, -0.001741719665006, -0.029816620051861, -0.015669068321586, -0.035449329763651, 0.037216264754534, -0.036671511828899, -0.031627736985683, -0.000193890125956, -0.033725067973137, 0.039895318448544, -0.055092308670282, 0.004180647432804, 0.032348368316889, 0.005777738057077, 0.023572146892548, -0.031638253480196, 0.004467999562621, 0.035117592662573, -0.013627061620355, -0.023666916415095, -0.041288401931524, -0.057782854884863, -0.048601638525724, -0.010918542742729, -0.036001808941364, -0.006710259709507, 0.053694695234299, 0.021417191252112, 0.030459068715572, 0.052057817578316, 0.049207217991352, 0.035930350422859, 0.030970713123679, 0.035515457391739, 0.054630693048239, -0.048605494201183, -0.052317284047604, 0.017861435189843, -0.014898151159286, -0.035509288311005, 0.051022153347731, 0.030649164691567, -0.039808046072721, -0.033694133162498, 0.045081995427608, 0.019407141953707, 0.009695366024971, -0.039366245269775, 0.052080553025007, -0.034419298171997, 0.050324384123087, -0.030740160495043, -0.022766141220927, 0.034535478800535, -0.053465168923140, -0.052719742059708, -0.037325233221054, -0.041756235063076, 0.055164527148008, 0.051541689783335, 0.029181463643909, 0.043726027011871, 0.020429283380508, 0.048629030585289, 0.058681603521109, 0.024520542472601, -0.054295539855957, 0.048501010984182, 0.037570282816887, -0.019524391740561, 0.008060967549682, 0.031899843364954, 0.001422603148967, 0.040831267833710, -0.010440371930599, -0.049824409186840, 0.018080528825521, -0.004763810895383, 0.024306608363986, -0.026350175961852, -0.046484943479300, -0.048757698386908, 0.023698706179857, -0.001076074782759, -0.057824570685625, 0.021704221144319, 0.001172500429675, 0.033355224877596, -0.011348099447787, 0.032786391675472, -0.054157365113497, -0.036325309425592, 0.021293930709362, -0.050323471426964, -0.000653748516925, -0.042748384177685, -0.033708456903696, -0.015480149537325, 0.052835673093796, 0.014574585482478, -0.057199381291866, -0.050269171595573, -0.006669186521322, -0.057489953935146, -0.016613978892565, -0.032060436904430, 0.023992046713829, 0.018689153715968, 0.044624734669924, -0.048632793128490, -0.049725003540516, -0.024708082899451, 0.005755888763815, -0.050083145499229, 0.014011260122061, 0.013165900483727, -0.005399247631431, -0.029501479119062, 0.013040249235928, -0.040893513709307, -0.040259040892124, -0.018592946231365, -0.018174385651946, -0.055949974805117, 0.025787461549044, -0.037803504616022, 0.032929439097643, 0.006872612517327, 0.012958579696715, 0.015166580677032, -0.047860853374004, -0.045287203043699, 0.049894392490387, 0.002057872246951, 0.053516618907452, 0.028278427198529, 0.046486288309097, 0.010419066995382, 0.041160166263580, -0.054539982229471, -0.027693439275026, -0.013646803796291, -0.028637858107686, -0.039172492921352, -0.034260008484125, -0.043016754090786, -0.004750049207360, -0.055816803127527, -0.044007439166307, 0.009724878706038, -0.045750390738249, -0.029555903747678, 0.051715113222599, -0.019804203882813, -0.031740687787533, -0.051421605050564, -0.015059870667756, 0.024724749848247, -0.014512251131237, -0.042119950056076, -0.041891727596521, 0.054229848086834, -0.035159029066563, 0.021566454321146, 0.041854631155729, 0.038730397820473, -0.050990097224712, 0.049922786653042, -0.040289543569088, 0.005598827265203, -0.002109869848937, -0.052397884428501, 0.021320424973965, 0.003310202853754, 0.007389774546027, 0.058359242975712, -0.030208714306355, 0.003201672341675, -0.007290161680430, 0.036405839025974, 0.051149755716324, -0.016543976962566, -0.057287003844976, -0.017636803910136, -0.039122264832258, -0.022551719099283, 0.054120030254126, 0.045634016394615, 0.031148804351687, -0.058785319328308, -0.038363285362720, -0.017597250640392, -0.022027926519513, -0.005396343301982, -0.036331515759230, 0.009016138501465, 0.005393182393163, 0.003458134829998, 0.021096626296639, 0.030837569385767, -0.051878798753023, -0.005155299790204, 0.054497551172972, -0.036532931029797, -0.055454600602388, 0.046811737120152, 0.014201937243342, 0.005796817131341, 0.050730824470520, 0.047971233725548, -0.041567064821720, -0.025733016431332, -0.031503070145845, 0.016733376309276, 0.056373130530119, 0.050929043442011, -0.045155521482229, -0.005748568568379, -0.008702781982720, 0.026252383366227, 0.000643598439638, 0.031971562653780, 0.042151626199484, -0.012135501019657, 0.039741557091475, -0.003855703864247, 0.012457130476832, 0.024184852838516, 0.028854919597507, -0.026421029120684, 0.038268037140369, -0.058119159191847, -0.038148555904627, -0.046794943511486, -0.013097302988172, -0.042652633041143, -0.057511772960424, 0.005762613378465, -0.019369762390852, 0.043309137225151, 0.050720464438200, 0.026399673894048, -0.057325087487698, -0.020678443834186, 0.038265358656645, -0.005486897192895, -0.040436096489429, -0.046823181211948, 0.015065787360072, 0.011619560420513, -0.033195309340954, 0.032205872237682, -0.027050150558352, -0.045222990214825, -0.035130366683006, 0.032976150512695, 0.026569344103336, -0.002280045533553, 0.013212644495070, 0.053855452686548, -0.003356217173859, -0.010659004561603, -0.052445825189352, 0.010748888365924, 0.045217290520668, -0.050463385879993, 0.007526781875640, -0.027635756880045, 0.017423551529646, 0.051413387060165, -0.011977753601968, 0.034844674170017, -0.042931560426950, -0.026124125346541, -0.029503319412470, -0.022790543735027, 0.042726114392281, -0.044668082147837, 0.025092296302319, -0.056996323168278, 0.026693811640143, 0.032818321138620, -0.013175220228732, -0.006201926153153, -0.030371516942978, 0.023854881525040, 0.010047215037048, 0.048436164855957, 0.023647256195545, -0.010165162384510, 0.008783252909780, -0.019699368625879, 0.036509945988655, 0.017391873523593, -0.055636249482632, 0.008713393472135, 0.054175257682800, 0.046312887221575, -0.006693031173199, -0.047030959278345, -0.002053731819615, -0.004592637531459, 0.008534907363355, -0.038331959396601, -0.042934183031321, 0.025261884555221, 0.043551381677389, -0.055185206234455, 0.018394533544779, 0.017096597701311, 0.007428408600390, 0.048855222761631, 0.012249326333404, -0.042791068553925, 0.058732688426971, -0.022974437102675, -0.015765620395541, 0.023582171648741, -0.006809846498072, -0.018594633787870, -0.021998552605510, 0.029274951666594, 0.038323517888784, -0.006674689706415, -0.014072357676923, -0.046071656048298, -0.057649988681078, -0.043621778488159, 0.023211749270558, 0.034649617969990, 0.011460770852864, -0.052088234573603, 0.052350763231516, -0.043724801391363, -0.006928962655365, 0.030561262741685, -0.047995977103710, -0.015291397459805, 0.025969089940190, -0.057126056402922, 0.018012620508671, -0.031736858189106, -0.056671280413866, -0.024334061890841, -0.008011274039745, -0.026224624365568, 0.035059992223978, -0.054217986762524, 0.002042777370661, -0.017360391095281, -0.020824182778597, -0.033857271075249, -0.035695414990187, 0.039794716984034, 0.049261983484030, 0.030421841889620, -0.039933383464813, -0.002457634545863, -0.028711648657918, -0.038243282586336, 0.011254633776844, 0.029414713382721, -0.057645171880722, 0.036832924932241, 0.022368667647243, -0.042919199913740, -0.036410681903362, -0.037477251142263, -0.058333326131105, -0.055449802428484, 0.014287032186985, 0.003604126628488, -0.034720301628113, -0.007537456694990, 0.006462037097663, -0.012136565521359, -0.045462183654308, -0.055699873715639, 0.014297048561275, 0.035874549299479, 0.006157699041069, -0.003109331475571, -0.001980503089726, -0.041741393506527, 0.042149495333433, 0.028229419142008, -0.030575770884752, 0.039326772093773, -0.052231810986996, -0.017306327819824, -0.029525827616453, -0.025935120880604, 0.025177072733641, 0.023521777242422, 0.011730168014765, -0.004058258607984, -0.018213476985693, 0.057365596294403, -0.034542758017778, -0.008365815505385, 0.044822450727224, 0.018644100055099, -0.026580320671201, -0.053765948861837, -0.005294496659189, 0.055754654109478, -0.058637108653784, -0.039603315293789, -0.053806811571121, 0.042324468493462, 0.022735217586160, 0.027578340843320, -0.042892258614302, -0.014261083677411, 0.005445950664580, -0.005297516006976, -0.055927745997906, 0.037519227713346, 0.026386866346002, 0.045729849487543, -0.030004305765033, 0.035526096820831, 0.051869910210371, -0.048320908099413, 0.005208366084844, 0.054315324872732, 0.024727907031775, 0.015126262791455, 0.054686773568392, 0.025868490338326, 0.014866077341139, 0.019869867712259, -0.023247847333550, 0.045840725302696, 0.029781516641378, 0.036721415817738, -0.021330073475838, 0.012728055007756, -0.046798948198557, -0.004974523559213, 0.022994598373771, 0.025497071444988, 0.044697530567646, 0.010174251161516, 0.031045867130160, 0.035298097878695, -0.054487634450197, 0.030013114213943, 0.036970086395741, 0.018030425533652, 0.016773426905274, -0.027963170781732, -0.040807433426380, -0.019596835598350, -0.050272442400455, -0.036833152174950, -0.056672573089600, -0.004964891355485, -0.028580298647285, -0.052723869681358, -0.050104741007090, 0.048380363732576, 0.049733288586140, -0.045238003134727, -0.045066341757774, -0.055878050625324, -0.014478971250355, 0.055092941969633, -0.029826324433088, -0.048225115984678, 0.005447142291814, 0.034336395561695, -0.034463644027710, -0.020766118541360, 0.054927978664637, -0.035525269806385, 0.009065778926015, -0.040453709661961, -0.044420439749956, 0.001639142865315, -0.021882805973291, 0.018421245738864, -0.048042558133602, 0.004297093953937, 0.004792831372470, 0.031417500227690, 0.030411602929235, 0.041981905698776, -0.046565555036068, 0.039095614105463, -0.055642511695623, 0.055804993957281, -0.026914829388261, 0.056195516139269, 0.009758031927049, -0.017192814499140, 0.010120261460543, 0.052290055900812, -0.038187619298697, -0.041567485779524, 0.026304258033633, -0.057339210063219, 0.054189540445805, 0.019056342542171, 0.014223622158170, -0.048487320542336, -0.055831026285887, -0.048284091055393, -0.053006645292044, 0.050310283899307, -0.034517269581556, 0.042050432413816, 0.001752882497385, -0.005159723106772, -0.009412672370672, -0.010636932216585, -0.001644731732085, -0.024446357041597, -0.037708606570959, 0.022655632346869, -0.020964659750462, 0.049360953271389, 0.011866609565914, 0.052425224334002, -0.028439655900002, 0.023773055523634, -0.054573159664869, -0.047095637768507, 0.043975450098515, -0.014586265198886, 0.006319430191070, 0.027335692197084, -0.038247957825661, -0.029863508418202, -0.057694826275110, -0.055503834038973, -0.011967559345067, 0.054673362523317, 0.040840376168489, -0.045316860079765, -0.011266485787928, -0.001556520001031, 0.019882742315531, -0.035584639757872, -0.047818280756474, -0.002759325318038, -0.045557569712400, 0.053440876305103, -0.008089261129498, -0.008044859394431, -0.000367547123460, -0.005680537782609, 0.026847036555409, 0.049409631639719, 0.035980675369501, 0.053248673677444, 0.032755360007286, -0.051808051764965, 0.043039530515671, -0.026705617085099, 0.047960676252842, -0.028165459632874, 0.039626508951187, -0.011517136357725, 0.018543284386396, -0.037995766848326, 0.020832173526287, -0.024095449596643, 0.005488993600011, 0.047618634998798, 0.040954329073429, 0.040904425084591, 0.047834958881140, -0.005172234028578, 0.006040738895535, -0.021232705563307, 0.019263744354248, 0.007414557505399, -0.039916139096022, -0.018639594316483, 0.048919435590506, 0.028359025716782, 0.007506496272981, 0.041086658835411, 0.044904634356499, -0.011217902414501, -0.031264666467905, 0.044048581272364, 0.028342276811600, -0.037577457726002, -0.020857995375991, 0.005155269987881, -0.043977204710245, 0.000657907570712, 0.043491203337908, -0.032409813255072, -0.027461931109428, 0.004459353629500, 0.043524708598852, -0.027319574728608, 0.055721640586853, -0.040002621710300, -0.028658680617809, -0.038254108279943, -0.023986635729671, 0.038397181779146, -0.047529522329569, -0.023220116272569, -0.002440838143229, -0.026162011548877, -0.023495240136981, -0.026643972843885, 0.043821688741446, 0.003523104824126, 0.002748624188825, -0.005561742000282, 0.001406004070304, -0.011287929490209, -0.054587446153164, -0.006009778473526, 0.008842261508107, 0.026274120435119, 0.052753988653421, 0.027347659692168, 0.042700223624706, 0.010403256863356, 0.039680715650320, 0.019862145185471, 0.020529503002763, 0.016202185302973, -0.009961260482669, 0.022458521649241, -0.031345129013062, -0.039463650435209, 0.020316500216722, 0.031535327434540, -0.014590379782021, -0.000846841838211, -0.033420540392399, 0.033910308033228, 0.037801381200552, -0.047078676521778, -0.002928346628323, 0.029592754319310, -0.054171394556761, -0.057794537395239, 0.032381772994995, -0.028876177966595, 0.014479422010481, -0.051843386143446, -0.049303255975246, 0.036108121275902, 0.054999571293592, 0.033888585865498, 0.008734542876482, 0.042862772941589, 0.017466856166720, 0.015711884945631, -0.047489557415247, 0.043563224375248, -0.058497544378042, -0.030712973326445, -0.051358502358198, 0.043271582573652, -0.024834474548697, -0.021414646878839, -0.042321436107159, -0.042867727577686, -0.035466168075800, 0.038614511489868, -0.046842616051435, -0.015008592046797, -0.040366098284721, 0.019985457882285, 0.016694504767656, -0.011781797744334, 0.034659400582314, 0.001452018157579, 0.037124589085579, -0.029469154775143, -0.053500033915043, -0.043994393199682, -0.044400304555893, -0.012581597082317, 0.033051110804081, 0.010494221001863, 0.044625911861658, -0.053942594677210, 0.053041525185108, 0.058872722089291, 0.040651515126228, -0.011711364611983, 0.009012549184263, -0.050358802080154, -0.034214664250612, 0.009400396607816, -0.009421347640455, -0.008537186309695, 0.023432906717062, 0.001810915768147, -0.056367624551058, 0.051702991127968, 0.020513730123639, 0.032558336853981, -0.026898959651589, -0.022832458838820, -0.055286802351475, 0.048930160701275, 0.039282187819481, -0.056101527065039, -0.055764060467482, 0.037280101329088, -0.007083648815751, -0.027059487998486, -0.034514237195253, -0.022881690412760, 0.010906925424933, 0.051864027976990, 0.016363775357604, -0.024980269372463, 0.051742531359196, -0.036568682640791, -0.006564014591277, -0.036075811833143, -0.028290094807744, -0.039827056229115, 0.022929394617677, -0.028851352632046, 0.033938352018595, -0.036952070891857, -0.048347588628531, -0.024261435493827, 0.037150591611862, 0.032161876559258, 0.048723939806223, 0.004226989578456, -0.015396863222122, 0.006906733848155, 0.036805748939514, -0.046294897794724, -0.031711917370558, 0.031343977898359, 0.010955441743135, -0.028642756864429, -0.005678248126060, -0.040655110031366, -0.050496704876423, 0.042411163449287, -0.029620356857777, -0.046339452266693, 0.025726083666086, 0.014662502333522, 0.017767298966646, 0.034768551588058, 0.000908948597498, 0.018571380525827, 0.026749067008495, -0.053661055862904, 0.053507436066866, 0.001790950773284, -0.010571172460914, 0.029471496120095, -0.019223360344768, -0.000098179378256, -0.047941844910383, 0.050296790897846, 0.053206883370876, -0.027056412771344, 0.017075143754482, 0.026888024061918, 0.002661481034011, -0.014655211940408, 0.007841999642551, -0.051645770668983, -0.036928046494722, -0.055874049663544, 0.034211438149214, -0.057042196393013, 0.049523755908012, 0.019029064103961, -0.049442283809185, -0.006559267174453, -0.001129111275077, 0.035052314400673, -0.000670180015732, 0.040054842829704, -0.016320023685694, -0.051203608512878, -0.009273405186832, -0.055456146597862, -0.028691750019789, -0.006196549162269, 0.029437575489283, -0.026148533448577, 0.006494713947177, 0.003189679235220, -0.030925091356039, 0.003422062145546, 0.056794479489326, -0.004718761425465, -0.000245690462179, 0.002472461201251, -0.023602012544870, -0.043926220387220, 0.021930815652013, 0.020609302446246, 0.037871237844229, 0.030190996825695, -0.023613722994924, 0.032879885286093, -0.005692024715245, 0.038670256733894, -0.013310387730598, -0.005671858787537, 0.058531824499369, -0.005636415444314, 0.009736465290189, -0.032922737300396, -0.009261482395232, 0.037734232842922, 0.019990691915154, -0.051138885319233, -0.022509479895234, -0.029046393930912, -0.044895395636559, -0.034763690084219, 0.044444743543863, 0.044216774404049, -0.032925643026829, -0.025666177272797, 0.010750429704785, 0.023529611527920, -0.056126367300749, -0.007435579784214, -0.017007585614920, 0.047891635447741, 0.044098615646362, -0.036807801574469, -0.005092727486044, 0.021144635975361, 0.057193685323000, -0.036042504012585, 0.054312724620104, 0.001996945822611, -0.013707748614252, -0.049265593290329, 0.047776952385902, -0.046484015882015, -0.011318371631205, -0.013121312484145, -0.004970085341483, -0.003507827641442, -0.026497824117541, -0.026203099638224, 0.004064789507538, -0.037951730191708, 0.020074946805835, -0.034496020525694, -0.012547323480248, -0.038574531674385, 0.045754380524158, -0.024988852441311, -0.000850982265547, 0.033918142318726, -0.050401065498590, -0.012134279124439, 0.022520123049617, 0.010665900073946, 0.006165674887598, 0.043440632522106, -0.056640487164259, 0.023629972711205, 0.022135164588690, -0.032510288059711, -0.013434560038149, 0.040815718472004, 0.016822598874569, 0.046182587742805, -0.028854146599770, -0.030912186950445, 0.031166370958090, -0.029566297307611, 0.038146823644638, -0.009051134809852, -0.050616048276424, 0.044949077069759, 0.020881544798613, -0.055214539170265, -0.014247954823077, 0.021622439846396, -0.054545793682337, 0.009033370763063, -0.033090509474277, 0.040520817041397, 0.038942769169807, 0.001236997661181, 0.047835189849138, 0.025572506710887, -0.050796456634998, 0.013003163971007, -0.040458340197802, -0.021557634696364, -0.030859811231494, 0.046956382691860, -0.053345642983913, -0.004048205446452, 0.042789977043867, 0.053287368267775, 0.016757594421506, 0.021467441692948, -0.008394671604037, -0.015805220231414, -0.027332970872521, -0.053360443562269, 0.017794972285628, 0.036233711987734, 0.034869752824306, 0.058644510805607, 0.013696988113225, -0.054636817425489, 0.054851319640875, -0.029302785173059, -0.041284650564194, -0.040277861058712, -0.041598685085773, 0.000501858652569, -0.007992750033736, -0.041601873934269, -0.052926283329725, -0.022422323003411, 0.055582705885172, 0.015439604409039, -0.040217861533165, 0.055872894823551, 0.010676639154553, 0.035319656133652, -0.018391501158476, 0.021449122577906, 0.000031031057006, 0.018860602751374, 0.022794002667069, 0.029153196141124, -0.019491000100970, 0.015182754956186, 0.020112598314881, -0.009651273488998, 0.038065310567617, 0.000482675561216, 0.035627033561468, 0.042307607829571, -0.006843547336757, -0.022526683285832, -0.030474683269858, -0.052663885056973, -0.031962789595127, -0.002485701814294, -0.027256762608886, -0.021062940359116, 0.009660693816841, -0.026251839473844, -0.048058860003948, -0.036708805710077, 0.010218456387520, 0.043293714523315, -0.031666506081820, -0.040336612612009, -0.049987573176622, -0.011611778289080, 0.007037180475891, -0.056898392736912, -0.047896996140480, -0.037469655275345, 0.047849033027887, -0.058519367128611, -0.038231052458286, 0.006128038279712, 0.034041780978441, -0.014211387373507, 0.000378374854336, 0.024081125855446, -0.004793944768608, -0.046716608107090, 0.027035115286708, -0.026203617453575, 0.024955192580819, 0.048754464834929, 0.046342346817255, -0.028385117650032, -0.022622196003795, -0.001013856264763, 0.007099935319275, -0.023178525269032, 0.021996160969138, -0.043031498789787, -0.008899256587029, -0.030837904661894, -0.043149475008249, -0.022724799811840, 0.001650685444474, -0.024776665493846, 0.033993832767010, 0.033915080130100, -0.045532379299402, -0.003706368384883, 0.024186341091990, 0.055261641740799, 0.024238016456366, -0.017237339168787, 0.026735177263618, 0.012704537250102, 0.052454601973295, 0.041939131915569, 0.022029962390661, -0.028116242960095, 0.006021123845130, 0.009843663312495, 0.006789050996304, -0.003931557759643, 0.056919164955616, -0.043920520693064, 0.000373009417672, -0.029764622449875, -0.040997564792633, 0.049863874912262, -0.051362488418818, -0.029847851023078, -0.039474647492170, -0.021846378222108, 0.052499789744616, 0.052237398922443, -0.010421655140817, 0.004183656070381, 0.013506355695426, 0.041297264397144, -0.028706071898341, 0.000723566510715, -0.020547430962324, 0.008386841975152, -0.017032707110047, -0.000794281892013, 0.050572376698256, -0.005359719973058, 0.035745155066252, 0.050395142287016, 0.032757677137852, 0.047464810311794, 0.025690905749798, 0.027315951883793, 0.025770071893930, 0.031854499131441, 0.024564135819674, -0.002540086163208, -0.054456416517496, -0.045041203498840, 0.055209953337908, 0.051746033132076, -0.058299593627453, 0.039360582828522, -0.016559913754463, 0.022966740652919, 0.007011235691607, -0.020938960835338, 0.000299892417388, 0.027691407129169, 0.005887556821108, 0.041966006159782, -0.035294547677040, -0.031717997044325, 0.042403679341078, 0.040410373359919, 0.045633636415005, 0.007454860024154, 0.000125647115055, -0.031043352559209, 0.038235139101744, -0.015400359407067, -0.034921675920486, -0.035943914204836, -0.002779137808830, -0.017311874777079, 0.047964211553335, -0.010600885376334, 0.024694366380572, -0.040687803179026, 0.017278442159295, -0.013420266099274, 0.054955553263426, 0.053995646536350, -0.046358101069927, -0.046331826597452, 0.018333245068789, -0.032570160925388, -0.025872202590108, -0.045823171734810, 0.028303069993854, 0.006240567658097, 0.003979485481977, -0.030844645574689, 0.043969731777906, -0.029436338692904, 0.034325908869505, 0.056989133358002, -0.010987657122314, -0.034090973436832, 0.043881032615900, 0.056843899190426, 0.037747584283352, -0.000418520881794, -0.020437566563487, -0.057434249669313, 0.056686419993639, -0.028141012415290, 0.012720949947834, -0.011011654511094, -0.053876120597124, -0.021919216960669, -0.024748872965574, 0.020886668935418, -0.054227143526077, 0.051470514386892, -0.004393609240651, -0.058291047811508, -0.012385279871523, 0.037756066769361, -0.023164652287960, -0.030784757807851, 0.032268535345793, 0.041426934301853, 0.012749203480780, -0.010714219883084, 0.011771744117141, 0.031413570046425, 0.044239085167646, -0.040856499224901, -0.029334379360080, -0.026831699535251, 0.013550507836044, -0.033697433769703, 0.015181280672550, -0.011548014357686, -0.026726666837931, -0.024003194645047, -0.008293558843434, 0.024148957803845, 0.003330562729388, -0.027405537664890, 0.013088765554130, -0.050267908722162, 0.002081296406686, 0.048071552067995, -0.053770188242197, -0.044771812856197, -0.007740867789835, -0.035997301340103, -0.026095030829310, 0.041618566960096, -0.004869980737567, 0.017591746523976, -0.022668620571494, -0.019116502255201, 0.017965005710721, 0.019240139052272, -0.017832547426224, 0.007792641874403, 0.056707382202148, -0.041600596159697, -0.019484693184495, -0.028961719945073, -0.056746937334538, 0.055047627538443, 0.000397092546336, 0.050260957330465, 0.049805715680122, 0.043806623667479, -0.045013613998890, -0.031680926680565, 0.038033075630665, 0.018606932833791, -0.031645316630602, 0.001140709733590, 0.000556567043532, -0.058019544929266, -0.043611217290163, -0.046359535306692, -0.045966934412718, -0.001166743924841, -0.047189816832542, 0.034491557627916, 0.013953256420791, 0.004551240708679, -0.016426250338554, -0.044588997960091, -0.057748310267925, -0.032782260328531, -0.055652666836977, 0.040292505174875, -0.011984255164862, -0.045222654938698, -0.026796033605933, 0.010250886902213, 0.037299297749996, -0.036796864122152, -0.003070086473599, 0.051252260804176, -0.031549479812384, 0.043561339378357, -0.047442980110645, 0.056945726275444, -0.013172427192330, -0.054041549563408, 0.037007313221693, 0.045382216572762, 0.012346648611128, 0.037699464708567, -0.039159335196018, -0.041519898921251, -0.045481152832508, 0.013311917893589, 0.032800450921059, 0.019810479134321, 0.047004900872707, -0.031779795885086, -0.046605810523033, 0.001562362071127, -0.009540985338390, 0.047941625118256, 0.008447950705886, -0.055480889976025, -0.009581861086190, 0.039852403104305, 0.036992583423853, 0.020233988761902, 0.024609226733446, -0.028591096401215, -0.036697618663311, -0.026145357638597, 0.022015836089849, -0.007347974926233, -0.044421453028917, -0.006270537618548, 0.020230488851666, 0.001164048211649, 0.052055865526199, 0.025335332378745, -0.040257230401039, 0.005183210596442, -0.016324670985341, -0.040428977459669, 0.018404087051749, -0.056032218039036, -0.048225689679384, -0.010450663976371, 0.039609082043171, -0.049626119434834, 0.038711484521627, -0.005388550460339, 0.002561361761764, 0.026554822921753, 0.051712065935135, 0.050130072981119, -0.035951286554337, 0.015860784798861, -0.000601598178037, -0.007798536214978, -0.053782057017088, -0.013351825997233, 0.026136107742786, -0.053138487040997, -0.047620438039303, -0.043688293546438, -0.042147878557444, 0.043082706630230, -0.013604426756501, -0.021888617426157, 0.031068401411176, -0.040433038026094, 0.035822272300720, -0.030197115615010, -0.023699156939983, 0.018358802422881, 0.033487081527710, -0.030860146507621, 0.018686285242438, -0.043017636984587, 0.011359865777194, -0.023753304034472, -0.058526571840048, -0.057525478303432, 0.040870245546103, 0.020876660943031, 0.015179523266852, -0.001975420629606, 0.033099755644798, -0.041448533535004, -0.011346032842994, -0.015423515811563, -0.022790841758251, 0.007049877196550, 0.025145884603262, -0.011497572995722, -0.040956575423479, 0.017114864662290, 0.036184050142765, -0.036088086664677, -0.036614429205656, -0.026156621053815, 0.046384457498789, 0.022816946730018, -0.019564833492041, 0.000079182442278, 0.045400913804770, 0.054259873926640, -0.054588522762060, -0.037305939942598, 0.023996222764254, -0.027681643143296, -0.052600916475058, -0.029556255787611, -0.011452161706984, 0.040571715682745, -0.017883649095893, 0.046163890510798, 0.008791415020823, 0.024406626820564, -0.053703617304564, -0.007281794678420, -0.035235919058323, 0.044233232736588, 0.004668074194342, -0.029030244797468, -0.019618010148406, 0.014597454108298, -0.040698878467083, 0.010139437392354, -0.043228760361671, 0.052434016019106, -0.018308768048882, -0.041504267603159, -0.030042598024011, 0.036299370229244, -0.005144122056663, 0.040752325206995, -0.009100995026529, 0.005892963148654, 0.040176406502724, -0.018807454034686, 0.006866923067719, 0.007906422019005, 0.027460331097245, -0.055198814719915, 0.010377379134297, 0.023164253681898, -0.029097884893417, 0.023526133969426, -0.008280694484711, -0.025103433057666, 0.050440836697817, -0.057562153786421, -0.011098012328148, 0.001332957879640, -0.028467949479818, -0.012331509031355, 0.032471612095833, -0.047941412776709, 0.047191429883242, 0.048121288418770, 0.050223365426064, 0.034966539591551, 0.013863484375179, 0.057710733264685, -0.020154310390353, 0.022200010716915, 0.039699390530586, 0.026129294186831, -0.039820034056902, -0.010055272839963, 0.000272413511993, 0.031858049333096, 0.028697693720460, 0.049471084028482, 0.028963530436158, -0.037240225821733, -0.008070194162428, -0.037766445428133, -0.014777165837586, -0.050596460700035, -0.010331182740629, 0.014308084733784, 0.057747412472963, -0.043692756444216, 0.015761390328407, 0.043970238417387, 0.024628827348351, -0.047231983393431, 0.026927396655083, -0.016562750563025, 0.016518743708730, 0.022354094311595, -0.030582834035158, -0.018453497439623, -0.030760660767555, 0.041551522910595, -0.016976650804281, 0.047612041234970, 0.020836148411036, 0.034448195248842, 0.031644936650991, 0.009726688265800, -0.038003616034985, -0.014881034381688, -0.040025260299444, 0.017820261418819, -0.023787323385477, 0.024576215073466, 0.006099353078753, -0.040405120700598, -0.015200363472104, -0.054889388382435, 0.041706133633852, 0.029958877712488, -0.019531583413482, -0.025764483958483, -0.013293621130288, -0.034767959266901, 0.021292470395565, -0.049465551972389, 0.053299743682146, -0.034230943769217, -0.031957201659679, -0.014229740016162, -0.008039695210755, -0.018261531367898, 0.050091654062271, -0.048816490918398, 0.025365753099322, 0.028081756085157, 0.027080131694674, -0.002447015373036, -0.007395519409329, 0.035691186785698, 0.040838215500116, -0.003961397334933, 0.001191698363982, -0.025647247210145, 0.026857983320951, 0.051039230078459, 0.048988029360771, 0.010120678693056, 0.048642314970493, -0.050807174295187, 0.030019666999578, -0.025490401312709, -0.039656896144152, -0.047284010797739, 0.036167912185192, -0.001571011613123, 0.003664997406304, -0.027692386880517, -0.000433727371274, -0.018723735585809, 0.001912625040859, 0.036923568695784, -0.001341454684734, -0.053862389177084, -0.020306667312980, -0.057078201323748, 0.032510723918676, 0.020872192457318, -0.018800714984536, 0.044919937849045, -0.043134815990925, 0.015881650149822, -0.002133979229257, -0.021475376561284, -0.010719960555434, 0.022201344370842, -0.036940697580576, -0.026503862813115, -0.014629583805799, 0.043992795050144, -0.013307509943843, 0.047702498733997, -0.010399902239442, 0.048169821500778, -0.057614136487246, 0.000647247419693, -0.050708614289761, 0.029662612825632, 0.039563871920109, 0.018946984782815, 0.027161965146661, 0.037391737103462, -0.044316250830889, -0.010808522813022, 0.004373670089990, -0.031374111771584, -0.034009840339422, -0.000231243568123, 0.024495936930180, -0.045645497739315, -0.009973268024623, 0.026999413967133, 0.058028388768435, -0.041328113526106, 0.028113197535276, 0.037243425846100, 0.001858125207946, -0.012459740974009, -0.013981059193611, 0.058827199041843, 0.025429811328650, -0.053006336092949, -0.057106759399176, -0.054438624531031, -0.049496334046125, -0.038571916520596, 0.048220466822386, 0.010607144795358, -0.000357788027031, 0.028805240988731, 0.010772494599223, 0.052912574261427, 0.019571106880903, -0.026767374947667, 0.050185229629278, 0.050632353872061, 0.024767814204097, 0.045417305082083, 0.017358690500259, -0.033106394112110, 0.052535317838192, -0.018092522397637, 0.021874256432056, -0.057819519191980, -0.049123913049698, 0.011405433528125, 0.033891584724188, 0.009305598214269, 0.011436240747571, -0.048012521117926, -0.050459351390600, 0.018680261448026, 0.010067121125758, -0.051127582788467, 0.046984780579805, -0.019543150439858, -0.040800891816616, 0.043684180825949, -0.046542413532734, 0.051324687898159, -0.022307869046926, 0.035425461828709, -0.042954403907061, 0.049389779567719, 0.006429263856262, 0.000075462739915, 0.017142500728369, 0.017440538853407, -0.039643403142691, -0.037273082882166, 0.020713096484542, 0.001281872391701, 0.026095299050212, 0.036426272243261, 0.058790922164917, -0.001439354848117, 0.023642482236028, 0.015581288374960, -0.055814050137997, -0.016855822876096, -0.056192394345999, -0.035127449780703, -0.058719195425510, 0.058780521154404, -0.021507322788239, -0.035671055316925, -0.011717597953975, 0.012757894583046, 0.019431909546256, -0.051685258746147, -0.002549495315179, -0.049127869307995, -0.014258864335716, 0.047707095742226, 0.047057334333658, -0.010756849311292, 0.033496759831905, 0.002585188020021, 0.010025388561189, -0.047956969588995, 0.023259885609150, 0.003687717719004, -0.045805774629116, 0.014075214043260, 0.038143347948790, -0.048018936067820, -0.002936337143183, -0.038326099514961, -0.038175489753485, -0.044727705419064, -0.014432957395911, -0.046742387115955, -0.003167971735820, -0.014132766984403, 0.004881441593170, -0.058814343065023, -0.023930706083775, 0.039040777832270, -0.050019152462482, 0.046188235282898, 0.036211922764778, -0.039714779704809, -0.049526803195477, -0.028700498864055, 0.034402128309011, -0.057936962693930, -0.032918568700552, 0.039723318070173, 0.029611036181450, 0.015204782597721, -0.023889509961009, -0.014654285274446, -0.008460993878543, 0.056296389549971, -0.020468557253480, -0.047875553369522, -0.019343165680766, 0.038424517959356, 0.048722732812166, 0.017372153699398, 0.027977969497442, 0.041613977402449, -0.026826208457351, 0.058869838714600, -0.040877532213926, 0.008988406509161, 0.047208201140165, -0.053974755108356, 0.014664341695607, 0.024001913145185, -0.007006685715169, -0.048498343676329, -0.028151683509350, 0.048277001827955, -0.009615900926292, -0.036052491515875, -0.033776503056288, 0.045670244842768, 0.019444152712822, -0.016219047829509, 0.014883503317833, -0.046278171241283, 0.015483899042010, -0.029773652553558, -0.045716453343630, -0.050365652889013, 0.019724475219846, 0.056234255433083, 0.024990506470203, 0.027650978416204, 0.003899528644979, 0.037209413945675, 0.045476350933313, -0.010519525036216, -0.018461797386408, -0.002408991567791, -0.023735117167234, -0.056335482746363, 0.036223705857992, 0.051756896078587, 0.008190952241421, -0.026033248752356, 0.012463802471757, 0.004826744552702, -0.023779025301337, -0.014593161642551, -0.030924865975976, 0.032906621694565, 0.023989528417587, -0.013476095162332, -0.014429051429033, 0.036182977259159, 0.022973710671067, 0.010220392607152, 0.016800072044134, 0.038497779518366, 0.042287271469831, 0.021408582106233, -0.011628079228103, 0.012014728039503, 0.002401142613962, 0.035218577831984, -0.007425556425005, 0.003419772256166, 0.000192430539755, -0.026395808905363, -0.029256671667099, 0.000287355651380, 0.031655889004469, -0.042995158582926, -0.041595023125410, -0.044651150703430, 0.000723272387404, -0.013049039989710, -0.026483686640859, 0.015633923932910, 0.040409911423922, 0.027529288083315, -0.014425301924348, 0.019960502162576, 0.043726965785027, 0.014136069454253, -0.042633842676878, 0.041159160435200, 0.014123558998108, -0.014199103228748, -0.011061712168157, 0.012395708821714, 0.019747702404857, -0.057573180645704, 0.029459536075592, -0.016281364485621, -0.001876578433439, -0.005587802268565, -0.058533675968647, 0.044471479952335, -0.018476977944374, 0.022463042289019, -0.039080210030079, -0.002993123140186, -0.023964310064912, 0.052984684705734, 0.019869428128004, 0.030128242447972, 0.027572384104133, -0.034512665122747, 0.040496755391359, 0.034863989800215, -0.009688481688499, -0.054291579872370, 0.017087340354919, -0.039309736341238, 0.018508939072490, 0.007874267175794, -0.011038079857826, 0.052453812211752, 0.025332778692245, -0.018601134419441, 0.007247561588883, 0.046424515545368, 0.049117855727673, 0.008110250346363, 0.033470131456852, 0.026127818971872, -0.051935933530331, -0.016638888046145, -0.034470442682505, -0.033177264034748, -0.024739900603890, 0.052174255251884, -0.000058513687691, 0.024967622011900, 0.011666400358081, -0.045805998146534, 0.022807028144598, -0.011089321225882, 0.033540751785040, 0.007467162329704, 0.013055850751698, 0.016193389892578, 0.047719508409500, -0.008355888538063, -0.047144658863544, 0.016185363754630, 0.034520048648119, -0.018177840858698, -0.035168956965208, 0.023901514708996, -0.051220033317804, -0.014945948496461, -0.035982698202133, 0.016552209854126, -0.024707183241844, -0.041013982146978, 0.027271760627627, 0.028227498754859, 0.047637518495321, 0.042778108268976, -0.054604038596153, 0.044058982282877, -0.027966273948550, 0.035968001931906, -0.002145495731384, -0.046991154551506, 0.000999040668830, 0.015329770743847, 0.034142859280109, 0.045699533075094, -0.053794384002686, -0.039244763553143, 0.026277665048838, -0.054747480899096, -0.049193095415831, -0.033387765288353, -0.012012493796647, 0.005728655960411, -0.038478355854750, 0.018571432679892, -0.029444692656398, -0.033186953514814, -0.038360629230738, 0.038237690925598, -0.002790144179016, -0.044481523334980, 0.054042354226112, 0.007811832707375, -0.009253577329218, -0.024125792086124, -0.039521224796772, 0.033936183899641, -0.015523213893175, -0.054658103734255, 0.056850891560316, 0.035403389483690, -0.046153903007507, 