//Numpy array shape [3, 3, 128, 64]
//Min -0.058924861252
//Max 0.058924850076
//Number of zeros 0

#ifndef W176_H_
#define W176_H_

#ifndef __SYNTHESIS__
model_default_t w176[73728];
#else
model_default_t w176[73728] = {-0.035457715392113, 0.053014636039734, 0.000177715555765, -0.007086597848684, -0.048300027847290, -0.056343413889408, -0.010735096409917, -0.001135586295277, 0.007379527669400, 0.041607096791267, -0.018959328532219, -0.022230185568333, -0.000125434875372, 0.012058552354574, 0.042716126888990, 0.011323696002364, 0.022225115448236, 0.019252454861999, -0.026869783177972, -0.054003018885851, 0.048315547406673, -0.010437043383718, -0.017350826412439, 0.045825771987438, -0.056717745959759, 0.000021104397092, -0.048259630799294, 0.032591655850410, 0.041480790823698, 0.044007495045662, 0.019382202997804, 0.010878791101277, 0.057830411940813, -0.050741121172905, 0.020447997376323, 0.009438889101148, -0.024502241984010, 0.034802246838808, 0.037019826471806, -0.011500187218189, 0.043479662388563, -0.010798763483763, -0.013992672786117, -0.015959622338414, -0.045758411288261, -0.000344659230905, -0.044288415461779, -0.054711785167456, -0.017831372097135, -0.021825710311532, -0.008450155146420, 0.014654214493930, -0.030096294358373, -0.004915812518448, 0.048690266907215, -0.055020567029715, 0.017733780667186, -0.004125574138016, -0.044837754219770, 0.053292609751225, -0.022755423560739, 0.043342549353838, 0.038147836923599, -0.053878974169493, -0.033618867397308, -0.002287235576659, -0.031720623373985, -0.024535719305277, 0.023479918017983, -0.022428752854466, -0.028641846030951, -0.033050928264856, 0.019784675911069, 0.020374741405249, -0.048891365528107, -0.050730954855680, -0.035749673843384, -0.034739244729280, 0.032287146896124, 0.032757945358753, 0.018950663506985, 0.054754890501499, -0.045961078256369, 0.055739693343639, 0.020493578165770, 0.050892353057861, -0.006882751360536, -0.035309582948685, 0.022851895540953, 0.019136864691973, -0.002845556242391, 0.040193147957325, 0.036905903369188, 0.055936533957720, -0.037835080176592, 0.010789324529469, 0.020833833143115, -0.041722506284714, 0.045245841145515, 0.038606267422438, 0.022030089050531, 0.041995510458946, -0.028475897386670, -0.004731767345220, -0.001630943850614, 0.030321711674333, 0.015965256839991, 0.055450025945902, -0.041512552648783, 0.011172138154507, -0.010932795703411, 0.044857591390610, -0.055172163993120, 0.032296314835548, -0.047524619847536, -0.051292266696692, 0.015310588292778, 0.056175615638494, 0.013614424504340, 0.006114224437624, -0.023223765194416, 0.003359221853316, 0.053527738898993, 0.015085692517459, 0.056886754930019, -0.028968306258321, -0.001145203947090, -0.032332770526409, -0.022925052791834, -0.048571612685919, 0.030534856021404, 0.000610724266153, 0.056386958807707, -0.019886335358024, -0.028083229437470, 0.021794857457280, 0.036896012723446, 0.056402120739222, -0.001839913893491, -0.020257309079170, -0.042241945862770, 0.030894843861461, 0.054901838302612, 0.006979400292039, -0.024810731410980, 0.041322395205498, -0.016432750970125, -0.038213443011045, -0.047113526612520, 0.054061304777861, 0.049740854650736, 0.005668120458722, 0.006842944305390, -0.032631818205118, -0.023070400580764, 0.057539507746696, -0.013182257302105, 0.007263944949955, 0.015491784550250, -0.041463516652584, 0.015618701465428, -0.024066660553217, 0.037563834339380, -0.023108931258321, 0.016676938161254, 0.029533870518208, 0.018997848033905, 0.050072707235813, -0.034198518842459, 0.008678922429681, -0.044236812740564, 0.045721590518951, -0.020346730947495, -0.049745108932257, 0.011181029491127, 0.034881871193647, -0.044228821992874, -0.033339336514473, -0.018143998458982, -0.019380280748010, 0.036230839788914, -0.012168345041573, -0.055558204650879, 0.000561690481845, -0.036008451133966, 0.026729995384812, 0.007725717034191, -0.041996072977781, -0.038324177265167, -0.019326819106936, -0.024681163951755, 0.013839036226273, -0.057776633650064, 0.007306660059839, 0.010294056497514, -0.012404615059495, -0.008725767023861, 0.026316195726395, 0.048786129802465, -0.048623036593199, 0.008898045867682, 0.007326334714890, -0.041373003274202, -0.044590514153242, -0.039770036935806, 0.042079132050276, -0.043829780071974, 0.022795261815190, -0.027302959933877, 0.003807932371274, -0.048574492335320, -0.032125059515238, 0.014877046458423, 0.026423996314406, -0.004254479426891, 0.026787118986249, 0.023002887144685, 0.017805732786655, 0.032354310154915, 0.004683362785727, -0.011678434908390, -0.057599548250437, -0.030469331890345, 0.024046802893281, 0.022433307021856, 0.052289690822363, -0.041355561465025, 0.055893648415804, -0.048943754285574, -0.016483724117279, -0.031118771061301, -0.022063160315156, 0.012001345865428, 0.048644758760929, -0.036777190864086, -0.036320015788078, 0.006395522039384, -0.008625762537122, -0.028648136183619, 0.048683110624552, -0.045572958886623, 0.040941454470158, -0.052577283233404, -0.002457690425217, 0.036692380905151, 0.017878919839859, 0.041591688990593, -0.034420970827341, 0.046157665550709, -0.014276881702244, 0.028448611497879, -0.017438292503357, -0.028054611757398, 0.022562911733985, 0.004693624563515, 0.016236627474427, 0.043951891362667, -0.009930999949574, -0.028206350281835, -0.045679524540901, -0.058116152882576, -0.022882169112563, -0.026949286460876, -0.022104077041149, 0.023380964994431, 0.043093938380480, -0.007989142090082, -0.048086844384670, -0.001513201626949, 0.013824924826622, 0.015510997734964, 0.018766198307276, 0.043598931282759, 0.004759789910167, 0.058436080813408, -0.038037665188313, -0.020204555243254, -0.054533481597900, -0.010480432771146, 0.046192605048418, -0.032126236706972, 0.018473915755749, -0.040163304656744, 0.042586687952280, -0.037246376276016, 0.041739329695702, -0.045992899686098, 0.029324511066079, -0.003530142130330, -0.047505032271147, -0.026599474251270, 0.000070756323112, 0.053793821483850, 0.026349356397986, 0.043583627790213, 0.024017306044698, -0.048044450581074, 0.010979971848428, -0.013226528652012, 0.046810813248158, 0.049656167626381, 0.032251801341772, 0.022947631776333, 0.035209495574236, 0.056494507938623, 0.036545049399137, 0.054955232888460, 0.043867636471987, -0.054007273167372, 0.049964334815741, 0.034180168062449, 0.053640581667423, -0.014829021878541, -0.030812671408057, -0.032597709447145, 0.036540724337101, 0.033843554556370, 0.020324274897575, 0.056302733719349, -0.008649760857224, -0.002072125440463, 0.055585641413927, 0.000863243534695, -0.027992911636829, -0.004195965826511, 0.003598452312872, -0.037366926670074, -0.007780112791806, 0.006750379689038, -0.056037105619907, -0.026863871142268, -0.054872956126928, 0.021974006667733, -0.020206490531564, 0.004418366122991, 0.007409404497594, -0.058027211576700, -0.056714653968811, -0.042872469872236, 0.056996297091246, 0.047724965959787, -0.046111498028040, 0.012627336196601, 0.049602065235376, -0.008222757838666, -0.054729070514441, -0.006154269911349, 0.054763261228800, -0.034686181694269, -0.027198558673263, -0.010626707226038, -0.020448183640838, 0.055516302585602, -0.035767618566751, -0.018906742334366, -0.050106775015593, -0.037804413586855, 0.038689903914928, -0.022404264658689, -0.030860750004649, 0.022205336019397, -0.052125431597233, -0.051495492458344, 0.049155402928591, -0.018352577462792, -0.032463524490595, 0.033308655023575, -0.027138670906425, 0.036750473082066, 0.047218505293131, -0.019150046631694, 0.000631452596281, -0.018630735576153, -0.021511325612664, 0.034419823437929, 0.026768568903208, 0.003161708824337, 0.020015506073833, 0.015634085983038, 0.005657843779773, -0.009693452157080, -0.007149590644985, -0.051022563129663, -0.010582476854324, 0.016885353252292, 0.024046922102571, 0.016532460227609, 0.011976689100266, 0.050565794110298, 0.051053974777460, 0.003501427127048, -0.015000448562205, -0.014387613162398, 0.030455725267529, 0.034449670463800, 0.052665747702122, 0.022376151755452, 0.048778735101223, -0.012112486176193, 0.040466990321875, 0.041972380131483, 0.036880120635033, 0.005022879689932, 0.000245426112087, 0.001468926318921, 0.019709253683686, 0.046322010457516, -0.044072210788727, 0.058700282126665, -0.029367631301284, 0.034381173551083, 0.016376374289393, -0.022958049550653, -0.005984306335449, 0.032465208321810, -0.048024609684944, -0.017131885513663, 0.046423800289631, 0.013703376986086, -0.012559327296913, -0.011124872602522, -0.057783305644989, -0.015063482336700, 0.035741012543440, 0.014778360724449, -0.035560749471188, 0.004979747813195, 0.009529108181596, 0.013206522911787, 0.058656025677919, 0.045264218002558, 0.016229463741183, 0.024621305987239, 0.054606892168522, -0.010313012637198, -0.031474832445383, -0.029773568734527, 0.021510483697057, 0.054555993527174, 0.023463124409318, -0.048140149563551, 0.023900233209133, -0.001049969810992, 0.020800814032555, -0.045690953731537, -0.006100894417614, -0.050961986184120, 0.000885342073161, -0.046078749001026, -0.008264575153589, 0.011486104689538, 0.033859759569168, 0.012257413007319, 0.040532596409321, 0.052625335752964, -0.013902565464377, 0.026181504130363, -0.049271844327450, 0.048301376402378, 0.011146706528962, 0.053529761731625, -0.041733529418707, 0.035785395652056, -0.045695587992668, -0.040327019989491, -0.040995333343744, 0.025591980665922, -0.015373778529465, -0.012117103673518, 0.003191786818206, 0.058701969683170, -0.019583353772759, -0.041695024818182, 0.056330215185881, -0.014821593649685, -0.029475556686521, -0.015749178826809, -0.002943847328424, 0.016550244763494, 0.015934992581606, -0.047060757875443, 0.052298314869404, -0.033824790269136, -0.030295001342893, 0.027160579338670, 0.021882917732000, -0.006597037892789, 0.000871624972206, -0.028555769473314, -0.029041087254882, 0.017227916046977, -0.044168878346682, 0.034768678247929, 0.048373691737652, -0.039418648928404, 0.045658055692911, 0.007402486167848, 0.007824484258890, 0.006787815131247, -0.030973410233855, 0.004983493592590, -0.027770264074206, 0.000955413270276, 0.018290612846613, -0.035001195967197, 0.050192192196846, -0.027439657598734, -0.014507954008877, 0.013565006665885, 0.021338641643524, -0.001912691979669, 0.007576884236187, 0.035918820649385, 0.003515732474625, 0.026767684146762, -0.027523618191481, 0.040058396756649, -0.031225798651576, -0.032299190759659, -0.000123766789329, 0.014907027594745, -0.033630985766649, -0.036681272089481, -0.041274275630713, -0.046407401561737, 0.055860497057438, -0.034505672752857, -0.037417631596327, -0.049886725842953, -0.008227448910475, -0.039468817412853, 0.031259048730135, 0.026768509298563, 0.048294316977262, -0.034077670425177, 0.049541726708412, 0.032702993601561, -0.009949591010809, -0.044020775705576, -0.052473064512014, 0.032333791255951, -0.029486663639545, 0.022917792201042, -0.044068280607462, 0.037954509258270, 0.027530115097761, 0.042361360043287, 0.031960923224688, -0.032844103872776, -0.038363397121429, 0.011792439036071, 0.032519087195396, -0.039128571748734, -0.022592989727855, -0.043892923742533, -0.003005030797794, -0.055683288723230, 0.005622925236821, 0.041076507419348, -0.039918668568134, -0.013825699687004, 0.011478352360427, -0.015928519889712, -0.024708235636353, 0.023367052897811, -0.031713660806417, 0.029294975101948, -0.045727126300335, -0.030049562454224, 0.004329860210419, -0.036879949271679, -0.007162310183048, -0.044714801013470, 0.015487100929022, 0.019885029643774, -0.020572761073709, -0.013692229054868, 0.031721536070108, 0.023732433095574, 0.028052616864443, -0.011313330382109, 0.005080302711576, -0.024022610858083, 0.057347200810909, 0.028020728379488, 0.031969118863344, -0.046038705855608, -0.009967861697078, 0.007123005576432, 0.050693210214376, 0.044502250850201, 0.039379347115755, 0.021083243191242, -0.006866111420095, 0.015243432484567, -0.050320662558079, 0.051808189600706, 0.015718117356300, -0.005171444732696, -0.005723450332880, 0.011412425898015, 0.032671678811312, 0.017142500728369, -0.006110009271652, 0.021244654431939, -0.040830660611391, 0.005124253686517, 0.003759505460039, -0.028815248981118, 0.036337662488222, -0.022950651124120, -0.023891350254416, 0.055264547467232, -0.058522485196590, 0.051450673490763, 0.040395107120275, 0.058338340371847, -0.012790738604963, 0.030672473832965, 0.033865753561258, -0.058762669563293, 0.005854909773916, -0.026848422363400, -0.042510710656643, 0.055513918399811, -0.037667661905289, 0.001003773184493, 0.023947417736053, -0.048117134720087, 0.023724315688014, 0.031020844355226, -0.018776869401336, -0.037456315010786, -0.042252916842699, 0.016220988705754, -0.035624183714390, -0.007173573598266, 0.055623441934586, -0.016640024259686, 0.004417465068400, 0.040093149989843, -0.030091281980276, 0.004641235806048, 0.003784556640312, -0.031128853559494, -0.053543146699667, 0.010216891765594, 0.008430539630353, 0.036926187574863, -0.026229063048959, -0.010248894803226, -0.007227015681565, 0.023546872660518, -0.041559692472219, 0.057424798607826, -0.019599825143814, -0.053445667028427, 0.002551208017394, -0.003338497364894, 0.057925898581743, 0.039318937808275, -0.006436974741518, -0.033593062311411, 0.003318994073197, 0.041904956102371, -0.005920092109591, -0.018327936530113, 0.033495176583529, -0.019638806581497, 0.051470320671797, -0.037715781480074, 0.038931529968977, -0.054380293935537, -0.007120395544916, 0.037626534700394, -0.012011439539492, -0.010154226794839, 0.028516264632344, -0.052848238497972, 0.023121232166886, 0.032265648245811, 0.055072803050280, -0.001460135332309, -0.007815935648978, -0.055614877492189, 0.017664495855570, 0.036287479102612, 0.025651294738054, -0.044158346951008, 0.039721164852381, 0.036912947893143, -0.017642827704549, 0.040009450167418, 0.054609112441540, -0.000748141144868, -0.003891862230375, 0.041100732982159, 0.058646641671658, -0.020570810884237, 0.031546279788017, -0.049348466098309, 0.004859294742346, -0.054238248616457, -0.014072219841182, 0.018050957471132, 0.024950530380011, 0.006087035872042, -0.036768950521946, -0.022943167015910, -0.000449764163932, 0.020460790023208, 0.020414568483829, -0.053204916417599, -0.010273864492774, 0.017724597826600, -0.054370354861021, -0.042134582996368, -0.049318406730890, -0.039480879902840, -0.026177374646068, 0.008237994275987, 0.040244836360216, 0.020645264536142, -0.035169642418623, -0.010664563626051, 0.046798065304756, -0.056609354913235, 0.042118504643440, -0.033303949981928, 0.031189583241940, 0.031960953027010, 0.008493428118527, -0.024930790066719, 0.047477606683969, 0.044676996767521, -0.040081582963467, -0.037554074078798, 0.021307460963726, 0.056140467524529, 0.044265337288380, 0.012622964568436, -0.031852573156357, -0.006397685501724, 0.051549851894379, 0.014180184341967, -0.033105593174696, -0.022906603291631, -0.035436328500509, 0.032327767461538, -0.026145584881306, 0.054123874753714, 0.042990144342184, 0.056474905461073, -0.027654739096761, -0.019916960969567, -0.029770648106933, -0.012432443909347, 0.005223244894296, -0.043357238173485, 0.056983951479197, -0.013620560988784, -0.027774041518569, -0.041074264794588, -0.002834054641426, -0.004696547519416, 0.011623498983681, -0.057598985731602, -0.005351237952709, -0.024157272651792, 0.007785336580127, -0.023246109485626, 0.014906759373844, -0.002739620860666, 0.028947640210390, 0.001458590035327, -0.044042371213436, -0.030326118692756, -0.038959559053183, -0.024143049493432, 0.052267141640186, 0.045549381524324, -0.040937423706055, 0.034445051103830, 0.013331622816622, -0.015451109968126, 0.029109608381987, 0.029632348567247, -0.035677738487720, -0.005267565138638, 0.031486600637436, 0.026078432798386, -0.043038628995419, -0.018206570297480, 0.045128814876080, -0.052197631448507, 0.012683767825365, 0.017133653163910, 0.020333910360932, -0.003410251578316, -0.024421628564596, -0.001470862538554, 0.019363414496183, -0.047470498830080, -0.016785304993391, 0.006246063392609, -0.039148986339569, -0.001461442210712, -0.032771337777376, 0.022098772227764, 0.052956994622946, -0.013858193531632, 0.031147090718150, -0.009200414642692, -0.038326580077410, 0.058684092015028, 0.004078633151948, 0.004789622034878, -0.021443797275424, -0.002107468433678, 0.017797980457544, -0.016222516074777, -0.007558084558696, 0.000413408619352, -0.014254764653742, -0.014987036585808, -0.032281525433064, -0.023094609379768, 0.003790097078308, -0.043998703360558, -0.012419680133462, 0.008415006101131, 0.026518564671278, -0.040419515222311, -0.000918666773941, -0.008599136956036, 0.016978334635496, -0.022374060004950, 0.025897465646267, 0.002680392470211, -0.035136926919222, 0.057332962751389, -0.046481247991323, 0.054513864219189, -0.046977419406176, 0.033812083303928, 0.007681810297072, 0.011200942099094, -0.038752734661102, -0.001385968294926, 0.010648966766894, 0.039156053215265, 0.020369127392769, 0.031611863523722, 0.024280209094286, -0.051795385777950, 0.055795788764954, -0.018295820802450, -0.042150914669037, -0.041613698005676, -0.046581551432610, 0.004449211061001, -0.039175398647785, -0.034290704876184, 0.052485648542643, -0.018713090568781, -0.038280550390482, 0.039720896631479, 0.039985083043575, 0.044021785259247, 0.009609191678464, 0.017656140029430, -0.022425763309002, -0.054708104580641, 0.052211705595255, 0.055703286081553, -0.032277062535286, -0.051124662160873, 0.032836254686117, -0.021391702815890, -0.045733392238617, 0.054451223462820, 0.038378726691008, 0.052442595362663, 0.027650866657495, -0.010924075730145, 0.043501131236553, 0.000003217042831, -0.058275345712900, -0.035466685891151, -0.026323508471251, -0.000349629990524, 0.034988135099411, 0.049357287585735, 0.029245283454657, -0.057801779359579, -0.043046928942204, 0.047219906002283, -0.022308429703116, -0.052178017795086, -0.022315256297588, -0.028438434004784, 0.013204102404416, 0.052542660385370, -0.018626900389791, -0.007304753642529, 0.050413366407156, -0.024293662980199, -0.013143120333552, 0.028111916035414, 0.056267056614161, 0.017564445734024, -0.002851353725418, 0.015032604336739, 0.012741548009217, -0.045795395970345, 0.034294519573450, -0.035192828625441, 0.056836623698473, 0.032353252172470, -0.007297351490706, -0.031391791999340, 0.014993493445218, -0.002245093695819, 0.057943761348724, -0.051069281995296, -0.009295421652496, -0.054741624742746, 0.048194527626038, -0.008689202368259, 0.035574011504650, -0.023377260193229, -0.057226650416851, -0.005387887358665, 0.036835297942162, -0.054997373372316, -0.001322256750427, -0.031816501170397, 0.019033413380384, 0.053591333329678, 0.018525546416640, 0.052453938871622, 0.053023792803288, -0.015972990542650, -0.014194832183421, -0.017761891707778, 0.002691473346204, 0.024524347856641, -0.057846773415804, -0.058293037116528, -0.010515566915274, -0.013621163554490, -0.049502059817314, -0.030545145273209, -0.004198103211820, 0.007552495691925, 0.005670086480677, -0.008306602016091, 0.046367790549994, 0.016348486766219, 0.014218804426491, -0.023699253797531, -0.040480889379978, 0.040462553501129, -0.025136753916740, -0.046191282570362, 0.002646047389135, 0.021556751802564, -0.041430335491896, 0.017643710598350, 0.018004242330790, -0.053625699132681, 0.041596442461014, -0.032149240374565, 0.005153989419341, 0.037977006286383, 0.027535246685147, -0.002708772430196, 0.009427875280380, -0.025165641680360, -0.017220294103026, -0.036564022302628, -0.028346318751574, -0.002210521604866, 0.016195513308048, -0.030462240800261, 0.016772525385022, -0.039288409054279, -0.044981751590967, 0.010119696147740, -0.024958197027445, 0.031921200454235, -0.055273346602917, -0.020748779177666, 0.029520072042942, 0.000253245321801, 0.029346777126193, -0.039976082742214, -0.014205265790224, -0.021036611869931, -0.047054059803486, -0.047612156718969, -0.042421009391546, -0.018633866682649, -0.042524624615908, -0.047487437725067, 0.031985130161047, -0.039225149899721, -0.009750771336257, -0.018470769748092, -0.028182098641992, 0.014950994402170, -0.022649873048067, 0.020389091223478, 0.021215813234448, -0.040752913802862, -0.058448523283005, 0.053534857928753, 0.031475000083447, -0.002072322880849, 0.055635452270508, 0.038717783987522, -0.013119963929057, -0.040438234806061, 0.017700135707855, 0.038045696914196, -0.020492332056165, -0.057271219789982, -0.015970349311829, -0.037611871957779, 0.033650137484074, 0.032177191227674, -0.047920599579811, -0.030906850472093, 0.035800207406282, -0.032044794410467, -0.024913921952248, -0.004348939284682, -0.018803674727678, -0.032585144042969, 0.018302585929632, -0.056287836283445, 0.049180008471012, 0.017960783094168, -0.000547902600374, 0.025487128645182, 0.046341110020876, -0.006353313103318, -0.054346766322851, -0.002464485587552, 0.044283013790846, -0.052413456141949, -0.057554177939892, 0.046980101615191, 0.044865373522043, -0.049699362367392, 0.024066744372249, -0.054577488452196, 0.013236474245787, -0.036917287856340, 0.025177868083119, -0.039488073438406, -0.040316991508007, 0.029565244913101, 0.045947767794132, -0.000647262320854, 0.025607060641050, 0.038608629256487, 0.057125635445118, 0.022971415892243, -0.006926855072379, 0.009149943478405, 0.057573266327381, 0.011080489493906, 0.026009868830442, 0.045770168304443, -0.008906882256269, 0.048968650400639, 0.046334579586983, -0.051798030734062, -0.049210928380489, 0.026667760685086, 0.010944897308946, 0.011181185953319, -0.031885586678982, -0.056371722370386, 0.057775598019361, 0.028413997963071, 0.041130594909191, 0.026156214997172, 0.032059747725725, -0.040125757455826, -0.058866187930107, -0.000960622390267, -0.021706676110625, -0.028109418228269, -0.028853442519903, 0.020755603909492, 0.019425960257649, -0.040305100381374, -0.055201329290867, -0.051316332072020, -0.036386966705322, 0.041456438601017, -0.011418758891523, 0.006108251865953, -0.022843189537525, 0.016709957271814, 0.036611076444387, 0.052960123866796, -0.029116686433554, -0.014518164098263, 0.049713153392076, 0.055906474590302, -0.039716590195894, -0.047811638563871, 0.052452411502600, 0.044761616736650, -0.032736416906118, 0.028233716264367, 0.053145572543144, -0.044454239308834, -0.053773786872625, -0.030342590063810, -0.028162073343992, 0.004174176137894, 0.057333312928677, 0.057475153356791, 0.037778928875923, 0.019814537838101, 0.000093152746558, 0.058231968432665, -0.058340739458799, 0.041635967791080, 0.015547309070826, -0.033448792994022, 0.033535543829203, -0.008006061427295, 0.002423691796139, -0.006715189665556, -0.024999802932143, -0.013059149496257, 0.050229895859957, -0.005235897377133, 0.007161654531956, -0.005881517659873, -0.025566397234797, 0.018110211938620, -0.022706070914865, -0.038392592221498, 0.001214824616909, -0.055432528257370, 0.037723321467638, -0.019600640982389, 0.041750799864531, 0.000464575976366, 0.025084141641855, -0.036460097879171, 0.003884024452418, 0.020228493958712, 0.054935686290264, 0.023553417995572, -0.055802516639233, 0.042572144418955, -0.004533185623586, -0.018895437940955, -0.049586940556765, -0.051126319915056, -0.005441709887236, -0.048356719315052, 0.017335686832666, 0.036493994295597, 0.048024300485849, 0.021607836708426, 0.055887006223202, 0.001837132498622, 0.005458729341626, 0.021052755415440, -0.024382857605815, -0.024346742779016, 0.052923984825611, -0.048251274973154, 0.044410146772861, 0.014329918660223, 0.051102377474308, -0.053648222237825, 0.013371284119785, -0.035852205008268, 0.030430592596531, -0.019150441512465, 0.006654769647866, -0.036304052919149, -0.024316594004631, -0.041662942618132, -0.049503087997437, -0.029554894194007, -0.042155407369137, 0.019044665619731, 0.028134763240814, 0.024096459150314, 0.003679407062009, -0.020566964522004, -0.006093354430050, 0.018689362332225, -0.017751358449459, -0.025639161467552, -0.019931705668569, 0.008281438611448, -0.029847851023078, 0.030945044010878, -0.043962392956018, 0.026308681815863, 0.032171495258808, 0.040778864175081, -0.025783581659198, 0.034724965691566, 0.047606524080038, -0.022586697712541, 0.046176914125681, 0.040777124464512, -0.035846956074238, 0.048146422952414, -0.044393237680197, -0.058735582977533, -0.058846388012171, -0.024028144776821, -0.056446719914675, -0.025525603443384, -0.030705714598298, -0.022257177159190, -0.028593907132745, 0.015097563154995, -0.034583464264870, -0.049342542886734, -0.043766841292381, -0.018522189930081, -0.028149310499430, 0.000871286145411, 0.012195105664432, -0.017404956743121, -0.016403559595346, 0.036137200891972, -0.042902182787657, -0.006723864935338, -0.034969843924046, 0.013689645566046, 0.019416404888034, -0.024096598848701, -0.002184111392125, 0.008257512003183, 0.023971358314157, 0.012768267653883, 0.027830826118588, -0.020174264907837, 0.043639019131660, 0.012599388137460, -0.006289352197200, 0.004077017307281, -0.000486186763737, 0.047578889876604, 0.039462670683861, -0.044228304177523, -0.049817427992821, -0.032063752412796, -0.024096008390188, -0.044715825468302, -0.021941654384136, -0.053855452686548, 0.051917906850576, -0.025253163650632, -0.054516192525625, 0.037098173052073, 0.040646288543940, -0.032409545034170, -0.057597797363997, 0.017273578792810, 0.005354019347578, -0.047326475381851, -0.030604921281338, -0.016350913792849, 0.015654126182199, -0.009278431534767, -0.001677996828221, 0.049359813332558, -0.055761698633432, 0.051679078489542, -0.035764109343290, 0.017063794657588, -0.025854241102934, 0.014886451885104, -0.005197508726269, -0.039158087223768, -0.039921950548887, 0.041849717497826, -0.031712662428617, -0.038620717823505, -0.033867843449116, 0.055577360093594, 0.042072601616383, 0.003671036800370, 0.024690419435501, 0.041489481925964, 0.028759837150574, -0.050447586923838, 0.049113888293505, -0.043559037148952, 0.015521892346442, -0.022328678518534, 0.055569607764482, -0.054773919284344, -0.002472390420735, -0.042140886187553, 0.038586288690567, 0.037036489695311, 0.044508006423712, 0.037772741168737, -0.025411585345864, -0.039593677967787, 0.023468956351280, 0.042691852897406, 0.000558715430088, -0.018751073628664, -0.040431167930365, -0.040253948420286, 0.044154860079288, -0.049041867256165, 0.055880870670080, 0.023006536066532, -0.000124340192997, -0.030471973121166, -0.014879869297147, -0.030873052775860, -0.045784574002028, 0.012662619352341, 0.007606470491737, -0.057069309055805, -0.043547846376896, -0.017409902065992, -0.030911387875676, -0.051843568682671, 0.012577836401761, -0.032695569097996, 0.050055343657732, -0.036637250334024, 0.025402726605535, -0.056184966117144, -0.029971236363053, -0.053348664194345, -0.051910042762756, 0.058334901928902, -0.003666881471872, -0.057543117552996, -0.006335507612675, 0.007869768887758, 0.052539270371199, 0.016721596941352, 0.011076974682510, -0.029420344159007, -0.030287461355329, -0.044578496366739, -0.037484679371119, 0.013150522485375, -0.018395574763417, -0.023904589936137, -0.047648753970861, 0.034467630088329, 0.052705939859152, 0.026196725666523, -0.031500078737736, 0.045682217925787, -0.035192798823118, -0.003495108336210, 0.042413078248501, -0.018892940133810, 0.038624718785286, 0.021972503513098, -0.001041040988639, -0.009375952184200, -0.024696666747332, -0.038371864706278, -0.044462636113167, 0.008611885830760, -0.012587748467922, -0.040504161268473, 0.041753608733416, 0.036172714084387, -0.040145862847567, -0.000044822638301, 0.036738362163305, -0.033465065062046, -0.044184237718582, -0.011846559122205, 0.021720426157117, 0.040146820247173, -0.039060100913048, -0.028284395113587, 0.029613671824336, 0.026913426816463, -0.005390977952629, 0.039574202150106, -0.049987897276878, -0.031596869230270, -0.015071484260261, -0.053268164396286, -0.046806350350380, -0.047785870730877, -0.041797719895840, -0.034776300191879, 0.038299523293972, -0.020667798817158, -0.024434251710773, 0.013358118012547, -0.029712598770857, -0.058847498148680, -0.015320138074458, -0.004634060896933, 0.013477528467774, 0.040732931345701, -0.037974860519171, 0.020387349650264, 0.000722274475265, -0.012027193792164, 0.044050641357899, -0.030957063660026, 0.007258188445121, 0.038416504859924, -0.048920866101980, -0.016491167247295, 0.028106538578868, 0.006809939630330, 0.039946991950274, -0.039552032947540, 0.040068540722132, -0.045033242553473, -0.028368940576911, 0.002087179338560, -0.018953785300255, 0.019410030916333, -0.015072623267770, -0.043758127838373, 0.008136806078255, -0.035059459507465, -0.035731870681047, -0.005958454683423, 0.032481249421835, 0.003607678925619, 0.049005076289177, -0.012765281833708, -0.044769577682018, -0.040196180343628, 0.035893980413675, 0.021631183102727, -0.003748982911929, 0.024900980293751, -0.042403466999531, -0.030159274116158, 0.017619658261538, -0.051673501729965, -0.032049246132374, 0.053330872207880, 0.010348187759519, -0.047415219247341, -0.014309782534838, 0.026331372559071, 0.011455222964287, 0.030701560899615, 0.039885539561510, 0.024637307971716, -0.044027641415596, -0.011317165568471, -0.005505573935807, -0.042588081210852, 0.004940174985677, 0.048643790185452, -0.051143508404493, 0.047955743968487, 0.054336600005627, 0.044996213167906, 0.056038610637188, -0.016304632648826, 0.041996717453003, 0.033794850111008, -0.020839964970946, -0.037556339055300, 0.007031007204205, 0.032123934477568, -0.001965885050595, 0.007958267815411, 0.049678456038237, -0.014972265809774, 0.035663977265358, 0.042551416903734, -0.050770975649357, 0.026101404801011, 0.039884153753519, 0.011473899707198, -0.056789498776197, 0.052200276404619, 0.011063212528825, -0.017677035182714, 0.052147969603539, -0.038203865289688, -0.032705664634705, -0.057483337819576, 0.054947674274445, -0.015423418954015, 0.002755292924121, 0.031976915895939, -0.012236796319485, 0.015920232981443, -0.041920077055693, -0.004987861029804, 0.012275397777557, -0.041461370885372, 0.022837037220597, -0.010563238523901, -0.045754451304674, 0.027976203709841, -0.020994286984205, -0.042440231889486, 0.056397549808025, -0.046744056046009, 0.053909357637167, 0.022181505337358, 0.006835273932666, 0.056630291044712, -0.008357783779502, -0.046367075294256, 0.015988616272807, -0.017708938568830, -0.050567012280226, 0.048550941050053, 0.028406573459506, 0.003802935592830, 0.001236573094502, 0.035746980458498, -0.022037755697966, -0.009931855835021, 0.017686091363430, -0.025536796078086, -0.055849209427834, -0.016595609486103, -0.037046544253826, 0.040883164852858, -0.015156802721322, -0.050786450505257, -0.009265552274883, -0.020559241995215, -0.023773085325956, 0.032827787101269, -0.050756312906742, -0.010799732059240, -0.044546213001013, 0.039577674120665, 0.012113190256059, 0.019227195531130, 0.051485683768988, 0.020037094131112, 0.030538415536284, -0.032691031694412, 0.014967265538871, -0.052571810781956, 0.004624554887414, 0.053811561316252, -0.007752183359116, -0.008994571864605, -0.008611185476184, 0.047518465667963, 0.038160186260939, -0.000870612217113, -0.029339028522372, -0.004729391541332, 0.033620230853558, 0.055528052151203, -0.014816850423813, 0.013164432719350, 0.055260501801968, 0.047193836420774, -0.032457444816828, 0.032658543437719, 0.024044070392847, -0.011200376786292, 0.043590255081654, -0.055411510169506, -0.015209869481623, -0.039836227893829, -0.044602870941162, 0.045271296054125, -0.035360652953386, 0.026759581640363, 0.040490634739399, 0.004542266950011, -0.005879678297788, -0.009811041876674, -0.004691844806075, 0.049088761210442, -0.049630884081125, 0.041361387819052, 0.013780735433102, 0.033721722662449, 0.040198314934969, -0.002910414710641, 0.052934803068638, 0.037439186125994, 0.045690529048443, -0.053293045610189, 0.000109357111796, -0.026834046468139, 0.012175460346043, -0.046600379049778, -0.039666868746281, 0.020591169595718, 0.031605944037437, -0.042684704065323, 0.016729556024075, 0.014373095706105, -0.002994947601110, 0.033577993512154, -0.039755277335644, -0.013153103180230, 0.026028322055936, -0.022424977272749, 0.028882650658488, 0.002030717208982, -0.003329006256536, -0.032201558351517, -0.014271825551987, -0.031357638537884, -0.006496147718281, 0.045486673712730, 0.016667069867253, 0.024603722617030, 0.040172066539526, -0.040726244449615, -0.020323645323515, -0.041049364954233, 0.037041123956442, 0.015288210473955, 0.006187747232616, 0.051032964140177, 0.057536054402590, -0.052423201501369, -0.055401451885700, 0.003912106622010, 0.056073363870382, -0.055671859532595, -0.044785685837269, -0.008021804504097, -0.019383352249861, 0.041336353868246, -0.055882461369038, -0.057871401309967, 0.017547780647874, 0.049623612314463, 0.043098069727421, 0.001717018429190, 0.052044533193111, -0.006298254709691, 0.050746120512486, 0.051355890929699, -0.020427316427231, -0.037163428962231, 0.040390405803919, -0.000707559520379, -0.034222476184368, -0.005499635357410, -0.052823960781097, 0.039348538964987, 0.017572801560163, -0.009589892812073, 0.043311014771461, 0.044059578329325, 0.030603880062699, 0.051729321479797, 0.037678007036448, 0.010905317030847, -0.018157253041863, 0.026209237053990, -0.026171026751399, 0.001520797377452, -0.039565298706293, -0.001695016631857, 0.014731133356690, 0.058872424066067, -0.010123248212039, -0.029646910727024, 0.053867299109697, 0.024088177829981, -0.042452774941921, -0.044095508754253, 0.000617407844402, -0.016636935994029, -0.001920864917338, -0.046114780008793, 0.018120942637324, 0.054477717727423, -0.023591564968228, -0.022170465439558, -0.051001850515604, -0.022152775898576, 0.007885987870395, -0.003236553631723, -0.032493628561497, -0.009495433419943, -0.010742442682385, 0.054874308407307, -0.048793572932482, -0.021859902888536, -0.008883740752935, -0.017247689887881, 0.002324037952349, 0.043397039175034, -0.036965031176805, 0.019826548174024, -0.028072150424123, -0.008115928620100, 0.040426272898912, -0.010289506055415, 0.028608018532395, -0.011969566345215, -0.006318488158286, 0.016135670244694, 0.035994295030832, 0.029066246002913, -0.025222888216376, 0.016109650954604, 0.000023759201213, 0.023576004430652, 0.002671869471669, -0.001326907309704, 0.029973808676004, 0.017305117100477, -0.054168250411749, 0.045301053673029, -0.022407719865441, -0.052789781242609, 0.040889568626881, 0.001102570677176, -0.003699822584167, 0.033488444983959, -0.053640641272068, 0.008419875986874, 0.055658776313066, 0.048845458775759, -0.049042943865061, 0.029753373935819, -0.000218029119424, 0.010666674934328, 0.030094649642706, 0.029270363971591, -0.057081431150436, 0.007207452785224, -0.012287517078221, -0.009767426177859, 0.009208587929606, 0.008124198764563, 0.009962649084628, 0.053136739879847, 0.018546456471086, -0.022445812821388, -0.017545768991113, -0.029920799657702, 0.017276179045439, 0.017315117642283, 0.009224225766957, 0.056906435638666, -0.046998456120491, -0.037796344608068, 0.040220849215984, 0.057941496372223, -0.024720817804337, -0.037855755537748, -0.009287121705711, 0.020927507430315, -0.039425753057003, 0.018160009756684, -0.043600868433714, 0.039911448955536, 0.025844816118479, -0.045538965612650, 0.005166730843484, 0.045783914625645, -0.033821016550064, 0.022033641114831, 0.036924742162228, -0.039289280772209, -0.000990547589026, 0.047555893659592, 0.044896390289068, -0.000528566830326, -0.017908487468958, -0.047883827239275, 0.045596804469824, 0.051207624375820, -0.026342758908868, 0.040573332458735, -0.021924942731857, 0.050563119351864, -0.012629845179617, 0.035958446562290, 0.007579907309264, 0.056724257767200, 0.026597380638123, 0.008830138482153, 0.016488524153829, 0.054332036525011, 0.001471931114793, 0.056506287306547, -0.046485546976328, 0.042009212076664, 0.012229062616825, 0.037276435643435, 0.022389987483621, 0.029454354196787, 0.048107035458088, -0.007322893943638, 0.056197673082352, 0.022054834291339, 0.006360871717334, 0.049263093620539, -0.046542905271053, 0.033618569374084, 0.025904905050993, -0.004870189353824, 0.000723607488908, 0.024707168340683, -0.018587023019791, 0.046064808964729, -0.023496910929680, 0.005110685713589, 0.000181409195648, 0.057415042072535, -0.039158187806606, -0.019359344616532, -0.030771346762776, -0.020940829068422, 0.000317586149322, -0.010407598689198, -0.023271946236491, 0.029479471966624, 0.016789205372334, -0.030053803697228, 0.054776478558779, -0.058489739894867, 0.017869856208563, -0.054592177271843, 0.053843222558498, -0.017151163890958, 0.039965037256479, -0.035948395729065, -0.043151050806046, 0.014520967379212, 0.052588138729334, 0.009721891954541, -0.034563496708870, -0.031873524188995, -0.026962950825691, 0.050511728972197, 0.036609519273043, -0.020858682692051, 0.009982449933887, -0.001557503012009, -0.036867257207632, -0.030711457133293, -0.037980474531651, -0.054663844406605, -0.056760840117931, -0.006901469081640, -0.043659958988428, -0.058479569852352, -0.043711770325899, -0.012779687531292, -0.030400203540921, -0.003543285885826, -0.049265440553427, 0.000233138795011, -0.044605050235987, 0.001077396562323, 0.028398664668202, -0.033939752727747, 0.020573111250997, 0.051298841834068, 0.039696905761957, -0.021102072671056, 0.033480692654848, -0.039835315197706, -0.040915012359619, 0.050224900245667, -0.015607337467372, -0.009327745065093, 0.013725188560784, 0.039173360913992, 0.041128560900688, 0.028374640271068, 0.054481368511915, -0.056321006268263, -0.051871690899134, 0.021262757480145, 0.031891331076622, -0.050459563732147, 0.057837642729282, 0.012882420793176, -0.036184750497341, 0.006781522184610, 0.044837895780802, 0.009556571952999, 0.058539554476738, -0.031749408692122, 0.028801443055272, 0.013318493962288, 0.034079231321812, -0.021440245211124, -0.038295853883028, -0.033544320613146, -0.046357624232769, 0.003518796991557, 0.023636249825358, 0.002759746043012, -0.023296080529690, 0.056330893188715, -0.024401422590017, 0.046236652880907, 0.030624143779278, -0.055146258324385, -0.049033693969250, 0.026243930682540, 0.011690647341311, -0.017380274832249, -0.022917848080397, -0.040152449160814, -0.011880933307111, -0.052597593516111, -0.028032636269927, -0.003918920177966, 0.036705814301968, -0.049403358250856, 0.035023145377636, 0.040489122271538, -0.023043118417263, -0.052418302744627, 0.047017678618431, -0.030279597267509, -0.006553510669619, -0.010752496309578, -0.032724548131227, -0.011291045695543, -0.000433980545495, -0.000062136583438, -0.026225764304399, 0.055036194622517, -0.017983485013247, -0.034018345177174, 0.003049428807572, 0.046885319054127, 0.028454300016165, 0.038152180612087, -0.037488587200642, 0.053704809397459, 0.029628654941916, -0.012692824006081, 0.009614270180464, -0.046078242361546, 0.048339385539293, 0.055147100239992, 0.000947337190155, 0.037888411432505, 0.008660573512316, -0.048790708184242, 0.031226459890604, 0.015499060042202, -0.044143196195364, 0.041401676833630, -0.036882955580950, 0.014733716845512, 0.025328086689115, -0.047147184610367, 0.047733955085278, -0.009081056341529, 0.057724848389626, 0.028353998437524, 0.046288490295410, 0.025490486994386, 0.021202616393566, -0.001528940512799, -0.017728470265865, -0.013561640866101, -0.029370917007327, 0.041088752448559, -0.012347069568932, -0.037308804690838, -0.020316962152719, -0.005773675628006, 0.024439556524158, -0.023532452061772, 0.031342517584562, -0.022262133657932, -0.010831678286195, -0.031501568853855, 0.031794261187315, 0.040730096399784, -0.001221128390171, -0.013251736760139, 0.057816918939352, -0.014166173525155, 0.043100200593472, -0.052842438220978, -0.009160239249468, -0.050571084022522, -0.038693241775036, -0.041500952094793, -0.057192180305719, 0.056681588292122, 0.031276911497116, 0.014362059533596, 0.012685957364738, 0.044443301856518, 0.050358071923256, -0.021203976124525, -0.028622061014175, -0.010116791352630, -0.000288070528768, 0.053634189069271, 0.046738915145397, 0.010704862885177, -0.037423122674227, -0.039220429956913, -0.006691232789308, -0.013338261283934, 0.024572849273682, -0.040373545140028, -0.052931677550077, 0.038993317633867, 0.002131242537871, -0.038644518703222, -0.047443836927414, -0.052350874990225, 0.043771125376225, 0.031662393361330, -0.018682871013880, 0.017150713130832, 0.056192409247160, -0.012875580228865, -0.006364759057760, -0.004197764210403, -0.008095412515104, 0.021372510120273, -0.038362260907888, -0.019446263089776, -0.027691446244717, 0.056498929858208, -0.042857643216848, -0.053709823638201, 0.029080037027597, 0.046001087874174, 0.007788680028170, 0.002254953375086, 0.035756681114435, -0.029925642535090, 0.032078508287668, 0.038224846124649, 0.007164417300373, -0.013040081597865, -0.032744910567999, 0.054265066981316, -0.027963396161795, 0.053994126617908, -0.029871076345444, -0.040223404765129, 0.058552965521812, 0.048819661140442, 0.025864953175187, 0.005331663880497, -0.025807440280914, 0.006876842118800, -0.041571639478207, -0.051955860108137, -0.053417414426804, 0.007308432366699, -0.007223069202155, 0.010977178812027, -0.005391316954046, -0.043115988373756, 0.003741625463590, -0.025774849578738, -0.051736526191235, 0.044491309672594, -0.043210767209530, -0.002906695008278, -0.000470939325169, -0.033817432820797, 0.043929491192102, 0.046682592481375, 0.057463165372610, -0.049677468836308, 0.036222014576197, 0.004158388823271, -0.030805623158813, -0.003178308019415, -0.012677393853664, -0.048362221568823, -0.041049800813198, 0.011063570156693, -0.001862958190031, 0.040076516568661, 0.040686890482903, 0.047109767794609, 0.040382038801908, 0.047672748565674, 0.029229346662760, -0.031769331544638, 0.011053598485887, 0.050174083560705, -0.055490508675575, -0.044333521276712, 0.013055165298283, 0.007828729227185, 0.027029439806938, 0.005283713340759, 0.034946367144585, -0.026498569175601, -0.055174957960844, 0.036233346909285, 0.030110169202089, -0.022357139736414, 0.005309382919222, -0.018127499148250, -0.009120107628405, -0.055709183216095, 0.030059365555644, 0.010381691157818, -0.011600179597735, 0.012815339490771, 0.034845355898142, 0.058232810348272, -0.015776753425598, 0.058168120682240, 0.048408687114716, 0.036869093775749, 0.034045759588480, 0.030457438901067, -0.002919712103903, 0.014478550292552, 0.052514996379614, 0.009368591010571, -0.002718937350437, -0.009940871037543, 0.000946424959693, 0.041411221027374, -0.037398494780064, -0.031154297292233, -0.028115231543779, 0.033394843339920, -0.040907751768827, 0.037516277283430, -0.057374134659767, -0.005141873378307, 0.042951539158821, 0.034213356673717, -0.017677962779999, -0.008082745596766, 0.051887419074774, -0.045271702110767, 0.003599844872952, -0.006130216643214, -0.020195119082928, -0.051702264696360, 0.020663583651185, 0.038766521960497, 0.007385365664959, -0.012711303308606, 0.045076567679644, -0.058127429336309, -0.044181853532791, -0.034370616078377, -0.014796460978687, -0.057017300277948, -0.002786383498460, 0.034637298434973, 0.040954343974590, 0.045727487653494, 0.058011543005705, 0.035942301154137, -0.022969946265221, -0.048904996365309, 0.031615268439054, 0.020587550476193, -0.040531542152166, -0.007558758370578, 0.055650122463703, 0.010974960401654, 0.030857028439641, 0.043090190738440, -0.045224059373140, 0.029693545773625, -0.022346286103129, -0.001164919463918, 0.022492136806250, -0.041668236255646, -0.033861875534058, 0.045212469995022, -0.046012260019779, 0.043151471763849, 0.002160114003345, -0.029198495671153, -0.034335594624281, 0.025006769225001, -0.001175560988486, 0.022655490785837, 0.050713345408440, -0.026501856744289, 0.043554838746786, -0.038334541022778, 0.002477264497429, -0.041530456393957, -0.006588965188712, 0.002380667487159, 0.013158245012164, -0.037701133638620, -0.055347841233015, -0.017581872642040, -0.029843622818589, 0.048217866569757, -0.054054412990808, 0.021040305495262, -0.056487403810024, -0.045726075768471, 0.000152452077600, 0.043346684426069, 0.030378337949514, 0.045766539871693, -0.003734956961125, -0.014196589589119, -0.047495719045401, -0.027657717466354, 0.012979921884835, 0.031674217432737, -0.051187992095947, 0.001271975459531, -0.032892551273108, 0.007854183204472, 0.055069267749786, 0.047357369214296, 0.030822386965156, 0.030460797250271, 0.042204536497593, -0.045683596283197, 0.017388232052326, 0.041921176016331, 0.028290335088968, 0.018625430762768, -0.046845521777868, -0.032559502869844, 0.054972726851702, 0.015130977146327, -0.024400170892477, 0.025530716404319, -0.011236199177802, -0.016428874805570, -0.038484327495098, -0.006676194258034, -0.041628047823906, -0.030099958181381, 0.025755215436220, 0.054996006190777, 0.045427680015564, -0.014985238201916, -0.033263202756643, 0.045122381299734, 0.020588675513864, 0.055769972503185, -0.047975156456232, 0.005051475949585, -0.026551702991128, -0.048379503190517, 0.045053914189339, 0.038336519151926, -0.005904323421419, 0.015184102579951, -0.045486856251955, -0.007269619498402, 0.054743215441704, -0.010640875436366, 0.003625089535490, -0.053627185523510, 0.039444312453270, 0.027424748986959, -0.048872686922550, 0.009755589067936, -0.040648188441992, 0.004646307323128, -0.008525531738997, 0.037803951650858, 0.013468666933477, 0.009794118814170, 0.054811187088490, -0.014019700698555, 0.044123310595751, 0.034901641309261, 0.030831940472126, 0.058045923709869, 0.001447892631404, -0.017225349321961, -0.055526677519083, 0.005493737291545, -0.000596586440224, -0.033541735261679, -0.053584694862366, 0.014747829176486, 0.044444285333157, -0.031453322619200, -0.042389355599880, -0.000045228494855, 0.045914262533188, -0.035353183746338, 0.019060140475631, -0.008746718056500, -0.043822325766087, 0.038658492267132, 0.032822426408529, 0.038109056651592, -0.017348621040583, 0.022820059210062, -0.005805455148220, -0.025683578103781, -0.057243559509516, 0.052089318633080, -0.037591889500618, 0.017399722710252, -0.034494046121836, 0.035954009741545, 0.018376296386123, 0.053139973431826, 0.042404521256685, -0.017653642222285, 0.025345399975777, -0.020772973075509, 0.026251064613461, -0.001757950056344, -0.039913933724165, -0.008414797484875, 0.001626687939279, -0.033385869115591, -0.020876195281744, 0.013957158662379, -0.044463157653809, 0.011054961942136, 0.025392740964890, 0.039186898618937, 0.045870505273342, -0.002652254421264, -0.058119017630816, -0.029929729178548, -0.018114076927304, -0.042013246566057, -0.037542786449194, -0.002997922711074, -0.008077816106379, -0.053652983158827, -0.034062828868628, 0.015457104891539, 0.015056448988616, 0.054385676980019, 0.025310102850199, 0.026139473542571, -0.026679202914238, 0.026794008910656, 0.007571566849947, 0.002223188756034, 0.013133305124938, 0.011463451199234, -0.055606901645660, 0.032520476728678, 0.023952778428793, 0.014580393210053, -0.053787574172020, -0.026586273685098, -0.050013128668070, 0.035745237022638, 0.058346442878246, -0.047993786633015, -0.053781144320965, -0.010504292324185, -0.009293906390667, -0.054870307445526, 0.019252233207226, -0.011397722177207, -0.034936927258968, -0.050908301025629, 0.039365585893393, -0.035855296999216, -0.021195888519287, 0.019995242357254, -0.050938956439495, -0.051612619310617, -0.046505697071552, 0.042911861091852, -0.025852121412754, -0.044938277453184, 0.016416409984231, -0.025770619511604, 0.035278689116240, -0.051362812519073, -0.037297710776329, -0.011051785200834, 0.013403052464128, -0.053154747933149, 0.025847557932138, 0.047407902777195, 0.012025287374854, -0.019260136410594, -0.009856479242444, 0.043382801115513, 0.025076739490032, -0.014422777108848, -0.046932443976402, 0.024366823956370, 0.047932494431734, 0.002669523702934, 0.029835855588317, 0.056489620357752, 0.012752316892147, -0.044524211436510, 0.024284759536386, -0.044505096971989, 0.039904471486807, 0.019544595852494, -0.011612143367529, 0.008329448290169, -0.018090961501002, 0.056393332779408, 0.012624736875296, -0.017724508419633, 0.025843923911452, -0.014632168225944, -0.018973246216774, -0.033413842320442, -0.016361067071557, 0.052423272281885, 0.029778597876430, 0.053476668894291, 0.053221739828587, -0.056908924132586, -0.009634350426495, -0.044321935623884, 0.043337665498257, -0.013345365412533, -0.025156794115901, -0.004244482144713, -0.035058036446571, 0.015527246519923, -0.037599530071020, 0.005229999311268, -0.053254961967468, 0.047252673655748, 0.042068175971508, 0.018929291516542, -0.008621283806860, 0.040305506438017, -0.057077836245298, -0.018045959994197, 0.040043935179710, 0.016853755339980, -0.013309628702700, 0.054374974220991, 0.030599040910602, -0.052125260233879, 0.053835283964872, 0.026855779811740, 0.033383890986443, -0.054458372294903, -0.018273383378983, 0.035269316285849, 0.007549040485173, 0.028305586427450, -0.055229257792234, -0.024569546803832, 0.012399938888848, 0.002969363937154, -0.051141019910574, 0.030919374898076, -0.023440070450306, -0.016293317079544, 0.018527481704950, 0.050477609038353, 0.048178806900978, -0.049027457833290, 0.034756306558847, -0.048949413001537, 0.031090801581740, 0.028929201886058, 0.056696962565184, 0.057501535862684, 0.027266720309854, 0.057718425989151, 0.024561246857047, 0.029125530272722, -0.009123421274126, 0.051825631409883, -0.034981675446033, -0.037704776972532, -0.013096923939884, -0.031947623938322, -0.011631802655756, 0.052951909601688, -0.055222179740667, 0.041384235024452, 0.008108329027891, 0.056275047361851, -0.045050460845232, -0.025640366598964, -0.024594385176897, 0.008723886683583, 0.037845153361559, -0.047894287854433, -0.046867173165083, 0.057294953614473, 0.028619002550840, 0.002763998229057, 0.054079663008451, 0.013689354993403, 0.033509578555822, 0.026188034564257, -0.010728524997830, -0.027066158130765, 0.013328546658158, -0.009911891072989, -0.029007161036134, 0.047474842518568, -0.028227945789695, -0.053923178464174, 0.033975265920162, 0.020405817776918, 0.017428087070584, -0.054020866751671, -0.008034273982048, -0.046994633972645, 0.008341862820089, -0.044723536819220, -0.023387804627419, 0.056994192302227, 0.007131211925298, -0.043096818029881, -0.010428226552904, 0.037886429578066, 0.027269877493382, -0.032646853476763, -0.018052108585835, 0.016302106902003, 0.053545683622360, -0.050043348222971, 0.035312760621309, -0.006221362389624, 0.026467045769095, 0.019198011606932, -0.038312114775181, 0.024299943819642, -0.051465190947056, 0.012879612855613, 0.002891752868891, -0.054095443338156, -0.025365991517901, -0.045479975640774, -0.038457691669464, -0.043123457580805, -0.034328673034906, 0.031491670757532, 0.027926139533520, 0.036476429551840, 0.010528498329222, -0.008161619305611, -0.039264161139727, -0.026774900034070, -0.043492097407579, 0.016894392669201, -0.009397491812706, -0.051041714847088, -0.028436847031116, 0.036762252449989, -0.017013132572174, -0.028806418180466, 0.045303367078304, -0.035769555717707, -0.004318105522543, -0.024434758350253, -0.002902621403337, 0.045279692858458, 0.033328745514154, 0.003366664983332, -0.027505671605468, 0.023727579042315, 0.001043513300829, 0.023160045966506, 0.048794783651829, -0.022227110341191, 0.022359516471624, -0.023817755281925, -0.031957045197487, 0.054831519722939, 0.035675123333931, 0.043274655938148, 0.045098073780537, 0.025711309164762, -0.002174955559894, -0.054421104490757, -0.000933463685215, -0.003973937593400, 0.016002312302589, 0.018091341480613, -0.057671446353197, 0.054326616227627, -0.057945165783167, 0.031410433351994, -0.055280584841967, 0.010296752676368, -0.012832500971854, -0.041593600064516, -0.018046254292130, 0.013040264137089, 0.041613105684519, 0.057328622788191, 0.035383570939302, 0.032352536916733, -0.051561016589403, 0.002025929046795, 0.033840589225292, 0.038616240024567, -0.038952339440584, -0.002455526962876, -0.003250285517424, -0.022523242980242, -0.042902547866106, -0.013538823463023, -0.016622891649604, -0.049019932746887, 0.054919198155403, 0.012951646931469, -0.003482735482976, -0.048585079610348, 0.021358098834753, -0.019181810319424, 0.017058499157429, -0.045239392668009, 0.036004409193993, 0.056533601135015, 0.002923796651885, -0.033309694379568, -0.014271978288889, -0.027547109872103, -0.009732488542795, -0.028306946158409, -0.012036826461554, 0.014277246780694, 0.026171101257205, -0.019662914797664, 0.051244098693132, -0.013274553231895, 0.046955306082964, -0.003926389385015, 0.011395670473576, 0.043501086533070, -0.039262585341930, 0.019691128283739, -0.016939833760262, 0.009595004841685, 0.016942104324698, 0.035580258816481, 0.000721641525161, 0.042815573513508, -0.029317177832127, 0.013290180824697, 0.003884009551257, 0.038322884589434, 0.000569457537495, 0.026478543877602, 0.056532450020313, -0.022296857088804, 0.031527418643236, 0.029819965362549, 0.055411651730537, 0.002336533740163, 0.005283921957016, -0.002249896991998, 0.039046339690685, 0.018815571442246, 0.017629234120250, 0.023683313280344, -0.021814674139023, 0.030794378370047, -0.041646599769592, -0.002145845675841, -0.015967724844813, 0.043887719511986, 0.007058485876769, -0.044866833835840, -0.026932816952467, -0.054817087948322, 0.015112501569092, 0.034961096942425, 0.038871575146914, 0.038631208240986, -0.029704118147492, -0.025881718844175, -0.015013491734862, 0.033558808267117, 0.034517776221037, 0.013555058278143, 0.039904173463583, 0.042728289961815, -0.037075724452734, -0.032891031354666, 0.008600767701864, 0.050870779901743, 0.056592602282763, -0.043338075280190, -0.046691231429577, -0.026011930778623, 0.031651832163334, 0.034829325973988, 0.016053032130003, -0.028080504387617, -0.027516145259142, 0.058819402009249, -0.024839431047440, -0.055280119180679, -0.010275394655764, -0.038322634994984, 0.003326239762828, -0.039363183081150, 0.043667636811733, -0.046669676899910, -0.019979968667030, 0.050257027149200, 0.019432416185737, 0.015858981758356, 0.057549830526114, -0.055981036275625, -0.050712823867798, 0.004514140076935, 0.028161430731416, -0.043754965066910, -0.048839237540960, -0.041363373398781, -0.012776247225702, 0.035312663763762, -0.005376024637371, 0.045761909335852, -0.008696448057890, 0.057267729192972, 0.011590196751058, -0.051137156784534, -0.016494857147336, 0.041754186153412, -0.023594640195370, -0.000431634805864, 0.002100643236190, 0.037230689078569, -0.030677657574415, -0.034164562821388, 0.020019311457872, 0.041113272309303, 0.049046315252781, 0.025239275768399, -0.016493637114763, -0.022927368059754, -0.017940616235137, 0.016895942389965, -0.015042657032609, 0.019122470170259, -0.051137678325176, 0.000544112117495, 0.054338730871677, 0.020443730056286, -0.004985503852367, 0.051225893199444, 0.003675192128867, -0.037519913166761, -0.011089205741882, -0.017953395843506, -0.010139817371964, -0.057619418948889, 0.029630284756422, -0.006519162096083, 0.035731334239244, -0.003664956428111, -0.045886725187302, 0.032455861568451, 0.054874084889889, 0.001575323287398, -0.023586552590132, 0.032110624015331, 0.024387339130044, -0.052078641951084, -0.038323111832142, 0.031914193183184, 0.041100211441517, 0.016043597832322, 0.019909827038646, -0.007987809367478, -0.020998751744628, 0.035831090062857, 0.026026245206594, 0.010552916675806, 0.050700359046459, -0.038939803838730, 0.044851582497358, -0.003374554915354, 0.051913116127253, -0.012516262009740, -0.036373976618052, 0.010670085437596, -0.025311127305031, 0.017567537724972, -0.053873833268881, 0.031149959191680, 0.021667471155524, -0.043737158179283, -0.033928673714399, 0.028683567419648, -0.004783173091710, -0.006800955161452, -0.047120179980993, 0.037368539720774, 0.048636611551046, -0.006484493147582, 0.035267319530249, -0.011633586138487, -0.000116029499623, -0.012468688189983, 0.003619854571298, 0.011668493039906, 0.007466290611774, -0.037200696766376, -0.011452105827630, 0.029610022902489, 0.019878052175045, 0.016192691400647, 0.050120018422604, 0.042435053735971, -0.000023591646823, 0.043751381337643, 0.002991689601913, 0.052109029144049, -0.051765859127045, 0.037484202533960, -0.041473601013422, 0.036370072513819, -0.039396744221449, -0.046090517193079, -0.049534160643816, -0.030049394816160, 0.010640201158822, 0.015663241967559, 0.012599574401975, -0.031974684447050, -0.048567440360785, 0.031519666314125, 0.008187161758542, -0.037192806601524, -0.048397198319435, -0.024707619100809, -0.013683609664440, -0.021077219396830, -0.012686884962022, 0.017973205074668, 0.038637381047010, -0.027381766587496, 0.037401158362627, -0.040129031985998, -0.042280759662390, 0.032376553863287, -0.043218661099672, 0.040946807712317, -0.050857245922089, -0.020794205367565, 0.050914313644171, 0.008918524719775, -0.035926137119532, 0.008786313235760, -0.027105420827866, 0.005776107311249, -0.024575652554631, -0.007515000645071, -0.007821677252650, 0.053853038698435, -0.012852171435952, -0.025800023227930, 0.021235091611743, -0.024156218394637, -0.055574744939804, 0.042708724737167, 0.047778733074665, -0.020721087232232, -0.053293071687222, -0.015380085445940, 0.053168799728155, -0.018490090966225, 0.030931675806642, -0.056128982454538, -0.056965738534927, -0.020972590893507, 0.051493220031261, 0.056215099990368, 0.003613435197622, -0.017681600525975, -0.007274604868144, -0.056455064564943, -0.017832603305578, 0.053486362099648, -0.002499042777345, -0.025116071105003, -0.014274536632001, -0.017112903296947, 0.010270271450281, 0.039052311331034, 0.004581489600241, 0.023894999176264, 0.039752665907145, 0.035097174346447, -0.006348748225719, 0.038748778402805, 0.019407410174608, 0.001653999323025, -0.035407062619925, -0.047837655991316, -0.042014259845018, -0.032954052090645, -0.044808391481638, -0.032745331525803, 0.015703134238720, -0.010223102755845, -0.037125617265701, -0.057959824800491, 0.021489208564162, 0.018392074853182, -0.050217524170876, -0.021721532568336, -0.019368130713701, -0.000788551522419, 0.050049986690283, -0.054607525467873, -0.029457682743669, -0.046231105923653, -0.023169845342636, 0.026350541040301, 0.016345046460629, 0.013585173524916, -0.043081343173981, 0.040079604834318, -0.029751522466540, 0.032355219125748, -0.045348007231951, -0.056617204099894, 0.032392036169767, 0.039428029209375, -0.053585045039654, 0.034107752144337, -0.024933820590377, -0.057146038860083, 0.052606150507927, 0.018745146691799, -0.048167221248150, -0.045156601816416, 0.050944443792105, 0.048164173960686, -0.032608423382044, -0.049594119191170, 0.002555292565376, -0.007947004400194, 0.034295883029699, 0.044055648148060, 0.057760488241911, 0.038031600415707, 0.047747194766998, 0.053592011332512, 0.038745433092117, -0.025905381888151, 0.040156003087759, -0.020739046856761, -0.052474524825811, -0.038799047470093, -0.055524602532387, -0.041077263653278, -0.016017280519009, 0.052306178957224, 0.033615145832300, 0.034744229167700, 0.036535460501909, 0.053760681301355, -0.037748429924250, 0.026380855590105, 0.055542744696140, -0.019346311688423, -0.038017939776182, 0.014426578767598, -0.037036813795567, 0.022297661751509, 0.032167125493288, 0.054114751517773, -0.021304992958903, 0.000265070906607, 0.028818055987358, -0.005604431033134, 0.056034199893475, 0.019992286339402, -0.023161197081208, 0.035257093608379, 0.000358111952664, 0.054527770727873, -0.034661017358303, -0.005199727602303, -0.050294518470764, 0.008837093599141, 0.044793833047152, 0.003186465939507, -0.047795742750168, -0.029393635690212, -0.002100252313539, -0.009200384840369, 0.039008002728224, 0.000876919657458, -0.018747633323073, -0.011543058790267, -0.053491961210966, -0.038108889013529, -0.047010190784931, 0.013039199635386, 0.010065520182252, 0.024274148046970, -0.043873112648726, -0.056910343468189, -0.025755204260349, 0.045013446360826, -0.013244642876089, 0.028435891494155, 0.023375744000077, -0.043500985950232, -0.036969706416130, 0.016532000154257, 0.049003556370735, 0.012065343558788, -0.024834515526891, 0.009638383053243, 0.009357137605548, -0.008668559603393, 0.032546401023865, -0.038215238600969, 0.040419206023216, 0.023547543212771, -0.022057948634028, -0.019750762730837, 0.058461066335440, -0.015143000520766, 0.034741517156363, 0.033843763172626, -0.004140080884099, -0.028279479593039, -0.023524558171630, -0.021006362512708, -0.003356343600899, 0.007531056180596, -0.054039414972067, -0.054888781160116, -0.024643475189805, -0.015113064087927, 0.045580331236124, -0.053869843482971, 0.021321266889572, -0.053588796406984, 0.006617445964366, -0.050699736922979, 0.027408277615905, -0.005153669044375, -0.058050956577063, 0.024107465520501, -0.054823588579893, 0.030760740861297, 0.021890036761761, 0.040181811898947, 0.048240475356579, -0.013279847800732, 0.055432263761759, -0.022924885153770, 0.032236974686384, -0.009555394761264, -0.041831739246845, -0.011775169521570, 0.045309234410524, 0.018284982070327, 0.049173463135958, -0.035799659788609, -0.003072990803048, 0.058336999267340, 0.028787584975362, 0.057031426578760, -0.015319759026170, 0.047215476632118, 0.026300407946110, -0.040729504078627, -0.035838782787323, 0.022267494350672, 0.033767543733120, -0.033390179276466, 0.012724740430713, -0.009370814077556, 0.011544838547707, -0.046360682696104, -0.038809750229120, 0.024219524115324, 0.048559773713350, 0.012092279270291, -0.016505671665072, 0.027877682819963, -0.011906982399523, 0.003523428924382, -0.014484701678157, 0.037720866501331, -0.031124556437135, -0.056820545345545, 0.002554466016591, 0.046371173113585, -0.025456616654992, 0.017333190888166, -0.040749274194241, 0.030699720606208, 0.007589074783027, -0.020877065137029, -0.008696407079697, 0.057571239769459, 0.025312604382634, -0.017442660406232, 0.012032965198159, -0.023147996515036, 0.043419700115919, 0.010832464322448, 0.049704194068909, 0.018932582810521, -0.015103755518794, 0.030833736062050, -0.048285186290741, -0.027706064283848, 0.032494653016329, -0.017086965963244, -0.006370642222464, -0.018089855089784, -0.051861863583326, -0.037480749189854, -0.050857808440924, 0.041370853781700, 0.052359495311975, 0.046264622360468, 0.057618439197540, 0.049924977123737, 0.031804107129574, 0.047880019992590, -0.004664771724492, -0.039011586457491, -0.037704888731241, 0.055920153856277, 0.055417660623789, -0.053796380758286, -0.042519401758909, -0.051560524851084, -0.054646939039230, 0.041600693017244, 0.007732508704066, -0.013757988810539, 0.040125127881765, -0.011716291308403, -0.026588240638375, 0.018722292035818, 0.049175653606653, 0.004151746165007, 0.043589800596237, 0.056434858590364, 0.003344521857798, -0.002282696543261, -0.038281027227640, -0.055417012423277, -0.057394623756409, -0.028881385922432, 0.015775740146637, -0.045549381524324, -0.027697272598743, 0.050294447690248, -0.000961884623393, -0.036137372255325, -0.015311686322093, -0.022253960371017, -0.051167838275433, -0.052915148437023, -0.036139044910669, 0.016937138512731, 0.005679387599230, -0.001668166951276, -0.028342260047793, 0.001195149961859, -0.028496708720922, -0.021286331117153, 0.020655890926719, -0.041262719780207, 0.042199384421110, 0.022843807935715, 0.054600376635790, -0.020996281877160, 0.023994510993361, 0.046890821307898, -0.051578525453806, 0.039475545287132, -0.028369178995490, 0.036981362849474, -0.005431083030999, -0.009678287431598, -0.001799641293474, 0.012307440862060, -0.003890894120559, -0.045725863426924, -0.029667608439922, 0.014332413673401, 0.004868901334703, 0.044066034257412, -0.050261348485947, -0.052151098847389, 0.036864951252937, 0.010513813234866, -0.041008811444044, 0.018138747662306, -0.023035645484924, 0.046100784093142, 0.044053763151169, -0.037225592881441, 0.027218949049711, -0.033300690352917, 0.052419591695070, 0.041859388351440, 0.019151773303747, -0.039153449237347, 0.028272515162826, -0.027134612202644, 0.021684816107154, 0.039551764726639, -0.006777013186365, 0.003346781944856, 0.049133412539959, 0.048090294003487, 0.043951481580734, -0.001228415174410, -0.053296428173780, 0.009599637240171, -0.030128760263324, -0.011289347894490, 0.023097462952137, -0.037969969213009, 0.016286490485072, 0.054811298847198, 0.006094363518059, -0.000652683607768, 0.034926440566778, 0.027307357639074, -0.026721553876996, 0.029807692393661, 0.004888091702014, 0.023261047899723, -0.031926013529301, 0.008473746478558, 0.043703626841307, 0.042183768004179, 0.029264928773046, -0.020256426185369, 0.047227829694748, 0.053387448191643, 0.023081324994564, 0.052492938935757, 0.001346861128695, -0.023506782948971, 0.009611492045224, 0.036166384816170, -0.051641967147589, 0.042677838355303, -0.026156818494201, -0.015777807682753, -0.056448686867952, -0.052060432732105, -0.043171565979719, -0.047603003680706, 0.054257597774267, -0.026961335912347, 0.013521800749004, 0.016045503318310, 0.028630530461669, -0.011811160482466, -0.012649687938392, -0.032390534877777, -0.050426594913006, 0.033783227205276, -0.023274429142475, 0.030978070572019, 0.053936176002026, 0.040456544607878, 0.047793902456760, 0.022126682102680, 0.005271589849144, -0.009714839980006, 0.005530740600079, -0.043907433748245, 0.017588447779417, 0.044124126434326, 0.025176759809256, 0.036301381886005, -0.024874465540051, 0.032159447669983, -0.008585236966610, 0.027898786589503, 0.015594923868775, -0.049541588872671, -0.003757733153179, 0.017682978883386, 0.013071339577436, -0.035200931131840, 0.001118272310123, -0.005550228990614, -0.007715927902609, -0.053034715354443, 0.005349342711270, 0.022843681275845, -0.027423920109868, -0.058468494564295, 0.012372988276184, 0.034758452326059, -0.044082351028919, 0.033025190234184, 0.026272118091583, -0.011447150260210, 0.009508070535958, -0.004558009561151, 0.048498820513487, -0.016273418441415, -0.045607514679432, 0.006157810799778, -0.009122733026743, 0.025807693600655, 0.025164814665914, -0.017357818782330, 0.023319557309151, -0.033493783324957, 0.031089989468455, -0.046109218150377, 0.047479219734669, -0.057757858186960, 0.031081141903996, -0.047048471868038, 0.040920108556747, -0.024797795340419, 0.051630523055792, -0.021582432091236, 0.050562139600515, 0.020873874425888, -0.026517260819674, 0.043785281479359, 0.036923635751009, 0.036409378051758, -0.001293288427405, 0.052369393408298, 0.047141067683697, -0.033770900219679, -0.020639924332500, -0.014845818281174, 0.017553789541125, 0.014816809445620, -0.055050026625395, -0.043093506246805, -0.037670690566301, 0.037990454584360, -0.052589111030102, -0.033502716571093, 0.057697016745806, 0.037228882312775, 0.027137828990817, 0.025089519098401, 0.003496847348288, 0.008846573531628, 0.010755106806755, 0.019922748208046, -0.018998242914677, 0.019284559413791, 0.010326450690627, 0.031523164361715, 0.049916688352823, -0.026919309049845, 0.024932054802775, -0.022315282374620, -0.000854087644257, 0.055412255227566, -0.034574124962091, -0.014167860150337, 0.004919703584164, 0.028030082583427, -0.013193025253713, 0.025692632421851, -0.024679550901055, 0.055225323885679, 0.005898310337216, 0.056457407772541, 0.000175972978468, 0.030673345550895, 0.019770942628384, 0.014917476102710, -0.012132186442614, 0.053559001535177, 0.011411129496992, -0.036260757595301, 0.055350750684738, -0.022094907239079, -0.019646361470222, -0.028749771416187, -0.053286205977201, -0.047647628933191, 0.031635805964470, -0.018945921212435, -0.003247801912948, 0.017273847013712, 0.039945695549250, 0.022922581061721, 0.058548223227262, -0.013348724693060, -0.021329466253519, -0.029249988496304, -0.004991275258362, -0.008461935445666, -0.026150342077017, -0.058756817132235, -0.048458732664585, -0.058827560395002, -0.047538559883833, -0.023993866518140, 0.038178354501724, 0.029181635007262, 0.037417434155941, 0.015952812507749, 0.022074151784182, -0.038015451282263, -0.039078749716282, -0.038005411624908, -0.011007905006409, 0.012634254060686, 0.014800716191530, -0.009221924468875, -0.015248246490955, 0.054204531013966, -0.039831604808569, -0.002938191406429, 0.018490850925446, -0.053468316793442, -0.041516508907080, -0.015707725659013, 0.033657457679510, -0.048935681581497, -0.021764261648059, 0.031066941097379, 0.049074299633503, 0.017996320500970, -0.007039444521070, -0.033534824848175, 0.017649609595537, -0.017532559111714, -0.003825332038105, -0.042554475367069, 0.005027012899518, 0.018555006012321, 0.045704238116741, -0.033564075827599, 0.024211430922151, -0.013255779631436, 0.023386623710394, -0.030402477830648, -0.023989796638489, -0.035791017115116, -0.013359507545829, 0.008583200164139, -0.039490539580584, -0.016863571479917, 0.001014500390738, -0.033364269882441, 0.027593264356256, -0.003920324146748, 0.022689329460263, 0.045462127774954, -0.058209266513586, 0.047519084066153, 0.054163921624422, -0.047800626605749, 0.025035440921783, -0.050133410841227, 0.046288087964058, -0.053439743816853, 0.000467763224151, 0.037205245345831, 0.013568522408605, -0.010200326330960, -0.052767090499401, -0.037220045924187, -0.005999106913805, -0.015776135027409, -0.035359069705009, -0.037141691893339, 0.027817020192742, 0.052849866449833, -0.007467247545719, 0.045463729649782, -0.058633178472519, 0.051629211753607, 0.049675941467285, 0.054775226861238, -0.045881334692240, -0.008937689475715, -0.046502884477377, -0.005775068420917, -0.038976803421974, -0.043976444751024, -0.036656375974417, 0.028544772416353, 0.028117828071117, -0.046711619943380, -0.041325908154249, -0.012742252089083, -0.046722922474146, -0.052619103342295, 0.002773280721158, -0.018476486206055, -0.035081714391708, 0.033163737505674, 0.038404002785683, -0.028484575450420, 0.007236689329147, -0.019920192658901, -0.047752436250448, -0.021228266879916, -0.005094481166452, -0.042693786323071, 0.037283964455128, -0.053097341209650, -0.035315606743097, 0.003309711348265, -0.032894626259804, -0.045076690614223, 0.014565411023796, -0.031300909817219, -0.016036069020629, 0.050904598087072, 0.027015984058380, 0.020003009587526, 0.020053602755070, 0.037514943629503, 0.021440275013447, -0.014302380383015, 0.006324188318104, -0.052248660475016, 0.008619556203485, -0.002312033437192, -0.027830895036459, 0.036237452179193, -0.008418040350080, -0.045654132962227, -0.020370500162244, -0.022041464224458, 0.016728842630982, -0.006737976800650, 0.010263219475746, -0.031802896410227, 0.041612472385168, -0.007941765710711, -0.028238195925951, -0.005736564286053, 0.020799845457077, -0.043970957398415, -0.055750761181116, 0.004338424187154, -0.050307534635067, 0.020744932815433, 0.032345112413168, -0.029996680095792, -0.057933017611504, 0.054911684244871, 0.054299723356962, 0.027095435187221, -0.049927350133657, -0.038375459611416, 0.042946096509695, -0.011959020979702, 0.025595026090741, -0.033338014036417, 0.033086106181145, -0.041759271174669, 0.033674415200949, 0.050046779215336, 0.031825739890337, -0.051649436354637, -0.011707109399140, -0.029111478477716, -0.013342867605388, 0.019951574504375, 0.029833078384399, -0.040551945567131, -0.025938129052520, 0.055245153605938, 0.015045293606818, 0.023427708074450, 0.029058903455734, 0.030887933447957, -0.029723271727562, -0.001250938163139, 0.046273760497570, -0.025173420086503, 0.011756805703044, 0.048984289169312, 0.004807084798813, -0.054900746792555, 0.005778355989605, -0.016749328002334, 0.037590008229017, 0.040838990360498, 0.011758659966290, 0.037214092910290, -0.017537459731102, -0.009746939875185, -0.005015861243010, -0.014479127712548, 0.013321844860911, -0.048908617347479, 0.012175855226815, -0.043718919157982, 0.003775858785957, -0.033752281218767, -0.052667938172817, 0.029391977936029, 0.057722583413124, 0.052250139415264, 0.048118073493242, 0.006141546647996, -0.047192949801683, -0.010049374774098, -0.054612759500742, 0.024052983149886, 0.011457554064691, -0.055276803672314, -0.015318902209401, 0.045519981533289, -0.014380073174834, 0.008497628383338, 0.030074095353484, 0.025028053671122, 0.019688721746206, -0.018729690462351, 0.023952160030603, 0.038598582148552, -0.029753979295492, -0.017194598913193, -0.018256729468703, 0.031393516808748, -0.006015423219651, -0.006210549268872, -0.004967572167516, 0.020788995549083, -0.012787439860404, -0.040934178978205, -0.000731274019927, 0.023166390135884, 0.032252673059702, -0.001983183901757, -0.055069968104362, -0.047082509845495, 0.050524413585663, 0.001059043803252, 0.036437503993511, -0.028792373836040, 0.046737469732761, -0.002119628945366, -0.017639908939600, -0.008520080707967, 0.038350168615580, 0.000128007770400, 0.003796560922638, 0.047026384621859, 0.023778365924954, 0.033610206097364, 0.049688175320625, 0.022146975621581, 0.055150847882032, 0.026347152888775, -0.022763738408685, -0.008467874489725, -0.019036518409848, -0.027063207700849, 0.005878792144358, 0.040411893278360, -0.019643301144242, -0.046879813075066, -0.024159366264939, 0.053493980318308, -0.054672129452229, -0.041478946805000, 0.012254673056304, -0.049592997878790, -0.017619125545025, 0.019691292196512, 0.009094956330955, -0.056920565664768, -0.021183839067817, -0.023861521854997, -0.056885756552219, 0.007105065975338, -0.026241924613714, -0.037387326359749, 0.004654200747609, 0.048466227948666, -0.040648315101862, 0.032689008861780, -0.047156020998955, -0.010159279219806, 0.048476465046406, -0.046611204743385, 0.054752178490162, 0.023458858951926, 0.041694998741150, 0.019037583842874, 0.029048359021544, -0.039796404540539, 0.013184316456318, 0.024241330102086, -0.014751541428268, 0.010254036635160, -0.015204448252916, -0.036265730857849, 0.058850504457951, 0.044870398938656, 0.012358973734081, 0.017515290528536, -0.038524780422449, -0.052022993564606, -0.010327585972846, -0.015160708688200, 0.047006390988827, -0.024387098848820, -0.012589531950653, -0.013610604219139, -0.052438691258430, -0.025352003052831, 0.050004020333290, 0.017393011599779, -0.038387000560760, -0.009516846388578, -0.007255421951413, -0.058122161775827, -0.045835532248020, 0.044215597212315, -0.032566368579865, -0.027358006685972, -0.035599816590548, -0.054744049906731, -0.000949545181356, 0.052942615002394, -0.001692600082606, -0.013160252012312, 0.002871195785701, -0.037394069135189, -0.053772170096636, 0.020906960591674, -0.038448479026556, -0.008864795789123, -0.007950612343848, -0.026040282100439, 0.040235154330730, -0.010733920149505, -0.045910667628050, -0.051975011825562, -0.002916930709034, 0.049328558146954, -0.036119513213634, -0.001209150068462, -0.036656290292740, -0.047831688076258, -0.000868955277838, 0.000362956139725, -0.025304006412625, -0.008618289604783, 0.057581897825003, 0.046661950647831, 0.017013542354107, 0.007576846983284, -0.024503070861101, -0.053178071975708, -0.008673393167555, -0.056695982813835, 0.004838063847274, 0.046656269580126, 0.037266004830599, 0.033900223672390, -0.058576039969921, 0.019956408068538, 0.007147676777095, -0.020203445106745, -0.004581321962178, -0.022848594933748, -0.019046587869525, 0.036671325564384, -0.058693796396255, 0.033006414771080, 0.040684178471565, 0.014033168554306, 0.005189473275095, -0.000642812810838, -0.055897347629070, -0.014274982735515, -0.017268091440201, 0.026091620326042, 0.047087494283915, -0.016735313460231, 0.030602265149355, -0.049606349319220, 0.003170976415277, 0.050380591303110, 0.006461337208748, -0.004206666722894, -0.024617921561003, 0.002339005935937, -0.031566932797432, 0.045057620853186, 0.036537863314152, -0.005071410909295, -0.001457971986383, -0.035544395446777, 0.034912593662739, 0.006383026018739, 0.049325879663229, 0.040713354945183, 0.056393653154373, 0.023789290338755, -0.031686022877693, 0.009505471214652, -0.032849818468094, -0.049196705222130, -0.031695265322924, 0.025000715628266, -0.004369343630970, 0.010296022519469, 0.051398016512394, 0.039120398461819, -0.048238310962915, -0.050187643617392, -0.031014693900943, -0.025238236412406, 0.040787704288960, 0.051599320024252, 0.007310607004911, 0.047685932368040, -0.020294085144997, 0.034503761678934, -0.034891612827778, 0.039237804710865, -0.034035507589579, 0.044135529547930, -0.039154492318630, -0.047156609594822, -0.047548629343510, 0.048255898058414, 0.024744536727667, 0.048285119235516, -0.029027815908194, 0.001928322948515, -0.019897051155567, 0.022857859730721, 0.000247094198130, 0.021005267277360, 0.011001321487129, -0.015891784802079, 0.020220547914505, 0.026830676943064, -0.026436615735292, -0.040379919111729, 0.041597660630941, -0.049048971384764, 0.010306158103049, -0.033652570098639, 0.043469421565533, 0.056391187012196, 0.016860188916326, 0.026629425585270, 0.017691079527140, -0.018127681687474, -0.048857912421227, -0.006501833442599, 0.056116934865713, 0.017294095829129, -0.010238644666970, 0.034506458789110, -0.042982716113329, -0.058842431753874, -0.020196169614792, -0.015256951563060, 0.050205640494823, -0.004692742135376, 0.029777517542243, 0.040130078792572, 0.016491219401360, -0.001740833395161, 0.005467129405588, 0.029738517478108, 0.056138835847378, 0.035579722374678, -0.008819076232612, -0.001818023854867, -0.021574866026640, -0.046233996748924, 0.033776935189962, -0.033892739564180, -0.034654386341572, 0.028670690953732, -0.055778004229069, -0.013951219618320, -0.044818975031376, 0.054614689201117, -0.053433898836374, -0.002576776780188, -0.014270295388997, 0.009870196692646, -0.018955947831273, 0.054571967571974, 0.031653389334679, -0.041247144341469, 0.050349745899439, 0.024623733013868, -0.003433590056375, -0.048357598483562, -0.024565447121859, -0.036098137497902, 0.021953312680125, 0.056191820651293, 0.001670721219853, 0.024468876421452, 0.013135241344571, 0.050235383212566, -0.042355280369520, -0.037888891994953, 0.031674761325121, -0.033141117542982, -0.012716795317829, 0.052375797182322, 0.024185150861740, -0.036281526088715, -0.029327822849154, -0.056984458118677, -0.020023318007588, -0.039706602692604, 0.050292689353228, 0.042551781982183, 0.042138163000345, 0.053580775856972, -0.041963156312704, 0.038962829858065, 0.011937019415200, 0.010689730755985, 0.025733940303326, -0.014888138510287, 0.036554656922817, 0.049260761588812, -0.016381204128265, 0.038697678595781, -0.032428745180368, -0.021524947136641, -0.017903348430991, 0.022698601707816, 0.049827914685011, 0.023903889581561, -0.039417821913958, -0.023464528843760, 0.048391327261925, 0.030870761722326, 0.048335205763578, -0.052373606711626, 0.015499372966588, -0.015414654277265, 0.004475401714444, -0.026270415633917, -0.038149286061525, 0.046925406903028, -0.023461848497391, 0.013326365500689, 0.024122983217239, -0.026999263092875, -0.021219212561846, -0.017737668007612, 0.053567532449961, 0.025312127545476, 0.035195443779230, 0.038347415626049, 0.031387943774462, 0.029007147997618, 0.057836484164000, -0.058615468442440, 0.055284161120653, 0.022108988836408, -0.050180286169052, -0.029065757989883, -0.002857474843040, -0.000254511280218, 0.028894752264023, 0.016018232330680, -0.009788895025849, 0.019501576200128, -0.027835965156555, -0.007772237528116, 0.036605600267649, 0.014127728529274, 0.045350842177868, 0.012771387584507, 0.006600958295166, -0.025009339675307, 0.036537662148476, -0.043934460729361, -0.047897178679705, 0.003658555913717, -0.047039397060871, 0.003094616346061, 0.006351123563945, -0.034474566578865, 0.022835124284029, -0.041126862168312, 0.037283666431904, 0.015043811872602, 0.028364997357130, 0.044494908303022, -0.018692407757044, 0.041256610304117, -0.048252176493406, -0.055293276906013, 0.026776529848576, 0.008296153508127, 0.012941325083375, -0.030320024117827, -0.011006091721356, 0.002826484851539, -0.053009748458862, -0.017793977633119, 0.046654831618071, -0.017210185527802, 0.004944441840053, -0.034238819032907, -0.055016454309225, 0.001107485615648, 0.027142997831106, -0.024588096886873, 0.013322715647519, 0.052603293210268, -0.033733449876308, -0.040568206459284, 0.012707710266113, 0.003039025701582, -0.053472414612770, -0.041965823620558, 0.015856442973018, 0.058008830994368, -0.003273832611740, -0.053548466414213, 0.020530566573143, 0.054623886942863, -0.039677903056145, 0.004094904288650, -0.002419115509838, 0.045810714364052, -0.033469151705503, 0.015417390502989, -0.017863892018795, -0.026809429749846, 0.016880944371223, -0.038018472492695, -0.045514896512032, 0.041478205472231, -0.034296445548534, -0.023993643000722, -0.033038105815649, -0.031070748344064, -0.035658720880747, -0.012535791844130, 0.024539949372411, 0.002837424166501, -0.045044239610434, 0.020566372200847, -0.047386966645718, 0.051693823188543, -0.025359360501170, 0.045730527490377, -0.033825125545263, 0.057982992380857, -0.032837644219398, -0.020081507042050, -0.025933634489775, -0.026225328445435, 0.044312763959169, 0.008818767033517, 0.011788410134614, -0.018052993342280, -0.028550276532769, -0.024621205404401, 0.008285385556519, 0.013504240661860, -0.053435962647200, -0.025443147867918, -0.003603523597121, -0.028906648978591, 0.011975028552115, -0.056773208081722, 0.016160028055310, -0.037825029343367, -0.032243013381958, 0.058771219104528, -0.041575137525797, 0.028906913474202, -0.044239565730095, -0.038648262619972, 0.006845245137811, -0.027703184634447, -0.014108404517174, 0.049938999116421, 0.008964017964900, 0.040683224797249, 0.002365010557696, 0.021704541519284, -0.034303482621908, -0.039937850087881, -0.055655416101217, -0.027172736823559, -0.003437674604356, 0.042401015758514, -0.055915754288435, 0.052267126739025, -0.014580467715859, -0.049732614308596, -0.039242032915354, 0.012940230779350, 0.037176560610533, 0.018764611333609, 0.026261260733008, -0.047146245837212, -0.052768763154745, -0.053104851394892, -0.030478810891509, 0.022456727921963, -0.023500293493271, 0.037105858325958, -0.000532398233190, 0.028375199064612, -0.029190897941589, -0.043251309543848, 0.038596943020821, -0.047747310250998, -0.051484726369381, 0.016588140279055, -0.019948584958911, 0.000872522301506, 0.032634191215038, 0.004292953759432, -0.042772971093655, -0.048647090792656, -0.034214988350868, 0.050328977406025, -0.042678199708462, -0.034220647066832, -0.017124947160482, 0.030579477548599, 0.051570128649473, 0.005473094526678, -0.008834915235639, 0.004760765470564, -0.028165332973003, -0.025004185736179, -0.033251769840717, 0.052634280174971, -0.026413250714540, 0.010748538188636, 0.041330736130476, 0.020905427634716, -0.011545947752893, 0.025504302233458, 0.046190101653337, 0.051797661930323, -0.050955399870872, -0.016539709642529, -0.008789560757577, -0.030804006382823, -0.013056792318821, 0.016044728457928, 0.049650620669127, 0.030215876176953, -0.032626312226057, 0.001408926909789, -0.039437491446733, -0.005588141269982, -0.012063017114997, 0.030395770445466, -0.035424452275038, -0.046363968402147, -0.026631897315383, 0.017055133357644, 0.046210017055273, 0.055374059826136, 0.048655413091183, -0.049781899899244, 0.058433823287487, 0.044307500123978, -0.027171205729246, 0.058135598897934, 0.023649170994759, 0.028734309598804, -0.049290630966425, -0.038211349397898, -0.025673113763332, 0.030633816495538, -0.052656006067991, -0.037828482687473, -0.001790920970961, -0.005801098886877, 0.011559173464775, -0.021931782364845, 0.023792097344995, 0.053531490266323, -0.041796017438173, 0.048639874905348, 0.054001476615667, -0.010904739610851, 0.023335710167885, 0.009676868095994, -0.046594314277172, 0.048847552388906, 0.042524229735136, -0.034726381301880, -0.025616960600019, -0.026951307430863, -0.016457704827189, -0.032858159393072, -0.042220547795296, 0.015822656452656, 0.004572292789817, 0.053910117596388, -0.024122452363372, -0.053692370653152, 0.001440505380742, -0.042637184262276, -0.039636045694351, -0.018226860091090, 0.027458490803838, 0.057637531310320, -0.017820965498686, 0.020608736202121, -0.056485619395971, 0.045190248638391, -0.045423652976751, -0.054562535136938, -0.056230701506138, 0.027996504679322, 0.007540022023022, 0.045808147639036, 0.017596311867237, -0.032205604016781, -0.052631769329309, -0.044953793287277, -0.048153474926949, -0.031904559582472, -0.026234947144985, -0.023067366331816, -0.014657148160040, -0.001645208336413, 0.033726625144482, -0.003940262831748, 0.006579221226275, 0.021675447002053, -0.019898355007172, 0.028033619746566, -0.024437479674816, -0.047996934503317, 0.050160195678473, -0.011780378408730, 0.025206055492163, 0.058458972722292, -0.013527348637581, 0.009637050330639, 0.024315075948834, -0.001371826743707, -0.001078882254660, 0.057916417717934, 0.000804800598416, 0.026053253561258, 0.020775837823749, 0.001495731296018, 0.055205680429935, -0.018689878284931, 0.028782699257135, 0.003226511413231, 0.056288555264473, 0.006160730030388, 0.012766644358635, -0.043596204370260, -0.015425019897521, -0.041025873273611, 0.027479961514473, 0.015188243240118, -0.019975895062089, -0.029003594070673, -0.007584468927234, -0.052088979631662, 0.013036160729825, 0.057441968470812, 0.022150222212076, 0.022609686478972, -0.035233560949564, -0.023014303296804, 0.007066938094795, 0.041201706975698, 0.021546840667725, -0.025841547176242, 0.011487601324916, 0.044761981815100, -0.032501820474863, -0.017363280057907, -0.010408961214125, 0.016219088807702, -0.045286364853382, -0.048589684069157, -0.000511040620040, -0.031177340075374, 0.010438674129546, -0.029417537152767, -0.034732550382614, -0.051530953496695, -0.036474980413914, -0.011961169540882, 0.045689985156059, 0.036586463451385, -0.031105110421777, -0.049505680799484, -0.016286941245198, -0.022596836090088, 0.030720289796591, -0.036728706210852, 0.013588308356702, 0.016943259164691, -0.045910850167274, 0.022414265200496, -0.013907283544540, -0.029756648465991, -0.054451208561659, -0.013747737742960, 0.029858240857720, -0.043223097920418, -0.050774287432432, -0.031626176089048, -0.031299307942390, 0.026044832542539, -0.025612255558372, -0.022008031606674, -0.009364070370793, -0.007508529350162, -0.010603004135191, -0.015384017489851, 0.046509832143784, -0.003584988415241, 0.022814763709903, 0.014319999143481, -0.026488754898310, 0.019915107637644, -0.001162573695183, 0.012605316005647, -0.058083347976208, 0.005974461790174, -0.008074363693595, -0.051295593380928, 0.028562719002366, -0.052445095032454, 0.046923879534006, -0.000624500971753, 0.000161637784913, 0.019986804574728, 0.022454679012299, -0.039101708680391, 0.053177371621132, 0.053544729948044, 0.009908435866237, 0.031854089349508, 0.053863316774368, -0.038869999349117, 0.024154745042324, 0.038015045225620, -0.050016190856695, -0.045056566596031, 0.002842227462679, -0.013995971530676, 0.037592034786940, -0.026014419272542, 0.055573605000973, 0.033266719430685, 0.005741002503783, 0.006554914638400, -0.050811301916838, 0.051797565072775, -0.052802097052336, -0.036643497645855, 0.005071172490716, 0.013058359734714, 0.026109045371413, 0.023029971867800, -0.035651210695505, -0.027236444875598, -0.024716408923268, 0.048325780779123, -0.044095356017351, -0.027282459661365, -0.002964631421492, -0.011107729747891, -0.025017775595188, 0.008228722959757, 0.045050233602524, -0.032853666692972, -0.019509941339493, -0.018771549686790, -0.041883580386639, -0.026254732161760, 0.031064847484231, 0.040181308984756, -0.052340876311064, -0.001872814144008, 0.036995049566031, -0.055714741349220, -0.057687792927027, 0.009304264560342, 0.050341077148914, -0.011860320344567, -0.036435414105654, -0.057495668530464, 0.000721574528143, -0.057003568857908, 0.027919288724661, 0.054023422300816, -0.007054762449116, 0.041821625083685, 0.029388522729278, -0.007390928454697, -0.024473961442709, 0.053130351006985, -0.033241365104914, -0.026469586417079, -0.017673412337899, 0.036859419196844, 0.041372753679752, 0.008047793991864, -0.014463216997683, -0.030506528913975, -0.021978121250868, -0.036571223288774, 0.040767472237349, 0.000717962800991, 0.043416906148195, 0.009940397925675, 0.006536952685565, -0.040651626884937, -0.015764035284519, 0.015126307494938, 0.051527339965105, 0.032646324485540, 0.033227477222681, -0.038998175412416, -0.006222821772099, -0.011020571924746, 0.031993627548218, 0.031891882419586, -0.003973219078034, 0.046289354562759, -0.048174761235714, 0.050102390348911, 0.048062197864056, -0.005517395678908, -0.053977698087692, -0.054678924381733, 0.004023913759738, 0.003300469834358, -0.003810192458332, 0.051673654466867, 0.050574894994497, -0.010115302167833, 0.044329065829515, 0.000444063596660, -0.001077590161003, -0.006969023030251, 0.036433853209019, 0.031814001500607, 0.002796477638185, 0.033972922712564, -0.023762034252286, -0.003050694940612, 0.017445735633373, -0.018391475081444, 0.054224964231253, -0.054633472114801, -0.008013981394470, -0.057043965905905, 0.033830843865871, -0.000101340570836, 0.004653962329030, 0.023179646581411, 0.044882785528898, -0.013645343482494, -0.005346844438463, 0.011105719022453, 0.010482722893357, -0.055397551506758, -0.003174740821123, 0.013328278437257, 0.049700848758221, 0.057129006832838, 0.018883338198066, -0.044373467564583, -0.049523096531630, -0.032570596784353, -0.057886891067028, -0.034117594361305, -0.054829370230436, -0.048616860061884, 0.054494742304087, 0.006908037234098, -0.037881236523390, -0.046146951615810, -0.047110918909311, -0.024461269378662, 0.027451036497951, 0.028231482952833, -0.049922041594982, -0.020445613190532, -0.035327475517988, -0.019960213452578, 0.003822610015050, 0.030767666175961, 0.021523233503103, 0.029873305931687, 0.019551804289222, 0.032417748123407, 0.013216702267528, 0.032946176826954, 0.053657669574022, -0.012675286270678, -0.052933119237423, -0.008370365016162, -0.058830294758081, -0.027037203311920, 0.056895431131124, -0.057833515107632, 0.055018182843924, -0.017466617748141, -0.047508019953966, 0.054723240435123, -0.032621890306473, 0.020894980058074, 0.055321484804153, -0.008496560156345, 0.035067655146122, -0.020389344543219, -0.055938713252544, -0.014553816057742, 0.010919875465333, -0.017885822802782, -0.040229935199022, -0.045154366642237, -0.029799588024616, -0.058261010795832, -0.033813755959272, 0.013378545641899, 0.045596841722727, 0.056051976978779, 0.046365104615688, -0.026394700631499, 0.028575625270605, 0.055468812584877, 0.023760702461004, -0.045530736446381, -0.008916849270463, -0.016017042100430, -0.055878795683384, 0.052687991410494, 0.009733188897371, -0.000872075499501, -0.034478023648262, -0.013241161592305, -0.055592805147171, 0.005239397287369, 0.000319708517054, -0.020627636462450, 0.039863400161266, -0.010913653299212, 0.049692917615175, -0.018928620964289, 0.048277419060469, -0.019489906728268, 0.033566277474165, 0.024419749155641, 0.058603115379810, 0.020213264971972, -0.011079811491072, -0.008174357004464, -0.044038865715265, -0.000783189781941, 0.019917326048017, 0.036274954676628, 0.058285497128963, -0.036390278488398, -0.028787180781364, -0.016331495717168, 0.036225892603397, -0.003012935630977, -0.052962668240070, -0.032060086727142, 0.042793277651072, -0.006467938888818, 0.018596261739731, 0.002645514905453, -0.046777728945017, 0.023058157414198, -0.031221458688378, -0.049282118678093, -0.023630211129785, 0.001491687609814, 0.056318394839764, 0.014607664197683, -0.001398616819642, -0.055143348872662, -0.010943887755275, 0.010499530471861, -0.008056458085775, -0.030715079978108, -0.033605385571718, 0.003911480773240, -0.037385433912277, -0.028637155890465, 0.023354133591056, -0.018635833635926, -0.017797250300646, 0.040779594331980, 0.056925114244223, 0.032357927411795, -0.050263948738575, -0.048735104501247, -0.001427209004760, -0.053509064018726, 0.043491523712873, -0.049853164702654, 0.036473002284765, -0.040837097913027, 0.013490642420948, -0.018803983926773, -0.039502449333668, 0.000297226448311, -0.026134168729186, 0.000306408415781, 0.058664921671152, -0.027444927021861, 0.020310936495662, 0.010729913599789, 0.021138722077012, 0.021832449361682, -0.015100649558008, -0.028511859476566, 0.000802201626357, -0.031397107988596, -0.002131450921297, -0.046061713248491, -0.026179058477283, -0.035019662231207, -0.035146277397871, 0.037424858659506, 0.011597889475524, -0.030768986791372, -0.029469309374690, 0.046704530715942, -0.018788047134876, -0.017269667237997, 0.046582039445639, 0.029134882614017, 0.010494183748960, -0.009692119434476, 0.044511668384075, 0.026511207222939, 0.028248684480786, 0.029810737818480, 0.045661002397537, 0.042219266295433, 0.028181074187160, -0.052533347159624, 0.019507018849254, 0.000436002388597, -0.034312315285206, -0.038327138870955, 0.032583292573690, -0.034632299095392, -0.052730835974216, -0.054669503122568, -0.053690925240517, 0.016489142552018, -0.015248414129019, 0.023430112749338, -0.042549889534712, -0.046408694237471, -0.042820513248444, -0.015537031926215, -0.034759059548378, 0.020577467978001, 0.031455606222153, -0.002047468908131, -0.032436158508062, 0.041914742439985, 0.015398944728076, -0.001701137982309, -0.041616268455982, 0.007808622904122, -0.013733529485762, 0.022753037512302, -0.030574323609471, -0.007703614886850, 0.026395587250590, -0.017465719953179, 0.015335840173066, -0.003638222115114, -0.002091461326927, 0.038412671536207, -0.018219502642751, -0.021962154656649, -0.001183819607832, -0.001724673784338, 0.019563205540180, -0.057711180299520, 0.040367562323809, 0.044239323586226, 0.031961396336555, 0.056109882891178, 0.051627151668072, -0.033876199275255, 0.055693358182907, -0.041832525283098, -0.008054663427174, 0.056750014424324, 0.001232994953170, -0.035819239914417, -0.050309613347054, 0.042133532464504, 0.012522394768894, 0.016254641115665, 0.050746247172356, -0.041409119963646, 0.002508492907509, -0.056104142218828, 0.056114085018635, -0.009337995201349, 0.014603761956096, 0.053620852530003, -0.028121661394835, 0.051169160753489, -0.009150327183306, 0.005884369835258, 0.020453365519643, 0.045280378311872, 0.036265041679144, 0.003275407478213, 0.008591965772212, -0.055185109376907, -0.024063669145107, 0.042041733860970, -0.050764653831720, 0.051798861473799, 0.019008437171578, -0.009759617969394, -0.007650451734662, -0.056326169520617, 0.002825825707987, 0.042974527925253, 0.022118736058474, -0.031218089163303, 0.023028876632452, -0.018897926434875, -0.032272528856993, -0.003303996054456, 0.051641784608364, 0.024540193378925, -0.039349280297756, 0.020147418603301, -0.047941777855158, -0.054093841463327, 0.023946240544319, 0.003483059350401, -0.025032520294189, 0.050333689898252, 0.038168765604496, 0.023310828953981, -0.043387502431870, -0.012622052803636, -0.049507480114698, 0.000418688432546, 0.020574884489179, -0.027256833389401, 0.045541025698185, 0.053112067282200, -0.052089735865593, 0.049141969531775, 0.009733948856592, 0.003794483374804, 0.003783767344430, 0.010453278198838, 0.008390729315579, -0.006668147630990, 0.030958931893110, 0.056486576795578, -0.008895603939891, 0.055372793227434, -0.058317836374044, 0.006613282952458, 0.026861535385251, 0.019968857988715, 0.014189396053553, -0.018461685627699, 0.035545729100704, -0.049557313323021, -0.057449206709862, 0.041752252727747, 0.012744527310133, 0.007143044844270, -0.047885496169329, 0.040593661367893, 0.021854246035218, 0.036700170487165, -0.012389840558171, -0.002097288379446, 0.027401687577367, -0.010818211361766, -0.006641312967986, -0.035839583724737, -0.030998488888144, 0.005422053858638, 0.040941689163446, 0.014431381598115, 0.042278453707695, -0.056842464953661, 0.045868344604969, 0.038477681577206, -0.012197551317513, -0.016841836273670, -0.023269837722182, -0.018303796648979, 0.052839476615191, -0.009571372531354, 0.031541336327791, 0.032181594520807, 0.036651235073805, -0.001879735966213, -0.024411672726274, -0.035368703305721, -0.044372346252203, 0.003192501608282, -0.003406192874536, 0.024293115362525, -0.019503764808178, -0.048807125538588, -0.055124208331108, 0.039797890931368, 0.039035122841597, 0.001687052194029, 0.000694695045240, -0.052966989576817, 0.038971878588200, 0.014672831632197, -0.042495049536228, 0.033237513154745, -0.007228419650346, 0.038860719650984, -0.038087345659733, -0.036588162183762, -0.044847480952740, -0.031818594783545, 0.051696136593819, 0.015875089913607, 0.038774378597736, 0.038163498044014, 0.052561342716217, -0.034820336848497, 0.016834996640682, 0.034087222069502, -0.052316863089800, 0.024387421086431, 0.043667823076248, -0.014038727618754, 0.015395280905068, -0.006803062278777, -0.050733413547277, -0.000899286300410, 0.016169158741832, 0.054425582289696, 0.014823615550995, -0.055754411965609, -0.013346672989428, -0.027919318526983, 0.054844059050083, -0.010123839601874, 0.034805227071047, 0.049969039857388, -0.049950674176216, -0.041942909359932, 0.056558147072792, 0.051882613450289, 0.058370243757963, 0.032309778034687, 0.048551052808762, 0.030167628079653, 0.042295239865780, -0.040169917047024, 0.020211923867464, 0.032049428671598, 0.046637509018183, 0.038487318903208, 0.021624913439155, 0.034454472362995, 0.022322610020638, 0.050299428403378, -0.036578796803951, -0.013287778943777, 0.043538097292185, -0.052533488720655, 0.040847234427929, 0.023900471627712, -0.002599035389721, 0.057138495147228, 0.056649237871170, 0.041292443871498, 0.031840559095144, -0.029261277988553, -0.005749663338065, -0.048175729811192, 0.050916474312544, -0.048326343297958, -0.048726722598076, 0.040591124445200, 0.009446440264583, 0.054957490414381, 0.005966374650598, -0.022679038345814, -0.054669797420502, 0.029411735013127, 0.000079912235378, 0.027372680604458, -0.021024633198977, 0.030665496364236, 0.033424921333790, -0.036503091454506, 0.035130944103003, -0.052234828472137, 0.015797352418303, 0.043250694870949, 0.019607014954090, 0.035741906613111, 0.035190004855394, 0.026669034734368, 0.018882451578975, 0.030129656195641, -0.053759884089231, -0.022499285638332, 0.018915783613920, 0.052729554474354, 0.058222603052855, 0.019744819030166, 0.046230189502239, 0.024189781397581, -0.026391863822937, 0.016526734456420, -0.018315127119422, -0.006603512912989, 0.049926742911339, -0.016168834641576, 0.012013655155897, 0.033672858029604, 0.039971664547920, -0.022291325032711, 0.016818115487695, 0.040316123515368, 0.033104371279478, -0.042495205998421, 0.046562772244215, 0.046151906251907, 0.007010394241661, 0.033721484243870, -0.009657111950219, 0.023051768541336, -0.021782655268908, 0.055799223482609, -0.025580072775483, -0.024925915524364, -0.047225203365088, -0.018719606101513, -0.015942759811878, 0.049878716468811, 0.017330927774310, -0.048945751041174, -0.005371333099902, 0.054062966257334, -0.004774943925440, 0.024593275040388, 0.042029965668917, -0.056909009814262, 0.056688245385885, -0.017338933423162, -0.038985874503851, 0.026286862790585, -0.028508419170976, 0.047137230634689, -0.002335453871638, 0.014460573904216, -0.048744846135378, -0.027643479406834, -0.001145483227447, -0.029375214129686, -0.028583025559783, 0.010495248250663, -0.039278849959373, 0.026463128626347, 0.054786600172520, -0.058082692325115, -0.050135757774115, -0.040244720876217, -0.007914382964373, 0.007261785212904, 0.040649730712175, -0.019055575132370, 0.022971654310822, -0.005825070198625, -0.025854256004095, -0.031755305826664, 0.050915662199259, 0.056560479104519, 0.051862888038158, 0.003902939381078, 0.024423480033875, -0.029381686821580, -0.046488858759403, 0.018594115972519, -0.016977436840534, 0.000836971041281, 0.030404036864638, -0.023495113477111, -0.002277122577652, 0.057199344038963, 0.051767628639936, -0.011779887601733, -0.001338364207186, -0.014166831970215, 0.019448591396213, 0.044684443622828, -0.027065904811025, 0.015365031547844, 0.050289738923311, 0.056664399802685, -0.037545453757048, 0.026078619062901, -0.055529866367579, -0.027590569108725, 0.032867129892111, 0.020418426021934, -0.040328960865736, -0.043655011802912, -0.036051746457815, -0.027455527335405, -0.029678182676435, 0.042558703571558, -0.015655392780900, 0.053768798708916, 0.008820576593280, 0.016042711213231, -0.029961071908474, 0.048639412969351, 0.003359516151249, 0.034480325877666, 0.016313925385475, -0.005301783327013, 0.043014619499445, 0.007975328713655, -0.040527410805225, 0.037797395139933, -0.035865057259798, 0.048448055982590, -0.002870592521504, 0.037317819893360, -0.033938698470592, 0.010211194865406, -0.023211592808366, 0.023600595071912, 0.023397831246257, -0.057679507881403, -0.018715800717473, 0.029139559715986, -0.017784131690860, -0.004194141365588, 0.003352188272402, 0.038139369338751, -0.007014378439635, -0.057615879923105, 0.047965873032808, -0.047008074820042, 0.014082593843341, -0.035496946424246, -0.025478860363364, -0.009854401461780, 0.029492013156414, -0.036188118159771, -0.037111766636372, -0.058481283485889, 0.022813275456429, 0.030105015262961, -0.039464395493269, 