//Numpy array shape [2, 2, 128, 64]
//Min -0.088382653892
//Max 0.088387168944
//Number of zeros 0

#ifndef W193_H_
#define W193_H_

#ifndef __SYNTHESIS__
model_default_t w193[32768];
#else
model_default_t w193[32768] = {-0.022838197648525, -0.001919664442539, -0.071625404059887, 0.085521705448627, 0.050142250955105, -0.070387892425060, 0.024133495986462, -0.049828805029392, -0.019566565752029, -0.020137809216976, 0.015662930905819, -0.020365841686726, 0.057308591902256, 0.045910976827145, 0.037291191518307, -0.030658122152090, 0.049864105880260, -0.062090970575809, -0.006404526531696, 0.011976912617683, -0.010574877262115, 0.007412552833557, 0.076070271432400, 0.075546734035015, 0.000931568443775, -0.064167521893978, 0.054299093782902, -0.025788120925426, -0.015828311443329, -0.048564337193966, -0.008721612393856, -0.075881645083427, 0.006035067141056, 0.004902988672256, 0.025666691362858, 0.050889931619167, 0.056474141776562, -0.082021981477737, 0.038389898836613, 0.026022158563137, 0.038959719240665, -0.028895247727633, 0.029086150228977, -0.084245689213276, -0.002024374902248, -0.003807000815868, -0.012854725122452, 0.011886715888977, -0.018719524145126, 0.074953086674213, -0.057545959949493, 0.044164307415485, 0.078110121190548, -0.019513443112373, -0.050646372139454, 0.034585915505886, -0.054880294948816, -0.046423699706793, 0.067663706839085, -0.005077853798866, -0.056624144315720, 0.011902332305908, -0.082988806068897, 0.052194841206074, -0.076620459556580, 0.011041529476643, -0.051778055727482, 0.059819824993610, 0.085954554378986, 0.084024943411350, -0.007714390754700, 0.053020559251308, 0.052431620657444, -0.086599677801132, 0.009362794458866, -0.073262937366962, 0.019857488572598, -0.033733092248440, -0.073061138391495, 0.004881598055363, -0.052287019789219, 0.006966978311539, -0.055456675589085, 0.069733671844006, 0.047637574374676, -0.067045375704765, -0.078259676694870, -0.029291804879904, 0.032671265304089, 0.065518207848072, 0.026832386851311, -0.009522467851639, -0.014948308467865, -0.060318842530251, 0.006121471524239, -0.021198809146881, -0.041178777813911, 0.027661584317684, 0.058009661734104, 0.062478311359882, -0.043006327003241, -0.014093570411205, 0.060950867831707, -0.025446370244026, 0.068798087537289, 0.030998483300209, -0.000818051397800, -0.032634809613228, -0.080688245594501, -0.066706597805023, 0.051936261355877, 0.083540700376034, 0.001817584037781, -0.077612116932869, -0.083240807056427, -0.010811738669872, 0.043962530791759, 0.014040671288967, 0.064949490129948, 0.018400579690933, 0.058094941079617, 0.077660091221333, -0.083288475871086, 0.002592496573925, 0.021285697817802, 0.068037860095501, -0.054946549236774, 0.034351259469986, 0.039408750832081, -0.044824901968241, 0.046095602214336, -0.088361307978630, -0.033166218549013, -0.042052987962961, -0.046144854277372, -0.057945802807808, 0.070909895002842, 0.055733047425747, 0.008278951048851, -0.008821822702885, -0.050203703343868, 0.002533681690693, 0.023244030773640, 0.062435664236546, -0.018680617213249, 0.052583791315556, 0.080821476876736, -0.083302229642868, -0.066158600151539, -0.071211315691471, -0.059880957007408, -0.067413106560707, 0.034960448741913, -0.017573378980160, 0.054688610136509, -0.078533425927162, 0.005365334451199, 0.050090663135052, -0.043427731841803, -0.087714292109013, -0.019775554537773, -0.060312159359455, 0.086293689906597, 0.018553003668785, 0.045890368521214, 0.069773785769939, -0.059361621737480, -0.027725122869015, 0.054623194038868, -0.016876123845577, 0.032943427562714, -0.065894655883312, 0.053308002650738, 0.027588360011578, -0.074687398970127, -0.079581148922443, -0.086259700357914, 0.085750319063663, -0.059477210044861, 0.009347788989544, 0.005989573895931, 0.041587628424168, 0.038124717772007, -0.063450731337070, -0.078501664102077, -0.061782009899616, -0.058626096695662, -0.021302975714207, 0.065719090402126, 0.086204446852207, 0.042902223765850, -0.002337865531445, -0.033220060169697, 0.002722457051277, -0.083308219909668, 0.030140832066536, -0.072041779756546, -0.056713894009590, -0.008190944790840, -0.068603053689003, -0.071542844176292, 0.036032706499100, -0.068039678037167, 0.084750287234783, -0.004129104316235, 0.002263724803925, 0.042598702013493, -0.038802497088909, 0.025164850056171, 0.084976367652416, 0.007845006883144, 0.060944549739361, 0.057424046099186, 0.070522092282772, -0.018785417079926, 0.040040828287601, -0.035936046391726, 0.040091909468174, -0.067794278264046, -0.017791301012039, 0.015989057719707, -0.061582148075104, 0.067591153085232, -0.081279121339321, -0.040582567453384, 0.066134013235569, -0.056564040482044, -0.014710620045662, -0.085577845573425, 0.082189850509167, 0.079508252441883, 0.041147761046886, -0.055329833179712, -0.000615447759628, -0.008106820285320, -0.086978785693645, 0.063521005213261, 0.077815137803555, -0.052934207022190, 0.061610318720341, 0.068260438740253, -0.040241684764624, -0.042645845562220, 0.074330039322376, -0.044004343450069, 0.017082668840885, -0.062557809054852, 0.024225227534771, -0.060078371316195, 0.019516184926033, -0.020754501223564, -0.020612441003323, 0.004515506327152, 0.007498279213905, -0.087414056062698, -0.071309156715870, -0.046560592949390, 0.055004887282848, -0.040875278413296, -0.080804064869881, 0.045546583831310, -0.064783222973347, -0.054996050894260, 0.044177941977978, -0.044760920107365, 0.056733362376690, -0.053119063377380, 0.067752994596958, -0.001425616443157, 0.064634375274181, -0.012651093304157, -0.031247355043888, -0.074229747056961, 0.018716171383858, -0.066184036433697, 0.078090839087963, -0.046913594007492, 0.067751474678516, -0.071559406816959, 0.082482121884823, -0.043134916573763, -0.029093019664288, 0.076589383184910, -0.042240075767040, 0.061451055109501, 0.080405496060848, -0.001182578504086, -0.000813163816929, -0.045362208038568, 0.012795552611351, -0.052883800119162, -0.078279130160809, 0.087949581444263, 0.069831170141697, 0.042904563248158, 0.031046994030476, -0.087114013731480, -0.053912792354822, 0.039507649838924, -0.061717420816422, -0.010223962366581, 0.022784732282162, 0.003953419625759, 0.085404090583324, 0.063129164278507, -0.045744713395834, 0.005288988351822, 0.006711803376675, 0.031924463808537, 0.029896698892117, -0.064566612243652, 0.064362876117229, -0.070867732167244, -0.025583431124687, 0.039633207023144, -0.007001727819443, 0.024883054196835, -0.086146891117096, -0.003988675773144, -0.035729106515646, -0.050405923277140, -0.038921643048525, -0.005274891853333, 0.020376607775688, 0.069548897445202, -0.043370623141527, 0.025213718414307, 0.081970252096653, -0.001643411815166, 0.077725209295750, 0.015945628285408, -0.040731724351645, 0.009522430598736, 0.035299457609653, -0.039623282849789, 0.042227409780025, 0.038517303764820, -0.035213459283113, 0.023256503045559, 0.009655930101871, 0.030857689678669, -0.069115288555622, -0.033921007066965, 0.013609513640404, 0.017255172133446, -0.016865864396095, 0.005134157836437, 0.064221404492855, 0.023905441164970, -0.003097161650658, 0.001068212091923, 0.015636503696442, -0.011587835848331, -0.012268781661987, -0.047886364161968, 0.010288216173649, -0.007304325699806, -0.050322514027357, -0.040633879601955, 0.063093014061451, -0.019277147948742, -0.015449032187462, 0.058873556554317, 0.051593072712421, -0.018054381012917, 0.064370624721050, -0.039560947567225, 0.000277094542980, -0.003326669335365, -0.038981936872005, 0.075923956930637, -0.030756052583456, -0.076730862259865, 0.006675221025944, 0.085613422095776, -0.046110190451145, -0.043705482035875, 0.075569026172161, -0.078329242765903, 0.020339943468571, 0.068900279700756, 0.027206443250179, -0.028198264539242, -0.072056084871292, 0.001322545111179, -0.017003811895847, -0.044032603502274, 0.037872038781643, 0.029496490955353, 0.016527295112610, -0.073385797441006, -0.002687707543373, 0.031460575759411, 0.006483003497124, -0.008399337530136, 0.022405900061131, 0.066726259887218, 0.040855757892132, -0.071225918829441, 0.061957575380802, -0.003690227866173, 0.044912986457348, -0.012102276086807, 0.085711382329464, -0.065963208675385, -0.051591999828815, -0.019945234060287, 0.046837173402309, 0.055844642221928, 0.056613557040691, 0.019476309418678, -0.032127637416124, 0.061890058219433, -0.070345178246498, -0.054322544485331, -0.064773254096508, -0.066838666796684, 0.068894691765308, -0.026601444929838, -0.033141646534204, 0.033765628933907, -0.015571407973766, 0.072754941880703, 0.033310845494270, -0.029745537787676, 0.064470045268536, -0.047449428588152, -0.071624919772148, 0.002376683056355, 0.048418067395687, -0.047087155282497, -0.038979154080153, -0.024016410112381, 0.043033115565777, 0.010238036513329, -0.059612609446049, 0.087340049445629, 0.065561018884182, 0.073651678860188, -0.081036798655987, -0.066179297864437, -0.009589016437531, -0.085399501025677, 0.029943205416203, -0.005031973123550, -0.029614418745041, 0.026640176773071, -0.082023940980434, -0.061089389026165, -0.007061980664730, -0.045799799263477, -0.051836639642715, -0.068459294736385, 0.060598544776440, -0.007579118013382, 0.026032254099846, 0.033814057707787, -0.080039665102959, -0.024796083569527, 0.056574486196041, -0.071376718580723, 0.020538724958897, -0.029614020138979, -0.006461724638939, -0.009579345583916, -0.010993987321854, 0.009533785283566, 0.001899473369122, 0.066401995718479, -0.009359359741211, 0.063682474195957, 0.084687374532223, -0.039705008268356, 0.047634698450565, 0.013132579624653, -0.018722914159298, 0.004579402506351, -0.022500686347485, -0.079920284450054, 0.061946980655193, 0.038929857313633, 0.079166926443577, -0.022563904523849, -0.061440154910088, -0.040660433471203, -0.073834404349327, 0.046531476080418, -0.032995481044054, -0.063546486198902, 0.021735973656178, -0.039149846881628, 0.071449629962444, -0.031944446265697, 0.052439846098423, -0.036289300769567, 0.037113107740879, 0.036375261843204, 0.008846201002598, -0.071539513766766, -0.048049852252007, -0.041073706001043, 0.046883158385754, -0.024775139987469, -0.023279242217541, 0.073143951594830, 0.024228513240814, -0.041905429214239, -0.015118390321732, 0.051342703402042, -0.007362842559814, -0.078865267336369, -0.025285936892033, -0.031784117221832, 0.003133326768875, -0.082078687846661, 0.045487321913242, -0.034752164036036, -0.076711118221283, 0.082422561943531, 0.085723020136356, -0.018000684678555, 0.050898678600788, -0.052033022046089, 0.064464829862118, 0.003109171986580, -0.048469360917807, -0.033709175884724, 0.087409846484661, 0.050943069159985, -0.033096909523010, 0.073025189340115, 0.013544648885727, 0.050231926143169, 0.037694789469242, 0.059688277542591, -0.028486106544733, 0.033144533634186, 0.081814743578434, 0.031803779304028, -0.069621048867702, 0.080074585974216, 0.062811695039272, -0.002069287002087, -0.074492402374744, -0.058977685868740, 0.066065244376659, -0.046824242919683, -0.048140697181225, -0.034214135259390, -0.038804750889540, 0.064735911786556, -0.078132100403309, -0.005549475550652, 0.007561653852463, 0.023735731840134, -0.023167386651039, -0.051226101815701, -0.060395695269108, -0.061018496751785, -0.028354670852423, -0.005519568920135, 0.052645035088062, 0.037455923855305, -0.035485349595547, 0.025843665003777, 0.030406318604946, 0.060992680490017, 0.008183188736439, 0.035265803337097, 0.002818800508976, -0.014022678136826, -0.032843269407749, -0.018528215587139, 0.028276719152927, 0.014170594513416, -0.069668740034103, 0.031344860792160, -0.000966660678387, 0.027067400515079, -0.019828386604786, 0.000110737979412, -0.009058222174644, -0.060643624514341, 0.021886289119720, -0.012495212256908, -0.048282396048307, -0.041692294180393, 0.070205204188824, 0.059522919356823, -0.044806629419327, -0.066458538174629, 0.070221565663815, -0.069532059133053, -0.052175164222717, 0.062615863978863, -0.047718681395054, 0.046234376728535, 0.085465855896473, 0.079767189919949, 0.015130445361137, 0.016902826726437, -0.023706674575806, -0.009043782949448, 0.035454794764519, -0.064919903874397, -0.005684517323971, 0.068058349192142, 0.031288638710976, -0.057055346667767, -0.017448246479034, -0.075826436281204, -0.075503125786781, -0.026742301881313, -0.055686354637146, -0.074801363050938, -0.020444296300411, -0.081093862652779, -0.005576029419899, -0.075276479125023, 0.074883289635181, 0.019239805638790, -0.055393561720848, -0.028375219553709, -0.029271911829710, -0.014416769146919, -0.014585569500923, -0.059571936726570, -0.086733326315880, -0.019411087036133, 0.021892860531807, -0.018169656395912, 0.040698431432247, -0.057288274168968, 0.084059335291386, 0.077474065124989, 0.067575998604298, -0.041393365710974, 0.007623352110386, -0.025639295578003, 0.028967276215553, 0.006918385624886, 0.048231147229671, -0.077742367982864, -0.002023406326771, -0.050940260291100, -0.067934669554234, -0.077515915036201, -0.046998541802168, 0.017393477261066, -0.049995940178633, -0.042573478072882, -0.017341829836369, -0.026301488280296, 0.087391428649426, -0.067321814596653, 0.026607684791088, -0.006535567343235, -0.052422627806664, 0.070193000137806, -0.064845852553844, -0.065672986209393, 0.022869616746902, 0.027753807604313, 0.088374055922031, 0.063102789223194, 0.011728264391422, -0.054587945342064, 0.016987539827824, 0.038221307098866, 0.035782128572464, 0.033746562898159, 0.048108346760273, 0.063718758523464, -0.005079433321953, -0.013037413358688, -0.050296023488045, 0.003544360399246, -0.030343074351549, -0.033020664006472, -0.009248808026314, 0.042997933924198, 0.079899586737156, -0.081681452691555, 0.014974333345890, -0.045365665107965, -0.040653795003891, -0.060515478253365, -0.070227146148682, -0.071517281234264, 0.079950280487537, -0.048949494957924, 0.006203718483448, -0.049035243690014, -0.085304252803326, 0.041344858705997, -0.044846944510937, -0.031868685036898, -0.040269058197737, -0.033413410186768, -0.046997886151075, 0.038164637982845, -0.067701533436775, 0.057770751416683, 0.068752072751522, 0.064410291612148, 0.065371848642826, 0.086598537862301, 0.051173694431782, 0.083860166370869, -0.069848537445068, 0.022367835044861, -0.024291649460793, -0.027921844273806, 0.002876691520214, -0.027278199791908, -0.015455164015293, 0.040364302694798, -0.022160120308399, 0.040864326059818, 0.033103607594967, 0.071441240608692, -0.007935285568237, 0.004503324627876, -0.067003518342972, 0.077902235090733, 0.082799844443798, -0.061515450477600, 0.083966128528118, 0.005258306860924, 0.010078281164169, 0.073582224547863, -0.046060688793659, -0.088363587856293, -0.002459377050400, -0.029071208089590, -0.064098276197910, -0.035816498100758, 0.048091076314449, 0.025652386248112, 0.066684238612652, 0.034270867705345, 0.052267111837864, 0.039254881441593, 0.041001595556736, 0.083831973373890, -0.059538111090660, -0.048618644475937, -0.067010536789894, 0.063708476722240, -0.028306033462286, 0.009902589023113, -0.058405205607414, -0.010850854218006, 0.041264377534389, 0.053632326424122, -0.043634757399559, -0.060978945344687, 0.088182009756565, -0.030879139900208, -0.062217049300671, -0.038972284644842, 0.068956814706326, 0.004104115068913, 0.053053013980389, -0.041029386222363, 0.005435131490231, -0.056610129773617, 0.035692669451237, 0.044663704931736, -0.004115216434002, -0.044980905950069, 0.041080005466938, 0.058335490524769, -0.019043125212193, 0.018265053629875, -0.001613318920135, 0.017697162926197, 0.072931207716465, 0.002193592488766, 0.033921048045158, -0.068077549338341, -0.024965472519398, 0.048285119235516, -0.009290263056755, -0.044503785669804, -0.052736874669790, 0.028749018907547, 0.030095987021923, 0.070595555007458, 0.073906473815441, 0.006477862596512, -0.020146764814854, 0.052094034850597, 0.067126370966434, 0.001134507358074, -0.025415562093258, 0.083969824016094, 0.016949035227299, 0.056336559355259, -0.024575553834438, -0.032186325639486, 0.012123644351959, 0.011606760323048, 0.012653514742851, -0.063964143395424, 0.063089974224567, -0.076148815453053, 0.001877918839455, 0.016767069697380, -0.070559747517109, -0.048212897032499, 0.002360537648201, 0.076901890337467, 0.009562358260155, -0.007212571799755, 0.015704229474068, 0.042069844901562, -0.050223026424646, -0.057510070502758, -0.003274366259575, 0.032404311001301, 0.012362763285637, -0.030507236719131, -0.015187278389931, 0.040582276880741, -0.076137922704220, -0.083036415278912, -0.057210616767406, 0.057888291776180, -0.041193064302206, -0.020247511565685, 0.085556127130985, 0.086568079888821, -0.081263504922390, 0.000930979847908, -0.067928053438663, -0.064704030752182, 0.047987960278988, 0.074011333286762, -0.039156865328550, 0.024859435856342, -0.086554683744907, 0.002760492265224, 0.024496592581272, -0.052225295454264, 0.005949027836323, 0.063372902572155, -0.062633335590363, -0.031547043472528, 0.005730539560318, 0.077151559293270, -0.070847608149052, -0.076838381588459, -0.005569830536842, 0.014155253767967, 0.077575094997883, 0.037108637392521, 0.068018265068531, 0.061528243124485, 0.006625674664974, -0.084168203175068, 0.068509824573994, 0.052760787308216, 0.073825530707836, -0.032968044281006, -0.077783353626728, 0.032543137669563, -0.081017345190048, -0.031513765454292, -0.017794400453568, 0.062682412564754, 0.004777215421200, -0.064847856760025, 0.028919793665409, 0.008918464183807, 0.016865611076355, 0.064405836164951, 0.014471687376499, 0.073243804275990, 0.080251313745975, -0.010934069752693, -0.057494960725307, -0.037346363067627, -0.004557825624943, -0.041331749409437, -0.054298017174006, -0.068378202617168, 0.061606787145138, 0.035564877092838, -0.070739522576332, -0.052356269210577, 0.023914858698845, -0.019223406910896, 0.031075336039066, 0.037746481597424, 0.034052148461342, 0.071329392492771, -0.058685775846243, 0.084681488573551, 0.046508602797985, -0.071969285607338, 0.033165358006954, -0.007427223026752, 0.075952537357807, 0.053726755082607, -0.003435388207436, -0.068297006189823, -0.022200495004654, 0.071237303316593, 0.075491704046726, -0.025240376591682, -0.079661548137665, -0.018298409879208, -0.069957464933395, 0.080840580165386, -0.059126213192940, 0.059583403170109, -0.052925948053598, 0.077523030340672, 0.075817264616489, 0.067179001867771, 0.035457827150822, -0.042545747011900, 0.040780402719975, 0.042339645326138, -0.038329418748617, 0.034826256334782, -0.081458896398544, 0.052745319902897, -0.063882738351822, 0.073751710355282, 0.062948338687420, -0.017500109970570, -0.039835367351770, 0.086648784577847, -0.049563661217690, -0.039695926010609, 0.017727427184582, -0.035959564149380, 0.043842606246471, -0.025132924318314, -0.075921811163425, 0.046433694660664, -0.061264090240002, -0.078020222485065, 0.041656069457531, -0.000006936490536, 0.012318998575211, -0.012712925672531, -0.006355367600918, 0.019627720117569, 0.018828831613064, -0.024265162646770, 0.026113241910934, -0.057490576058626, -0.048308547586203, 0.043173842132092, -0.065179616212845, 0.026211798191071, -0.012438543140888, -0.004097871482372, -0.003358215093613, -0.055192939937115, -0.086969010531902, 0.016790904104710, -0.045965034514666, -0.017590217292309, -0.036122083663940, -0.081548400223255, 0.024566493928432, -0.047262083739042, 0.012653477489948, 0.077942930161953, -0.048862673342228, 0.010195091366768, 0.005364261567593, -0.009960606694221, 0.019835591316223, -0.044652182608843, 0.080739028751850, -0.085625387728214, -0.085838042199612, -0.010306358337402, 0.078362517058849, 0.043942920863628, 0.006321482360363, 0.049863286316395, -0.035153210163116, 0.022264830768108, -0.036782924085855, -0.050112832337618, -0.057018108665943, -0.085424892604351, -0.044370114803314, -0.083081781864166, 0.011662453413010, 0.084054283797741, 0.085238359868526, -0.051507998257875, 0.082884244620800, 0.011891290545464, -0.056078109890223, -0.012410454452038, 0.000703893601894, -0.083736553788185, 0.033441752195358, -0.008269250392914, -0.017578691244125, 0.062080092728138, 0.027502462267876, 0.026330567896366, -0.022170402109623, -0.013065673410892, -0.045876253396273, 0.072675712406635, 0.059594593942165, -0.070129260420799, 0.037288703024387, -0.063335016369820, 0.021911494433880, 0.063963524997234, 0.061762683093548, 0.061612240970135, 0.030698202550411, 0.063433118164539, 0.029653318226337, 0.037621967494488, 0.027007214725018, -0.056785460561514, -0.057842567563057, -0.019924417138100, -0.048647977411747, 0.069148115813732, -0.038868077099323, -0.053860995918512, 0.006918065249920, -0.063206024467945, -0.066741280257702, -0.033373203128576, -0.011789903044701, 0.051899842917919, 0.051375381648540, -0.016586154699326, 0.043466784060001, 0.039086736738682, 0.084121562540531, 0.032978221774101, 0.085826970636845, -0.024684838950634, -0.044178135693073, 0.002714782953262, -0.030530985444784, 0.013811856508255, -0.075678519904613, -0.083922341465950, 0.025450035929680, -0.045738287270069, 0.035308919847012, -0.036106739193201, 0.002852752804756, 0.063089735805988, -0.025600440800190, -0.035398148000240, -0.011003278195858, 0.073253013193607, -0.053397040814161, 0.028801172971725, -0.006065055727959, 0.054380513727665, -0.030361220240593, 0.071372173726559, -0.040471319109201, 0.029659688472748, -0.018353417515755, -0.004837781190872, -0.054291777312756, -0.044652204960585, -0.018991708755493, -0.083671674132347, 0.084641240537167, -0.000617980957031, 0.075050152838230, -0.043938193470240, -0.058026306331158, -0.041863787919283, 0.000577956438065, -0.045799251645803, 0.045237787067890, 0.013160713016987, -0.076361507177353, 0.030202873051167, -0.085909813642502, 0.068046592175961, -0.060087308287621, -0.038193158805370, 0.056761689484119, -0.026242796331644, -0.029032055288553, -0.019240453839302, 0.060408003628254, -0.019617229700089, 0.049167715013027, 0.014790996909142, -0.085543729364872, -0.010754525661469, -0.006460860371590, -0.039741124957800, 0.012729510664940, -0.040214266628027, -0.006028831005096, -0.043308097869158, -0.056711640208960, 0.075986869633198, -0.066236153244972, 0.008306130766869, -0.048931036144495, 0.059380911290646, -0.041910026222467, -0.069600015878677, 0.055748842656612, -0.075898125767708, 0.012978091835976, 0.002013124525547, 0.059837378561497, 0.068513132631779, 0.031778387725353, 0.012571498751640, -0.004711784422398, -0.052348177880049, -0.023736432194710, -0.077533848583698, -0.043907657265663, -0.022338591516018, -0.041929706931114, 0.029707461595535, 0.064567811787128, -0.055907413363457, -0.016506895422935, -0.000824853777885, -0.068501882255077, -0.080956906080246, -0.011114038527012, 0.071828685700893, 0.033875167369843, -0.041496310383081, 0.000041328370571, -0.051342740654945, -0.028170719742775, 0.067793704569340, -0.015879288315773, -0.043234847486019, 0.038678966462612, 0.012188911437988, -0.034436292946339, -0.031497541815042, -0.010176271200180, -0.038477521389723, -0.040607877075672, 0.065212599933147, 0.044144563376904, 0.064289741218090, -0.073387354612350, -0.054772820323706, 0.009409472346306, 0.056396387517452, 0.074080236256123, 0.053790502250195, -0.023332618176937, -0.081430092453957, 0.018638893961906, -0.053986422717571, -0.045886073261499, -0.068782225251198, 0.046005912125111, 0.079997144639492, -0.021595500409603, 0.015617705881596, -0.034596871584654, -0.023667246103287, 0.014015324413776, -0.032090820372105, -0.081606179475784, -0.042391195893288, 0.001304782927036, 0.078331120312214, -0.064187347888947, -0.015069603919983, 0.036512829363346, 0.035538539290428, -0.056055285036564, 0.083777271211147, 0.056063078343868, 0.019078150391579, -0.062481857836246, -0.009183526039124, 0.062144078314304, -0.032232727855444, -0.009731009602547, 0.088305674493313, -0.017330802977085, -0.060043979436159, 0.078691624104977, -0.077467083930969, -0.034849584102631, 0.072840161621571, -0.015617072582245, -0.068995967507362, 0.048525579273701, -0.053069476038218, 0.021484166383743, -0.042844060808420, -0.050507854670286, 0.047120235860348, 0.020416207611561, -0.037670008838177, 0.048913247883320, -0.066469460725784, -0.036828462034464, -0.039150059223175, 0.009809128940105, 0.032140724360943, -0.014166422188282, 0.084770612418652, -0.047908913344145, 0.083497218787670, -0.052063852548599, -0.063037924468517, 0.087117843329906, -0.033875931054354, -0.074358947575092, -0.045354116708040, -0.008082017302513, 0.060362733900547, -0.007796324789524, -0.053148690611124, 0.021205700933933, -0.045216951519251, 0.039029352366924, 0.021771609783173, 0.054677568376064, 0.001727961003780, 0.079091303050518, 0.085803844034672, -0.055452693253756, 0.084692545235157, 0.022299267351627, 0.047802783548832, -0.057611431926489, 0.049311868846416, 0.055979378521442, -0.058308795094490, 0.046472273766994, 0.065518386662006, 0.016284301877022, 0.057973362505436, 0.011528044939041, 0.027589537203312, 0.050817780196667, -0.053798492997885, -0.011999942362309, -0.043223213404417, -0.057769037783146, 0.064863689243793, -0.032227672636509, -0.080428764224052, 0.014259204268456, -0.071326583623886, -0.055735055357218, -0.066051907837391, 0.052440725266933, 0.063445709645748, -0.032691393047571, -0.069853551685810, 0.049006395041943, 0.056933633983135, 0.066230274736881, -0.005143538117409, -0.000275410711765, 0.038966275751591, 0.049295119941235, 0.073025159537792, 0.053699083626270, 0.012197300791740, 0.072527416050434, 0.055362470448017, 0.021876133978367, 0.071933008730412, 0.052734978497028, -0.080832973122597, -0.065386131405830, -0.040924567729235, 0.005362764000893, -0.083833366632462, -0.022598065435886, -0.074362970888615, 0.026507668197155, 0.083520002663136, 0.079787142574787, -0.053982548415661, 0.049004055559635, 0.067980103194714, 0.012161366641521, -0.046560235321522, 0.013558976352215, -0.064946204423904, 0.030715122818947, -0.019858285784721, 0.030298650264740, 0.080259211361408, 0.075379781424999, -0.047924928367138, 0.065584979951382, -0.037781320512295, 0.082169540226460, 0.031601451337337, -0.004468157887459, 0.008362293243408, 0.021489500999451, -0.041981358081102, -0.068170227110386, 0.042863972485065, 0.071104280650616, -0.067215010523796, -0.026350673288107, -0.036403518170118, 0.065993241965771, 0.015361703932285, -0.084222637116909, 0.000285416841507, -0.067404545843601, 0.021934591233730, -0.073128677904606, -0.065237082540989, 0.063797332346439, -0.018670737743378, 0.016571931540966, -0.020705819129944, -0.039247062057257, -0.055105801671743, -0.087310925126076, 0.026570804417133, -0.073892422020435, 0.087497673928738, 0.082059718668461, 0.026419602334499, 0.017296686768532, -0.054254353046417, 0.077928505837917, -0.004532516002655, 0.056020684540272, -0.008840344846249, -0.015983454883099, -0.029008686542511, 0.031102791428566, 0.026568278670311, 0.029694899916649, -0.041906338185072, 0.065665043890476, -0.022022083401680, 0.069218583405018, 0.055354781448841, -0.051488611847162, 0.029471270740032, 0.084452889859676, -0.017186917364597, -0.057102024555206, 0.087811209261417, -0.081764630973339, -0.028505723923445, 0.048309363424778, -0.087770722806454, 0.039596982300282, 0.016094639897346, 0.005450263619423, 0.028843089938164, -0.018157139420509, 0.042898960411549, 0.036520577967167, 0.012885957956314, 0.038531728088856, 0.014371886849403, 0.058694578707218, 0.037868522107601, 0.068499527871609, -0.052185699343681, -0.001491889357567, -0.037965122610331, 0.045641206204891, -0.073062255978584, 0.060872875154018, -0.023166015744209, 0.005833439528942, 0.033311121165752, -0.084075883030891, -0.080563701689243, 0.008469894528389, -0.053854104131460, 0.063734419643879, -0.048568278551102, -0.013952165842056, 0.007015533745289, -0.001337930560112, -0.016070634126663, -0.026191145181656, 0.074660025537014, -0.027014844119549, -0.080856896936893, 0.064765982329845, 0.026850558817387, -0.079706646502018, -0.062779836356640, -0.002266950905323, 0.034328736364841, 0.085999362170696, 0.052354775369167, -0.003404520452023, -0.041889943182468, 0.005836516618729, -0.065500266849995, -0.021661348640919, -0.005557544529438, 0.031553365290165, 0.082827560603619, -0.036707606166601, 0.075105912983418, -0.034744933247566, 0.067370004951954, 0.049628861248493, -0.075658082962036, -0.014441661536694, -0.069354996085167, -0.015113525092602, -0.045170843601227, -0.013003714382648, 0.007409267127514, -0.072877354919910, 0.012880392372608, 0.041338644921780, -0.021959684789181, 0.028699092566967, -0.029651191085577, 0.069560892879963, 0.069810710847378, -0.079355858266354, 0.003864802420139, -0.080931961536407, -0.049771465361118, 0.004786640405655, 0.031653232872486, -0.079855278134346, -0.055905118584633, -0.072102084755898, -0.079683586955070, -0.017780952155590, 0.035100355744362, 0.070265121757984, -0.003891333937645, 0.023616880178452, -0.013107880949974, 0.003111407160759, 0.001721844077110, 0.043249301612377, 0.000834442675114, -0.005307488143444, -0.041933309286833, 0.031664192676544, 0.069687850773335, -0.077148452401161, -0.022715255618095, 0.058218665421009, 0.026986040174961, -0.023563250899315, -0.081809177994728, -0.009841054677963, -0.012921214103699, -0.079400509595871, -0.088073402643204, -0.015375904738903, 0.069629795849323, -0.004881173372269, 0.055545873939991, -0.050356738269329, 0.010696515440941, -0.010851129889488, 0.039600603282452, 0.068242914974689, -0.035750959068537, 0.063244424760342, 0.053728692233562, 0.048578210175037, 0.030557416379452, 0.028499320149422, -0.007154092192650, 0.058702461421490, 0.006986178457737, 0.081107608973980, 0.043452583253384, -0.049251899123192, -0.003381043672562, 0.029634140431881, 0.035579591989517, -0.025887712836266, 0.021544776856899, -0.045956015586853, -0.004035115242004, -0.084386378526688, 0.087115727365017, -0.056767337024212, 0.080042697489262, 0.020909197628498, -0.019984915852547, 0.080928318202496, 0.022879563271999, -0.085701845586300, 0.060151137411594, -0.028630819171667, -0.083566389977932, -0.070164658129215, 0.013809710741043, 0.004498519003391, -0.062964797019958, -0.001039296388626, 0.006396017968655, 0.021303907036781, 0.003780066967010, -0.005281612277031, 0.055935271084309, -0.055681951344013, -0.059303440153599, 0.010396823287010, 0.040560819208622, 0.065885446965694, 0.041943870484829, 0.006356105208397, 0.005242496728897, 0.027791775763035, 0.045593760907650, 0.071115978062153, 0.022649757564068, 0.076950676739216, 0.001044064760208, 0.039939261972904, 0.081717975437641, 0.071968458592892, 0.038034491240978, 0.038973890244961, 0.083682067692280, 0.087590701878071, -0.073086932301521, -0.076795265078545, 0.052565522491932, -0.009775519371033, 0.034862019121647, -0.007629886269569, -0.082756623625755, -0.026203516870737, -0.045867614448071, 0.000883817672729, 0.040878348052502, 0.028573684394360, 0.057126514613628, -0.040872137993574, 0.040964923799038, 0.045725740492344, -0.023703895509243, -0.053483739495277, -0.073269911110401, -0.009773604571819, -0.052156239748001, -0.049949221313000, -0.027597311884165, 0.006803326308727, -0.074616402387619, -0.031087558716536, 0.029173940420151, 0.038074456155300, -0.072096504271030, 0.064743690192699, 0.014696121215820, 0.047335423529148, -0.045623395591974, -0.021771945059299, 0.084018580615520, -0.061404228210449, -0.033801540732384, 0.080822862684727, -0.005138039588928, 0.056358031928539, 0.086656533181667, 0.023099780082703, -0.006765961647034, -0.083070047199726, 0.024469174444675, 0.064424939453602, -0.085746981203556, 0.026865370571613, -0.009335421025753, -0.047009687870741, 0.061390407383442, 0.030549027025700, 0.044962488114834, 0.062423966825008, 0.060296542942524, -0.014367714524269, 0.020232655107975, 0.065157018601894, 0.045222885906696, -0.076924428343773, -0.071362957358360, -0.064029596745968, 0.006073214113712, -0.059156198054552, -0.028266333043575, 0.061131857335567, -0.081084065139294, -0.068221755325794, 0.086645297706127, -0.015962041914463, -0.042294297367334, -0.015121132135391, -0.084562569856644, 0.019200168550014, 0.028389230370522, -0.030633214861155, -0.045939452946186, -0.034786239266396, 0.004720970988274, 0.058350332081318, -0.087963424623013, -0.074901878833771, -0.019410796463490, -0.046012219041586, -0.037505954504013, -0.087268546223640, -0.075768463313580, 0.015160538256168, -0.059846878051758, -0.078510224819183, 0.027304433286190, -0.042166426777840, -0.031780198216438, 0.001608006656170, 0.073710627853870, 0.071590565145016, -0.046076998114586, 0.059200488030910, 0.000809580087662, 0.077100999653339, -0.049486003816128, 0.037385202944279, 0.013125620782375, 0.069151811301708, -0.020866632461548, -0.072470135986805, -0.024633482098579, 0.015767872333527, 0.003919400274754, 0.028247617185116, 0.045478738844395, 0.087058238685131, -0.052888181060553, -0.061522237956524, 0.057415090501308, 0.057916603982449, 0.027136839926243, 0.056288905441761, -0.061380624771118, 0.079796440899372, 0.027595125138760, -0.056753069162369, 0.051106743514538, -0.064808025956154, -0.001155056059361, -0.076153561472893, 0.085646860301495, -0.079809591174126, -0.050266563892365, -0.053561564534903, -0.051937308162451, -0.081163428723812, 0.045424900949001, 0.083272524178028, -0.007733695209026, -0.080116376280785, 0.081216327846050, 0.070999987423420, -0.025945514440536, -0.071391090750694, -0.023723192512989, -0.044451732188463, 0.047737009823322, 0.026840545237064, -0.071250528097153, -0.017705388367176, -0.060616545379162, -0.012561023235321, 0.053363583981991, -0.048950485885143, 0.073622487485409, -0.032216250896454, 0.012629345059395, -0.081809788942337, 0.038447029888630, -0.073694609105587, 0.037019409239292, -0.014545954763889, 0.031471535563469, 0.056441374123096, -0.035955898463726, -0.066243506968021, 0.020717792212963, 0.072732053697109, 0.055737562477589, 0.021348603069782, -0.048286568373442, 0.076954774558544, -0.052501715719700, -0.060316648334265, 0.028995215892792, 0.080716736614704, 0.068534798920155, -0.066544711589813, -0.032426141202450, 0.049159012734890, 0.026754252612591, 0.007596381008625, 0.084149025380611, 0.045102335512638, -0.083141334354877, 0.015908114612103, -0.015199691057205, 0.015893109142780, -0.083412595093250, 0.036036632955074, -0.051208440214396, 0.010448373854160, 0.042585156857967, -0.014065600931644, -0.062136676162481, -0.021553583443165, -0.086203724145889, 0.079221494495869, -0.008953802287579, 0.026632845401764, 0.041375808417797, 0.070891551673412, 0.071835659444332, 0.064669303596020, 0.046583943068981, 0.021948769688606, -0.011916160583496, 0.045669116079807, 0.071293525397778, -0.030302193015814, 0.085296727716923, -0.074617706239223, 0.077697969973087, -0.075838364660740, 0.011134989559650, -0.043517652899027, 0.070283181965351, -0.073859125375748, 0.036124251782894, -0.053786985576153, 0.048896558582783, 0.012959167361259, -0.025753259658813, 0.078716851770878, -0.033836267888546, 0.053537853062153, 0.028482906520367, -0.017057523131371, -0.013748742640018, -0.075253598392010, -0.077320456504822, -0.038530688732862, -0.049876894801855, -0.059994749724865, -0.032717544585466, -0.023739866912365, 0.008523128926754, 0.044544138014317, -0.057547308504581, -0.077797286212444, -0.054448291659355, -0.014264829456806, -0.007418073713779, -0.007911995053291, -0.035328332334757, -0.023059427738190, 0.006282642483711, -0.067663453519344, -0.082847192883492, 0.021342657506466, -0.080152474343777, 0.014841295778751, 0.016155116260052, 0.045703031122684, -0.010745614767075, 0.027661100029945, 0.050303779542446, -0.065808825194836, 0.009182892739773, 0.034936703741550, 0.030769646167755, 0.007441699504852, -0.007229678332806, -0.045199502259493, -0.027831207960844, 0.041658394038677, -0.038479100912809, 0.044810689985752, 0.067536868155003, -0.041607264429331, 0.003345847129822, -0.015648305416107, 0.084293924272060, -0.043448321521282, 0.055144913494587, 0.063421331346035, -0.067782074213028, -0.054181080311537, 0.071756459772587, 0.086059905588627, -0.047462597489357, -0.062904193997383, -0.002664566040039, -0.064559489488602, -0.030934985727072, -0.076802596449852, -0.043826714158058, -0.033694256097078, 0.013075508177280, -0.028566945344210, 0.068271838128567, 0.011747084558010, -0.010797791182995, 0.056624211370945, 0.060061298310757, -0.052250102162361, -0.073421075940132, 0.007343687117100, -0.069814927875996, 0.053035207092762, 0.053388051688671, 0.046426884829998, -0.005442187190056, -0.081711038947105, 0.046401418745518, 0.030589342117310, 0.080983318388462, -0.060209870338440, 0.036817677319050, 0.055322326719761, 0.000654600560665, -0.075164183974266, 0.038278274238110, 0.073360316455364, -0.003289774060249, 0.061393149197102, 0.034919314086437, 0.014429397881031, -0.054725807160139, 0.012509688735008, -0.026856329292059, 0.060504473745823, 0.026283092796803, -0.075168944895267, 0.006827428936958, 0.012268908321857, -0.003037884831429, -0.049754418432713, 0.082479439675808, -0.084654390811920, -0.016493894159794, -0.038396745920181, 0.064223892986774, -0.066973805427551, -0.005679875612259, 0.013509854674339, -0.013211160898209, 0.017264552414417, 0.065772689878941, -0.067312307655811, -0.056159682571888, -0.087799027562141, 0.043748281896114, 0.039263121783733, -0.077310867607594, -0.015074051916599, -0.064572893083096, -0.046698771417141, 0.013065941631794, -0.065612189471722, -0.025344058871269, -0.066141933202744, -0.039848979562521, -0.006789185106754, -0.030063748359680, -0.088184289634228, -0.072829164564610, 0.042512632906437, 0.066490657627583, -0.040647916495800, 0.053039409220219, 0.023847594857216, -0.017891928553581, 0.077947430312634, -0.020176514983177, -0.077197916805744, 0.071271754801273, -0.069580987095833, 0.029304347932339, 0.066984958946705, 0.016055271029472, -0.077481061220169, 0.071718864142895, 0.025375500321388, -0.068648047745228, 0.074955426156521, 0.029289044439793, 0.082943968474865, 0.033834181725979, -0.083076789975166, 0.014338292181492, -0.051388870924711, -0.079491317272186, -0.085337758064270, 0.047756679356098, 0.078821159899235, -0.008201904594898, -0.002238079905510, -0.046344589442015, -0.005372419953346, -0.038584299385548, 0.045148245990276, 0.037374816834927, -0.034041374921799, 0.054884023964405, -0.042147248983383, -0.002147443592548, 0.083627782762051, 0.021481975913048, -0.036097258329391, 0.019025638699532, 0.027589835226536, 0.066177062690258, -0.004661969840527, 0.080381609499454, -0.014457888901234, -0.007696054875851, 0.003357969224453, 0.028635539114475, 0.076157562434673, 0.077821724116802, 0.055464781820774, -0.003609582781792, -0.083779610693455, -0.084484346210957, 0.041541405022144, 0.078711979091167, -0.026344098150730, -0.038057930767536, 0.020614020526409, 0.010105401277542, 0.066333092749119, 0.048003233969212, 0.087837107479572, 0.011393174529076, 0.012187495827675, 0.025306992232800, -0.036058608442545, 0.011821955442429, 0.085202641785145, -0.013547599315643, 0.029166653752327, 0.018478125333786, -0.080975309014320, -0.020910486578941, 0.085831277072430, 0.058250613510609, 0.039310537278652, -0.064122468233109, -0.052528984844685, -0.062911078333855, -0.044968958944082, -0.032380662858486, -0.032334323972464, 0.003199428319931, 0.036298364400864, -0.001821272075176, 0.055247612297535, -0.016117163002491, -0.062317613512278, -0.018688969314098, -0.047498866915703, 0.013336166739464, 0.035534299910069, 0.035809859633446, -0.008394069969654, -0.005349300801754, -0.003831021487713, 0.041041560471058, 0.014980025589466, -0.050000343471766, -0.078962013125420, 0.050669483840466, -0.028516240417957, -0.060549888759851, -0.022669248282909, 0.025055460631847, -0.073449715971947, 0.019151717424393, -0.059751249849796, -0.046416830271482, -0.076794758439064, 0.052562005817890, -0.000646531581879, 0.066663824021816, -0.038940757513046, -0.064069658517838, 0.073393218219280, -0.020100444555283, 0.022525295615196, 0.082319937646389, 0.001328572630882, -0.044697806239128, 0.035718254745007, 0.058997370302677, 0.014375954866409, 0.079817138612270, -0.031339764595032, -0.085679695010185, 0.016005873680115, -0.030452866107225, -0.063206128776073, 0.073843277990818, 0.069971941411495, -0.082666151225567, 0.014391802251339, -0.080883234739304, 0.046824626624584, -0.006519466638565, -0.003500126302242, 0.069223798811436, -0.076867252588272, 0.017036221921444, 0.036726407706738, 0.055336005985737, -0.050488848239183, 0.052730239927769, 0.011350922286510, -0.047431956976652, -0.046651039272547, -0.020246036350727, -0.006924286484718, -0.032418489456177, -0.082083724439144, -0.037305079400539, 0.053324617445469, 0.082874424755573, 0.016291886568069, -0.059498660266399, -0.055440954864025, 0.061506144702435, -0.041127357631922, 0.038361810147762, -0.079948417842388, -0.045588117092848, -0.034555904567242, 0.056991510093212, -0.022681497037411, -0.061235114932060, -0.000319264829159, 0.061633549630642, -0.082386068999767, 0.065586842596531, -0.087304964661598, 0.000584594905376, 0.054834224283695, -0.081345818936825, 0.086918033659458, 0.040556706488132, 0.043629087507725, 0.038621552288532, -0.003538966178894, 0.030862785875797, -0.084151789546013, -0.039452336728573, 0.012313075363636, 0.006880216300488, -0.027774434536695, 0.020742125809193, -0.054980140179396, -0.029427751898766, 0.087682701647282, 0.017376028001308, 0.032383821904659, 0.036097064614296, 0.004361964762211, -0.086526826024055, -0.031908661127090, -0.079186446964741, 0.076285816729069, -0.017348825931549, 0.047003410756588, 0.087186045944691, 0.030928030610085, -0.085587769746780, 0.044452421367168, -0.079016551375389, -0.037928327918053, -0.014159888029099, -0.038057107478380, -0.017767742276192, 0.073733039200306, 0.020275712013245, 0.083165653049946, -0.010606087744236, -0.028877966105938, 0.049899868667126, -0.060692854225636, 0.025497913360596, -0.049488596618176, 0.015643306076527, -0.031454633921385, 0.076789639890194, -0.033759225159883, -0.011598244309425, 0.070330254733562, -0.020215481519699, 0.018230706453323, -0.056398045271635, -0.060567148029804, 0.047715641558170, 0.023950323462486, 0.004514433443546, 0.083967648446560, 0.075047649443150, 0.008211575448513, 0.072264380753040, 0.021781086921692, -0.015428341925144, 0.054899446666241, 0.068855263292789, -0.070194989442825, -0.027545895427465, -0.079076208174229, 0.021193712949753, 0.019804678857327, -0.064931914210320, -0.055222339928150, -0.081247724592686, 0.074579261243343, 0.030888728797436, 0.075908713042736, -0.069397695362568, 0.060331128537655, -0.063939511775970, 0.055932767689228, -0.027488257735968, -0.083574377000332, 0.079685963690281, 0.058215223252773, -0.039011839777231, -0.061440981924534, 0.025534585118294, -0.038043662905693, 0.035761430859566, 0.079653285443783, 0.004857130348682, -0.006028957664967, 0.065410159528255, 0.006947718560696, -0.029924619942904, 0.088064260780811, -0.078652933239937, -0.073094539344311, -0.026631224900484, 0.006158642470837, 0.000579543411732, 0.065232165157795, -0.082785889506340, 0.028616718947887, -0.009148098528385, 0.081573478877544, -0.017642989754677, 0.084665067493916, -0.087636552751064, 0.075739987194538, -0.027013454586267, 0.070892833173275, 0.029005207121372, -0.035371467471123, 0.012949451804161, -0.018197193741798, 0.048935525119305, 0.014755144715309, 0.031984128057957, -0.042271245270967, -0.060269087553024, -0.080118358135223, -0.023903712630272, 0.073836512863636, 0.061543516814709, 0.004662245512009, 0.070938162505627, 0.081071086227894, -0.081320993602276, -0.045310601592064, 0.076761551201344, -0.022744253277779, 0.039164729416370, 0.001273572444916, 0.088375009596348, -0.056361336261034, -0.071705713868141, 0.006842732429504, -0.031503356993198, 0.022189535200596, -0.035121895372868, -0.019953645765781, 0.055682875216007, 0.036296293139458, 0.027550049126148, 0.043784461915493, 0.030622385442257, -0.054298099130392, 0.081066913902760, -0.053910560905933, -0.083032280206680, 0.044200025498867, -0.074436873197556, 0.040668465197086, 0.048774696886539, 0.066954962909222, 0.072971008718014, 0.016227357089520, 0.044834904372692, 0.002364560961723, -0.007956609129906, -0.077830374240875, 0.048704363405704, 0.002657420933247, -0.015775226056576, -0.077420368790627, 0.067176021635532, 0.069225527346134, -0.061443403363228, -0.021648138761520, 0.030194826424122, 0.037508107721806, 0.049131490290165, -0.009084686636925, -0.044636588543653, 0.002485670149326, -0.006071969866753, 0.048959530889988, 0.053890876471996, -0.035924181342125, 0.019858457148075, 0.082216046750546, -0.039481651037931, 0.051218830049038, -0.019855931401253, 0.039695985615253, 0.018172264099121, -0.002299465239048, -0.034925218671560, 0.032944969832897, -0.008365049958229, -0.021651551127434, 0.013866990804672, -0.054362796247005, 0.070521660149097, -0.045302256941795, 0.061588071286678, 0.071560122072697, 0.011646166443825, 0.008145362138748, -0.002132862806320, 0.080443553626537, -0.019806973636150, -0.053669650107622, -0.017681196331978, -0.017882674932480, 0.010400243103504, -0.019639417529106, -0.012248776853085, -0.023114554584026, -0.064015671610832, -0.042101498693228, 0.024342477321625, -0.006328433752060, 0.015743762254715, 0.000750318169594, -0.011632889509201, -0.042549330741167, -0.050128176808357, -0.045984487980604, 0.066318280994892, 0.051113568246365, 0.051206104457378, 0.076391689479351, 0.007094159722328, 0.046398468315601, 0.087817020714283, 0.016643814742565, 0.002807758748531, 0.050905637443066, 0.063981585204601, -0.059343308210373, 0.006446361541748, 0.013052016496658, -0.005272783339024, -0.086267791688442, 0.067249469459057, 0.067923791706562, 0.072316996753216, -0.007764585316181, 0.011674992740154, -0.017326377332211, -0.048535887151957, 0.004594072699547, -0.040236309170723, -0.001915782690048, 0.050114922225475, 0.082267276942730, -0.051968835294247, -0.000848099589348, 0.032490812242031, -0.012147858738899, -0.059972964227200, -0.039444856345654, 0.023260824382305, -0.038969185203314, 0.006586775183678, -0.041238140314817, 0.058215774595737, -0.009390108287334, -0.071217633783817, 0.039605937898159, -0.053639557212591, 0.067331127822399, -0.043673913925886, 0.076771058142185, 0.021784797310829, 0.076027818024158, -0.073363967239857, 0.016733966767788, -0.015844687819481, 0.026950992643833, -0.053651399910450, 0.052526675164700, -0.033673580735922, -0.047080032527447, -0.082542978227139, 0.080890394747257, 0.020746067166328, -0.030884619802237, 0.019436948001385, -0.061648488044739, -0.011246822774410, 0.048796378076077, 0.086951263248920, -0.064892955124378, 0.007397174835205, 0.035600282251835, -0.072720468044281, -0.039756067097187, 0.026833988726139, -0.073774747550488, -0.003491126000881, -0.046441651880741, 0.038803450763226, -0.073232173919678, 0.083965219557285, 0.072262786328793, -0.028121788054705, -0.035863447934389, -0.077532432973385, -0.038323368877172, 0.041827104985714, -0.014513902366161, -0.087182693183422, 0.005356043577194, -0.027839805930853, -0.043415363878012, 0.001690745353699, 0.087946332991123, -0.043848443776369, -0.033748310059309, 0.084893651306629, -0.085860311985016, -0.039144515991211, -0.048381969332695, -0.050807330757380, -0.022042930126190, 0.025854371488094, 0.038893349468708, 0.063685886561871, 0.083627782762051, 0.004355072975159, -0.066595263779163, -0.076138868927956, 0.031293928623199, 0.030958689749241, 0.023122161626816, 0.066870845854282, 0.018581636250019, -0.004771590232849, -0.024323031306267, -0.020640768110752, -0.070228599011898, -0.086123920977116, -0.074563965201378, -0.068313777446747, 0.008323647081852, 0.031802512705326, -0.045754469931126, 0.019695430994034, 0.029901944100857, 0.007801085710526, 0.081410638988018, -0.055300731211901, 0.007367648184299, -0.023606471717358, -0.045931108295918, -0.024310640990734, -0.033351916819811, 0.071729607880116, -0.013109736144543, 0.041685976088047, 0.069994665682316, -0.007004424929619, -0.056962434202433, 0.063286550343037, 0.036047227680683, -0.072003588080406, -0.021644890308380, 0.044290967285633, -0.042364913970232, -0.062288932502270, -0.029835730791092, -0.019665360450745, -0.048663444817066, -0.057854704558849, 0.013462185859680, -0.002424731850624, -0.027943275868893, -0.034121878445148, 0.016675524413586, 0.002970613539219, 0.002757728099823, 0.006059497594833, 0.039382927119732, 0.009277023375034, 0.021418966352940, 0.053411476314068, 0.039876289665699, -0.073260642588139, -0.063618913292885, 0.024360202252865, 0.032671540975571, -0.001642085611820, 0.016904681921005, 0.061782874166965, 0.046623013913631, -0.043878052383661, 0.028985902667046, 0.068298749625683, 0.066162817180157, -0.038230542093515, 0.085643209517002, -0.070606067776680, 0.021131820976734, -0.059078164398670, 0.028600998222828, 0.072925947606564, -0.007572464644909, -0.088346891105175, -0.033911228179932, -0.003869183361530, -0.045120477676392, -0.070132717490196, -0.025779984891415, 0.062205947935581, -0.058299794793129, 0.009614072740078, -0.062166050076485, 0.075865067541599, -0.071161769330502, -0.084204636514187, 0.077424623072147, -0.033178273588419, 0.021011509001255, -0.057965382933617, -0.020270399749279, -0.055632427334785, 0.036863230168819, -0.012074522674084, -0.059691905975342, -0.025810539722443, -0.058243382722139, -0.062650233507156, -0.047720748931170, 0.087325043976307, -0.061393268406391, -0.052516806870699, 0.016490355134010, -0.059394352138042, 0.046484164893627, 0.073414750397205, 0.010576263070107, -0.021286077797413, -0.026084832847118, -0.041510030627251, -0.066534467041492, -0.013500981032848, -0.044704969972372, -0.079539969563484, -0.019138544797897, 0.003650844097137, -0.037412282079458, -0.071416042745113, 0.062993936240673, 0.009160913527012, 0.006605461239815, -0.076591506600380, -0.083513662219048, 0.043372116982937, 0.006537437438965, 0.035626538097858, -0.035002134740353, -0.025220863521099, -0.032112315297127, -0.040837660431862, 0.019368268549442, -0.008894778788090, -0.062512412667274, -0.003599993884563, -0.003054909408092, -0.068178214132786, 0.029010795056820, -0.005127392709255, 0.031942360103130, 0.017736427485943, 0.024764627218246, 0.033027194440365, 0.048191212117672, 0.025315165519714, -0.057332523167133, 0.039077647030354, 0.011678911745548, -0.045084357261658, -0.057745672762394, 0.016998752951622, 0.052281580865383, 0.010990552604198, -0.076581835746765, -0.013702295720577, -0.065291367471218, 0.002561330795288, 0.055805139243603, 0.083141513168812, -0.021319098770618, -0.006338819861412, -0.009512335062027, 0.008110485970974, 0.037027381360531, 0.001629441976547, 0.086319975554943, 0.049617670476437, -0.056327302008867, 0.053713656961918, -0.075342692434788, -0.038042396306992, -0.004014194011688, -0.076267838478088, -0.066151082515717, 0.082430578768253, -0.075855709612370, -0.002726249396801, -0.045870415866375, -0.036582726985216, 0.049851350486279, 0.087324179708958, 0.012525662779808, -0.083231173455715, 0.029504582285881, 0.056029848754406, -0.066776499152184, -0.034563113003969, 0.030408613383770, 0.003697983920574, 0.073249541223049, 0.039166726171970, 0.078333683311939, 0.048213057219982, -0.007872313261032, 0.011631794273853, 0.069472633302212, -0.049357604235411, -0.075597114861012, 0.014569848775864, -0.028671614825726, -0.053069584071636, 0.081971548497677, 0.017296202480793, -0.006209433078766, 0.024805314838886, -0.061295971274376, -0.056584965437651, -0.008630409836769, -0.013274848461151, 0.058055721223354, 0.071864925324917, 0.014161825180054, -0.057058319449425, -0.079030141234398, -0.022966705262661, -0.004847057163715, 0.067124061286449, 0.085916049778461, 0.070630125701427, 0.022470615804195, 0.060909785330296, 0.017284467816353, -0.041207436472178, 0.031228497624397, -0.058708854019642, 0.067724712193012, 0.061774425208569, 0.079320900142193, -0.047724246978760, -0.070891544222832, 0.036640338599682, -0.015548646450043, 0.062153182923794, -0.087007001042366, 0.085888810455799, 0.075084574520588, 0.003011964261532, -0.051863636821508, -0.081404358148575, 0.028051130473614, 0.043163307011127, 0.049166090786457, 0.059785731136799, -0.032526280730963, -0.025990463793278, 0.044133313000202, 0.045195259153843, 0.043040297925472, -0.040495745837688, -0.067513264715672, -0.053003434091806, 0.001995824277401, -0.020329385995865, -0.030168861150742, -0.019011199474335, -0.085512243211269, -0.075709417462349, 0.057044453918934, -0.060349754989147, 0.010395370423794, -0.027880478650331, 0.021596550941467, 0.058400459587574, 0.013234212994576, -0.070527106523514, -0.067936904728413, -0.048553336411715, 0.060442261397839, -0.025373391807079, 0.048193506896496, 0.083905167877674, -0.082798115909100, -0.087397344410419, -0.058843784034252, -0.033924039453268, -0.045785237103701, 0.003100894391537, 0.033425085246563, -0.000148504972458, -0.040067236870527, -0.008065201342106, 0.053923346102238, -0.070865482091904, 0.040210075676441, -0.035449016839266, 0.043634720146656, -0.031196992844343, 0.058621875941753, -0.043044239282608, -0.035699814558029, -0.010982982814312, -0.057825580239296, -0.071600645780563, 0.060222782194614, 0.013802036643028, -0.029985290020704, -0.067383512854576, -0.000558637082577, 0.039271630346775, 0.074123598635197, -0.076739296317101, 0.066230498254299, 0.022180981934071, 0.040565408766270, 0.004398301243782, -0.039080768823624, 0.013508699834347, 0.039893038570881, 0.030254185199738, -0.051226038485765, -0.000273533165455, -0.064372688531876, 0.080721683800220, 0.058050133287907, -0.025575570762157, -0.077672660350800, 0.027748033404350, 0.055329747498035, -0.026078868657351, -0.022150106728077, 0.066820479929447, 0.044707410037518, -0.064368434250355, -0.078594051301479, 0.037637241184711, 0.027792096138000, -0.078077666461468, 0.035248145461082, -0.041539765894413, -0.012514792382717, -0.032130692154169, 0.000389419496059, -0.057868149131536, 0.086731337010860, 0.083413206040859, -0.054012071341276, -0.035489164292812, 0.071602649986744, 0.024924300611019, -0.020912989974022, 0.016927666962147, -0.076806098222733, -0.020775891840458, 0.078960649669170, 0.087738506495953, -0.065784402191639, 0.076910980045795, -0.003001041710377, 0.004534408450127, 0.008215665817261, -0.075843930244446, -0.019983671605587, 0.028929933905602, 0.048977412283421, -0.025590449571609, -0.039043851196766, -0.032609879970551, -0.059197060763836, 0.007672622799873, -0.039842404425144, 0.017233930528164, 0.008964993059635, 0.038023747503757, 0.027068771421909, 0.065629549324512, -0.052520766854286, 0.019676320254803, -0.082902595400810, 0.083618082106113, 0.054730214178562, 0.084875322878361, -0.006657369434834, 0.050437189638615, -0.076558023691177, 0.008494995534420, 0.027746282517910, -0.004324853420258, -0.040118552744389, 0.031528100371361, -0.082736685872078, 0.022339448332787, -0.035323884338140, -0.079487860202789, -0.062358789145947, -0.059707649052143, -0.030719488859177, -0.034795574843884, -0.058020912110806, 0.031984314322472, -0.079711049795151, -0.080825790762901, 0.050664849579334, 0.065528817474842, -0.053844071924686, -0.001719594001770, 0.006702378392220, -0.042788535356522, 0.083207733929157, -0.022822454571724, -0.080872997641563, 0.066932119429111, 0.067760981619358, -0.073548696935177, -0.005054078996181, -0.071997962892056, 0.078110240399837, 0.005312442779541, 0.039234675467014, -0.008295640349388, 0.053647391498089, 0.015700481832027, -0.000729732215405, 0.067532040178776, 0.044586651027203, 0.063811205327511, 0.085048951208591, 0.005534514784813, 0.045629926025867, -0.085730105638504, -0.068988725543022, -0.043515250086784, -0.037938926368952, -0.021728344261646, -0.082423031330109, 0.042823664844036, -0.062200948596001, 0.058037154376507, -0.032024774700403, 0.035663485527039, -0.017366185784340, 0.005657352507114, -0.026975478976965, -0.053844872862101, -0.059025183320045, 0.050620190799236, 0.027496330440044, 0.082808248698711, -0.080027848482132, 0.011264294385910, 0.035622559487820, 0.071408770978451, 0.052754558622837, 0.029228247702122, -0.043910544365644, 0.015441909432411, -0.020362198352814, 0.017408885061741, -0.083709478378296, 0.018401861190796, -0.053116638213396, 0.023318015038967, -0.035920158028603, -0.081268183887005, 0.066375128924847, 0.041071034967899, 0.047170855104923, 0.010992884635925, 0.063199512660503, 0.016050614416599, -0.048560332506895, -0.033546298742294, -0.015889741480350, -0.010273881256580, -0.058362931013107, -0.017914898693562, 0.077898524701595, -0.038815204054117, 0.025988064706326, 0.016286388039589, -0.046038202941418, 0.017850726842880, -0.044235371053219, 0.041578628122807, -0.012767821550369, -0.025803625583649, 0.040458656847477, 0.037006877362728, -0.056372463703156, -0.015351943671703, -0.014154069125652, 0.028536409139633, 0.013486191630363, 0.042043067514896, 0.054257981479168, 0.079057954251766, 0.065699748694897, 0.046998314559460, 0.000186897814274, -0.078923933207989, -0.050140038132668, -0.041696131229401, 0.019959226250648, 0.029403097927570, -0.041801452636719, -0.011548765003681, -0.008450403809547, 0.035814896225929, 0.077443860471249, -0.042265828698874, -0.077633105218410, -0.044983729720116, 0.020078502595425, 0.047256387770176, -0.050971724092960, -0.020751297473907, -0.076337866485119, -0.084333270788193, 0.049382843077183, 0.024538509547710, 0.077308110892773, -0.010507717728615, 0.064406119287014, -0.085820674896240, -0.002699524164200, -0.083433561027050, 0.036599181592464, -0.084690064191818, 0.081108041107655, -0.080358169972897, -0.059816703200340, -0.042126301676035, -0.033960875123739, -0.000908158719540, -0.002978600561619, 0.076304145157337, -0.067460834980011, 0.034327596426010, -0.063165962696075, 0.007265023887157, 0.079265870153904, -0.086951158940792, -0.018244966864586, -0.009287521243095, 0.071661166846752, -0.007402062416077, -0.043911091983318, -0.015738032758236, 0.063223309814930, -0.028898574411869, 0.005964703857899, 0.006917439401150, -0.060971084982157, 0.071287728846073, 0.003416717052460, 0.027947194874287, -0.042173251509666, 0.048690922558308, -0.061733163893223, 0.032507359981537, 0.010796487331390, 0.041588105261326, 0.018509164452553, -0.073364511132240, 0.036378607153893, 0.031741507351398, 0.067728526890278, -0.087572380900383, 0.082882978022099, 0.026581592857838, -0.023092322051525, -0.032516062259674, 0.087462626397610, -0.021883383393288, 0.012338533997536, 0.022631615400314, -0.058302685618401, -0.072504088282585, -0.023634433746338, 0.059527464210987, 0.004410222172737, -0.077313780784607, -0.066182665526867, 0.022162690758705, 0.041680537164211, -0.072594001889229, 0.082779757678509, 0.078011207282543, -0.043040569871664, -0.068011336028576, 0.031512059271336, 0.046543858945370, 0.012354381382465, 0.077096052467823, -0.074318803846836, 0.079580180346966, -0.047070149332285, -0.086277276277542, 0.047255717217922, -0.002408400177956, -0.005126364529133, 0.027991726994514, 0.016972936689854, 0.081766016781330, 0.063465215265751, -0.002035520970821, 0.013505391776562, -0.000172108411789, 0.026925384998322, -0.036000847816467, 0.042860232293606, -0.086746409535408, -0.026099815964699, 0.004453174769878, -0.056593902409077, 0.039148904383183, 0.021226502954960, 0.048015691339970, 0.011203266680241, 0.074718780815601, -0.064248926937580, 0.008354224264622, -0.041830178350210, -0.084047242999077, 0.064513064920902, -0.051818832755089, 0.077622868120670, 0.016397170722485, -0.060328342020512, -0.062949985265732, 0.017251126468182, 0.028431423008442, 0.033721230924129, -0.044306851923466, 0.027088455855846, 0.073705412447453, -0.072070121765137, -0.043282262980938, 0.061701156198978, 0.014010012149811, -0.000277139246464, 0.008948810398579, -0.059301204979420, 0.076739378273487, -0.056211967021227, 0.064033411443233, -0.032442323863506, -0.055219493806362, -0.029123578220606, 0.076122157275677, -0.047681488096714, -0.014420457184315, -0.062749154865742, 0.006374374032021, -0.079334005713463, -0.030578572303057, 0.079669199883938, -0.062513887882233, 0.074225030839443, -0.046352218836546, -0.011230237782001, -0.065196618437767, -0.056998047977686, 0.032210394740105, 0.015250861644745, 0.051432363688946, -0.032378956675529, -0.029608856886625, 0.017835766077042, -0.053163718432188, -0.064097896218300, 0.070407785475254, -0.076668761670589, -0.018721647560596, -0.018389262259007, -0.045741256326437, 0.021031595766544, 0.029834426939487, 0.052317865192890, 0.030619308352470, -0.065627992153168, 0.043680198490620, -0.008466541767120, 0.026158712804317, 0.008927419781685, -0.042844042181969, 0.026043862104416, -0.035584773868322, -0.030283670872450, -0.047762725502253, -0.047236185520887, -0.050705146044493, 0.073194541037083, -0.037616778165102, 0.072856850922108, -0.084024250507355, 0.016928136348724, 0.035208210349083, -0.056632425636053, -0.077381320297718, 0.035073108971119, -0.029000211507082, 0.019739374518394, -0.069422751665115, 0.041547290980816, -0.003624714910984, -0.064173214137554, -0.004486344754696, 0.019054003059864, 0.036816962063313, 0.031409896910191, -0.034221746027470, 0.028105162084103, -0.079021714627743, 0.040557958185673, 0.012642540037632, -0.051262050867081, 0.030257686972618, 0.084392257034779, 0.052410192787647, 0.036077849566936, -0.011992678046227, -0.016463883221149, 0.087955184280872, 0.032318919897079, 0.071306727826595, -0.057343252003193, -0.087230823934078, 0.020428515970707, -0.065499871969223, -0.028575919568539, -0.067128993570805, -0.007742442190647, 0.000387854874134, -0.017022795975208, 0.023653991520405, -0.011543013155460, 0.074312306940556, 0.079568289220333, 0.085138969123363, 0.071140088140965, 0.039768822491169, 0.060215450823307, -0.087126530706882, -0.081151328980923, 0.042831800878048, 0.053612194955349, -0.021963566541672, -0.079801350831985, -0.038954414427280, -0.038522660732269, -0.042325530201197, 0.023210629820824, -0.067151539027691, 0.063630484044552, 0.027470260858536, 0.001906216144562, 0.064283512532711, 0.087331287562847, 0.073975659906864, 0.057756908237934, 0.007905505597591, 0.010956577956676, 0.052543260157108, 0.027247808873653, 0.001607626676559, 0.046022243797779, -0.006462946534157, -0.070992827415466, 0.020260751247406, 0.070955105125904, -0.063397392630577, -0.059292122721672, 0.074971102178097, 0.074023418128490, -0.000481188297272, 0.035562247037888, 0.059611074626446, -0.035963293164968, 0.086280412971973, 0.004047632217407, 0.004083879292011, 0.035839214920998, -0.048140425235033, -0.052462436258793, -0.084109261631966, -0.071118526160717, -0.038095250725746, 0.048056237399578, -0.071197785437107, -0.018330805003643, -0.004024244844913, -0.063283845782280, 0.020963966846466, -0.036164417862892, -0.007133588194847, 0.019430413842201, -0.040533844381571, -0.056117832660675, -0.058788701891899, -0.040850516408682, 0.073106430470943, -0.009386248886585, -0.063842147588730, -0.044939562678337, 0.014988869428635, -0.046558547765017, -0.025806918740273, -0.045450106263161, -0.062696911394596, 0.065065212547779, -0.060813307762146, 0.057290740311146, 0.030845127999783, -0.053083702921867, -0.035501196980476, -0.068778932094574, -0.005168825387955, -0.011085905134678, -0.001795835793018, 0.080736316740513, -0.045115020126104, 0.031985476613045, -0.083338946104050, -0.026779662817717, 0.076179705560207, -0.013402886688709, -0.060064591467381, -0.026006437838078, -0.073018848896027, -0.028894636780024, 0.005164802074432, 0.070236332714558, 0.039748288691044, -0.044840767979622, -0.079643025994301, -0.085156649351120, 0.010543368756771, 0.021325759589672, -0.043350055813789, 0.072919793426991, 0.040398381650448, 0.036714471876621, 0.041846595704556, 0.036511391401291, -0.021431021392345, 0.049025557935238, 0.012524902820587, -0.016952432692051, 0.049031578004360, -0.000042781233788, -0.049815446138382, 0.051010839641094, -0.057593606412411, -0.046250812709332, 0.083050049841404, 0.037864141166210, -0.072584249079227, 0.064148895442486, -0.085385255515575, -0.032526936382055, -0.074612483382225, 0.028204143047333, 0.008196823298931, -0.078505374491215, 0.009921029210091, 0.047563292086124, -0.054799627512693, -0.005237504839897, 0.044405601918697, -0.035596702247858, 0.002635315060616, -0.058291472494602, -0.046048108488321, 0.052492998540401, 0.030803911387920, 0.079183749854565, 0.060969568789005, 0.084499455988407, -0.024226956069469, 0.000254862010479, 0.011438697576523, 0.059440441429615, 0.030788294970989, -0.076554395258427, -0.046288069337606, 0.007780373096466, -0.043607003986835, -0.036206040531397, -0.077025070786476, -0.035963166505098, 0.009061023592949, -0.062955632805824, 0.039821080863476, 0.041367791593075, -0.043343964964151, -0.028699073940516, 0.004416085779667, 0.079122744500637, -0.047581683844328, -0.088042803108692, -0.085614196956158, -0.011984206736088, 0.074712194502354, 0.081653006374836, -0.035150617361069, -0.067267633974552, 0.075102739036083, -0.014227852225304, 0.029021792113781, 0.022550120949745, 0.028635412454605, 0.005669824779034, 0.050816453993320, 0.025422766804695, 0.007882200181484, -0.026217065751553, -0.032463420182467, -0.069619446992874, 0.001902930438519, -0.088050328195095, -0.048095516860485, 0.020462207496166, 0.059134446084499, -0.082085177302361, -0.011343948543072, 0.077240921556950, 0.027763374149799, -0.062206998467445, -0.080614909529686, -0.002281241118908, 0.009398639202118, -0.070325762033463, 0.004875481128693, -0.049439791589975, -0.068083576858044, 0.010711029171944, -0.039086714386940, -0.066026389598846, -0.003589518368244, 0.038896717131138, -0.046794611960649, -0.014330983161926, -0.018599025905132, 0.037209473550320, 0.042904756963253, -0.065460905432701, -0.005013704299927, -0.034288145601749, 0.032092824578285, 0.009826473891735, -0.051789477467537, -0.020254403352737, 0.008462831377983, 0.072413600981236, 0.050309218466282, -0.024896502494812, 0.006373278796673, 0.064184196293354, 0.075069941580296, 0.086379818618298, 0.008348323404789, 0.076798848807812, 0.080181695520878, 0.069119445979595, 0.052455507218838, 0.022349230945110, 0.073683433234692, 0.041366703808308, 0.049150876700878, -0.068631798028946, -0.080467350780964, 0.033406458795071, -0.087583065032959, 0.067880548536777, 0.084335170686245, -0.066965043544769, -0.043585803359747, 0.064759396016598, 0.034261129796505, 0.003750883042812, -0.087647341191769, 0.034983545541763, -0.004044935107231, 0.085295312106609, -0.072773300111294, 0.027386471629143, 0.046460933983326, 0.008454382419586, -0.087947785854340, 0.001861520111561, -0.035502228885889, -0.058674607425928, 0.008210524916649, 0.057865910232067, 0.054059483110905, -0.083460472524166, -0.029628474265337, 0.004404410719872, 0.074830077588558, 0.039765156805515, -0.071345448493958, -0.063056513667107, -0.070146240293980, 0.062148652970791, -0.002064205706120, 0.067391000688076, 0.046177126467228, 0.039182282984257, -0.046473875641823, -0.048354890197515, -0.051146760582924, 0.051729582250118, 0.023924261331558, -0.036807537078857, -0.079294338822365, -0.046424034982920, 0.084248013794422, -0.076009921729565, 0.052563168108463, -0.080017857253551, -0.047756064683199, 0.050610236823559, -0.043186735361814, -0.086445018649101, -0.071864530444145, 0.075510151684284, -0.083924002945423, -0.017978519201279, 0.018549524247646, 0.009864322841167, 0.064289666712284, -0.057043630629778, 0.066536299884319, -0.079835630953312, -0.002692297101021, 0.067516706883907, -0.078988000750542, 0.023176848888397, 0.071261517703533, -0.060281433165073, 0.081340380012989, -0.017293296754360, -0.036749374121428, 0.042088933289051, 0.011089913547039, 0.074512757360935, -0.051780268549919, 0.030703328549862, -0.072908505797386, 0.047555454075336, -0.063616096973419, -0.068006977438927, 0.071418277919292, -0.032361634075642, 0.035967044532299, 0.048781253397465, 0.028625190258026, 0.028142504394054, -0.083440788090229, 0.001257069408894, -0.040688820183277, 0.040528558194637, 0.078627534210682, 0.028889663517475, 0.085827656090260, -0.055130857974291, -0.036346893757582, -0.053518235683441, -0.004879064857960, -0.021630667150021, -0.029756158590317, -0.026106074452400, -0.016504302620888, -0.029730640351772, 0.024081952869892, 0.069404520094395, 0.034884482622147, -0.057945888489485, -0.009998708963394, 0.024218425154686, 0.061007998883724, -0.068667143583298, -0.076896667480469, 0.017431981861591, 0.080258764326572, -0.057074166834354, 0.032952554523945, -0.087199866771698, -0.079608820378780, -0.027092795819044, 0.025087721645832, 0.018210411071777, 0.048091746866703, -0.027318827807903, 0.016117207705975, 0.081050299108028, 0.064669065177441, -0.014734476804733, 0.053339786827564, 0.019238330423832, 0.010744012892246, -0.051115632057190, -0.064782612025738, -0.056977313011885, 0.030163399875164, 0.022203147411346, 0.019148088991642, -0.043762926012278, 0.032729573547840, -0.020382471382618, -0.039491113275290, -0.042632360011339, -0.034724283963442, 0.071708284318447, 0.007470950484276, 0.067615203559399, -0.063959129154682, 0.026058427989483, 0.001906789839268, -0.004442848265171, -0.037832718342543, 0.002606995403767, 0.070402152836323, 0.023460581898689, 0.034051872789860, 0.018290087580681, -0.069426476955414, 0.050530083477497, 0.063378654420376, -0.073030754923820, -0.044115904718637, 0.073312379419804, -0.029546394944191, 0.081731446087360, -0.054694555699825, -0.004168577492237, -0.017741903662682, 0.059812165796757, 0.039394073188305, 0.074338383972645, 0.058214820921421, 0.057855658233166, -0.005203872919083, -0.027588862925768, -0.076068297028542, 0.042684517800808, -0.027052018791437, -0.021525382995605, 0.018417939543724, -0.061668425798416, -0.073341012001038, -0.034496836364269, -0.063559405505657, -0.058579608798027, 0.050999544560909, 0.013121470808983, -0.050908058881760, -0.064762257039547, -0.013315752148628, -0.065315835177898, 0.073198489844799, -0.060170777142048, 0.050627060234547, -0.084485419094563, -0.060671608895063, 0.000264681875706, -0.077182993292809, -0.084407262504101, 0.051499463617802, 0.086109273135662, 0.011301890015602, -0.017568767070770, 0.074059240520000, -0.013320766389370, 0.088147006928921, -0.006346791982651, -0.004153385758400, 0.048799119889736, -0.041484531015158, 0.068481795489788, 0.024226747453213, -0.013168573379517, -0.062561452388763, -0.020663902163506, 0.069574840366840, 0.058205999433994, 0.048839218914509, 0.011406414210796, 0.034949429333210, 0.062317691743374, 0.032916031777859, 0.051610164344311, 0.060933403670788, 0.047161810100079, -0.021665796637535, 0.041574828326702, -0.014501780271530, 0.076264761388302, 0.071395523846149, 0.086234681308270, -0.045328807085752, -0.005288146436214, 0.000642299652100, 0.086199916899204, -0.048690821975470, -0.007171772420406, -0.018739856779575, -0.049901697784662, -0.040999252349138, 0.046130530536175, 0.078053511679173, -0.054708357900381, -0.039777308702469, 0.009740769863129, -0.010345071554184, -0.011758103966713, 0.028315603733063, 0.020502336323261, 0.031746879220009, -0.068705327808857, 0.022218994796276, 0.079143457114697, 0.064226485788822, -0.027747988700867, -0.053659744560719, -0.069435536861420, -0.047232203185558, 0.021018125116825, 0.071694113314152, 0.051223509013653, -0.017430715262890, -0.056510388851166, -0.015310011804104, 0.087786294519901, -0.026540566235781, 0.039822302758694, -0.025494270026684, 0.035021878778934, 0.047010593116283, -0.006365582346916, 0.079161815345287, -0.081774957478046, -0.086482740938663, 0.067963115870953, 0.009825251996517, -0.035529118031263, -0.059507280588150, 0.007359005510807, 0.068567059934139, 0.032982118427753, -0.079820506274700, 0.012677855789661, -0.088007107377052, 0.004255421459675, 0.002144455909729, 0.059459425508976, 0.028618171811104, -0.074841104447842, 0.035781405866146, -0.068901687860489, 0.073634363710880, -0.072750307619572, 0.048762299120426, -0.009815432131290, 0.016466543078423, -0.018253989517689, 0.085451431572437, 0.065099470317364, 0.001253299415112, 0.061529509723186, -0.072789229452610, 0.024547040462494, -0.005786001682281, -0.045826036483049, 0.000251911580563, -0.049314215779305, 0.062533043324947, -0.013160519301891, 0.048941694200039, 0.018284417688847, 0.073420800268650, 0.047413103282452, 0.030441738665104, -0.026336006820202, 0.011009112000465, -0.026108559221029, 0.075802974402905, -0.017484918236732, -0.018271751701832, -0.027758650481701, -0.078340180218220, 0.030399680137634, -0.016853891313076, 0.067053236067295, 0.044420011341572, 0.046918861567974, -0.001614458858967, 0.003406032919884, -0.087502270936966, -0.070233061909676, -0.070010259747505, -0.070221640169621, -0.079416714608669, -0.064516350626945, 0.077145226299763, -0.040823016315699, -0.025147698819637, 0.038283430039883, 0.035758674144745, 0.073296718299389, 0.062593169510365, -0.055689051747322, 0.059937410056591, -0.057644560933113, -0.015238948166370, -0.087076395750046, -0.053748928010464, -0.067417465150356, 0.043890230357647, -0.044123217463493, 0.076696373522282, -0.057726640254259, 0.065956421196461, -0.008467726409435, -0.061353482306004, -0.014866396784782, -0.050371911376715, -0.009998179972172, -0.006655894219875, 0.041041128337383, -0.013093106448650, 0.000522516667843, 0.019076317548752, -0.003318980336189, -0.053130991756916, 0.061069302260876, 0.051572300493717, -0.084636896848679, -0.056297883391380, -0.023303374648094, 0.084174625575542, 0.052452959120274, -0.083740495145321, -0.014692686498165, -0.067821860313416, 0.009994111955166, -0.087601169943810, -0.082114450633526, -0.007602639496326, 0.015801675617695, 0.012344308197498, -0.049871668219566, 0.056465037167072, 0.023914925754070, -0.048405695706606, -0.079440973699093, -0.087663523852825, -0.076307795941830, -0.083161778748035, -0.077420346438885, -0.022552169859409, 0.081114046275616, -0.004704661667347, 0.087437085807323, 0.013521172106266, -0.043281376361847, 0.047673054039478, 0.002103105187416, -0.019996382296085, -0.042338490486145, -0.088350452482700, 0.070537380874157, -0.025515325367451, 0.050279088318348, 0.003079250454903, 0.031247884035110, 0.067702628672123, 0.086924307048321, 0.054725654423237, 0.064422674477100, 0.026260226964951, 0.069144330918789, 0.064388103783131, 0.003769867122173, 0.020050562918186, -0.073164612054825, 0.006126843392849, 0.048189140856266, 0.030308470129967, 0.086018599569798, -0.072076484560966, -0.009355291724205, -0.064877673983574, -0.029284346848726, 0.048835910856724, -0.029299370944500, -0.082669183611870, 0.026454567909241, -0.027701754122972, 0.028514511883259, 0.011854074895382, 0.016399130225182, -0.061498068273067, -0.050851900130510, -0.028431527316570, -0.065206609666348, -0.032957401126623, -0.068200640380383, -0.001522131264210, -0.072134353220463, -0.073676101863384, -0.052986364811659, 0.017663747072220, -0.006503552198410, -0.069715775549412, 0.000316694378853, -0.073997408151627, 0.085349045693874, 0.081866316497326, -0.058457173407078, 0.082886956632137, 0.071168772876263, 0.083256728947163, -0.034377180039883, 0.032518438994884, 0.069530539214611, 0.023642718791962, -0.049880858510733, -0.065220057964325, -0.062602229416370, -0.009447760879993, 0.059829838573933, -0.053427703678608, -0.062588617205620, 0.064513184130192, -0.060628008097410, 0.009010888636112, 0.010740235447884, -0.055272366851568, -0.058425266295671, -0.052766632288694, -0.003266550600529, -0.069363683462143, 0.042372919619083, 0.001965455710888, 0.074098430573940, 0.069396667182446, -0.049161180853844, -0.079571500420570, -0.034704703837633, -0.076940126717091, 0.022319450974464, 0.087798662483692, 0.046683602035046, -0.007979996502399, 0.050696693360806, -0.001296244561672, 0.064650632441044, -0.015096411108971, 0.011891819536686, 0.063928164541721, 0.002772316336632, 0.047957964241505, 0.028689086437225, 0.006370812654495, 0.063255317509174, 0.022262215614319, 0.026881806552410, 0.031127534806728, -0.045639324933290, -0.060523085296154, 0.041784085333347, 0.037893600761890, 0.074034430086613, 0.073619075119495, -0.046118725091219, 0.003595106303692, 0.084624148905277, -0.020698800683022, -0.066460877656937, -0.047870032489300, 0.066088177263737, -0.048046711832285, -0.078257843852043, -0.025925159454346, 0.040660806000233, -0.045223314315081, -0.025039337575436, -0.084164179861546, -0.054400749504566, -0.049119539558887, 0.031550116837025, -0.015050366520882, 0.041177384555340, 0.025417648255825, -0.016641847789288, -0.072106763720512, -0.077855318784714, -0.043352205306292, 0.083833537995815, 0.074357382953167, 0.060758240520954, 0.044551201164722, 0.027070142328739, -0.055194057524204, 0.077693946659565, -0.002122975885868, 0.060519225895405, 0.000461801886559, -0.072253711521626, -0.060743004083633, -0.018922373652458, -0.087435744702816, -0.024764917790890, 0.053405173122883, 0.068563841283321, -0.056699290871620, 0.066692598164082, 0.059723727405071, 0.048797555267811, 0.082646004855633, -0.045657869428396, 0.058695428073406, 0.047291822731495, 0.069385342299938, 0.077756695449352, -0.042847245931625, -0.084200970828533, 0.005532383918762, -0.031991016119719, 0.034238368272781, -0.035403311252594, -0.022983670234680, 0.055865861475468, 0.002950742840767, -0.001204177737236, -0.039628952741623, 0.077486835420132, 0.053552858531475, -0.015191532671452, 0.072212032973766, 0.025779284536839, -0.080421939492226, -0.074401661753654, -0.004914574325085, 0.037703551352024, 0.072979040443897, 0.025211840867996, 0.082364030182362, -0.079794034361839, 0.011739917099476, -0.019025526940823, -0.025713264942169, 0.066038422286510, 0.068356670439243, 0.075246565043926, -0.062636896967888, 0.070393584668636, -0.071494728326797, 0.036552466452122, -0.009384438395500, 0.014084316790104, -0.029340822249651, 0.005772642791271, -0.081339515745640, 0.045684821903706, 0.001963429152966, -0.009351417422295, 0.044418103992939, -0.054819773882627, 0.055636323988438, 0.085174061357975, -0.017305351793766, 0.063922517001629, 0.074747703969479, 0.018385000526905, 0.018771275877953, 0.050563715398312, -0.084397964179516, 0.046393074095249, -0.027150176465511, 0.056535713374615, -0.036574698984623, -0.007164396345615, 0.020134940743446, -0.068402603268623, 0.034521348774433, -0.082843445241451, 0.003569267690182, -0.060625351965427, 0.012182526290417, -0.016867481172085, -0.059159886091948, 0.057405166327953, 0.034143663942814, 0.007883481681347, 0.037989161908627, -0.017769239842892, 0.086344964802265, -0.007093064486980, 0.043618239462376, 0.031892813742161, 0.064106367528439, 0.014274418354034, -0.088092453777790, -0.051128804683685, -0.087469249963760, 0.069289453327656, -0.031681321561337, 0.031431116163731, -0.075837373733521, -0.011822171509266, 0.056778647005558, 0.076318494975567, 0.043557859957218, 0.042286463081837, -0.021002620458603, -0.050758671015501, -0.021249830722809, 0.037512756884098, -0.037182580679655, 0.009737484157085, 0.078848667442799, -0.040648505091667, -0.025536246597767, -0.055641215294600, -0.020994022488594, 0.076983995735645, 0.087309218943119, -0.007932163774967, 0.071535952389240, -0.064092017710209, -0.013003632426262, -0.040004312992096, -0.031759820878506, -0.086792603135109, -0.013299100100994, -0.040300626307726, 0.038497053086758, -0.059616297483444, 0.042360611259937, 0.057769648730755, 0.034183219075203, 0.025620602071285, -0.011611558496952, 0.036833621561527, -0.018834330141544, 0.010592870414257, -0.013289220631123, 0.046634711325169, 0.086071066558361, 0.010479435324669, -0.064466618001461, -0.036951575428247, 0.051287211477757, -0.065906859934330, -0.045176025480032, 0.041665382683277, 0.019665569067001, 0.041654027998447, -0.049018871039152, 0.009471535682678, -0.037487450987101, -0.022603794932365, -0.084188327193260, 0.048877798020840, 0.039914704859257, 0.064739264547825, 0.034499093890190, -0.002968549728394, -0.088228821754456, -0.008809469640255, 0.043701700866222, 0.052170120179653, 0.064369432628155, -0.035084281116724, 0.027429945766926, -0.029343139380217, -0.058583088219166, 0.003363423049450, -0.034900307655334, 0.018349051475525, -0.028903361409903, 0.087516419589520, -0.073567472398281, 0.070731423795223, 0.018252700567245, -0.060102563351393, -0.036819338798523, 0.078857176005840, -0.087697327136993, -0.020829349756241, 0.054362960159779, 0.069606997072697, -0.058909408748150, 0.001006804406643, -0.055279489606619, 0.051438041031361, -0.014021247625351, -0.007407665252686, -0.011182568967342, 0.016867779195309, -0.047976452857256, 0.023350007832050, 0.048187993466854, 0.032865859568119, -0.028155211359262, 0.002419225871563, -0.014916822314262, -0.052138138562441, 0.061590649187565, -0.059316337108612, -0.002221725881100, -0.017267756164074, -0.020617060363293, -0.074315242469311, -0.055676005780697, -0.024741336703300, 0.080857954919338, -0.069287650287151, 0.086372233927250, -0.060416199266911, 0.063516505062580, -0.083646871149540, -0.025121353566647, 0.042536072432995, 0.059533201158047, -0.070989958941936, -0.016994327306747, -0.079172685742378, 0.054352425038815, -0.037649106234312, -0.002484217286110, -0.087319672107697, 0.058714143931866, 0.000714831054211, 0.006002023816109, 0.031477749347687, -0.064278006553650, 0.005501911044121, -0.008369565010071, 0.002299048006535, 0.031171157956123, -0.017261177301407, -0.017139121890068, 0.013686828315258, -0.081099830567837, -0.075061172246933, 0.016009919345379, 0.058602280914783, 0.010482318699360, 0.052966974675655, 0.045541010797024, -0.003077648580074, 0.065687738358974, -0.004381164908409, 0.058938823640347, 0.062821917235851, -0.017544977366924, 0.061536483466625, -0.043227851390839, 0.029300443828106, -0.005167812108994, -0.078962944447994, 0.036587297916412, 0.026134334504604, -0.078427948057652, -0.002535238862038, 0.056902758777142, -0.031826391816139, -0.055647578090429, -0.049117811024189, -0.078368186950684, -0.026511482894421, -0.018544234335423, -0.039753772318363, 0.063784025609493, -0.074746549129486, -0.033559132367373, -0.064505055546761, 0.041226901113987, -0.060046825557947, 0.073769904673100, 0.041418574750423, 0.043206252157688, 0.013457171618938, -0.032906509935856, -0.055710483342409, -0.027912866324186, 0.027968965470791, 0.080496795475483, -0.014447160065174, 0.004807248711586, 0.075667493045330, -0.052674960345030, 0.059594966471195, 0.002372786402702, 0.034625366330147, -0.000571027398109, 0.032469786703587, 0.085403613746166, -0.012930907309055, -0.034865494817495, 0.088291443884373, -0.060338396579027, -0.028803199529648, -0.086302898824215, -0.069424241781235, -0.071671493351460, 0.057398341596127, -0.043571747839451, -0.020522519946098, -0.005738608539104, 0.040056146681309, 0.017834499478340, -0.007023349404335, -0.059679977595806, 0.038117609918118, 0.039158426225185, 0.015415713191032, 0.080815605819225, -0.002361446619034, -0.041958197951317, -0.017835937440395, -0.011837512254715, -0.007042951881886, -0.025083146989346, -0.049703143537045, -0.027204483747482, -0.026330653578043, -0.034002073109150, -0.025320410728455, -0.006001397967339, -0.072507180273533, 0.001659549772739, -0.017572641372681, 0.060249336063862, -0.071607768535614, 0.009646952152252, -0.014226898550987, 0.020765900611877, -0.048560079187155, 0.020514115691185, 0.053743235766888, -0.032525796443224, 0.033328354358673, -0.039279513061047, 0.017741143703461, -0.039727218449116, -0.084580294787884, 0.042683802545071, -0.038607943803072, 0.034185603260994, -0.008181758224964, 0.087979815900326, -0.052461236715317, 0.041823364794254, 0.008655846118927, 0.016583435237408, 0.063808940351009, -0.019181661307812, 0.078901745378971, -0.023326426744461, 0.057000406086445, -0.019585974514484, 0.045563943684101, 0.043202884495258, -0.054717335850000, -0.002884298563004, -0.016021303832531, -0.056047700345516, 0.014001838862896, -0.038243036717176, -0.043078545480967, 0.037106625735760, -0.050789352506399, -0.015320695936680, -0.001596584916115, 0.004402235150337, -0.021040968596935, -0.075085960328579, 0.058116801083088, 0.020592488348484, 0.084930323064327, -0.051809284836054, 0.010323472321033, 0.044743098318577, 0.057663626968861, 0.003195092082024, -0.072126321494579, 0.068142868578434, 0.020201720297337, -0.053339786827564, 0.006335787475109, -0.069865651428699, -0.085290215909481, 0.067081548273563, -0.046012725681067, -0.019995957612991, -0.069959215819836, 0.027708813548088, -0.050504650920630, 0.046107582747936, -0.008176043629646, 0.037228040397167, 0.000556588172913, -0.027480524033308, 0.047481127083302, 0.087803073227406, -0.078529484570026, -0.068611130118370, 0.082913048565388, 0.040527544915676, -0.070501059293747, 0.071348644793034, 0.065465830266476, 0.005587659776211, 0.067953683435917, -0.032509256154299, -0.068050891160965, 0.066492937505245, -0.067248180508614, 0.006087020039558, -0.031416006386280, 0.016046337783337, -0.007096476852894, 0.053327180445194, 0.047279961407185, -0.084995798766613, -0.079467773437500, -0.048394631594419, -0.036494303494692, -0.041468031704426, 0.008759126067162, 0.053176127374172, 0.071100927889347, 0.027304455637932, -0.010711811482906, -0.027836643159389, 0.025190539658070, 0.009925983846188, -0.007037051022053, 0.029824309051037, -0.052489135414362, -0.005022384226322, 0.061869151890278, 0.056085310876369, -0.086233295500278, -0.006122127175331, -0.004943802952766, -0.016006931662560, -0.045386951416731, -0.067291676998138, 0.036530800163746, -0.035360068082809, 0.067022062838078, -0.010896034538746, -0.058486714959145, 0.021355152130127, -0.082104250788689, -0.038071226328611, 0.045628584921360, 0.023894630372524, -0.014736562967300, -0.015731103718281, -0.031087767332792, 0.028735764324665, 0.063368253409863, 0.068321309983730, 0.055689744651318, -0.027275077998638, -0.025065258145332, -0.059980738908052, 0.005632564425468, -0.029621835798025, 0.037972547113895, 0.044859312474728, -0.021752387285233, 0.066724173724651, -0.006690792739391, -0.076621599495411, 0.017094105482101, 0.044187001883984, 0.070433072745800, -0.079777173697948, 0.057564161717892, -0.053846877068281, -0.067243061959743, -0.055949117988348, -0.088009320199490, -0.088041268289089, 0.013098143041134, -0.046474590897560, 0.042476944625378, -0.031509172171354, 0.028040632605553, 0.065431065857410, 0.075132466852665, -0.019033536314964, -0.034232471138239, 0.033771172165871, 0.006136752665043, 0.068999238312244, -0.079207919538021, -0.051909912377596, 0.067264638841152, 0.033029071986675, -0.082536742091179, -0.017128981649876, 0.012000158429146, 0.011166915297508, -0.032274939119816, -0.004277691245079, 0.018231101334095, -0.060455098748207, 0.078231595456600, -0.022478766739368, 0.074196107685566, -0.048902776092291, 0.031341172754765, -0.079502210021019, -0.027905046939850, -0.066818915307522, -0.031042668968439, 0.066054366528988, -0.015809558331966, -0.087156586349010, -0.012820415198803, 0.003751136362553, 0.039155878126621, 0.015300042927265, -0.051836807280779, 0.000446103513241, 0.080166272819042, -0.024685680866241, -0.075810059905052, -0.067720308899879, -0.075886875391006, 0.042518921196461, 0.003784388303757, 0.019969619810581, 0.045918531715870, 0.039053522050381, -0.068207070231438, 0.044394366443157, -0.023180916905403, 0.084002055227757, 0.000089876353741, -0.070368692278862, -0.087472833693027, -0.012334398925304, -0.049850258976221, -0.085789889097214, 0.061820663511753, 0.076188497245312, -0.006738878786564, -0.061557747423649, -0.050721917301416, 0.039433322846889, 0.008784987032413, -0.063441559672356, -0.046854734420776, 0.007253281772137, 0.084966205060482, -0.082965373992920, -0.086070083081722, -0.065926544368267, -0.086473912000656, 0.038316704332829, -0.040239091962576, -0.038140390068293, -0.003058530390263, 0.036548040807247, 0.012030944228172, 0.013428010046482, -0.033186554908752, 0.004633031785488, -0.069363951683044, 0.081262387335300, 0.078681103885174, 0.040148533880711, -0.026141203939915, 0.008618168532848, -0.023004740476608, -0.045813813805580, 0.086334578692913, 0.016631670296192, 0.035949319601059, -0.075327455997467, -0.068862199783325, 0.011925727128983, 0.052777148783207, 0.022894464433193, -0.037527300417423, 0.058620937168598, -0.080911390483379, 0.051387496292591, -0.026103924959898, 0.062872074544430, 0.046163864433765, 0.013927422463894, -0.073578514158726, 0.055102370679379, -0.035173062235117, 0.038885585963726, -0.009740136563778, -0.025859639048576, -0.001374721527100, -0.046844027936459, 0.063198141753674, -0.067898020148277, -0.028689276427031, -0.030080858618021, -0.053568918257952, -0.033817388117313, -0.011109277606010, 0.087992675602436, -0.067996479570866, 0.088209502398968, -0.069986417889595, 0.073741309344769, -0.007724568247795, -0.014210611581802, -0.015386931598186, -0.041539344936609, -0.028284538537264, 0.060969226062298, -0.020796731114388, -0.058846060186625, -0.023941919207573, -0.038136195391417, -0.070523515343666, 0.007636569440365, -0.000678941607475, -0.046582613140345, 0.016678817570210, 0.014366343617439, 0.036863662302494, -0.082577809691429, -0.031347706913948, -0.053883902728558, 0.017094530165195, -0.067792721092701, 0.004632674157619, -0.031521584838629, 0.075160913169384, 0.080667935311794, -0.019145250320435, 0.028062991797924, 0.081463180482388, 0.019158966839314, 0.070865176618099, 0.051274068653584, 0.010506913065910, -0.075747430324554, 0.061741061508656, -0.065393112599850, 0.017079800367355, 0.053050570189953, -0.044610708951950, -0.018350884318352, -0.041984897106886, -0.031895406544209, 0.085128895938396, -0.082419469952583, -0.024566747248173, -0.003120049834251, 0.035917818546295, 0.026317290961742, 0.005513526499271, 0.042631514370441, -0.057712584733963, 0.030565187335014, -0.025420263409615, 0.081178553402424, 0.037683732807636, -0.064884498715401, 0.041884489357471, -0.019228614866734, 0.031728483736515, 0.047290824353695, -0.082404144108295, -0.077527232468128, -0.021044492721558, 0.072633482515812, 0.000367730855942, -0.006766483187675, -0.052645541727543, -0.059098437428474, -0.087968714535236, 0.078349806368351, 0.028921566903591, -0.016280628740788, -0.043087922036648, 0.034709781408310, -0.035056758671999, 0.083610408008099, -0.002827845513821, -0.083295360207558, 0.025206640362740, -0.058672860264778, -0.024824008345604, -0.035142503678799, -0.059963479638100, 0.015126205980778, -0.024162702262402, -0.066100083291531, -0.035418651998043, -0.061381407082081, -0.002444140613079, 0.064327977597713, 0.027166552841663, 0.003079734742641, -0.056949958205223, 0.080786295235157, -0.022723644971848, -0.069808706641197, -0.058563485741615, 0.020480483770370, 0.066981710493565, -0.043518200516701, 0.079087920486927, -0.012445941567421, -0.040584128350019, -0.023063115775585, -0.015437461435795, -0.065917082130909, 0.067751206457615, -0.070572137832642, -0.020862139761448, -0.041955944150686, 0.026719667017460, -0.062914386391640, 0.082746781408787, -0.041034761816263, 0.000071398913860, 0.000173076987267, -0.086869500577450, -0.024780109524727, -0.014030978083611, 0.072508297860622, 0.029079325497150, 0.069420509040356, 0.064313687384129, 0.072405390441418, -0.075694724917412, -0.076858885586262, -0.052362315356731, 0.071910403668880, 0.025983422994614, 0.008792906999588, -0.018979825079441, 0.008448168635368, 0.001996919512749, -0.018834754824638, -0.060490928590298, -0.050339814275503, -0.080141976475716, 0.063063018023968, -0.028032816946507, 0.049999199807644, 0.070108376443386, -0.063280686736107, 0.011179938912392, 0.031342759728432, 0.046027518808842, -0.032820593565702, -0.053760115057230, -0.010674640536308, 0.073262773454189, 0.084214903414249, -0.047988906502724, 0.046032316982746, -0.054987665265799, 0.060393489897251, -0.037754114717245, 0.011655054986477, 0.085032619535923, 0.073593072593212, 0.066611535847187, -0.079346582293510, 0.033828176558018, -0.064686432480812, 0.049090124666691, -0.070502847433090, 0.024644419550896, -0.028731886297464, -0.067808777093887, -0.024564109742641, -0.008272938430309, 0.039900608360767, -0.061938837170601, 0.051515184342861, -0.012778714299202, 0.030293591320515, 0.064822919666767, 0.026568301022053, 0.005868189036846, 0.045066513121128, 0.042327798902988, -0.087361119687557, -0.001231424510479, -0.024789281189442, -0.012690566480160, 0.080577276647091, 0.078883014619350, -0.015479885041714, 0.048948399722576, 0.015959069132805, -0.007473498582840, -0.065847769379616, -0.069774739444256, 0.048509649932384, -0.074266120791435, 0.027448832988739, 0.053121142089367, -0.061856485903263, 0.072234906256199, 0.042335726320744, 0.008271463215351, -0.036494471132755, 0.067371256649494, 0.075037442147732, 0.015202917158604, -0.071257062256336, 0.005492791533470, -0.065203152596951, -0.069653436541557, -0.081986367702484, -0.001784138381481, -0.043525997549295, -0.078552111983299, -0.011748097836971, 0.059943355619907, -0.061829615384340, 0.046524323523045, 0.065353490412235, 0.022397488355637, -0.074694938957691, 0.009895764291286, -0.053126607090235, -0.016746670007706, -0.087074860930443, -0.067881457507610, 0.011659376323223, -0.032735075801611, -0.069213323295116, 0.069521985948086, 0.075988151133060, 0.035437367856503, -0.084485992789268, -0.013939335942268, 0.047122202813625, -0.050309196114540, 0.026321083307266, 0.077932916581631, 0.055673815310001, -0.042520944029093, -0.086013920605183, -0.080330818891525, 0.049215488135815, 0.025092124938965, 0.058588378131390, 0.076228447258472, 0.086516357958317, 0.024962738156319, -0.007114827632904, -0.034642241895199, -0.076189890503883, -0.043031867593527, -0.033239681273699, -0.067535877227783, -0.002577573060989, -0.071896791458130, 0.047933720052242, 0.086031310260296, -0.047194331884384, -0.024368613958359, -0.032734740525484, -0.022700905799866, 0.004638642072678, -0.075151070952415, -0.006275922060013, 0.012819871306419, 0.062205143272877, -0.040447592735291, 0.085527814924717, -0.037327673286200, -0.050580389797688, -0.033609941601753, 0.063026584684849, -0.074567660689354, 0.034635014832020, -0.088044889271259, 0.032851278781891, -0.001107789576054, 0.003195576369762, 0.048549644649029, -0.061421506106853, 0.011970609426498, -0.013562306761742, -0.007588855922222, 0.012237355113029, -0.068173870444298, 0.081716738641262, 0.039027176797390, 0.042510695755482, 0.053544498980045, 0.066381029784679, 0.048251651227474, -0.006362996995449, 0.086792536079884, -0.080480188131332, 0.018056698143482, 0.083995334804058, -0.079142004251480, 0.009035654366016, -0.056898750364780, 0.016461990773678, -0.075415991246700, -0.041339460760355, 0.045197166502476, 0.039917223155499, -0.053981620818377, -0.060581646859646, 0.023251108825207, 0.062481515109539, 0.074272207915783, 0.051930584013462, 0.031038202345371, 0.081273265182972, -0.001011669635773, 0.020197615027428, 0.051939956843853, 0.015118576586246, -0.056745313107967, 0.037419639527798, 0.044405482709408, 0.056203745305538, 0.019630990922451, 0.006641566753387, 0.037075124680996, 0.023363284766674, 0.070165000855923, -0.027128197252750, -0.064170405268669, -0.082972981035709, -0.040108099579811, 0.025424450635910, -0.011156924068928, 0.015945814549923, -0.030706506222486, -0.063007831573486, -0.063743352890015, -0.022952646017075, -0.003576353192329, -0.026208173483610, 0.012407228350639, -0.020853057503700, -0.048091724514961, -0.082782097160816, -0.027192302048206, 0.067764125764370, 0.054517962038517, -0.000550709664822, -0.003734059631824, -0.065672203898430, -0.021864205598831, -0.051450088620186, -0.073857337236404, 0.084346942603588, -0.034394461661577, 0.037549085915089, -0.074019283056259, 0.010717563331127, -0.033947009593248, -0.022646322846413, 0.027768664062023, -0.058855205774307, -0.020752370357513, 0.030877873301506, -0.019700005650520, 0.054576821625233, -0.068598292768002, 0.063357226550579, -0.086997814476490, 0.069753058254719, 0.084739126265049, -0.040023192763329, 0.039793111383915, -0.020964980125427, 0.007222346961498, 0.015195943415165, 0.078763790428638, 0.028133399784565, 0.027690522372723, 0.083110339939594, 0.085724301636219, 0.034701816737652, 0.068871341645718, 0.018961548805237, 0.050198428332806, -0.013660170137882, -0.046250369399786, -0.060093861073256, -0.075024589896202, 0.027075849473476, -0.067137904465199, -0.004048794507980, -0.074716664850712, 0.012957565486431, -0.077276922762394, 0.016529865562916, 0.021905168890953, 0.028882473707199, 0.028823509812355, -0.052424460649490, 0.049619607627392, -0.085785269737244, 0.087791360914707, -0.051737848669291, 0.067687667906284, -0.040166597813368, 0.001589842140675, -0.082325652241707, 0.062666021287441, 0.086097352206707, 0.085912950336933, 0.071944020688534, 0.020385146141052, -0.035001546144485, 0.007203780114651, -0.060106545686722, -0.027296595275402, 0.061837919056416, 0.033547140657902, 0.062095694243908, -0.050002809613943, 0.034977331757545, 0.045561127364635, -0.052948683500290, -0.088220179080963, 0.087879978120327, 0.044467277824879, -0.005166694521904, -0.030057594180107, 0.035248525440693, 0.073981143534184, -0.029900889843702, -0.061779692769051, 0.034713178873062, 0.025805272161961, 0.015736408531666, 0.017369583249092, -0.007891409099102, -0.020419135689735, 0.030999593436718, -0.043855417519808, 0.072163291275501, 0.005542941391468, 0.084170900285244, -0.025693304836750, 0.002637214958668, -0.016818784177303, -0.003211818635464, -0.022300146520138, 0.063439525663853, -0.004787229001522, -0.050075661391020, 0.037860982120037, -0.032056767493486, -0.087725989520550, 0.043319649994373, 0.003217257559299, -0.010033354163170, 0.073212005198002, 0.028207771480083, 0.070879749953747, 0.034616746008396, -0.035205725580454, 0.008564516901970, -0.008545547723770, 0.070616520941257, 0.010121688246727, 0.000832527875900, -0.031142875552177, 0.062351830303669, -0.057285763323307, 0.026860564947128, -0.054323915392160, -0.032352343201637, 0.034238621592522, -0.078900858759880, -0.020923741161823, 0.043223716318607, 0.045930914580822, 0.033527649939060, 0.077044464647770, 0.005768828094006, 0.021084234118462, 0.087199889123440, 0.033057816326618, -0.020978212356567, -0.082878865301609, -0.077123507857323, 0.082539521157742, 0.054110668599606, -0.032948803156614, 0.008338354527950, -0.088038928806782, 0.038063831627369, -0.072681501507759, -0.046027604490519, 0.008642360568047, -0.046998813748360, 0.039493434131145, -0.042128745466471, 0.071153156459332, 0.029405832290649, 0.086436279118061, -0.080525301396847, 0.062816984951496, 0.069107703864574, 0.085276432335377, 0.074741728603840, 0.073585428297520, 0.076342456042767, 0.042166002094746, 0.051537938416004, 0.025277063250542, -0.028585951775312, 0.029807515442371, 0.061257280409336, -0.031428989022970, 0.009417168796062, -0.060238782316446, 0.011929094791412, 0.063104487955570, -0.002568326890469, 0.038152299821377, -0.082500346004963, -0.076262064278126, -0.026569899171591, 0.049863047897816, -0.009836986660957, 0.021386303007603, 0.019991286098957, -0.021387375891209, 0.069353453814983, 0.002559363842010, -0.002050504088402, -0.033725254237652, -0.008000925183296, 0.051707930862904, -0.063370436429977, -0.075548499822617, 0.030722081661224, 0.016912668943405, 0.046260185539722, 0.037143029272556, -0.038351692259312, 0.083161734044552, 0.036847300827503, -0.058673005551100, -0.086581490933895, 0.021288201212883, 0.022360906004906, 0.061180926859379, 0.033603660762310, 0.062760405242443, -0.002693183720112, -0.019047319889069, -0.023580759763718, -0.018987238407135, 0.024989627301693, -0.047414403408766, -0.039833679795265, 0.063659869134426, -0.011100254952908, -0.017203666269779, -0.041839618235826, 0.050673864781857, -0.037995971739292, 0.081455670297146, 0.082064755260944, -0.012885808944702, 0.008051015436649, -0.073702089488506, 0.007024444639683, 0.042296342551708, -0.014856345951557, -0.061715587973595, 0.011240750551224, -0.088079243898392, 0.022201567888260, 0.041416205465794, 0.038502521812916, -0.072470426559448, 0.073754496872425, -0.055323805660009, 0.035722382366657, 0.024996094405651, 0.060063727200031, -0.023878715932369, 0.058509357273579, 0.057640723884106, 0.069394074380398, 0.069107346236706, -0.000652916729450, 0.087290741503239, 0.071923725306988, -0.024487763643265, -0.050302010029554, 0.073874510824680, -0.046170946210623, 0.055829040706158, -0.085342586040497, 0.073189117014408, 0.002673730254173, -0.014058038592339, 