//Numpy array shape [3, 3, 64, 64]
//Min -0.072167545557
//Max 0.072166979313
//Number of zeros 0

#ifndef W20_H_
#define W20_H_

#ifndef __SYNTHESIS__
model_default_t w20[36864];
#else
model_default_t w20[36864] = {-0.013709435239434, -0.055767815560102, -0.064086943864822, -0.029133249074221, -0.017244182527065, -0.016832174733281, -0.008356037549675, -0.047337289899588, 0.031248729676008, -0.027454178780317, 0.022232707589865, -0.055146340280771, -0.040137350559235, -0.034694377332926, -0.001748581882566, -0.057537503540516, -0.033109098672867, 0.042300939559937, 0.015994541347027, -0.016279919072986, -0.053614117205143, 0.053975991904736, 0.033024985343218, 0.023285983130336, 0.046202596276999, -0.004338606726378, -0.014054388739169, -0.022116640582681, -0.012489974498749, -0.045747201889753, -0.010180484503508, -0.003763187909499, 0.011326939798892, 0.025773145258427, -0.027853665873408, 0.012388146482408, 0.062833495438099, 0.070371471345425, 0.046126876026392, -0.009403609670699, 0.056189998984337, 0.008780582807958, -0.058075036853552, 0.039755858480930, 0.049702469259501, -0.013966403901577, -0.043670944869518, -0.041010655462742, 0.030145544558764, -0.057330265641212, -0.065130457282066, -0.036909054964781, -0.025030324235559, -0.034789033234119, 0.013182838447392, -0.043107066303492, -0.068846024572849, -0.014107547700405, -0.011403419077396, 0.011704584583640, -0.045216303318739, 0.012586300261319, 0.017341349273920, -0.011369572952390, -0.004796029999852, -0.053696703165770, 0.035112973302603, -0.064328849315643, 0.037938859313726, -0.014357896521688, 0.011501896195114, 0.058823969215155, 0.071014851331711, 0.013971646316350, -0.044389918446541, 0.035407450050116, 0.010302832350135, -0.051274705678225, 0.069215312600136, 0.062114957720041, 0.032368842512369, -0.040919285267591, -0.026217382401228, 0.000743903918192, 0.067494243383408, -0.024050325155258, -0.023290336132050, -0.063217364251614, 0.033649522811174, -0.000325829838403, 0.014139118604362, -0.071884110569954, 0.015839280560613, 0.004393273964524, -0.021340953186154, -0.068360619246960, 0.053548526018858, 0.064008101820946, -0.067611806094646, -0.007331618107855, 0.004958482924849, 0.022939383983612, 0.024062601849437, 0.011596687138081, 0.017975702881813, -0.067390047013760, 0.046844191849232, -0.025385819375515, 0.013662586919963, -0.063583567738533, 0.053214862942696, 0.019432375207543, 0.035898890346289, 0.039539698511362, 0.048671234399080, 0.027775894850492, -0.042340908199549, 0.066852770745754, 0.008078001439571, -0.041239269077778, -0.063061483204365, -0.003001977456734, 0.002362612634897, -0.026968581601977, -0.066786862909794, 0.060595948249102, -0.044569723308086, 0.033397164195776, 0.063190571963787, 0.027820769697428, 0.032963160425425, 0.046080287545919, -0.003212835174054, -0.048437502235174, 0.067051008343697, 0.070572130382061, -0.025558413937688, -0.037895329296589, 0.009158131666481, 0.063320562243462, 0.000186819335795, 0.019501080736518, -0.046139996498823, -0.063630126416683, 0.003528760746121, 0.031426500529051, -0.034312944859266, -0.027430342510343, 0.011579834856093, -0.015519933775067, 0.050414543598890, -0.004422257188708, -0.014719497412443, 0.000312209536787, -0.045333389192820, 0.015946904197335, 0.000806487281807, 0.014949069358408, -0.050633091479540, 0.016778754070401, 0.011787036433816, -0.032001961022615, 0.039900645613670, 0.006284172646701, 0.010228073224425, 0.042098481208086, 0.049802109599113, -0.059715408831835, 0.003208866110072, 0.003162345616147, -0.032363373786211, 0.026834113523364, -0.027020709589124, 0.036609232425690, -0.027347894385457, 0.062468446791172, -0.023426903411746, 0.063178412616253, -0.034979514777660, 0.012525436468422, 0.048338457942009, -0.015802199020982, 0.022855971008539, -0.064559929072857, -0.041773431003094, -0.025654258206487, -0.002823446411639, 0.018089164048433, -0.049992837011814, 0.017179865390062, 0.068329870700836, 0.059010826051235, 0.061484344303608, 0.043016418814659, -0.012420391663909, -0.025589508935809, -0.060209091752768, 0.060260839760303, 0.018816713243723, 0.058133959770203, -0.054047539830208, 0.069128394126892, 0.070685073733330, 0.040549393743277, -0.060780420899391, 0.065838463604450, 0.028228545561433, -0.053674504160881, 0.026657301932573, 0.002631362294778, -0.049673661589622, -0.044730968773365, 0.059612262994051, -0.054838858544827, -0.013077796436846, 0.059747572988272, 0.071641698479652, -0.026067400351167, 0.009679411537945, -0.039435204118490, -0.068544007837772, -0.007939958944917, 0.009586303494871, -0.063742220401764, 0.024423051625490, -0.043762475252151, -0.005618669558316, -0.040172006934881, 0.015018220059574, 0.043229416012764, -0.045499052852392, 0.023093564435840, -0.020423000678420, -0.029537377879024, -0.020084496587515, 0.000552579236683, 0.058971922844648, -0.027085112407804, -0.004519043955952, -0.047750327736139, 0.010461495257914, -0.014192966744304, -0.037134688347578, -0.009730883873999, 0.015249854885042, -0.022079063579440, 0.011354850605130, -0.061999138444662, 0.029340330511332, -0.056394141167402, 0.012444556690753, -0.016912864521146, 0.043351706117392, 0.063255563378334, 0.045007769018412, -0.047350842505693, -0.014933315105736, 0.005085317883641, 0.026358028873801, -0.054359987378120, 0.028989799320698, 0.013588259927928, 0.045879125595093, 0.003323503071442, 0.003375973552465, 0.045433208346367, -0.035218715667725, -0.026555679738522, 0.040846932679415, 0.049874976277351, -0.064181089401245, -0.046965368092060, 0.062266517430544, 0.007183462847024, -0.059256453067064, -0.051606606692076, -0.015486240386963, 0.009771811775863, -0.046161733567715, 0.046050194650888, -0.022115314379334, -0.005704248789698, -0.012579214759171, -0.052019592374563, 0.049027353525162, 0.019153527915478, -0.042166396975517, 0.018606780096889, 0.042064383625984, -0.043937273323536, 0.015736678615212, 0.035814240574837, -0.070420995354652, -0.012193604372442, 0.045248452574015, 0.045890614390373, -0.045052547007799, -0.013962311670184, -0.021756825968623, 0.049000848084688, -0.006372053176165, 0.013689827173948, 0.033026259392500, -0.023021742701530, 0.053084153681993, 0.051506292074919, -0.045490249991417, -0.016234876587987, 0.004772177431732, -0.056197158992290, 0.051170058548450, 0.031199043616652, 0.033465713262558, -0.022864691913128, -0.040869943797588, -0.040091332048178, -0.034034013748169, 0.003926959354430, 0.053753878921270, 0.032574627548456, -0.027215423062444, -0.038456991314888, -0.012289278209209, 0.001848488929681, -0.023373179137707, -0.057115141302347, 0.015627589076757, -0.067522466182709, -0.062835551798344, -0.025812735781074, -0.051748022437096, -0.023371305316687, 0.008393323980272, 0.051356840878725, -0.062804765999317, -0.050654277205467, 0.055706042796373, 0.031243762001395, 0.069682158529758, 0.018118429929018, 0.008876081556082, 0.024369977414608, 0.049753300845623, -0.027240805327892, 0.022526649758220, -0.009811060503125, 0.036274079233408, 0.040422923862934, -0.002241213805974, 0.052922081202269, -0.028818391263485, 0.022480374202132, 0.044927641749382, -0.005393550731242, -0.007815499790013, 0.042990878224373, 0.014587472192943, 0.024388467893004, 0.043150454759598, 0.054224878549576, -0.014860775321722, -0.023105805739760, 0.039272971451283, -0.068613819777966, -0.064507141709328, 0.025714313611388, -0.040818177163601, -0.014804692938924, -0.025634394958615, -0.058216851204634, -0.010717399418354, -0.068402543663979, -0.031913150101900, 0.006683004088700, -0.048398204147816, 0.039386529475451, -0.014097692444921, 0.068274110555649, 0.051969569176435, -0.020740833133459, -0.036258842796087, -0.008589206263423, 0.039738416671753, -0.021195475012064, -0.044543322175741, 0.008779831230640, -0.027730304747820, 0.030678657814860, 0.007694131229073, 0.060127794742584, -0.061192873865366, -0.045704547315836, -0.063442744314671, -0.006378867197782, -0.019794456660748, -0.041090622544289, -0.030133953318000, -0.020087422803044, 0.002496157074347, 0.021966690197587, -0.029007961973548, 0.048855822533369, 0.068129576742649, -0.069404371082783, -0.009590377099812, -0.004801227711141, 0.070619091391563, -0.012959131039679, 0.017621604725718, 0.020796691998839, 0.013219506479800, 0.005084781907499, 0.013579866848886, -0.010037229396403, -0.031899426132441, -0.034878596663475, -0.012740993872285, 0.038634575903416, 0.063449583947659, 0.027481177821755, -0.038506142795086, 0.050129801034927, 0.054457072168589, -0.049013387411833, -0.039591360837221, 0.029958292841911, -0.018789920955896, 0.062891282141209, -0.046892605721951, 0.019231302663684, -0.053114917129278, 0.016647147014737, 0.003228332148865, 0.044992562383413, 0.045775145292282, 0.003553320653737, -0.034369576722383, -0.060162380337715, -0.054329290986061, -0.056041054427624, 0.035875983536243, -0.018401436507702, 0.046155180782080, 0.016597960144281, -0.060930535197258, -0.052271403372288, -0.041354145854712, -0.028859751299024, 0.057377967983484, -0.069093242287636, -0.060650505125523, 0.021312298253179, -0.071161501109600, 0.036678213626146, 0.058354429900646, 0.062869831919670, 0.055724825710058, -0.042057592421770, 0.033898048102856, -0.005208638031036, -0.062857463955879, 0.025394024327397, 0.031916808336973, 0.049204833805561, -0.071662433445454, 0.040052227675915, 0.032613612711430, 0.056734364479780, -0.000898873026017, 0.059812091290951, 0.027808541432023, 0.025093425065279, -0.008411331102252, -0.065965704619884, 0.015282829292119, -0.046330031007528, 0.060317900031805, 0.009299890138209, 0.055840041488409, 0.059191785752773, -0.004736373201013, 0.005679465364665, 0.003774238983169, 0.034936070442200, -0.056145925074816, -0.022371388971806, -0.022209629416466, -0.036840196698904, 0.053611006587744, -0.042983688414097, -0.019624870270491, 0.036061976104975, -0.049663290381432, 0.016263358294964, 0.007843619212508, 0.043337825685740, -0.002676698612049, -0.044326990842819, 0.014170127920806, 0.060870677232742, -0.053587723523378, -0.015827601775527, 0.000159921284649, -0.020651683211327, 0.054295148700476, -0.025638848543167, -0.067607246339321, -0.060107745230198, 0.063757024705410, 0.053834795951843, 0.009499487467110, -0.015424949117005, -0.055557657033205, -0.010197973810136, 0.048177354037762, -0.069856233894825, -0.071770280599594, -0.069942750036716, 0.062115062028170, -0.046848475933075, -0.003567283507437, 0.044492177665234, 0.011575962416828, -0.013894913718104, -0.004775394685566, -0.017268173396587, -0.062860012054443, -0.068628527224064, -0.029025575146079, -0.068871647119522, 0.022793887183070, -0.065115205943584, -0.029659518972039, 0.067995697259903, 0.050758618861437, 0.008324708789587, -0.032049685716629, 0.021499808877707, 0.032117769122124, 0.003006341401488, 0.013253456912935, -0.051578540354967, -0.042738277465105, -0.033723235130310, 0.006195897702128, -0.067632652819157, 0.012603428214788, 0.055243194103241, 0.027619913220406, -0.000761672097724, -0.023831708356738, 0.004484133329242, 0.016792330890894, 0.064547047019005, 0.058543596416712, -0.021104618906975, -0.040617551654577, 0.013569270260632, -0.045634571462870, -0.016992062330246, 0.028516417369246, 0.004404250532389, 0.029364213347435, -0.009842189028859, 0.069779932498932, 0.019490832462907, -0.034418009221554, -0.066350132226944, -0.015911612659693, 0.008603414520621, 0.001269897795282, -0.060865789651871, -0.067572772502899, -0.003941733855754, -0.037887848913670, 0.039598133414984, 0.004994011949748, -0.031086780130863, -0.001204529311508, 0.003350520273671, -0.034753002226353, -0.015305010601878, 0.035082753747702, 0.043587777763605, 0.060247421264648, 0.053325731307268, 0.045211523771286, 0.049375880509615, -0.014867689460516, 0.063129283487797, 0.044839248061180, 0.054139360785484, -0.018738703802228, -0.062686219811440, 0.003833880880848, 0.046970151364803, 0.011375954374671, -0.049337703734636, 0.051664233207703, 0.052642822265625, 0.018768077716231, 0.023187944665551, -0.009443420916796, 0.045071363449097, -0.025585982948542, -0.020522477105260, -0.002254990627989, 0.050253693014383, 0.022444019094110, 0.050348125398159, -0.007928796112537, 0.052728775888681, -0.060846805572510, -0.040710881352425, 0.001746951020323, -0.043520584702492, -0.066126734018326, 0.041360512375832, -0.067275591194630, -0.033885460346937, -0.024555679410696, -0.042038943618536, -0.070147432386875, 0.024402482435107, 0.006512523163110, -0.061985176056623, 0.062806382775307, 0.032669149339199, 0.067903921008110, -0.033291809260845, 0.047345701605082, -0.011599870398641, 0.008146177977324, -0.035085763782263, 0.064310498535633, -0.039330244064331, 0.039153724908829, 0.018226744607091, -0.028231654316187, 0.008734785020351, 0.070430077612400, -0.070220507681370, 0.066917411983013, -0.008516614325345, -0.015560363419354, -0.031601577997208, 0.069794416427612, 0.006838352885097, -0.051148645579815, 0.016935018822551, -0.023491963744164, 0.002938671736047, -0.011505194939673, 0.015701297670603, -0.034988816827536, 0.002941866405308, -0.060663644224405, -0.043980110436678, -0.012802921235561, -0.071534126996994, -0.038138337433338, -0.069481350481510, 0.036866370588541, -0.066743195056915, 0.015053994953632, 0.024975497275591, -0.044326439499855, -0.053639162331820, 0.051063463091850, 0.020275792106986, -0.064100436866283, -0.024036806076765, 0.013508377596736, -0.021681364625692, 0.056342378258705, 0.021707383915782, -0.008892114274204, 0.011025907471776, 0.066114932298660, -0.043573264032602, 0.053447484970093, 0.031086642295122, 0.059221558272839, 0.047802202403545, -0.058939777314663, -0.044136784970760, 0.035969682037830, 0.055925384163857, -0.068373896181583, -0.063739746809006, -0.036800879985094, 0.057695709168911, 0.062349565327168, 0.027716357260942, 0.050818774849176, -0.013573574833572, -0.071043387055397, 0.053819756954908, 0.001368479337543, 0.045048143714666, -0.050543628633022, 0.013561964966357, -0.048114836215973, -0.007017330732197, 0.025243747979403, 0.021541101858020, 0.021310234442353, 0.032836586236954, -0.041836149990559, -0.068448945879936, 0.051859222352505, -0.039376538246870, -0.004376265220344, -0.039241969585419, -0.013815787620842, 0.008494467474520, 0.007210256531835, -0.044772565364838, -0.024928890168667, -0.062263917177916, 0.017755834385753, 0.066440396010876, 0.005567234009504, -0.033905774354935, 0.059690739959478, 0.071940153837204, 0.055051211267710, -0.029975116252899, -0.059668187052011, 0.034381683915854, 0.035225063562393, 0.039697881788015, 0.050664372742176, 0.007864820770919, 0.026738889515400, -0.059118133038282, -0.054166771471500, -0.004803014919162, 0.044934708625078, 0.040962383151054, 0.062226232141256, 0.015486553311348, 0.038289122283459, 0.037818882614374, -0.064203791320324, 0.008863720111549, -0.066357761621475, -0.001004730118439, 0.005826846230775, 0.040580864995718, 0.001375546446070, -0.045054286718369, -0.008498265407979, -0.066890358924866, 0.063665561378002, -0.038235399872065, 0.001461915089749, -0.054236527532339, -0.060334563255310, -0.057475075125694, -0.032491941004992, -0.036318670958281, 0.038742870092392, 0.005253959447145, -0.061167027801275, 0.002324745291844, -0.017646009102464, 0.049774888902903, -0.016969792544842, -0.042555376887321, -0.022724460810423, -0.002087279921398, -0.049256686121225, 0.022125389426947, 0.060600165277719, 0.054031960666180, 0.010333871468902, -0.063984848558903, -0.022002877667546, 0.030767051503062, 0.012017710134387, -0.039436284452677, 0.013410987332463, 0.068709030747414, 0.061390917748213, 0.058049585670233, -0.031166799366474, 0.007690779864788, 0.039663419127464, 0.058351553976536, 0.062879286706448, 0.064088463783264, 0.011483718641102, -0.024932706728578, -0.020297406241298, 0.058529894798994, -0.048600055277348, -0.049719374626875, -0.057728018611670, 0.050013419240713, -0.043494790792465, 0.064510717988014, -0.016272729262710, 0.015210542827845, 0.055137060582638, 0.020768193528056, 0.069688819348812, -0.011405808851123, 0.056636545807123, -0.063608497381210, 0.032819367945194, 0.013631444424391, 0.048723049461842, -0.050196956843138, -0.012873897328973, -0.008617243729532, -0.040126364678144, -0.003969868179411, 0.037614371627569, 0.007922675460577, 0.030008187517524, -0.066830478608608, 0.022434368729591, 0.054814849048853, -0.030941268429160, -0.035711552947760, 0.021472666412592, -0.058840576559305, -0.064447812736034, -0.048412788659334, 0.058450985699892, 0.030460488051176, 0.064288683235645, -0.031982526183128, 0.065697610378265, -0.012127927504480, 0.031660825014114, -0.005440346896648, -0.045257855206728, 0.002568354364485, -0.022417567670345, -0.003208627924323, -0.033218808472157, -0.068640254437923, 0.008390643633902, -0.047065909951925, 0.007656539324671, 0.005202241241932, 0.003837671363726, 0.001693624071777, -0.014788302592933, 0.045642726123333, 0.062197171151638, -0.053279999643564, 0.064441375434399, 0.007512696087360, 0.016004735603929, 0.029889782890677, 0.000551529228687, -0.009214191697538, -0.042369935661554, -0.001277002156712, 0.004730229265988, 0.047545589506626, 0.007083384320140, -0.013614539988339, 0.026606582105160, 0.057818748056889, -0.046810436993837, 0.036067102104425, -0.054775036871433, -0.011715970933437, 0.002335975179449, -0.027082432061434, -0.035472523421049, -0.000115686940262, -0.047378737479448, 0.015169443562627, 0.036784939467907, 0.069035008549690, -0.027923507615924, -0.027863418683410, -0.011812143027782, -0.055930729955435, -0.057837169617414, 0.046354904770851, 0.036453317850828, 0.011920692399144, 0.011588398367167, -0.038619268685579, -0.025962287560105, -0.049318440258503, -0.069683231413364, 0.068251527845860, -0.050504159182310, 0.044366408139467, -0.056720968335867, 0.042597614228725, 0.054670378565788, 0.027673864737153, -0.017035212367773, -0.068408764898777, -0.007275811396539, -0.011458745226264, 0.037702333182096, -0.070264808833599, -0.012734924443066, -0.054749757051468, 0.023675119504333, 0.047447204589844, 0.052271179854870, -0.043239280581474, 0.029803495854139, 0.012357964180410, 0.053841516375542, 0.006579559762031, 0.002735841786489, 0.017130484804511, 0.064921751618385, 0.037848055362701, -0.042534675449133, -0.061021048575640, -0.061361636966467, -0.049936085939407, 0.052378252148628, 0.013417541049421, -0.048094183206558, -0.038523856550455, -0.007885530591011, -0.038691673427820, -0.006744761019945, 0.046456027776003, 0.041108824312687, -0.031400725245476, 0.059142202138901, -0.008355814032257, -0.007885976694524, -0.036202412098646, -0.019054127857089, -0.001713790115900, 0.041955947875977, 0.035265341401100, -0.013437781482935, 0.007608849555254, 0.018877524882555, 0.005523409228772, -0.009420514106750, -0.029711009934545, -0.009781772270799, -0.055623423308134, -0.039518680423498, -0.046916756778955, -0.013915500603616, -0.037313133478165, 0.057460285723209, 0.062317155301571, 0.038416665047407, -0.013002623803914, -0.015226677060127, -0.007803525310010, 0.061930470168591, 0.059799715876579, 0.047313012182713, -0.034006997942924, 0.038081184029579, 0.021561224013567, -0.053509403020144, 0.055445402860641, -0.068137221038342, -0.047950066626072, -0.050309173762798, -0.036579597741365, -0.064943328499794, -0.002209155121818, -0.020300742238760, -0.032841227948666, 0.050649724900723, -0.067160882055759, -0.037777096033096, 0.012973112054169, 0.024392407387495, -0.069770112633705, -0.006254347972572, -0.045239143073559, 0.050146441906691, -0.067860230803490, -0.003227386390790, -0.006401564925909, 0.021646989509463, -0.068064615130424, 0.038523633033037, -0.049372475594282, 0.006024433765560, -0.018122402951121, 0.031794317066669, 0.028357695788145, -0.019693730399013, 0.068169839680195, -0.070761911571026, -0.047905541956425, 0.031538516283035, 0.065535046160221, -0.034899029880762, -0.000645761785563, -0.013448407873511, -0.050098806619644, 0.033077582716942, 0.013882425613701, -0.071949087083340, 0.004687946289778, 0.070034615695477, 0.068669356405735, 0.062541872262955, 0.034979101270437, -0.043709263205528, 0.066079936921597, -0.065249755978584, -0.012651031836867, 0.053273633122444, -0.019999181851745, 0.058242071419954, -0.013454305939376, 0.060038477182388, -0.015646455809474, -0.052165877074003, 0.031435243785381, 0.008253799751401, 0.013742022216320, 0.012154754251242, -0.027045335620642, 0.054524570703506, -0.068989127874374, -0.011784176342189, -0.028421347960830, -0.007357846014202, 0.055299505591393, -0.048384945839643, -0.053333140909672, -0.056256011128426, 0.016481118276715, 0.035056576132774, -0.065244518220425, -0.034887231886387, 0.049263134598732, -0.021339746192098, 0.050385285168886, 0.031803984194994, 0.064720004796982, 0.028683593496680, -0.069679908454418, 0.006715204566717, -0.055139783769846, -0.016921704635024, -0.068052858114243, -0.055352453142405, -0.044367715716362, 0.023481404408813, -0.071496717631817, 0.058694556355476, -0.048063125461340, -0.039225321263075, -0.056997559964657, 0.007981713861227, -0.016329705715179, 0.070169910788536, -0.046977084130049, 0.037675511091948, -0.067578598856926, 0.000301441381453, -0.019730841740966, -0.069834500551224, 0.021283976733685, 0.030951309949160, -0.026182007044554, 0.008472469635308, -0.011260524392128, -0.001887078513391, 0.008526079356670, -0.056297764182091, -0.022700916975737, -0.062684930860996, -0.069469027221203, 0.018782645463943, -0.031438458710909, -0.045248035341501, 0.013785653747618, -0.041448120027781, -0.067748151719570, -0.029649665579200, 0.067576587200165, 0.016410499811172, -0.006809444632381, 0.043619956821203, -0.071939013898373, 0.062870606780052, -0.056886702775955, -0.060484029352665, 0.038960419595242, -0.064206369221210, 0.043487686663866, 0.069791644811630, -0.024501869454980, 0.041080996394157, -0.044622052460909, 0.025800973176956, -0.070139847695827, 0.027809711173177, 0.029990904033184, -0.054971024394035, -0.034992843866348, -0.031903449445963, 0.048215858638287, -0.054553359746933, -0.010253370739520, -0.016628742218018, -0.036836840212345, 0.006526061799377, 0.046036172658205, 0.027505097910762, 0.039971102029085, 0.004021013155580, 0.025565413758159, 0.030195610597730, -0.011088993400335, 0.000622266903520, -0.045398615300655, 0.022935600951314, 0.012490764260292, -0.071478046476841, 0.008172130212188, -0.027702789753675, -0.042606454342604, 0.065892077982426, -0.006373088341206, -0.069229289889336, -0.032090440392494, 0.010477714240551, 0.056303296238184, 0.028449738398194, 0.053002908825874, -0.021611247211695, 0.040998671203852, 0.005880835931748, 0.011721317656338, 0.040576174855232, -0.043681215494871, -0.037933148443699, 0.055382583290339, -0.029356148093939, -0.063908144831657, 0.022875661030412, 0.064768142998219, 0.036696471273899, 0.029621308669448, 0.067968189716339, 0.033177427947521, -0.049154784530401, 0.059160061180592, 0.067432463169098, 0.022240795195103, -0.028248390182853, 0.014207257889211, -0.035366926342249, 0.047332856804132, 0.058236412703991, -0.007672840729356, 0.018608946353197, 0.040105741471052, -0.008438280783594, 0.010498520918190, 0.004196378868073, -0.050826445221901, 0.020916340872645, 0.069702401757240, -0.057401314377785, 0.036492761224508, -0.015018443576992, 0.050680950284004, 0.069039270281792, 0.004418541211635, 0.043744549155235, -0.057884037494659, -0.007999585941434, 0.032440740615129, 0.052661433815956, -0.005712246522307, -0.009737847372890, 0.036231905221939, -0.049595873802900, -0.053890712559223, -0.032815553247929, 0.066403023898602, 0.025412507355213, -0.036362439393997, -0.033425334841013, 0.018104244023561, 0.026741556823254, 0.046901706606150, 0.030474897474051, 0.015711329877377, -0.000424925179686, -0.045523598790169, -0.054151155054569, 0.053676165640354, -0.034710716456175, -0.066726997494698, 0.015439310111105, -0.032023541629314, 0.038401026278734, 0.016295915469527, -0.062082204967737, 0.062386248260736, -0.015132585540414, -0.052951078861952, 0.055365692824125, -0.003505645785481, 0.057987909764051, 0.054412420839071, -0.070297107100487, -0.031934544444084, 0.050874032080173, -0.011285389773548, 0.041437283158302, 0.060099244117737, -0.042371880263090, 0.028297405689955, -0.039760377258062, -0.024142144247890, 0.011748111806810, 0.002548247808591, -0.070924289524555, 0.014364066533744, -0.015520690008998, -0.062023200094700, 0.012718362733722, -0.063127949833870, 0.063473045825958, 0.002972517628223, 0.019704200327396, 0.005060311406851, -0.049941208213568, -0.060935147106647, 0.060055308043957, 0.007716233376414, 0.004975767340511, 0.037213440984488, -0.027243608608842, -0.029526356607676, -0.048039115965366, -0.000759661430493, -0.000353978946805, -0.049370616674423, 0.061168536543846, 0.035173024982214, -0.016936497762799, -0.011454220861197, 0.017295500263572, -0.062912665307522, -0.045666184276342, -0.058343581855297, -0.012211145833135, 0.042152844369411, 0.057164348661900, -0.016282513737679, -0.051988739520311, 0.051151711493731, -0.006102424580604, 0.000236057952861, -0.008574193343520, 0.042993526905775, 0.006298306863755, -0.068706817924976, -0.032375600188971, 0.012835218571126, 0.061304725706577, -0.018311887979507, 0.001630765153095, -0.053456138819456, -0.070779293775558, 0.034772470593452, -0.021482435986400, 0.054064474999905, 0.002804256044328, -0.036028631031513, -0.067533127963543, 0.067864425480366, 0.051922407001257, -0.021054521203041, 0.000403478217777, 0.025500560179353, 0.065613493323326, 0.025630246847868, -0.041870445013046, 0.043562103062868, -0.013897200115025, 0.048801116645336, 0.034395802766085, 0.039711385965347, -0.050822149962187, 0.012931714765728, -0.032875485718250, -0.058725886046886, -0.008521812036633, 0.007867605425417, -0.006166110280901, 0.043125864118338, -0.031745523214340, -0.047942031174898, 0.044659353792667, 0.025233134627342, -0.062783032655716, -0.020543267950416, -0.037876673042774, -0.064454793930054, 0.033717319369316, 0.034623831510544, -0.019546672701836, -0.030436564236879, 0.035369299352169, 0.016476247459650, 0.025983801111579, -0.001690883655101, -0.052245728671551, -0.055979866534472, 0.054994586855173, -0.007997486740351, -0.033441070467234, 0.047120925039053, 0.070201039314270, 0.033183459192514, -0.032563708722591, -0.050111651420593, 0.000039349197323, 0.028249440714717, 0.014151644892991, -0.056572653353214, -0.057812511920929, 0.049893777817488, -0.018156439065933, 0.044421359896660, -0.039841912686825, -0.059774845838547, -0.026932965964079, 0.006895671598613, 0.048635259270668, -0.043173860758543, -0.039630517363548, 0.024799117818475, -0.045667987316847, -0.033307373523712, -0.058298662304878, 0.034132815897465, 0.064206168055534, 0.029123701155186, -0.006182619836181, 0.051462713629007, -0.006708748172969, 0.034332294017076, -0.051329895853996, 0.001585793565027, 0.046445675194263, -0.059873130172491, 0.051524434238672, 0.012484196573496, -0.020775025710464, 0.071497134864330, -0.010987988673151, 0.041909862309694, 0.016087478026748, 0.028766058385372, -0.025066902860999, 0.058537472039461, 0.042251612991095, -0.049808837473392, -0.036268197000027, -0.066402338445187, -0.015860620886087, 0.019058497622609, -0.037515707314014, -0.047644238919020, -0.050371307879686, -0.051388453692198, 0.058421108871698, 0.016791556030512, -0.003559493925422, 0.038165178149939, -0.013197717256844, 0.033547732979059, 0.006185613572598, 0.051983442157507, -0.042477160692215, -0.015402075834572, -0.063564091920853, -0.013186055235565, 0.066464193165302, 0.056630138307810, 0.066284678876400, 0.034685865044594, 0.016165126115084, -0.010835085995495, -0.066150031983852, -0.030367774888873, -0.059229817241430, 0.051201939582825, -0.062388893216848, 0.063814856112003, 0.035002332180738, -0.006033340469003, -0.066182263195515, 0.015332187525928, 0.006864670198411, -0.048476833850145, -0.044704105705023, 0.034640498459339, 0.033915523439646, -0.032196260988712, -0.071333460509777, 0.037338159978390, -0.048650838434696, -0.049857795238495, -0.027360726147890, 0.029557533562183, -0.023629548028111, 0.052923407405615, -0.066626377403736, 0.024647671729326, -0.028749344870448, -0.002291845157743, -0.025006452575326, -0.018571712076664, 0.007320544682443, -0.046251580119133, 0.064640082418919, 0.004512952640653, -0.066967643797398, 0.067033760249615, 0.016944685950875, -0.011950517073274, -0.061827421188354, 0.037573300302029, 0.046741798520088, 0.060248360037804, -0.029702944681048, 0.045890264213085, -0.048858396708965, -0.019514476880431, 0.025646964088082, 0.053605493158102, 0.071452111005783, -0.051934242248535, 0.013102129101753, -0.039763372391462, -0.032168503850698, -0.036147382110357, -0.020786702632904, 0.032753918319941, 0.019571796059608, -0.063398197293282, -0.035761944949627, -0.009519818238914, 0.020026456564665, -0.041655164211988, -0.051160547882318, -0.039856497198343, 0.068670369684696, 0.023189732804894, 0.030504774302244, -0.050746873021126, 0.049802094697952, 0.067316651344299, -0.008790800347924, 0.050257440656424, 0.063369236886501, 0.027656454592943, 0.058887030929327, 0.054717846214771, -0.068292990326881, 0.059008978307247, -0.032598342746496, 0.028407173231244, -0.059993140399456, -0.056246947497129, -0.000886615482159, -0.008780739270151, 0.068413630127907, -0.049787871539593, -0.000561746302992, 0.000039706646930, 0.030717650428414, -0.023653604090214, 0.022188642993569, -0.022803690284491, -0.058362409472466, 0.024010786786675, 0.009719430468976, 0.047233708202839, -0.059391800314188, 0.046233102679253, -0.005269002169371, 0.038052141666412, 0.017265921458602, -0.040142770856619, 0.007511616218835, 0.062618978321552, -0.007039738353342, 0.057209298014641, 0.036573629826307, -0.030021324753761, -0.028118029236794, -0.066807396709919, -0.028703151270747, 0.019465133547783, 0.006482088007033, 0.013737502507865, -0.069210998713970, -0.030856931582093, 0.019814474508166, -0.062903277575970, 0.003252326045185, -0.071404740214348, -0.007794224191457, 0.049112550914288, 0.010930275544524, 0.010347714647651, 0.021398235112429, 0.065586522221565, 0.068899706006050, -0.027780627831817, 0.002406660700217, -0.071996212005615, 0.053954318165779, -0.029234958812594, 0.001871373155154, 0.004529141820967, -0.006154485978186, -0.053089912980795, 0.020243324339390, 0.066484004259109, -0.057226460427046, 0.031256847083569, -0.053625833243132, 0.005027992185205, 0.026787249371409, 0.064769022166729, 0.014153915457428, -0.053525552153587, -0.050248961895704, 0.037173986434937, -0.000201214104891, -0.059506680816412, -0.032953530550003, 0.067724108695984, 0.009406379424036, 0.050913069397211, 0.029613705351949, 0.000909432652406, -0.005933388601989, 0.045220687985420, 0.061038501560688, 0.026629772037268, -0.050135936588049, 0.052999798208475, -0.058766577392817, -0.045956790447235, 0.048531658947468, 0.043488431721926, 0.008023364469409, -0.068001456558704, -0.032905843108892, -0.070012345910072, 0.014114291407168, 0.006892186589539, -0.020027283579111, 0.023758992552757, -0.024496830999851, 0.069404706358910, -0.029477668926120, -0.065360754728317, 0.032393261790276, 0.057856846600771, 0.051853492856026, -0.061771493405104, 0.063561365008354, 0.053581573069096, -0.035712689161301, -0.019420079886913, 0.071917064487934, -0.023673744872212, 0.003955026622862, -0.055133543908596, 0.044672049582005, -0.062434606254101, -0.055457826703787, 0.067190229892731, -0.071994058787823, 0.007378332316875, 0.007098404690623, -0.023020416498184, 0.027315739542246, 0.012183201499283, -0.007930584251881, 0.066078625619411, -0.001923039439134, 0.060403909534216, -0.055422704666853, -0.005365997552872, -0.063038744032383, -0.014906725846231, -0.033945050090551, -0.070548638701439, -0.011517645791173, 0.023936012759805, 0.018434921279550, 0.034040246158838, 0.034394618123770, 0.047364536672831, 0.030226804316044, 0.024454195052385, -0.014319132082164, 0.043727565556765, -0.033429495990276, -0.067907176911831, -0.044438775628805, 0.022973349317908, -0.013800014741719, -0.020825637504458, 0.058772154152393, 0.060161158442497, 0.011780706234276, -0.032063942402601, 0.006253439467400, 0.046536423265934, 0.023737672716379, 0.008400293998420, -0.070685982704163, -0.024706799536943, -0.058938398957253, -0.039107121527195, -0.019402245059609, 0.023295648396015, 0.042543943971395, -0.000392538786400, -0.063282914459705, 0.035785883665085, -0.067996211349964, 0.013343414291739, -0.035655885934830, -0.024280946701765, -0.007957720197737, -0.010608332231641, 0.016760889440775, 0.003701922483742, 0.016080858185887, -0.063942350447178, -0.056996371597052, 0.044929977506399, -0.030545497313142, -0.050971645861864, 0.036971393972635, -0.066762134432793, -0.022002479061484, 0.016412772238255, -0.020939951762557, -0.003291637869552, -0.057153835892677, 0.047748144716024, 0.000669457658660, -0.060882281512022, -0.021088590845466, -0.056253328919411, 0.053780972957611, 0.055468086153269, -0.001497890800238, 0.047866847366095, 0.061281550675631, -0.021345026791096, 0.017691016197205, -0.011014733463526, 0.027573496103287, -0.033280100673437, 0.003054083092138, 0.026717972010374, 0.026677491143346, 0.016973333433270, 0.059507574886084, 0.021922806277871, -0.063303060829639, -0.019695123657584, -0.028840955346823, -0.030657334253192, 0.028181524947286, -0.051531299948692, 0.032679792493582, 0.029125273227692, 0.052693143486977, -0.016884559765458, 0.063023626804352, -0.061630796641111, 0.001703543239273, 0.066414192318916, -0.026775829493999, -0.008397777564824, -0.037911616265774, 0.057567164301872, -0.030120143666863, 0.061324477195740, -0.058533169329166, -0.040973871946335, -0.067967854440212, -0.000991124659777, 0.064389556646347, 0.016963236033916, 0.047422539442778, -0.058240268379450, -0.002335990080610, -0.037622213363647, 0.061236005276442, 0.043073251843452, -0.026215078309178, -0.022468730807304, -0.000869241950568, 0.003882642835379, 0.001177459955215, -0.047718789428473, 0.019185638055205, -0.055983163416386, -0.069812864065170, -0.016630908474326, -0.006392055656761, -0.015137385576963, 0.028912568464875, -0.008415493182838, -0.052442140877247, -0.038636881858110, -0.021327691152692, -0.070895262062550, 0.047031406313181, -0.019248925149441, 0.006785026285797, 0.031416770070791, -0.064886130392551, -0.009411897510290, 0.049319952726364, 0.028742825612426, 0.008265543729067, 0.038530476391315, 0.010135166347027, -0.031353157013655, 0.021674007177353, 0.014668880961835, 0.023165619000793, 0.059752162545919, -0.032715409994125, 0.039187431335449, -0.039534311741590, 0.045107014477253, -0.051371734589338, 0.015052602626383, -0.023983787745237, -0.015396606177092, 0.022651711478829, -0.037830803543329, -0.066715128719807, 0.008465744554996, 0.038101084530354, 0.028186097741127, -0.026243658736348, 0.039080977439880, 0.052362017333508, -0.026761330664158, 0.040987558662891, -0.049730982631445, -0.046867568045855, -0.024767249822617, -0.049095347523689, 0.009651426225901, -0.029886219650507, -0.046551711857319, -0.009511231444776, -0.046863768249750, -0.057696390897036, 0.001523105893284, 0.032156344503164, 0.005845180712640, 0.040332995355129, -0.009761718101799, -0.015671856701374, -0.002828085795045, -0.041336759924889, 0.064790733158588, 0.043742012232542, -0.042506519705057, -0.026448279619217, 0.016573533415794, 0.045128066092730, 0.037341497838497, -0.053831208497286, 0.036391381174326, 0.049671147018671, -0.000196932160179, -0.013481859117746, -0.007166022434831, -0.025527030229568, -0.003569897264242, 0.060246050357819, 0.069242514669895, 0.023419832810760, -0.003788551781327, 0.056518375873566, -0.034847866743803, 0.042986407876015, -0.051976099610329, -0.043647158890963, -0.051016241312027, 0.001564689213410, -0.013801634311676, -0.051470916718245, -0.017010549083352, 0.021132672205567, -0.009037469513714, 0.050037242472172, 0.011573594063520, 0.030750975012779, 0.024862729012966, 0.019045377150178, -0.023050274699926, 0.033155400305986, 0.020085442811251, -0.021716877818108, 0.057220764458179, 0.016004772856832, -0.006524773314595, 0.006356109399348, 0.043158333748579, 0.001839679316618, -0.062483102083206, -0.013106946833432, -0.023809622973204, 0.066374592483044, -0.014680970460176, 0.026405613869429, 0.004127517808229, 0.020244194194674, -0.023514218628407, 0.047000184655190, -0.021088352426887, 0.042936999350786, -0.053116690367460, 0.032814707607031, -0.013412327505648, 0.046170148998499, 0.063279591500759, 0.051368895918131, 0.035955917090178, 0.000818975677248, -0.046972610056400, -0.067895866930485, -0.018982328474522, 0.040865611284971, -0.063186265528202, 0.035463821142912, -0.011000353842974, -0.028688823804259, 0.042927898466587, 0.055010121315718, -0.009333996102214, -0.009781720116735, 0.056438084691763, -0.064876362681389, 0.059691678732634, -0.041271939873695, -0.040757436305285, 0.069959968328476, -0.012915980070829, -0.024729121476412, 0.063851535320282, 0.027255456894636, -0.021213738247752, 0.046309158205986, -0.002241422422230, -0.052333369851112, 0.063647553324699, -0.067222669720650, 0.039555840194225, -0.016754820942879, -0.015102284029126, 0.006602019537240, 0.064215123653412, 0.005484283436090, -0.064310654997826, 0.066251300275326, 0.065761998295784, -0.022984992712736, -0.070804134011269, 0.021896488964558, -0.067516736686230, 0.034447498619556, -0.033836636692286, -0.064662821590900, 0.064262993633747, 0.039271432906389, -0.049562737345695, -0.060393758118153, -0.004652536474168, -0.051796123385429, -0.023144533857703, -0.022124776616693, -0.067312546074390, -0.013391447253525, -0.016324410215020, -0.007800226565450, -0.028303902596235, -0.060964830219746, -0.042379859834909, 0.036134894937277, -0.032905895262957, 0.058250829577446, 0.040047630667686, -0.016529388725758, -0.059839803725481, -0.063432231545448, -0.032935716211796, 0.037896048277617, -0.010559541173279, -0.015570632182062, 0.004588009323925, 0.032218035310507, -0.031804975122213, 0.032585360109806, 0.053421407938004, -0.061429426074028, -0.003956538159400, -0.061425611376762, 0.015210252255201, 0.033527094870806, 0.034405164420605, -0.042779020965099, 0.065612956881523, 0.059712976217270, -0.008442600257695, 0.013392325490713, -0.015796316787601, -0.009216172620654, -0.059870932251215, -0.021237729117274, 0.043833725154400, -0.060332503169775, 0.040397878736258, -0.065791010856628, 0.051190864294767, -0.064232721924782, 0.023813338950276, 0.030022202059627, 0.013163610361516, -0.029656799510121, 0.042566902935505, 0.019840769469738, -0.028272895142436, 0.007894332520664, 0.055175233632326, 0.016247309744358, 0.025114901363850, 0.016477111726999, 0.020932158455253, 0.038125798106194, -0.027441177517176, 0.064056530594826, -0.047548823058605, 0.017747612670064, 0.042620968073606, 0.032323714345694, 0.060446251183748, -0.057532031089067, -0.035116322338581, -0.058885019272566, -0.016639595851302, -0.003172577591613, -0.042788736522198, -0.029810238629580, 0.029289647936821, 0.020655998960137, -0.067811377346516, 0.002666913438588, 0.064002767205238, 0.027702670544386, -0.057598724961281, -0.003779764520004, -0.053754266351461, -0.045842804014683, 0.043298132717609, -0.018697705119848, 0.022672727704048, -0.001941150170751, -0.012621158733964, -0.047185536473989, 0.064880199730396, -0.051263716071844, 0.041493535041809, -0.036363109946251, 0.008095993660390, 0.071459755301476, -0.053872309625149, -0.056408863514662, -0.029341392219067, 0.064298212528229, -0.060793954879045, 0.012516858056188, 0.042147744446993, -0.068814821541309, -0.055792376399040, -0.047753360122442, 0.066940642893314, -0.006996591575444, -0.017285214737058, 0.047592639923096, 0.054364357143641, -0.032342869788408, -0.067687064409256, -0.034104872494936, 0.023636871948838, 0.046268418431282, 0.030701236799359, 0.016652731224895, 0.044180758297443, -0.013815459795296, 0.052983250468969, 0.062760762870312, 0.069900438189507, -0.053014762699604, -0.056090928614140, -0.012298907153308, 0.001747948932461, -0.062904536724091, -0.057766146957874, 0.053023669868708, -0.047490783035755, -0.009367492049932, 0.062753200531006, 0.036401808261871, 0.051682312041521, 0.013853606767952, 0.068588882684708, -0.062866076827049, -0.063951976597309, 0.022879809141159, -0.046375814825296, -0.018774542957544, 0.032192528247833, -0.068309523165226, -0.006249500438571, 0.005242126528174, 0.002293408848345, -0.009871339425445, -0.071242585778236, -0.012105035595596, -0.034911394119263, -0.021713523194194, -0.026128143072128, 0.002054759534076, 0.000007893670045, -0.043975707143545, -0.044842939823866, -0.045531336218119, 0.056583955883980, 0.059825364500284, 0.024140667170286, 0.032246563583612, -0.001426505274139, -0.008012960664928, -0.039262503385544, 0.068176805973053, -0.024025319144130, -0.057523470371962, -0.026193769648671, 0.043839074671268, 0.014872709289193, -0.058077134191990, -0.064590588212013, -0.038886215537786, -0.069300875067711, 0.061935834586620, -0.010521859861910, -0.060247544199228, -0.047784090042114, -0.059993516653776, -0.044630859047174, 0.015716794878244, 0.049501083791256, 0.025749262422323, -0.055950749665499, -0.011599922552705, 0.008499128744006, -0.056800957769156, 0.017446946352720, 0.033523134887218, -0.012121511623263, 0.003614250803366, -0.032376423478127, 0.030205857008696, 0.007280301768333, 0.002576791681349, 0.060826323926449, -0.053739268332720, 0.034960526973009, -0.004881214350462, 0.053034067153931, -0.067727103829384, 0.046180434525013, -0.000584518769756, 0.023326694965363, 0.037668511271477, -0.065297774970531, -0.058427039533854, 0.003299151780084, -0.002379554091021, 0.024412633851171, 0.013510574586689, 0.070649161934853, -0.011369539424777, -0.020543714985251, -0.032303933054209, 0.061307080090046, 0.032731160521507, -0.059387810528278, -0.048806857317686, 0.041334092617035, -0.008861225098372, -0.043423574417830, 0.013274672441185, 0.009423641487956, -0.068603791296482, 0.045709896832705, 0.031716801226139, 0.009259110316634, -0.021587895229459, -0.017480945214629, 0.066138960421085, -0.018127942457795, -0.001374019775540, -0.047570303082466, -0.029555575922132, 0.010027149692178, -0.065044432878494, -0.060992810875177, -0.000964539416600, 0.062439940869808, -0.070605680346489, -0.044272355735302, 0.033796939998865, -0.000914168893360, 0.050816450268030, -0.024791100993752, 0.013923495076597, -0.068431384861469, -0.026166461408138, -0.066733278334141, -0.007151545491070, -0.069020129740238, -0.022627674043179, -0.043331515043974, 0.071511730551720, 0.048976063728333, 0.025096738710999, 0.031079864129424, -0.000432744389400, 0.031601548194885, -0.011740445159376, -0.039931580424309, 0.048490539193153, 0.054708700627089, 0.034311980009079, -0.036956503987312, 0.033075876533985, -0.054801147431135, 0.043831314891577, 0.008314350619912, 0.000475534034194, -0.043193399906158, -0.000472011655802, -0.054996479302645, 0.062583021819592, 0.027557844296098, -0.012390708550811, 0.014960314147174, -0.013774837367237, 0.004950567148626, -0.000990968313999, -0.039777748286724, 0.058903828263283, 0.043946560472250, 0.046413458883762, -0.024763381108642, 0.003064196091145, -0.025662528350949, 0.041298616677523, 0.028849933296442, 0.046635087579489, 0.004147430881858, 0.029212409630418, 0.060860686004162, -0.068810269236565, 0.004604980815202, -0.060868695378304, -0.037710882723331, -0.035076100379229, 0.035368680953979, -0.001340754679404, 0.020813990384340, 0.009938271716237, -0.011534639634192, 0.068795643746853, -0.041809163987637, 0.047443725168705, 0.015467050485313, 0.006034688092768, -0.066745810210705, 0.028661943972111, 0.020805845037103, -0.006953890901059, 0.044599473476410, 0.022823093459010, -0.013408559374511, -0.035199474543333, 0.000001958523626, 0.065445981919765, 0.021436294540763, 0.067990966141224, -0.046000853180885, 0.016181048005819, 0.040868394076824, 0.001093042432331, 0.048495750874281, -0.026269644498825, -0.016492396593094, 0.049600604921579, 0.062164049595594, 0.009286530315876, -0.060895521193743, 0.025101363658905, -0.032744023948908, 0.054342448711395, 0.008412537164986, -0.060624502599239, -0.020158171653748, -0.002454432426021, 0.047291420400143, 0.012962277047336, 0.065302647650242, 0.047081593424082, 0.011769491247833, 0.048842959105968, 0.013979748822749, 0.057327687740326, -0.021508406847715, 0.059538137167692, 0.034095775336027, -0.036782205104828, -0.010955743491650, -0.042879931628704, 0.047747869044542, -0.014289139769971, -0.031649388372898, 0.072028189897537, -0.031349152326584, 0.037846162915230, -0.061251945793629, 0.066493980586529, -0.066925980150700, -0.054416257888079, -0.039982281625271, 0.000687501393259, 0.065777339041233, -0.043008815497160, -0.041215207427740, 0.058085136115551, -0.027972279116511, 0.010222398675978, -0.047747921198606, 0.069922335445881, -0.014155252836645, 0.027681825682521, 0.044275019317865, -0.029252670705318, 0.072130925953388, 0.064381979405880, 0.007910931482911, -0.027806852012873, 0.040398258715868, 0.068463928997517, 0.040691792964935, 0.057894110679626, 0.048921689391136, -0.005583773367107, 0.022670388221741, 0.044591668993235, 0.040665671229362, 0.035316105931997, 0.053352955728769, -0.046816676855087, 0.052451789379120, 0.041388493031263, -0.042527243494987, -0.013805655762553, 0.059426613152027, -0.041055902838707, 0.021146992221475, 0.066606320440769, -0.014356793835759, 0.050531834363937, 0.049562923610210, 0.043750956654549, -0.008106053806841, 0.007252890150994, -0.069826915860176, 0.019780457019806, -0.036014340817928, 0.049345370382071, 0.032766792923212, -0.066802166402340, 0.023207738995552, 0.041450113058090, -0.042097434401512, 0.050566155463457, -0.059469051659107, -0.004633338190615, -0.046044293791056, 0.039810694754124, 0.053355056792498, 0.002038711449131, -0.057730481028557, 0.018394023180008, 0.001851475099102, 0.061841867864132, -0.032707583159208, -0.064694307744503, 0.007673205342144, -0.022875679656863, -0.056051064282656, -0.004355406854302, -0.059718180447817, -0.003071143990383, 0.060230515897274, 0.056220337748528, -0.040088117122650, 0.057706806808710, -0.068451151251793, 0.055719628930092, 0.064195893704891, 0.028972843661904, 0.016758536919951, 0.052702374756336, -0.056676272302866, -0.018236629664898, -0.004008115269244, 0.021613724529743, 0.055839981883764, -0.033207248896360, 0.035505421459675, 0.055879287421703, 0.009193727746606, 0.066411450505257, -0.037357810884714, 0.051450170576572, -0.009583101607859, -0.020860221236944, -0.017057843506336, -0.026475830003619, -0.027075309306383, 0.007671328727156, 0.018212022259831, 0.034208230674267, 0.071826659142971, -0.062840245664120, -0.066175512969494, -0.061019212007523, -0.031647324562073, 0.037811201065779, 0.038393460214138, 0.011058703996241, -0.067032292485237, -0.003253926988691, -0.050370238721371, 0.039974160492420, 0.051326725631952, 0.035215195268393, -0.027856521308422, 0.023226944729686, 0.052745085209608, 0.016586387529969, 0.067383535206318, -0.061710286885500, -0.039818264544010, -0.058269869536161, 0.055899526923895, 0.042077861726284, -0.069853611290455, 0.020269544795156, -0.011873814277351, 0.012183939106762, 0.033378709107637, -0.034535847604275, 0.048056982457638, -0.066469311714172, 0.026548065245152, -0.066306002438068, -0.058349806815386, -0.024719677865505, 0.070009954273701, -0.060234114527702, -0.026525292545557, -0.030491514131427, 0.041232220828533, 0.006947628222406, -0.041187550872564, 0.033797118812799, -0.024579089134932, -0.040385723114014, 0.068666122853756, 0.031569741666317, -0.024522332474589, -0.037395544350147, -0.009583719074726, 0.013781617395580, -0.013126931153238, 0.038795359432697, -0.011432878673077, 0.043634828180075, 0.008413192816079, 0.036956246942282, -0.062758184969425, 0.028507512062788, -0.036679461598396, 0.068768560886383, 0.003861814038828, -0.036770440638065, -0.022578453645110, -0.045119825750589, -0.011764658614993, -0.052314843982458, -0.057297077029943, -0.011663708835840, 0.025441216304898, 0.054151631891727, 0.023818895220757, 0.028472525998950, -0.042976293712854, -0.040585011243820, 0.011013404466212, -0.062723234295845, -0.001626170473173, 0.048728816211224, 0.002862743567675, -0.000082414378994, -0.051298681646585, -0.046179935336113, 0.008866921998560, 0.020743289962411, -0.044335950165987, -0.039837237447500, 0.004865166731179, -0.045428127050400, -0.013873742893338, 0.058348041027784, 0.002045815810561, 0.010048612020910, -0.045545298606157, -0.046371534466743, -0.045499723404646, -0.020920224487782, -0.029759835451841, 0.059318263083696, -0.069670952856541, 0.050976738333702, -0.052079647779465, -0.060675565153360, 0.056711222976446, -0.006718384101987, 0.036245305091143, -0.050089519470930, 0.007607918698341, -0.018582081422210, -0.062394585460424, 0.030445028096437, 0.014370433054864, 0.034687668085098, -0.033104594796896, 0.031631365418434, -0.062262870371342, 0.037624038755894, 0.007764555979520, -0.008875173516572, 0.049902118742466, -0.005698671098799, 0.057833269238472, -0.045184817165136, -0.017587292939425, -0.021527169272304, 0.062350578606129, -0.036462958902121, -0.049655105918646, 0.006131817586720, 0.036287438124418, -0.020401934161782, -0.028997834771872, 0.070899508893490, 0.030578117817640, -0.054909199476242, 0.054055329412222, -0.022899070754647, 0.029492871835828, 0.064089357852936, 0.041562426835299, 0.004175051115453, -0.005119983106852, -0.063571102917194, 0.023073181509972, 0.052845511585474, -0.067048825323582, 0.009164059534669, -0.057778168469667, 0.026511514559388, 0.014899316243827, 0.004410803783685, -0.051446307450533, -0.046786513179541, 0.062469355762005, -0.041930239647627, 0.046838346868753, -0.023618936538696, -0.070905335247517, 0.007286922074854, 0.061037443578243, -0.052391514182091, 0.001581027521752, 0.009498504921794, 0.028578085824847, 0.025072952732444, 0.023437876254320, -0.013855256140232, -0.021108796820045, 0.068523637950420, 0.052613273262978, -0.011016107164323, -0.022927841171622, 0.064835622906685, -0.056656580418348, 0.014282329007983, -0.070904240012169, -0.007618634961545, -0.041297066956758, 0.023614583536983, 0.039712790399790, 0.021679062396288, -0.070581853389740, -0.045057259500027, 0.052817795425653, -0.007040051277727, -0.012543547898531, -0.059756152331829, 0.046859897673130, 0.023460492491722, 0.066782176494598, 0.009462581016123, 0.036777820438147, 0.044677276164293, 0.071616388857365, -0.050155647099018, -0.060193508863449, -0.029368670657277, 0.064201615750790, 0.065510787069798, 0.054098356515169, -0.054300587624311, 0.009249415248632, -0.056651629507542, 0.049369327723980, -0.054405890405178, -0.071549087762833, 0.071402564644814, 0.060605138540268, -0.046771638095379, 0.015545369125903, -0.024925744161010, 0.061279810965061, -0.014797730371356, -0.038395717740059, -0.055346023291349, 0.016112275421619, -0.051012974232435, 0.006618000566959, 0.020660191774368, -0.024330029264092, 0.010320422239602, -0.009437090717256, -0.067699313163757, 0.012245249003172, -0.013442163355649, 0.056728452444077, 0.008298287168145, -0.000896884710528, 0.026415241882205, -0.035114739090204, 0.000373348244466, -0.014303172938526, -0.010141705162823, -0.011177425272763, 0.004373807925731, -0.009538628160954, -0.046522445976734, -0.066406108438969, 0.013244170695543, -0.048868101090193, -0.048433784395456, -0.009889703243971, 0.032838307321072, -0.014577046036720, 0.005879197735339, -0.050440512597561, 0.013286818750203, -0.051749296486378, 0.059051249176264, -0.048392754048109, -0.015415800735354, -0.059172544628382, -0.054956924170256, 0.011531780473888, 0.014019202440977, -0.032516364008188, 0.005591793917120, 0.017112225294113, -0.071996569633484, -0.032405212521553, -0.009947885759175, 0.055166862905025, -0.048031978309155, 0.010473865084350, -0.067431852221489, -0.013229429721832, -0.035969197750092, 0.021779512986541, -0.040644995868206, -0.015969343483448, 0.002632635645568, -0.070649176836014, 0.055193625390530, -0.029586892575026, -0.039799023419619, -0.013240503147244, -0.044983807951212, -0.028881181031466, -0.055778205394745, -0.029617212712765, 0.048485465347767, -0.033980134874582, -0.026075620204210, -0.062359485775232, -0.055533770471811, -0.027409411966801, 0.071468196809292, 0.047401264309883, -0.024645365774632, 0.051330737769604, -0.021081676706672, -0.004782223608345, 0.005508537869900, 0.045166775584221, -0.008710813708603, -0.023534372448921, 0.008352202363312, -0.060599170625210, -0.066915385425091, -0.048932366073132, 0.015430329367518, -0.021963357925415, 0.004007578827441, 0.046378012746572, 0.066680371761322, 0.063513092696667, -0.000244070775807, -0.033554300665855, -0.054209351539612, 0.064111478626728, 0.069739304482937, 0.024429313838482, -0.005917325615883, 0.005264087114483, -0.068000286817551, -0.018686423078179, 0.049084961414337, -0.020836953073740, 0.054519150406122, 0.046232644468546, -0.048048537224531, -0.034768152981997, 0.071268923580647, 0.030340377241373, -0.022369982674718, 0.067405030131340, 0.044686026871204, 0.013904959894717, 0.034624516963959, -0.067870035767555, 0.000431873108028, -0.034288439899683, 0.022254221141338, 0.037038899958134, 0.045220173895359, -0.036847092211246, -0.041314642876387, 0.054799493402243, -0.044883288443089, 0.071423575282097, 0.022813823074102, 0.065029226243496, -0.056688860058784, -0.004512408748269, 0.055181592702866, 0.003891772823408, 0.038875676691532, 0.019052064046264, 0.025240397080779, -0.044183477759361, -0.022697476670146, 0.018821666017175, -0.055855933576822, 0.028307599946856, 0.050754971802235, 0.043382693082094, 0.051627676934004, -0.014046323485672, -0.037241093814373, 0.068002268671989, 0.070010595023632, 0.008542842231691, 0.036557722836733, -0.026966175064445, 0.022842612117529, 0.057888645678759, 0.017600709572434, 0.004293151199818, 0.012359014712274, -0.068557702004910, 0.002167847473174, 0.066618762910366, 0.031958140432835, 0.009768974967301, 0.014414562843740, 0.001561434939504, 0.012283637188375, -0.064114212989807, -0.018364101648331, 0.021507598459721, 0.052609842270613, -0.008942262269557, -0.009760995395482, 0.050182495266199, 0.036159813404083, -0.063228935003281, 0.061200976371765, 0.034575801342726, 0.015885474160314, 0.038684826344252, 0.021053697913885, -0.028468381613493, -0.045117110013962, -0.046353131532669, 0.057250343263149, 0.023297905921936, 0.059600111097097, -0.015215428546071, -0.038871664553881, -0.054385889321566, -0.047583475708961, 0.023181920871139, -0.028361173346639, -0.070558816194534, -0.012347628362477, 0.043387323617935, 0.047977291047573, -0.010701231658459, -0.032084751874208, -0.057370185852051, -0.032804802060127, 0.051253329962492, 0.059455774724483, -0.016331477090716, -0.046374659985304, 0.051681865006685, 0.044677879661322, 0.002213712548837, 0.046219430863857, -0.055540066212416, -0.018806220963597, 0.001234711380675, -0.029480284079909, 0.046639129519463, -0.051790449768305, -0.006867969408631, -0.053096503019333, -0.013297564350069, -0.036715667694807, -0.030107587575912, -0.057399470359087, 0.012933472171426, -0.046816267073154, -0.039215601980686, 0.029496617615223, -0.025670887902379, 0.051097102463245, -0.054379645735025, -0.043900433927774, 0.067158102989197, 0.032832976430655, 0.002885017078370, -0.007272683549672, -0.042476098984480, -0.060904156416655, -0.031231550499797, 0.044855784624815, 0.045442271977663, -0.061770685017109, -0.030902469530702, 0.000114331611258, 0.034738007932901, -0.061484977602959, -0.068842291831970, 0.057549856603146, -0.063591636717319, 0.015306473709643, 0.016468919813633, 0.038913596421480, -0.011896411888301, 0.000683576916344, 0.025051737204194, -0.063373133540154, 0.007655266206712, 0.046273473650217, -0.021353334188461, -0.043415885418653, -0.015264476649463, 0.070829272270203, -0.023722913116217, 0.061390679329634, 0.055436782538891, -0.026449002325535, 0.045646887272596, -0.055825546383858, 0.043284274637699, 0.033520713448524, 0.052546720951796, -0.011700648814440, -0.021805774420500, 0.012372396886349, -0.044748701155186, -0.061027344316244, 0.006814135704190, 0.070961169898510, 0.030037542805076, 0.032867096364498, 0.000073641982453, 0.036556515842676, -0.025498980656266, -0.022098030894995, 0.026579512283206, -0.062015961855650, -0.056184876710176, 0.015383176505566, 0.012095358222723, 0.016876218840480, -0.072048611938953, 0.041017383337021, 0.049449834972620, -0.059237074106932, -0.061038162559271, 0.069046407938004, -0.002959873061627, -0.066652722656727, 0.057597607374191, 0.000860767439008, 0.057863771915436, 0.040359202772379, -0.059644643217325, -0.043579027056694, 0.035825718194246, 0.003581730416045, -0.031884759664536, -0.066746309399605, 0.052989549934864, -0.000675631104968, -0.057924848049879, -0.058392044156790, -0.025036202743649, 0.005554283969104, 0.004610156174749, 0.023852465674281, 0.035000517964363, -0.034004587680101, -0.014691206626594, 0.014806670136750, 0.005542242433876, -0.010775373317301, -0.045683223754168, -0.043868791311979, -0.042397949844599, -0.020783485844731, 0.036313820630312, -0.033406142145395, 0.027574442327023, -0.016090761870146, 0.032494127750397, -0.024673433974385, 0.071091771125793, 0.052133973687887, -0.053144447505474, -0.014075113460422, 0.025811323896050, 0.050333507359028, -0.026282804086804, -0.024864191189408, -0.009381529875100, -0.053388878703117, 0.045954503118992, -0.016778877004981, -0.063843950629234, 0.012303208000958, -0.068942815065384, -0.010486211627722, 0.031544718891382, 0.048092585057020, 0.032508932054043, -0.020193895325065, -0.050494030117989, 0.046792637556791, -0.022541942074895, 0.069413773715496, -0.069407559931278, 0.042524784803391, 0.025543848052621, 0.054120652377605, 0.036450784653425, -0.070204131305218, -0.024528235197067, 0.045222133398056, -0.040197182446718, 0.065526738762856, -0.054168179631233, -0.005365900695324, -0.057219013571739, -0.022333661094308, 0.045787252485752, -0.020664030686021, 0.056473903357983, -0.052301533520222, -0.057948581874371, 0.053249310702085, -0.025852583348751, 0.032450303435326, 0.034087687730789, 0.003225636435673, -0.000239565430093, -0.048704136162996, -0.003494676435366, -0.018133822828531, 0.008755427785218, 0.062150377780199, -0.017923288047314, -0.048300951719284, -0.011637138202786, -0.010836269706488, 0.058279395103455, 0.044860500842333, -0.004815570544451, -0.019271593540907, 0.043180979788303, 0.034303758293390, 0.039901368319988, -0.000785747775808, -0.030525080859661, -0.013770093210042, 0.066375218331814, 0.052101451903582, -0.019599057734013, -0.029292123392224, 0.070491902530193, 0.051343414932489, 0.051473613828421, -0.032405558973551, -0.054153271019459, 0.024027265608311, -0.016021316871047, 0.032285861670971, -0.035897083580494, 0.026515230536461, 0.064285628497601, 0.005599374417216, -0.012876288034022, 0.023638933897018, 0.065127156674862, -0.063464179635048, -0.009394479915500, 0.031084474176168, -0.047078911215067, 0.003120330395177, -0.042943358421326, -0.061649508774281, 0.059647548943758, -0.060973860323429, 0.049724914133549, -0.054119389504194, -0.025454076007009, 0.028661549091339, -0.022353643551469, 0.041783474385738, -0.026901578530669, 0.050743829458952, 0.012231285683811, 0.051697563380003, -0.021723482757807, 0.044902551919222, -0.019271265715361, -0.019634345546365, -0.016041627153754, -0.020649667829275, 0.026059022173285, -0.047360058873892, -0.011317325755954, 0.011967659927905, 0.022532874718308, 0.019530801102519, -0.033203568309546, 0.067804165184498, -0.062127504497766, 0.043090932071209, 0.061940956860781, 0.061219654977322, -0.012202720157802, -0.061869055032730, 0.059805508702993, -0.068200863897800, -0.064795017242432, -0.061866786330938, -0.005899185314775, -0.056949872523546, 0.034097272902727, -0.041844766587019, 0.047152709215879, -0.023324904963374, 0.070377662777901, 0.022120803594589, -0.038261692970991, -0.014169908128679, -0.033316217362881, -0.022857416421175, -0.034839849919081, -0.017102435231209, 0.035639151930809, -0.057741619646549, 0.058333728462458, 0.068485029041767, 0.016935808584094, -0.063531927764416, -0.018472379073501, -0.057131476700306, 0.041385296732187, 0.061948716640472, -0.029074965044856, 0.008964535780251, 0.035651169717312, 0.024947652593255, 0.023360846564174, -0.000292497687042, -0.011404416523874, -0.015344291925430, -0.017757071182132, -0.069936521351337, 0.039634682238102, -0.057958502322435, 0.019239725545049, 0.041228361427784, -0.050929028540850, 0.010759362019598, -0.042796492576599, 0.030899718403816, 0.055657044053078, 0.023158775642514, -0.031757391989231, 0.039549943059683, 0.067066483199596, -0.010495013557374, -0.011460998095572, 0.058348547667265, -0.001802392886020, -0.058246910572052, 0.061240550130606, 0.061119880527258, 0.070347592234612, 0.025503367185593, -0.019661519676447, -0.047712497413158, -0.063922829926014, -0.001298813964240, 0.006434718612581, 0.025532998144627, 0.030707290396094, 0.039548363536596, 0.057223416864872, -0.042402453720570, 0.066747426986694, -0.043210096657276, -0.034675870090723, 0.060692310333252, 0.065325133502483, -0.035367753356695, -0.042283754795790, 0.051384393125772, -0.012447721324861, -0.050022877752781, -0.041106827557087, 0.007368286605924, 0.020451158285141, 0.016532933339477, 0.011531735770404, -0.018427716568112, 0.068207308650017, 0.001770751201548, -0.039400167763233, 0.066425025463104, -0.039208587259054, 0.016841806471348, 0.026954736560583, -0.023121764883399, -0.071014545857906, -0.025966778397560, 0.030967477709055, 0.015447732992470, -0.001089274301194, -0.061868440359831, 0.011711450293660, -0.037688095122576, 0.014287884347141, 0.069875612854958, -0.008301214314997, -0.037960473448038, 0.018205929547548, 0.059753127396107, -0.009887640364468, 0.030014151707292, 0.043236825615168, -0.010154413059354, -0.055284850299358, 0.059900414198637, -0.016569806262851, 0.055083084851503, 0.049547106027603, -0.015835408121347, -0.010215570218861, -0.026748001575470, 0.002449718536809, 0.019716845825315, -0.010856975801289, 0.024297542870045, -0.003656280692667, -0.064881160855293, 0.056916337460279, 0.070645257830620, 0.062955722212791, -0.052059922367334, -0.065964460372925, -0.027993448078632, -0.059738714247942, 0.035125885158777, 0.065068326890469, -0.044943310320377, -0.044276926666498, 0.014066236093640, -0.051171191036701, 0.024000464007258, -0.022116141393781, -0.068535916507244, 0.004982179030776, -0.052736021578312, -0.056130997836590, 0.040011812001467, -0.040808219462633, -0.026326758787036, 0.005842790007591, -0.040925044566393, 0.033763103187084, 0.019665127620101, -0.054635804146528, -0.013559247367084, 0.021444329991937, 0.065636947751045, -0.027849588543177, 0.049699407070875, -0.030271448194981, -0.044471539556980, -0.053602322936058, -0.011852248571813, 0.000227873868425, -0.018900673836470, 0.015560895204544, 0.000287925329758, -0.043904822319746, -0.018814632669091, 0.004181500058621, -0.023826133459806, -0.034634716808796, 0.002586681162938, -0.040776133537292, 0.029735274612904, 0.038987066596746, 0.035398401319981, 0.032879114151001, 0.031775735318661, 0.037336438894272, -0.000328525609802, 0.033587750047445, -0.021886346861720, 0.049794618040323, -0.042920988053083, -0.046965457499027, 0.059768214821815, 0.024481575936079, -0.001770393690094, 0.058109413832426, 0.062268782407045, -0.051842287182808, -0.071135379374027, -0.001003613113426, 0.040715407580137, -0.035754416137934, 0.005178835708648, 0.026653600856662, -0.040259182453156, 0.006235433276743, 0.056969314813614, 0.022054072469473, 0.010372140444815, 0.053200699388981, 0.056002147495747, 0.009287304244936, -0.047552417963743, -0.024884518235922, 0.048328313976526, -0.024025456979871, -0.068523392081261, 0.020931972190738, 0.028141416609287, -0.003944586031139, -0.011119656264782, 0.054363287985325, 0.022809019312263, 0.050657924264669, 0.053292918950319, 0.045395437628031, -0.022559691220522, 0.013096797280014, 0.057615194469690, -0.001473405631259, -0.008961228653789, 0.064422607421875, -0.005975813139230, 0.063531115651131, 0.046245697885752, -0.045842718333006, -0.034611947834492, -0.035205442458391, -0.062191668897867, -0.061839472502470, 0.042285270988941, 0.024725148454309, 0.027576923370361, -0.041221950203180, 0.061697620898485, -0.069593079388142, -0.045442149043083, 0.068551398813725, -0.054769810289145, 0.012797574512661, 0.068596020340919, -0.027915628626943, 0.044515442103148, 0.050875291228294, -0.069245494902134, -0.009193005040288, -0.050863523036242, 0.020664101466537, -0.044988162815571, -0.049225833266973, 0.041186831891537, 0.067760139703751, -0.010783560574055, -0.070913985371590, 0.021043257787824, 0.047780510038137, 0.019012402743101, -0.068878769874573, 0.013475373387337, -0.059401605278254, 0.063675180077553, 0.027690062299371, -0.008469251915812, -0.033756479620934, 0.033098507672548, -0.011208876967430, 0.033087708055973, 0.058194961398840, -0.033734466880560, -0.006604052614421, 0.010571954771876, 0.048840980976820, 0.044696863740683, -0.004982559010386, 0.054779715836048, 0.038872383534908, 0.001047192141414, 0.066230706870556, -0.039199024438858, 0.056831546127796, 0.022837383672595, 0.058624677360058, 0.020435675978661, -0.004609158262610, -0.017005065456033, -0.069340839982033, -0.002959187841043, 0.055075757205486, 0.021148407831788, 0.026096621528268, -0.007860091514885, -0.012301814742386, -0.025958623737097, -0.046176802366972, 0.045038621872663, -0.010036868043244, 0.008062460459769, 0.064667664468288, -0.066871322691441, -0.011679101735353, -0.018072359263897, 0.067730903625488, -0.027023613452911, 0.025866668671370, -0.011269587092102, -0.065393500030041, 0.031088413670659, -0.068533301353455, 0.053048618137836, -0.007067723665386, -0.063408635556698, -0.024224398657680, -0.044855322688818, 0.030447604134679, -0.051487717777491, 0.015645781531930, -0.030431939288974, -0.040218219161034, 0.004096717573702, -0.068750165402889, -0.049708880484104, 0.037179779261351, -0.039411351084709, -0.025245672091842, 0.000142004137160, 0.017842888832092, 0.042392052710056, 0.051529906690121, 0.021780630573630, 0.061728898435831, 0.018678240478039, -0.025594048202038, -0.034902967512608, 0.026679866015911, 0.012276793830097, -0.023063687607646, -0.013858316466212, -0.048071794211864, 0.061004307121038, -0.057814233005047, -0.023631129413843, -0.057895749807358, 0.026433285325766, -0.060903109610081, -0.047626744955778, 0.034590672701597, -0.029588818550110, -0.029977111145854, -0.013102973811328, -0.005865547806025, 0.024978900328279, -0.053136020898819, 0.057160146534443, -0.044741630554199, 0.055450782179832, -0.065876275300980, 0.016010982915759, -0.026857087388635, 0.028873115777969, -0.008427982218564, 0.037211958318949, -0.002445511054248, 0.066466413438320, 0.006057296879590, -0.044599041342735, 0.030532564967871, 0.044387340545654, 0.002710678847507, -0.063731282949448, -0.016644941642880, 0.068818353116512, 0.063614472746849, -0.053873479366302, 0.001310125808232, -0.042543426156044, 0.036131061613560, -0.002428070409223, 0.046727418899536, 0.062122672796249, 0.020595895126462, -0.011343210935593, -0.046189423650503, 0.031070221215487, -0.051444087177515, 0.019386732950807, 0.045314967632294, -0.026558293029666, 0.038711279630661, 0.066277585923672, 0.061662010848522, -0.006850223522633, -0.038215845823288, -0.015354833565652, -0.021702639758587, 0.065944224596024, -0.017054127529263, -0.072090484201908, 0.016428647562861, 0.029277397319674, -0.058449104428291, -0.040649212896824, -0.000446282763733, 0.023666108027101, 0.016995003446937, 0.023085894063115, 0.027902595698833, 0.011373102664948, -0.054347328841686, 0.015396297909319, 0.064890481531620, 0.023000471293926, -0.071490325033665, 0.067379251122475, -0.021050309762359, 0.011054667644203, -0.017069159075618, -0.053854528814554, 0.046265348792076, -0.049056746065617, 0.010228535160422, -0.020713420584798, 0.057816885411739, 0.000264192203758, -0.005008972715586, -0.059045504778624, -0.005224723368883, -0.044033668935299, -0.058618057519197, 0.007383061107248, -0.013770007528365, -0.061332292854786, 0.007939684204757, 0.015928257256746, 0.040456406772137, -0.062500953674316, 0.014653815887868, -0.019910441711545, -0.051620554178953, -0.062018398195505, -0.027542764320970, 0.026645313948393, 0.050543248653412, -0.033577244728804, 0.019736535847187, -0.030379967764020, -0.047035951167345, 0.041225664317608, -0.039389338344336, 0.045785482972860, 0.013246159069240, -0.017096556723118, -0.014890391379595, 0.043333336710930, 0.018810093402863, 0.027921525761485, -0.055915612727404, -0.060550294816494, 0.029167080298066, -0.049505893141031, 0.053997065871954, 0.062868148088455, -0.010911047458649, -0.001524930354208, 0.032984241843224, 0.066901519894600, 0.018657395616174, -0.018023101612926, -0.011518714949489, 0.063873283565044, -0.072049111127853, -0.069901257753372, -0.065589606761932, -0.066159829497337, -0.069182641804218, -0.059391457587481, 0.036349918693304, -0.048232160508633, 0.018861394375563, 0.041659101843834, -0.054097082465887, 0.008959530852735, 0.051802370697260, -0.034857548773289, -0.018134307116270, 0.029697058722377, -0.019005045294762, -0.067982681095600, -0.034465521574020, -0.057034138590097, 0.024880601093173, 0.031223537400365, -0.017876131460071, 0.027636237442493, 0.048621535301208, 0.009325201623142, -0.020013453438878, -0.031957022845745, 0.029441123828292, -0.049171552062035, -0.068884357810020, 0.041380994021893, 0.020752852782607, -0.013745689764619, 0.051548924297094, 0.064890921115875, 0.050444189459085, -0.000294545578072, -0.067186199128628, -0.031043028458953, -0.000715307949577, 0.002205133903772, 0.041759122163057, -0.007265973836184, 0.030473675578833, -0.067089252173901, 0.038948401808739, 0.058296255767345, -0.020724721252918, -0.013717775233090, -0.021243853494525, -0.032575178891420, -0.036944482475519, 0.044917065650225, -0.071962796151638, -0.016764586791396, -0.032069236040115, -0.016163609921932, 0.004565340932459, -0.028035994619131, -0.049909044057131, -0.060963626950979, -0.055050354450941, -0.038055513054132, -0.025248769670725, -0.010685549117625, -0.000029958710002, -0.070136018097401, -0.043590132147074, 0.016173429787159, 0.012314266525209, 0.033205155283213, 0.041682984679937, -0.024494217708707, 0.033952035009861, 0.024885158985853, 0.015527965500951, 0.024965487420559, -0.029725180938840, -0.035423871129751, -0.068640954792500, -0.053101401776075, 0.070249743759632, -0.036845784634352, -0.067295417189598, -0.064650438725948, 0.003127144183964, -0.018604369834065, -0.011704688891768, -0.036724366247654, 0.054958112537861, -0.040401767939329, -0.043269500136375, 0.049054555594921, -0.051583182066679, 0.001266293576919, 0.034478358924389, -0.026731785386801, 0.017476987093687, -0.059830449521542, -0.067214936017990, 0.042166002094746, -0.032547336071730, -0.031837392598391, -0.055676802992821, 0.046220704913139, -0.062694549560547, -0.011948260478675, -0.021670168265700, 0.036575227975845, 0.031824395060539, -0.018774114549160, 0.019623305648565, -0.022386938333511, -0.014455989934504, 0.064363762736320, -0.072033993899822, -0.053843986243010, -0.019765790551901, 0.015432705171406, -0.048302222043276, 0.047391477972269, 0.014893380925059, 0.011214551515877, -0.040073189884424, 0.044622223824263, -0.023612724617124, -0.061488006263971, -0.004364059772342, 0.043837800621986, -0.051426634192467, -0.038192883133888, 0.015049587003887, 0.012115390039980, -0.025492185726762, 0.065687380731106, 0.054607871919870, -0.015393493697047, -0.058663718402386, -0.047179706394672, 0.039938960224390, 0.026002671569586, -0.060925621539354, 0.010284632444382, 0.036170322448015, -0.023022618144751, 0.040583569556475, 0.017418224364519, 0.065693311393261, -0.048217523843050, -0.056051697582006, 0.026727860793471, 0.034377884119749, -0.025242820382118, -0.039500985294580, -0.006508360616863, -0.062596894800663, -0.000157724454766, -0.012807549908757, 0.066386118531227, -0.047580398619175, -0.018050964921713, -0.042572423815727, 0.003914299421012, 0.008976465091109, 0.020064687356353, -0.040965355932713, 0.044213071465492, 0.020380338653922, 0.018513843417168, 0.005624172743410, -0.055975478142500, 0.052465803921223, 0.015084154903889, -0.008051780983806, 0.005673857871443, -0.021835867315531, -0.041448030620813, -0.062030132859945, -0.018932590261102, -0.047914035618305, -0.000349198089680, -0.059176828712225, -0.051581222563982, -0.003983078524470, 0.004591546487063, 0.039817940443754, -0.038070216774940, 0.005843758117408, -0.029282111674547, 0.016789849847555, -0.059416860342026, 0.029420452192426, 0.006983298808336, 0.054024334996939, -0.023114902898669, 0.062691360712051, -0.020519377663732, 0.053853847086430, 0.034676764160395, -0.055790789425373, 0.014397175051272, -0.007580402772874, -0.040799882262945, 0.013480839319527, 0.041677519679070, 0.057918418198824, 0.036176018416882, -0.029882488772273, -0.027861436828971, -0.035709254443645, 0.045781616121531, -0.050226930528879, -0.000335101183737, -0.031884603202343, -0.037849601358175, -0.003452266566455, 0.036467384546995, 0.059665910899639, 0.067757144570351, 0.026817811653018, 0.006805624347180, 0.003429784672335, -0.037058487534523, 0.006122665479779, 0.039123751223087, 0.021083910018206, 0.062804743647575, 0.007080003619194, 0.016773207113147, -0.026191050186753, 0.025790190324187, 0.013538991101086, 0.015555496327579, -0.024529574438930, 0.014028972014785, 0.013546245172620, 0.014060353860259, 0.059984352439642, 0.057174086570740, 0.053324032574892, 0.047877132892609, 0.044338535517454, -0.068342022597790, -0.019807666540146, -0.043443351984024, -0.018916785717010, -0.021694760769606, -0.072126239538193, 0.000809726712760, -0.015967572107911, 0.026295473799109, 0.054193720221519, -0.001210360205732, -0.066518574953079, 0.009724211879075, -0.033297535032034, 0.029577506706119, 0.051313605159521, 0.053517635911703, 0.054844994097948, 0.023238331079483, -0.025150621309876, -0.017860533669591, -0.021818036213517, -0.070098057389259, 0.051711183041334, 0.007646717131138, -0.025460818782449, 0.004930676426739, 0.017307689413428, 0.033908434212208, -0.054839033633471, 0.059724919497967, -0.044801738113165, -0.007937777787447, -0.009632801637053, 0.047498781234026, 0.059819258749485, 0.055579520761967, -0.065919436514378, -0.054786957800388, 0.053262654691935, -0.019188133999705, 0.014300269074738, -0.069148413836956, 0.037848621606827, -0.003972668200731, 0.071923486888409, -0.005020321812481, -0.044684551656246, 0.059255976229906, 0.006679206155241, -0.003574611153454, -0.066074930131435, -0.061714362353086, 0.011745415627956, -0.006675095763057, -0.016440562903881, -0.065096534788609, -0.060454554855824, -0.007864701561630, -0.046807855367661, -0.006600247230381, 0.005566288251430, 0.055747821927071, -0.063101246953011, -0.049217540770769, -0.017705891281366, -0.026972021907568, -0.031553905457258, 0.019002394750714, -0.061498288065195, 0.005582224577665, -0.035562690347433, -0.044451072812080, 0.037116080522537, 0.067284777760506, -0.015952678397298, 0.068680033087730, -0.055498875677586, 0.061129488050938, 0.026683596894145, 0.044618044048548, 0.056663680821657, -0.007506180088967, -0.022480921819806, 0.059107769280672, -0.017627038061619, -0.059344969689846, -0.017256425693631, -0.049309223890305, 0.062392041087151, -0.045288864523172, 0.031543772667646, -0.054740902036428, -0.058015838265419, -0.016450347378850, 0.029841177165508, -0.044213093817234, -0.048823434859514, -0.066464871168137, -0.010594090446830, -0.009105266071856, 0.031259484589100, -0.042608056217432, -0.013237251900136, 0.028518376871943, 0.038026615977287, -0.036445539444685, 0.059042878448963, -0.047356605529785, 0.026633793488145, -0.061387155205011, -0.052148938179016, 0.060702260583639, -0.052007898688316, 0.059078235179186, 0.031246853992343, 0.055080328136683, 0.043549861758947, 0.033998742699623, -0.060927115380764, 0.065653853118420, 0.000708531355485, -0.058287084102631, -0.001966223819181, 0.001959030050784, -0.005208883900195, -0.029385969042778, -0.032812096178532, -0.062312673777342, -0.053845223039389, 0.069935783743858, 0.032589588314295, -0.048253636807203, -0.054335068911314, 0.060164656490088, -0.061622969806194, 0.028369424864650, -0.029958158731461, -0.015141923911870, -0.025073504075408, -0.007508704438806, 0.035031005740166, -0.036774449050426, -0.067746430635452, 0.041938927024603, -0.000239975008299, 0.057469282299280, -0.066905029118061, -0.003566389670596, 0.030751183629036, -0.068614110350609, 0.032193109393120, -0.020542697981000, -0.036876257508993, 0.028925087302923, -0.056590560823679, 0.042676448822021, -0.068526580929756, -0.037372481077909, -0.067640319466591, -0.002514074323699, 0.016629913821816, -0.007165009621531, -0.042171217501163, 0.052360139787197, 0.026878809556365, 0.015953933820128, -0.002404746832326, 0.038282740861177, 0.022893913090229, -0.012065466493368, -0.037004590034485, -0.056496348232031, 0.058094073086977, 0.072117611765862, -0.056878741830587, 0.065030090510845, -0.053185071796179, 0.070497661828995, 0.028764234855771, -0.053054127842188, -0.024320656433702, 0.050054110586643, 0.022352987900376, -0.067611634731293, -0.003549522720277, -0.032115500420332, 0.034114453941584, -0.037012550979853, -0.007360079791397, -0.021088747307658, -0.060030940920115, -0.058833818882704, -0.049209076911211, 0.033996835350990, -0.036699794232845, 0.056469719856977, -0.071055442094803, -0.012889152392745, -0.051833618432283, 0.050128869712353, 0.025537190958858, 0.055318061262369, -0.011799174360931, 0.068322241306305, 0.059996865689754, 0.063868813216686, -0.026554062962532, 0.047691222280264, 0.002522228518501, -0.021474493667483, 0.052156917750835, 0.034846492111683, -0.068484455347061, -0.034908417612314, -0.045148719102144, -0.022267051041126, 0.005640168674290, -0.013920933008194, -0.032031729817390, 0.020752495154738, 0.013946476392448, -0.062451250851154, 0.025879962369800, 0.024346832185984, 0.038524236530066, 0.001108278636821, -0.000924877473153, -0.065459884703159, -0.042179264128208, 0.064285136759281, 0.009524717926979, 0.061229005455971, -0.060813628137112, 0.045854788273573, 0.012271543964744, 0.015853349119425, 0.058292843401432, 0.002758591901511, -0.003306740196422, 0.037022300064564, -0.004123876336962, -0.008102099411190, -0.007538462057710, -0.043508134782314, 0.004843205679208, 0.029699433594942, 0.032420553267002, 0.058900285512209, 0.002285805763677, 0.047746237367392, 0.032566733658314, -0.002064455300570, -0.045425534248352, -0.030570451170206, 0.004233248531818, 0.019216505810618, 0.057721253484488, 0.036723881959915, -0.061340805143118, -0.018718650564551, -0.058635354042053, -0.056350100785494, -0.054887991398573, 0.055197604000568, 0.068264469504356, -0.071298375725746, 0.064830861985683, 0.017555320635438, -0.037249173969030, -0.014320043846965, -0.012606302276254, 0.050176162272692, -0.004417334683239, 0.059895109385252, -0.045061957091093, 0.047502130270004, 0.011630361899734, 0.027313929051161, 0.035128466784954, 0.045275811105967, -0.042737640440464, -0.060157205909491, 0.065253615379333, 0.046568192541599, 0.012765188701451, -0.043296605348587, 0.007959648966789, -0.005838925018907, 0.034056372940540, 0.036835052073002, 0.009091318584979, -0.036892957985401, -0.048619024455547, -0.046742986887693, 0.047960262745619, 0.061242621392012, -0.029821829870343, -0.018505331128836, -0.052328620105982, -0.013861894607544, -0.031442344188690, -0.014188961125910, 0.038198526948690, -0.063101731240749, 0.056087799370289, -0.050480481237173, -0.031106866896152, -0.003789445618168, 0.029843499884009, 0.067404985427856, -0.062386672943830, 0.045021060854197, 0.036773569881916, -0.017709415405989, -0.025617728009820, -0.035162843763828, 0.004101565573364, -0.052449844777584, -0.064440622925758, -0.025763843208551, 0.065424390137196, -0.012032961472869, 0.027181562036276, -0.052909150719643, -0.031822878867388, 0.015132499858737, -0.060887768864632, -0.015460962429643, -0.043951909989119, 0.005188963375986, -0.005517704878002, 0.056195005774498, -0.050229489803314, 0.041336636990309, 0.040829546749592, -0.048119511455297, -0.054419249296188, -0.039253525435925, -0.027338778600097, -0.069752857089043, -0.035486128181219, -0.033534832298756, -0.045305941253901, -0.002363528590649, 0.040130045264959, 0.030921611934900, 0.006039037369192, 0.071547523140907, 0.003768497612327, -0.059061173349619, -0.037712328135967, 0.051628895103931, -0.026521576568484, -0.018034677952528, -0.003433537902310, 0.066326946020126, 0.028383700177073, -0.041185025125742, -0.043412551283836, 0.053125843405724, 0.035397663712502, -0.003057233290747, 0.034658126533031, -0.006424129009247, -0.025853477418423, 0.045456711202860, 0.015032257884741, 0.041037008166313, -0.046672217547894, -0.033751919865608, 0.042866297066212, -0.023236352950335, 0.045479968190193, -0.065828070044518, 0.009682985953987, 0.058676507323980, -0.038910981267691, 0.012531438842416, -0.043114650994539, -0.001387379481457, -0.022762142121792, -0.035950258374214, 0.048179153352976, 0.000233168582781, -0.060314666479826, -0.019100267440081, -0.058716494590044, -0.037066273391247, -0.051874872297049, -0.070218041539192, -0.043260194361210, 0.029318451881409, 0.035413652658463, -0.033235352486372, -0.010805451311171, 0.050706647336483, 0.050690084695816, -0.006422393955290, 0.041412461549044, 0.009511648677289, 0.030633529648185, -0.043445825576782, -0.057042393833399, 0.028510363772511, 0.049502648413181, -0.005041440948844, -0.021586554124951, 0.028146853670478, -0.018092101439834, 0.014818540774286, 0.001036766450852, 0.003490893635899, -0.064085938036442, 0.003530391724780, 0.065707176923752, -0.021331407129765, -0.010987355373800, 0.049506533890963, 0.052538104355335, -0.037467088550329, 0.033429943025112, -0.068214677274227, -0.009466997347772, 0.067730680108070, 0.021547254174948, 0.045757830142975, 0.024347607046366, 0.029031420126557, -0.008092247880995, -0.017881205305457, -0.055198401212692, -0.040865644812584, 0.043425206094980, -0.008638980798423, -0.021957973018289, -0.068663291633129, -0.009246607311070, -0.019440991804004, -0.019117552787066, 0.010360062122345, 0.046127531677485, -0.007545528933406, -0.024165308102965, 0.056086368858814, -0.043802011758089, -0.027501232922077, -0.062991589307785, -0.034987803548574, 0.036619372665882, 0.025510866194963, 0.056315019726753, -0.016090467572212, 0.000130878528580, 0.045462988317013, 0.025958281010389, 0.071017570793629, 0.020143073052168, -0.017972284927964, -0.055245760828257, -0.071063317358494, -0.050290647894144, -0.041976608335972, 0.004467571154237, -0.068664498627186, -0.044447101652622, 0.013633968308568, 0.059153016656637, -0.012674076482654, -0.014789214357734, 0.003933750558645, 0.056622661650181, 0.003315505106002, -0.000275712489383, 0.010038588196039, 0.026246340945363, 0.033499453216791, 0.065440624952316, 0.066776573657990, 0.002175361383706, -0.055159874260426, -0.031552322208881, 0.028749117627740, -0.008417280390859, -0.049912452697754, 0.017121130600572, -0.047461271286011, -0.009390279650688, -0.050223216414452, -0.053001858294010, 0.002114900387824, -0.038078695535660, 0.012528341263533, 0.063153527677059, -0.019280243664980, 0.003365361830220, 0.024526957422495, -0.046045891940594, -0.023273225873709, -0.040643688291311, -0.006095648277551, 0.045362208038568, 0.065963856875896, -0.023389516398311, 0.037597414106131, 0.040139779448509, -0.034868586808443, -0.065751180052757, -0.019223319366574, -0.016792189329863, -0.005903742741793, -0.044789493083954, -0.015684170648456, -0.013164592906833, 0.057093631476164, 0.025920793414116, -0.051825739443302, -0.069869630038738, 0.066450402140617, 0.071515873074532, -0.029924124479294, 0.005034150555730, 0.018331907689571, -0.032373655587435, 0.021077089011669, 0.021819310262799, -0.058519721031189, 0.062753438949585, -0.071317464113235, 0.052845019847155, -0.051349811255932, -0.001973946113139, 0.058191329240799, 0.031487796455622, 0.061609763652086, 0.047266319394112, -0.034861087799072, -0.066257573664188, 0.044574003666639, -0.071256838738918, -0.071374304592609, 0.043584391474724, 0.033811461180449, 0.031377993524075, -0.002576970495284, 0.020166978240013, -0.062719725072384, -0.055216763168573, -0.062963612377644, -0.003867228049785, -0.005241642240435, 0.052323509007692, 0.001139868283644, -0.039616946130991, -0.044000059366226, 0.017964472994208, -0.052563454955816, 0.060598034411669, -0.035460054874420, -0.055138930678368, 0.063758626580238, -0.028499770909548, 0.000003321298664, -0.024621738120914, -0.014740356244147, -0.017482351511717, 0.063678592443466, 0.066307641565800, -0.067396521568298, -0.056363821029663, -0.052581477910280, 0.054560389369726, 0.048487514257431, -0.022227032110095, 0.003002632874995, 0.055811207741499, 0.033169519156218, -0.014633541926742, 0.040949810296297, -0.019067334011197, 0.071922086179256, 0.042179159820080, 0.022830383852124, 0.063226297497749, 0.020549992099404, 0.068357631564140, 0.003216618206352, 0.065261512994766, -0.057886496186256, 0.019415866583586, 0.065723679959774, -0.005876397714019, -0.016228841617703, 0.019259177148342, 0.010139575228095, 0.037619270384312, -0.048199694603682, -0.067566752433777, -0.036520507186651, -0.029583418741822, 0.061691053211689, 0.007967237383127, -0.028263142332435, 0.032587628811598, 0.000561642053071, 0.000704182370100, 0.034634064882994, -0.020977716892958, 0.001715182675980, 0.052851065993309, -0.058690339326859, 0.009258388541639, -0.029822019860148, -0.030530622228980, 0.065252125263214, -0.014448699541390, 0.026710771024227, -0.064529001712799, -0.002246754476801, -0.061885409057140, -0.063682012259960, 0.041092053055763, -0.019924474880099, 0.021617872640491, 0.065944537520409, 0.012679169885814, -0.036704882979393, -0.067529566586018, 0.001786881126463, 0.038599785417318, 0.067416124045849, 0.005769185256213, -0.031027086079121, -0.039552353322506, 0.000567443144973, -0.029260084033012, 0.035257052630186, -0.050374042242765, -0.060884963721037, 0.033461950719357, -0.057677973061800, -0.003524218220264, -0.055036876350641, -0.000028305508749, -0.052849851548672, 0.000893101736438, 0.056858476251364, 0.012319203466177, -0.059902317821980, -0.036636900156736, -0.038475666195154, 0.046462804079056, -0.001623921445571, -0.005837480537593, 0.055693428963423, 0.017619714140892, 0.019311387091875, 0.049177724868059, -0.047461457550526, -0.030188763514161, -0.054170276969671, -0.041064813733101, -0.061914645135403, -0.005119916051626, -0.024977406486869, -0.049501631408930, 0.056408565491438, -0.011081598699093, -0.071540623903275, 0.069676704704762, 0.041584096848965, 0.058526422828436, -0.043000284582376, -0.019517589360476, 0.022989703342319, 0.048209954053164, 0.064472801983356, -0.044359873980284, 0.001633051317185, 0.042589787393808, -0.026192994788289, -0.017548842355609, -0.045242305845022, 0.009994763880968, -0.006557547021657, 0.024754712358117, 0.070896968245506, 0.035770423710346, -0.025486804544926, 0.025366956368089, -0.025368172675371, -0.029666861519217, -0.017189098522067, -0.029501555487514, 0.028118032962084, -0.067612998187542, -0.041231874376535, 0.053253140300512, -0.064588405191898, -0.035691536962986, 0.026904173195362, -0.046573881059885, -0.066902622580528, 0.048915136605501, 0.025205671787262, -0.012334454804659, 0.029067521914840, -0.037348046898842, -0.010631168261170, -0.012776593677700, -0.060968406498432, 0.071853332221508, 0.069479711353779, -0.027961149811745, -0.058295354247093, 0.014661918394268, -0.067590944468975, 0.004608368966728, 0.035181034356356, 0.066181689500809, -0.052259109914303, 0.062282618135214, 0.027166184037924, -0.031730197370052, -0.067237891256809, 0.018896663561463, -0.008863049559295, 0.024610882624984, -0.038536015897989, 0.068603582680225, 0.004792835097760, 0.064932271838188, -0.032633099704981, 0.005619116127491, -0.072071231901646, -0.003738352563232, -0.029971780255437, -0.046337191015482, -0.037944413721561, 0.029801692813635, -0.041745502501726, -0.010890460573137, 0.064948298037052, -0.029833059757948, -0.051375333219767, -0.052337560802698, -0.043925508856773, 0.053305596113205, 0.035938069224358, -0.058751992881298, -0.006351053249091, -0.039430867880583, 0.053777277469635, 0.014151726849377, 0.030578393489122, 0.033105663955212, 0.062503807246685, -0.022983733564615, 0.062517911195755, 0.031570158898830, 0.029988199472427, -0.018581222742796, 0.050749674439430, -0.013711911626160, 0.054168179631233, -0.044013127684593, 0.067827485501766, -0.016066856682301, -0.040515344589949, -0.047382313758135, -0.032108362764120, 0.002518750960007, 0.034383032470942, -0.051484659314156, -0.026043666526675, -0.042114391922951, 0.067678637802601, -0.002882313914597, -0.002284792950377, -0.029392264783382, -0.021242598071694, 0.005738504230976, 0.010071213357151, 0.055349085479975, -0.065045036375523, 0.044521562755108, -0.023120217025280, -0.025740161538124, 0.051983911544085, 0.053589213639498, 0.047142975032330, 0.038177456706762, -0.027434401214123, -0.048196334391832, -0.069164335727692, -0.050710551440716, 0.000962111749686, 0.066906921565533, -0.021195080131292, -0.000441464653704, -0.006969916634262, 0.047885712236166, -0.031019553542137, 0.032968975603580, -0.028868576511741, 0.052687294781208, 0.052745152264833, -0.069431006908417, 0.028874559327960, -0.017733698710799, -0.008632957004011, 0.008579093031585, 0.007406466640532, 0.020798925310373, -0.052297201007605, -0.053957026451826, 0.061258271336555, -0.041858971118927, 0.020050292834640, -0.033789996057749, -0.069263376295567, -0.060787886381149, -0.028580769896507, 0.030896211043000, -0.026553012430668, 0.034089997410774, -0.015057018958032, 0.039229638874531, -0.019891403615475, 0.017029847949743, -0.042641192674637, 0.048016827553511, 0.017468936741352, 0.047076743096113, 0.012523165903986, 0.014297052286565, -0.005241486243904, 0.003097044071183, -0.049683205783367, 0.008188706822693, 0.015329052694142, -0.034292310476303, 0.056102201342583, -0.001240408280864, 0.013051877729595, -0.047713167965412, 0.015930356457829, 0.061622887849808, -0.070903860032558, 0.052487526088953, 0.021038185805082, -0.014779549092054, -0.022047417238355, -0.058696612715721, 0.031139677390456, -0.002785266377032, 0.051990322768688, -0.052260637283325, 0.047962740063667, 0.020426888018847, -0.001762998988852, 0.065166965126991, 0.001260202028789, 0.013010964728892, 0.003882121760398, -0.064095720648766, 0.014361556619406, 0.005182908847928, -0.050577905029058, -0.034378502517939, 0.069427341222763, -0.058202710002661, 0.011393082328141, -0.001318585360423, -0.038425847887993, -0.005540611688048, -0.054373696446419, -0.043748062103987, -0.062568917870522, -0.053868871182203, 0.056548163294792, -0.019182696938515, -0.053101044148207, -0.000007983032447, -0.038468394428492, -0.003154809353873, -0.070922210812569, 0.044369664043188, 0.015113860368729, -0.034959204494953, 0.016344498842955, -0.030173750594258, -0.056923419237137, 0.028302716091275, -0.014201017096639, 0.072031117975712, -0.047177195549011, -0.005840727128088, -0.015082661993802, 0.045970000326633, -0.019958302378654, -0.071725413203239, -0.018348313868046, 0.045680213719606, -0.035512458533049, -0.059383701533079, 0.007767274044454, -0.060916177928448, -0.018866224214435, -0.038434498012066, 0.043895512819290, -0.052697170525789, -0.002279550302774, 0.036172337830067, 0.051082640886307, -0.070976153016090, -0.022470552474260, -0.055178806185722, -0.051843851804733, -0.028586221858859, -0.002743444871157, -0.012810558080673, -0.020517468452454, -0.030725866556168, 0.029396651312709, -0.063682496547699, -0.067428700625896, 0.013732683844864, 0.008836739696562, 0.047821145504713, -0.057752128690481, -0.024686021730304, -0.019399028271437, -0.015037395991385, -0.001449635252357, -0.006349541246891, 0.021000675857067, -0.044501394033432, 0.058953486382961, 0.003569673746824, 0.069750033318996, 0.012916397303343, 0.024483416229486, 0.014457777142525, -0.021805822849274, -0.016443675383925, 0.060566131025553, -0.070052497088909, 0.016624582931399, 0.062754541635513, 0.017332667484879, 0.046906948089600, 0.036419864743948, 0.055919859558344, 0.015902051702142, 0.024529302492738, -0.002422671532258, 0.009786914102733, -0.033276434987783, 0.055235046893358, 0.031462959945202, 0.009936447255313, 0.017071893438697, 0.063037507236004, 0.030157444998622, -0.058140560984612, 0.053905230015516, -0.002748032100499, 0.031716145575047, 0.048064690083265, 0.028034256771207, -0.013718069531024, 0.058703701943159, 0.006139971781522, -0.034649953246117, -0.066910512745380, 0.070981666445732, -0.023442728444934, 0.044653765857220, 0.016907794401050, -0.064350008964539, 0.031183309853077, 0.028029944747686, 0.040957204997540, -0.019448833540082, -0.024019591510296, -0.029861368238926, -0.012819554656744, 0.060703035444021, 0.002136257942766, 0.023888440802693, 0.016813516616821, -0.060674604028463, 0.063869379460812, 0.027170570567250, -0.058217138051987, -0.010997862555087, -0.034747622907162, -0.036105778068304, 0.037961713969707, 0.001828054781072, 0.040953908115625, -0.005112335085869, 0.021136105060577, 0.027813047170639, 0.004852491896600, 0.010523580014706, 0.025795901194215, 0.055326402187347, -0.036685071885586, 0.007077970542014, -0.024233723059297, -0.048064123839140, 0.022822348400950, -0.049556955695152, 0.029546080157161, -0.058444648981094, 0.054159779101610, 0.062752470374107, 0.023044906556606, -0.014595157466829, -0.010659734718502, -0.046713612973690, -0.063292384147644, -0.035389080643654, 0.005385143216699, -0.070924997329712, 0.003921061288565, -0.038560848683119, -0.042206659913063, 0.043680664151907, 0.016637718304992, -0.041379272937775, 0.031507074832916, 0.030064851045609, -0.044362042099237, 0.028046008199453, -0.052979093044996, -0.046141564846039, -0.013053407892585, -0.021116262301803, -0.005764091853052, -0.057367533445358, -0.067179247736931, 0.055827502161264, -0.000559475040063, 0.035699360072613, -0.060242835432291, -0.012144679203629, 0.054079368710518, -0.010634850710630, 0.002451766282320, 0.041726890951395, 0.060937460511923, -0.067283831536770, -0.062225669622421, 0.015875115990639, 0.020278472453356, 0.034015387296677, -0.047224801033735, 0.049731049686670, -0.034914780408144, 0.019568840041757, 0.041961692273617, 0.035754192620516, 0.027893615886569, 0.009212471544743, 0.014074770733714, -0.038690831512213, -0.060209400951862, -0.014613625593483, 0.058486193418503, -0.040497008711100, 0.055441189557314, 0.014842117205262, -0.013686647638679, -0.034828759729862, -0.065652169287205, -0.034577224403620, -0.058997713029385, -0.032002560794353, -0.008314320817590, 0.022952638566494, 0.019458811730146, 0.043809302151203, 0.001086176373065, -0.031606961041689, 0.064430885016918, -0.014668158255517, -0.067624978721142, 0.018966075032949, 0.056625880300999, -0.027035584673285, -0.007496595848352, 0.071107842028141, -0.011602432467043, -0.063150309026241, 0.053408704698086, -0.021987296640873, -0.019244730472565, -0.040565218776464, 0.037733960896730, -0.022584902122617, -0.026327518746257, 0.032121315598488, -0.009289314970374, 0.018711408600211, -0.011603806167841, -0.053971767425537, 0.041461016982794, -0.047944959253073, -0.037646874785423, 0.064626514911652, -0.041562154889107, -0.053928047418594, -0.050697088241577, 0.066126868128777, 0.068631067872047, 0.050549093633890, 0.004682316444814, 0.010115872137249, 0.043291304260492, -0.044700492173433, -0.061059381812811, 0.050663530826569, -0.069968335330486, -0.036536708474159, 0.001997157931328, 0.028879601508379, -0.042735870927572, 0.057783436030149, 0.026264764368534, -0.041376780718565, 0.052205722779036, 0.052914977073669, -0.028702614828944, 0.063918352127075, 0.044829715043306, 0.005559407174587, 0.011195137165487, 0.001887681777589, -0.071482926607132, -0.030281595885754, 0.018091553822160, 0.043601848185062, -0.010650414973497, 0.035965546965599, 0.011011192575097, -0.027216657996178, 0.017442984506488, 0.045686870813370, -0.061037834733725, -0.044566642493010, 0.036964982748032, -0.060819577425718, 0.071626611053944, 0.050096482038498, -0.040128052234650, -0.009590823203325, 0.019924009218812, -0.006784907076508, -0.025631714612246, 0.071505881845951, 0.006719054654241, 0.031107194721699, -0.068563580513000, -0.023345233872533, -0.056378696113825, 0.055552013218403, 0.008494519628584, -0.023146685212851, -0.050297904759645, 0.031442981213331, 0.070645391941071, 0.040154568850994, -0.032376874238253, 0.029929630458355, 0.044871594756842, -0.010030006058514, 0.016019010916352, 0.039155304431915, -0.056763019412756, -0.039250515401363, -0.019382642582059, -0.069749183952808, 0.064883343875408, 0.019706025719643, 0.031825542449951, 0.063627846539021, -0.040447980165482, 0.042319767177105, -0.048648893833160, 0.057164467871189, -0.029245637357235, 0.029807696118951, -0.056192360818386, 0.066824086010456, -0.026323147118092, -0.029465476050973, -0.049707487225533, -0.067134328186512, 0.019444894045591, 0.039905991405249, 0.036764387041330, 0.030681755393744, 0.031411405652761, -0.040238134562969, 0.054868258535862, -0.000331042625476, 0.049368880689144, -0.056633740663528, -0.016409091651440, -0.015565937384963, -0.065956294536591, 0.071590207517147, 0.043730638921261, -0.036161020398140, 0.047407593578100, -0.050624717026949, -0.058246206492186, 0.032392024993896, -0.026164721697569, 0.063301630318165, -0.070405609905720, 0.031530123203993, 0.004006290808320, -0.052972383797169, -0.057641997933388, -0.070713669061661, 0.000476345740026, 0.067572169005871, 0.000091648485977, -0.047803387045860, -0.012848995625973, 0.029403308406472, -0.065523102879524, -0.066335044801235, 0.023231592029333, 0.040049441158772, -0.071966439485550, 0.045147292315960, 0.063214801251888, -0.016973661258817, -0.020459599792957, 0.065157078206539, -0.056386884301901, 0.060338824987411, -0.016970600932837, -0.016451897099614, -0.006081879138947, -0.034856945276260, -0.008573113940656, 0.035539541393518, -0.055967569351196, -0.068805165588856, -0.039956897497177, 0.019569799304008, 0.011409524828196, 0.000820040586405, 0.022097375243902, -0.048160221427679, 0.017248807474971, -0.018924199044704, 0.049328397959471, -0.005536724347621, -0.002959150588140, -0.009713979437947, -0.006817628629506, 0.067919127643108, 0.001029029255733, -0.044514928013086, 0.014643978327513, -0.015242221765220, -0.049359973520041, 0.038226883858442, 0.006387892644852, 0.057733137160540, 0.000896691111848, 0.039387870579958, 0.068298175930977, 0.061375010758638, -0.057365681976080, -0.018317390233278, 0.031029010191560, -0.069499641656876, 0.065700426697731, -0.048651561141014, -0.010084383189678, -0.009666856378317, -0.053350422531366, 0.048988122493029, -0.051666572690010, 0.039620801806450, -0.018356241285801, 0.012172828428447, -0.048217661678791, 0.016041314229369, -0.022190159186721, 0.023366833105683, -0.045425187796354, -0.001460142782889, 0.034496311098337, 0.047861464321613, -0.051324751228094, 0.018336964771152, -0.060134314000607, -0.017416659742594, 0.000892051728442, -0.055872119963169, 0.049298699945211, -0.022839928045869, -0.002693893620744, -0.053331799805164, -0.042097110301256, 0.059691365808249, -0.027178239077330, -0.060442619025707, 0.002361190272495, 0.010538354516029, -0.058267116546631, 0.005497925914824, -0.033758006989956, -0.020871022716165, 0.015923699364066, -0.034020550549030, -0.013606646098197, 0.054916974157095, 0.068085178732872, 0.059450756758451, 0.041123196482658, -0.019550319761038, -0.019577853381634, 0.018222134560347, -0.010511869564652, -0.037566989660263, 0.052791431546211, -0.004376391880214, -0.041221089661121, 0.052694726735353, 0.027207015082240, -0.058682531118393, -0.004632891621441, -0.023540807887912, -0.008807414211333, 0.018506806343794, 0.042076401412487, -0.071406029164791, 0.000737782567739, -0.070948608219624, -0.004335508681834, 0.070143103599548, 0.022096361964941, 0.069209940731525, 0.000663284212351, -0.014376468956470, -0.066385067999363, -0.052077099680901, 0.052919264882803, -0.047690827399492, -0.031791698187590, -0.002383456332609, 0.030431304126978, -0.043575238436460, 