//Numpy array shape [3, 3, 128, 64]
//Min -0.058925088495
//Max 0.058921109885
//Number of zeros 0

#ifndef W200_H_
#define W200_H_

#ifndef __SYNTHESIS__
model_default_t w200[73728];
#else
model_default_t w200[73728] = {0.009326508268714, -0.050266332924366, 0.047523044049740, -0.007559093646705, 0.041751842945814, 0.056179966777563, 0.048512823879719, -0.045543275773525, -0.029987301677465, 0.001481239683926, -0.034445066004992, -0.007618828676641, -0.028241762891412, 0.006056384649128, 0.002780541544780, 0.053138975054026, -0.024788655340672, 0.009172753430903, -0.017770359292626, -0.002251174068078, -0.051632627844810, 0.052604038268328, 0.037855796515942, -0.048080708831549, 0.052024170756340, -0.005658871494234, 0.013476352207363, 0.048681531101465, 0.016666801646352, 0.033067919313908, 0.014610940590501, 0.017449876293540, 0.014201683923602, 0.058889906853437, 0.048380982130766, -0.001413223799318, 0.009621687233448, -0.025978665798903, 0.057033181190491, 0.027045950293541, 0.036801990121603, 0.040392678231001, 0.032151896506548, 0.033127471804619, -0.040601890534163, 0.021307677030563, 0.040108371526003, 0.002677093492821, -0.049259737133980, 0.036599069833755, -0.039447154849768, 0.047625664621592, -0.013877470046282, -0.058182373642921, -0.038468133658171, -0.021397277712822, 0.015695463865995, 0.058372739702463, 0.033540274947882, 0.015148127451539, -0.045566849410534, 0.000377462623874, 0.005949693266302, 0.042917013168335, -0.026201540604234, 0.023029204457998, 0.051838215440512, 0.002171049593017, -0.022953711450100, -0.046034391969442, -0.027597155421972, -0.011961422860622, -0.053979050368071, -0.050768740475178, -0.014958812855184, -0.014150080271065, 0.019498439505696, 0.036753837019205, -0.000276371516520, 0.042032342404127, 0.055952582508326, -0.007740037515759, -0.044008605182171, -0.048451893031597, -0.026508413255215, -0.026269700378180, 0.037682812660933, 0.002968857530504, 0.058148350566626, -0.043546386063099, -0.001079109380953, 0.039978135377169, -0.043291497975588, 0.031161196529865, -0.054251801222563, 0.039039168506861, -0.052139416337013, -0.024335019290447, 0.053564153611660, -0.015192637220025, 0.015487971715629, -0.016433592885733, 0.024673597887158, 0.009482750669122, 0.052146032452583, 0.022630127146840, 0.006750014610589, -0.004930542316288, -0.024959869682789, 0.019064027816057, -0.030242189764977, 0.023660682141781, -0.046766046434641, -0.055205892771482, -0.036429136991501, 0.036837868392467, 0.009344500489533, -0.045427333563566, 0.050298504531384, 0.049017541110516, 0.010248965583742, 0.019492490217090, 0.010748188011348, -0.017543863505125, 0.009891993366182, -0.053692821413279, 0.047850869596004, -0.054415095597506, -0.000468243553769, -0.005560997407883, -0.030362389981747, 0.012931956909597, 0.038473132997751, -0.006146558560431, 0.045793127268553, -0.031852532178164, 0.048565436154604, -0.055281322449446, 0.048734694719315, 0.010629783384502, -0.045682456344366, -0.014239598996937, -0.021606359630823, -0.036866217851639, -0.016597758978605, -0.047324590384960, 0.052529994398355, 0.040131151676178, 0.049361377954483, 0.044670719653368, -0.058866538107395, -0.012212463654578, -0.025182195007801, -0.015075360424817, 0.020884634926915, -0.006711830850691, 0.008870403282344, -0.055932015180588, -0.001523522892967, 0.058581192046404, -0.054776631295681, 0.046096444129944, -0.014038533903658, -0.057977475225925, -0.058784380555153, 0.051138643175364, -0.048697076737881, -0.006199245341122, -0.027572931721807, -0.016765883192420, -0.013618315570056, -0.043287664651871, -0.012606957927346, 0.019921213388443, -0.056883510202169, -0.044694986194372, 0.006855745334178, 0.016894966363907, -0.053048137575388, -0.055410806089640, -0.052643239498138, 0.046454571187496, 0.035822004079819, -0.000735332549084, -0.005626671016216, 0.046310823410749, 0.041998401284218, -0.036028787493706, 0.027172256261110, 0.055604010820389, -0.054708566516638, -0.044009167701006, -0.037478107959032, 0.010075505822897, -0.041156336665154, 0.006328961811960, 0.041184339672327, -0.040975928306580, 0.055673014372587, -0.009271971881390, -0.057874098420143, -0.055412732064724, 0.037459965795279, 0.011877787299454, 0.051474906504154, -0.052788477391005, 0.012345606461167, 0.015315547585487, -0.015707274898887, -0.018010096624494, 0.037232894450426, -0.053857039660215, -0.032911784946918, 0.015490466728806, 0.040556322783232, -0.032827746123075, -0.000712489360012, 0.047976940870285, -0.057028662413359, -0.050815671682358, -0.011203634552658, -0.031082952395082, -0.051157969981432, 0.023857735097408, 0.005172628909349, 0.028319958597422, -0.052906077355146, 0.010948434472084, 0.040681295096874, -0.039971087127924, 0.053795281797647, -0.042829897254705, -0.057731434702873, 0.035286054015160, -0.031328964978456, -0.001579016912729, -0.020294632762671, -0.030082898214459, 0.055600319057703, 0.045780107378960, 0.024526253342628, -0.023950016126037, -0.036026060581207, 0.047070000320673, -0.023225801065564, -0.046000733971596, 0.003007290884852, -0.006726378574967, 0.055916890501976, 0.046228565275669, 0.027266817167401, 0.004266822710633, -0.018526867032051, -0.027248367667198, 0.030797520652413, -0.017877962440252, 0.011050858534873, -0.024545939639211, 0.040881246328354, -0.048572260886431, -0.000012049016732, 0.055455066263676, 0.001101505709812, -0.027260638773441, -0.025396374985576, 0.001177556812763, -0.003991981502622, -0.007075040135533, -0.015767542645335, 0.010111668147147, -0.043070491403341, 0.028965035453439, 0.039453234523535, -0.007399127818644, -0.020911775529385, 0.033122811466455, -0.014980070292950, 0.008305156603456, 0.041825588792562, 0.001612784690224, 0.005208291579038, 0.039794635027647, -0.012632343918085, -0.021139549091458, 0.020270820707083, -0.004034104757011, -0.029992874711752, -0.018169865012169, -0.041428890079260, 0.041679441928864, 0.000584663997870, 0.048773776739836, 0.036865666508675, -0.045853402465582, -0.000375649309717, 0.048119716346264, 0.009884069673717, 0.029123526066542, 0.050561044365168, -0.053838614374399, -0.006472656503320, -0.026899157091975, 0.052103705704212, -0.003429192584008, 0.004631279502064, 0.055528923869133, 0.050659120082855, -0.024231893941760, -0.015273885801435, 0.040212940424681, 0.046249974519014, -0.002491938415915, 0.021727567538619, 0.023731635883451, 0.033129982650280, 0.003820644225925, 0.039522796869278, -0.041517984122038, -0.055639281868935, -0.040174130350351, -0.029298208653927, -0.032506391406059, 0.049010831862688, -0.058199211955070, -0.039117489010096, 0.052374605089426, -0.041233804076910, -0.008710098452866, -0.003596758004278, -0.005260512698442, 0.017818212509155, -0.012918367050588, -0.012010918930173, 0.046864520758390, 0.007076894398779, 0.032677352428436, -0.053104098886251, 0.000456291338196, -0.058682590723038, -0.021640358492732, -0.027731774374843, 0.008269739337265, 0.002075763419271, 0.020978420972824, 0.021800979971886, 0.056423455476761, -0.041664279997349, 0.053220830857754, -0.017851406708360, -0.058334238827229, -0.024997107684612, -0.007194033823907, -0.018746567890048, 0.043160878121853, 0.013850430026650, -0.031579304486513, 0.023988969624043, -0.029447318986058, 0.049002572894096, 0.039237074553967, 0.055526606738567, 0.057468429207802, -0.028490150347352, -0.031187884509563, -0.004495258908719, 0.058463253080845, 0.004569284152240, -0.046740222722292, -0.052668739110231, -0.021219547837973, 0.008984027430415, -0.010701820254326, -0.056747332215309, 0.019996792078018, 0.029538085684180, 0.023652536794543, -0.055115379393101, -0.018306350335479, -0.017817007377744, 0.040297716856003, 0.018568387255073, -0.053056295961142, 0.055336900055408, 0.051690224558115, -0.007124803960323, -0.005535104312003, 0.052778195589781, -0.021391378715634, -0.036552954465151, 0.024347104132175, 0.003022005781531, 0.008746562525630, 0.057344999164343, -0.003240653080866, -0.017296724021435, 0.022308474406600, 0.016588408499956, 0.012673513963819, 0.034822903573513, -0.026619527488947, 0.003922710660845, -0.018641350790858, -0.043299444019794, 0.026685366407037, -0.015979927033186, -0.045467771589756, -0.051642417907715, -0.058500282466412, -0.057260930538177, -0.057273663580418, -0.048450570553541, 0.024858122691512, -0.041641823947430, 0.007325545419008, -0.018556058406830, 0.030455360189080, -0.057606864720583, -0.055555831640959, 0.015182077884674, 0.020833997055888, -0.042352538555861, -0.045970432460308, 0.035482227802277, -0.013519164174795, -0.051429048180580, 0.005997897125781, 0.035090465098619, -0.044653996825218, -0.051191963255405, 0.024158274754882, -0.016748862341046, -0.017665816470981, 0.046998191624880, -0.039942514151335, -0.012601945549250, -0.031934019178152, 0.045438356697559, -0.005268492270261, 0.032976500689983, -0.009814002551138, -0.010513910092413, 0.017339425161481, -0.032057616859674, 0.030239379033446, -0.004193132277578, -0.014710903167725, 0.047879528254271, -0.055172767490149, -0.047379132360220, 0.049863569438457, 0.039845678955317, 0.027464330196381, 0.030978130176663, 0.020488582551479, 0.002829716773704, -0.039331745356321, 0.038447476923466, 0.056098893284798, -0.040791895240545, 0.035544350743294, 0.011480206623673, 0.015376715920866, -0.044940203428268, -0.036662694066763, -0.016748780384660, -0.051482997834682, -0.026526147499681, 0.026728803291917, -0.055875509977341, 0.052433829754591, -0.032119452953339, 0.016198856756091, -0.046875599771738, -0.027202282100916, 0.014593314379454, 0.031663514673710, 0.023554863408208, 0.015323553234339, 0.021293692290783, -0.023203277960420, 0.039790004491806, -0.040641251951456, 0.011921023949981, 0.038402177393436, -0.020703114569187, -0.048840489238501, -0.045437719672918, -0.021975817158818, -0.039866250008345, 0.040823150426149, 0.026772754266858, 0.049889083951712, -0.044179607182741, -0.035528529435396, 0.021783173084259, 0.024305893108249, 0.056526720523834, 0.039104864001274, -0.057967390865088, 0.013640250079334, 0.017622144892812, -0.000799349509180, -0.014572503976524, 0.050475686788559, -0.006058250088245, -0.035006813704967, -0.035198178142309, -0.032523162662983, 0.023252230137587, 0.003808997338638, -0.040402762591839, -0.038953296840191, 0.011197755113244, 0.020636305212975, 0.000443922122940, 0.042897071689367, 0.005219402257353, 0.011425837874413, -0.041664093732834, 0.028060927987099, 0.019955588504672, 0.039557393640280, 0.020544650033116, -0.026051951572299, -0.033061474561691, 0.008046937175095, -0.027709264308214, -0.025104289874434, -0.003354716580361, 0.050188880413771, 0.016915936022997, 0.051645699888468, -0.003047533566132, 0.038755882531404, 0.001287349499762, -0.005923517979681, -0.047315057367086, -0.029153292998672, -0.009090718813241, -0.004270642995834, -0.026019753888249, 0.022136334329844, 0.045344088226557, 0.004535668995231, -0.004569399636239, 0.040829844772816, -0.014144171960652, 0.029353255406022, -0.018154375255108, 0.028491020202637, 0.000543747271877, -0.015797847881913, 0.027128715068102, 0.050297826528549, -0.006036709994078, -0.020860031247139, 0.008078839629889, -0.040502838790417, 0.020427584648132, 0.038886699825525, 0.035347893834114, 0.025044629350305, -0.000535347207915, 0.044086061418056, 0.035177890211344, 0.012812337838113, 0.020180206745863, 0.047098953276873, 0.018180338665843, 0.009466673247516, -0.049881488084793, 0.054760690778494, -0.054537676274776, -0.053201448172331, -0.023988910019398, -0.040062494575977, -0.039598513394594, -0.053919564932585, 0.019309014081955, -0.048877589404583, -0.004624554887414, 0.016225576400757, 0.020062368363142, 0.054194238036871, -0.018125507980585, -0.015738295391202, 0.012928993441164, 0.005233789794147, 0.037395823746920, -0.023126963526011, -0.054074730724096, -0.051771219819784, 0.015871381387115, 0.022602187469602, 0.016939058899879, -0.046680934727192, 0.051804348826408, -0.016383564099669, 0.028814660385251, -0.002059950027615, 0.045187003910542, -0.053014311939478, 0.034088905900717, 0.044259697198868, -0.008736762218177, -0.053161922842264, -0.046363841742277, 0.026757488027215, -0.043819431215525, 0.021941538900137, -0.047944683581591, 0.044554319232702, 0.021895650774240, 0.009249865077436, -0.026411242783070, 0.043646041303873, 0.014335392042994, -0.034677799791098, 0.019294835627079, -0.046013172715902, -0.055734995752573, -0.002366879722103, -0.005361771676689, -0.032226368784904, 0.039513204246759, 0.055118132382631, -0.057911898940802, 0.033821549266577, 0.026826744899154, -0.038754690438509, 0.052524488419294, 0.016145253553987, -0.002455836161971, 0.048067156225443, -0.042763784527779, -0.020997179672122, 0.032443434000015, -0.001990809570998, -0.022386584430933, -0.056097865104675, 0.038186509162188, -0.053021151572466, -0.054055213928223, -0.013153273612261, -0.009105504490435, 0.018957605585456, 0.052101247012615, 0.007587994914502, 0.001867169397883, 0.032124679535627, -0.006847996730357, 0.002879044739529, 0.045860342681408, 0.026592876762152, 0.010646210983396, 0.027107231318951, -0.005033610854298, 0.036354836076498, 0.002899925690144, -0.008063510060310, 0.004136234521866, 0.038578238338232, 0.048733979463577, 0.048300340771675, -0.006961639504880, 0.055010177195072, 0.020119717344642, 0.011569413356483, 0.034139327704906, 0.011871234513819, 0.028175482526422, 0.003578710602596, -0.039678703993559, -0.058241952210665, -0.034773871302605, -0.040490932762623, -0.046885821968317, 0.009670337662101, -0.031444210559130, -0.047982092946768, 0.040571857243776, 0.038335610181093, -0.056074976921082, 0.028272813186049, -0.038284044712782, -0.022061347961426, 0.052300702780485, -0.028707927092910, -0.011935079470277, -0.046621076762676, 0.035511523485184, 0.030946293845773, -0.013065189123154, -0.019663138315082, 0.052499871701002, -0.037685874849558, 0.003122210735455, -0.010546683333814, 0.000737272494007, -0.049504630267620, 0.037048242986202, -0.039897885173559, -0.040232520550489, -0.024108521640301, 0.018050547689199, 0.005157995503396, -0.049078401178122, 0.040256123989820, -0.058640986680984, -0.026990698650479, 0.025615952908993, -0.053839080035686, -0.046363942325115, 0.030484678223729, -0.004810879006982, -0.006844962015748, -0.040752127766609, 0.015991402789950, -0.053091008216143, 0.043103430420160, -0.025816384702921, -0.053338244557381, -0.033389296382666, 0.037023585289717, -0.015685046091676, 0.033425144851208, 0.018182462081313, 0.044841036200523, 0.000194858221221, -0.024361599236727, -0.047011539340019, -0.021893730387092, -0.049847241491079, -0.037051711231470, -0.001889115315862, -0.041498847305775, 0.034317128360271, 0.015357168391347, 0.042007401585579, 0.028411680832505, -0.049006633460522, 0.043017286807299, -0.000005897911706, 0.045369233936071, -0.050568375736475, -0.032690387219191, 0.055125683546066, -0.002858826424927, -0.004390432965010, 0.055309116840363, -0.001114857965149, -0.002814577193931, 0.016667352989316, -0.002055809367448, 0.052223742008209, -0.011843594722450, -0.001261117984541, -0.022514227777719, -0.032019380480051, -0.001175616867840, -0.045086923986673, 0.046869523823261, -0.001476075267419, -0.025750782340765, 0.025719225406647, 0.027133688330650, 0.028340378776193, 0.027029968798161, -0.020023318007588, -0.033000037074089, 0.011759345419705, 0.038171488791704, 0.043391969054937, -0.028536517173052, -0.042744200676680, -0.007191267330199, -0.024654343724251, -0.009713406674564, -0.028007164597511, -0.050820007920265, -0.051996424794197, 0.054614599794149, 0.015617212280631, -0.054989662021399, -0.030342476442456, 0.022585669532418, 0.046488773077726, 0.029752280563116, 0.014313349500299, -0.026685269549489, 0.039145197719336, 0.024398643523455, -0.028765792027116, 0.018865561112761, -0.051262415945530, 0.020459063351154, -0.048974405974150, -0.001989376032725, 0.054943870753050, -0.018973764032125, -0.013128248974681, 0.050288293510675, -0.026463493704796, 0.031805325299501, -0.034507174044847, 0.001974028069526, 0.034464653581381, 0.031139763072133, 0.051086634397507, -0.047433950006962, -0.014470462687314, 0.034777287393808, -0.048585910350084, 0.057922881096601, -0.021904036402702, -0.045073825865984, -0.008644142188132, 0.006814690772444, -0.017661798745394, 0.004905591718853, 0.044422149658203, 0.035155504941940, 0.046835768967867, 0.056302063167095, -0.048360142856836, -0.023453295230865, -0.036572646349669, 0.014781451784074, 0.021248154342175, -0.021848147735000, 0.047342915087938, 0.052826952189207, -0.011673828586936, 0.056385163217783, 0.052551768720150, 0.054241228848696, -0.020456157624722, -0.022859742864966, -0.011379060335457, -0.001098430249840, -0.043716937303543, -0.043794453144073, 0.055720992386341, -0.026363922283053, 0.055384337902069, 0.001238654600456, -0.042354453355074, -0.023864429444075, -0.050877802073956, -0.041522271931171, 0.001016101450659, 0.022212343290448, 0.003823071718216, 0.051244463771582, 0.043284390121698, -0.029617197811604, -0.049372915178537, 0.005108593031764, 0.035468667745590, 0.013456945307553, 0.049922585487366, 0.050726506859064, 0.016999021172523, 0.029432646930218, -0.001571026397869, 0.019234806299210, 0.018491648137569, -0.048324700444937, 0.019471863284707, -0.052308142185211, -0.026493135839701, -0.005332747474313, -0.002438998781145, 0.050260718911886, 0.008932152763009, -0.056762468069792, -0.058011386543512, -0.045818369835615, -0.014999156817794, 0.019767889752984, -0.044583536684513, -0.031286306679249, 0.028303880244493, 0.041304159909487, -0.012698918581009, -0.034481365233660, 0.044669877737761, 0.044470243155956, -0.021775662899017, 0.023328069597483, -0.043712742626667, 0.023848537355661, 0.025390326976776, -0.030005218461156, -0.045055750757456, 0.016057441011071, 0.015101167373359, 0.045724220573902, 0.031809832900763, 0.028539313003421, -0.013315287418664, -0.013055977411568, -0.038953322917223, -0.055048372596502, -0.040217734873295, -0.009973279200494, 0.025151038542390, -0.006174588575959, 0.000792301027104, 0.005722072906792, 0.054674614220858, -0.030990190804005, 0.024536181241274, -0.037328027188778, 0.001616969821043, -0.035236652940512, 0.034034915268421, 0.028760470449924, -0.044121488928795, 0.011625412851572, -0.058038286864758, -0.005935369525105, -0.001604529912584, -0.045792941004038, 0.043095849454403, -0.018399015069008, -0.026544921100140, 0.037039469927549, 0.041954495012760, -0.058788213878870, 0.004760281182826, -0.004697012715042, -0.032779060304165, -0.008987847715616, -0.007320942822844, 0.054018665105104, -0.001748276525177, -0.044647116214037, 0.044186852872372, -0.003737429156899, 0.024985702708364, 0.020091641694307, -0.025339592248201, 0.055728178471327, -0.052569843828678, -0.049192897975445, 0.009140426293015, -0.040649436414242, 0.030111277475953, -0.047616761177778, -0.056436806917191, -0.045285522937775, -0.023304689675570, 0.023866156116128, 0.027489216998219, 0.049852587282658, -0.056750111281872, -0.042182326316833, -0.019953792914748, 0.056085340678692, 0.035648629069328, 0.049928694963455, 0.039934214204550, -0.051231324672699, 0.052351605147123, 0.040103346109390, -0.056790031492710, -0.002248802222311, -0.047026269137859, -0.048497345298529, 0.044195514172316, 0.013633511029184, 0.002892974065617, 0.009175992570817, -0.027848392724991, 0.056321538984776, -0.042295094579458, 0.014076613821089, -0.020006870850921, -0.032385315746069, -0.057932190597057, 0.003171006217599, -0.034888975322247, 0.035782590508461, 0.001533728907816, -0.057484574615955, 0.015977066010237, 0.005471128504723, -0.055147491395473, -0.006079693324864, 0.034040857106447, -0.040894679725170, 0.051168654114008, -0.005216788500547, 0.052777405828238, -0.020377453416586, 0.056897569447756, -0.003399945097044, -0.018014155328274, -0.035742834210396, -0.023604696616530, 0.053465340286493, 0.028156194835901, 0.052519246935844, -0.028155896812677, 0.014447281137109, -0.035667162388563, -0.058346819132566, -0.031840726733208, 0.020629044622183, 0.003147232113406, 0.002904896624386, 0.016663026064634, 0.036379523575306, 0.003632663050666, -0.015418686904013, 0.024725085124373, -0.028838727623224, -0.031629223376513, 0.021999213844538, -0.005108820274472, -0.000331191578880, -0.016134683042765, 0.054219096899033, 0.049977492541075, -0.057918190956116, -0.000936807307880, 0.041086040437222, 0.008965030312538, 0.052549540996552, 0.051551409065723, -0.031267378479242, 0.014798199757934, -0.055677868425846, 0.003456772072241, 0.039838336408138, 0.058430273085833, -0.018406890332699, 0.043876230716705, 0.047952141612768, -0.022096365690231, -0.032276824116707, 0.029170077294111, -0.023904407396913, -0.054370805621147, 0.040859967470169, 0.020660664886236, 0.012420060113072, 0.039298057556152, 0.049357958137989, 0.023144347593188, 0.003186045214534, -0.002738723531365, 0.030488878488541, 0.004758434370160, -0.058028910309076, -0.033096913248301, 0.043017808347940, 0.043817609548569, 0.040479093790054, -0.055666875094175, 0.038414608687162, -0.045873485505581, 0.048256807029247, 0.025367733091116, -0.014961833134294, -0.000880133011378, -0.022505719214678, -0.017481332644820, -0.035509962588549, 0.029614163562655, -0.055817853659391, -0.016423301771283, -0.032736543565989, 0.049515444785357, -0.002649543806911, -0.029008310288191, 0.045426882803440, -0.045272827148438, -0.026416296139359, 0.010068453848362, 0.002828774740919, 0.040939807891846, -0.042223632335663, -0.029191488400102, 0.052103944122791, 0.032593257725239, -0.033312797546387, -0.016409933567047, 0.027974462136626, -0.047969274222851, -0.045086912810802, -0.058068688958883, -0.026855515316129, 0.000126432758407, 0.023930050432682, -0.011160681024194, -0.006519627757370, 0.053716715425253, -0.025240274146199, 0.044977270066738, -0.025611216202378, 0.042946584522724, -0.058222059160471, 0.043187193572521, -0.036419849842787, -0.058311756700277, -0.000204676893190, 0.015060589648783, 0.026743279770017, 0.043124016374350, -0.005243116989732, 0.021638041362166, -0.023138055577874, -0.002344453474507, -0.004089531488717, -0.025474451482296, -0.036435287445784, 0.056321352720261, -0.030285552144051, 0.030345816165209, 0.028827775269747, 0.046884603798389, -0.018671752884984, -0.013845273293555, 0.041544500738382, -0.026913816109300, -0.012315461412072, 0.040230888873339, -0.005463391076773, 0.009397797286510, 0.010105285793543, -0.034424129873514, -0.005924080032855, 0.051751833409071, -0.035088635981083, 0.035292562097311, -0.000219995083171, 0.032214265316725, 0.009693243540823, 0.014126619324088, 0.013012107461691, -0.040125899016857, 0.047424711287022, -0.022074617445469, 0.022117575630546, -0.016687527298927, -0.026058873161674, -0.023850008845329, -0.005603671539575, 0.020915189757943, -0.048887837678194, -0.051972735673189, -0.053560599684715, -0.034734454005957, 0.010349125601351, 0.022003861144185, 0.054479155689478, 0.024638418108225, 0.056187957525253, -0.000068902052590, -0.021317699924111, 0.052483428269625, 0.013876025564969, -0.016473038122058, -0.009537418372929, -0.025839049369097, 0.030685139819980, -0.020543934777379, 0.035365387797356, -0.006278892979026, 0.019914854317904, 0.051855120807886, -0.008845196105540, -0.018298642709851, -0.032160796225071, -0.019586287438869, -0.016358878463507, -0.013610112480819, 0.040370620787144, 0.007833376526833, -0.054202664643526, -0.054037280380726, 0.032655853778124, 0.037076622247696, -0.001603446318768, -0.000345277308952, -0.047324407845736, 0.012436249293387, 0.024580445140600, -0.050823409110308, -0.045976988971233, -0.002746866783127, -0.049932949244976, 0.018156850710511, -0.046803075820208, 0.009467656724155, -0.048840235918760, -0.039784610271454, 0.027229269966483, -0.040313947945833, 0.043285991996527, 0.045868150889874, 0.000385914812796, -0.022689962759614, 0.034228146076202, -0.024569824337959, -0.045169055461884, -0.050155345350504, 0.013930439017713, 0.000286525319098, -0.058098006993532, -0.056390639394522, -0.015233401209116, -0.005837778560817, -0.035286132246256, -0.037660766392946, -0.002518278080970, -0.041572861373425, -0.051779717206955, -0.032331559807062, -0.001324419979937, -0.026060251519084, -0.044608600437641, 0.048829045146704, -0.028605084866285, -0.021176313981414, 0.009585346095264, 0.000346457643900, -0.046789441257715, -0.031512267887592, -0.006348033435643, -0.048618316650391, 0.037307444959879, -0.013705950230360, 0.039780858904123, -0.024605857208371, 0.030048999935389, -0.040443524718285, 0.051240704953671, -0.037826925516129, -0.034159425646067, -0.017964614555240, 0.003626556601375, 0.012699972838163, 0.043738268315792, 0.005368592683226, -0.026563007384539, -0.049318838864565, 0.041163481771946, -0.031930986791849, -0.017965750768781, -0.027584979310632, -0.043317206203938, 0.026906454935670, 0.041020873934031, 0.052412681281567, 0.011645520105958, 0.019223978742957, 0.039341613650322, -0.032270714640617, 0.034965600818396, 0.000206527445698, 0.006520859897137, 0.004978556185961, 0.030184533447027, -0.003513051662594, -0.056092247366905, -0.044421803206205, 0.007680023089051, 0.024432295933366, 0.011976547539234, 0.036753963679075, -0.037928994745016, 0.024296600371599, -0.013910653069615, 0.052410822361708, -0.011043612845242, 0.031911198049784, -0.035917211323977, 0.020437577739358, -0.032062586396933, 0.041553031653166, 0.056222554296255, 0.022651096805930, 0.042242508381605, 0.058149743825197, 0.001587889855728, -0.032650534063578, 0.003392531769350, 0.032363519072533, 0.055501900613308, -0.032520420849323, 0.017292441800237, -0.028310611844063, -0.047826677560806, 0.029934914782643, 0.048047594726086, 0.058078728616238, -0.016687095165253, -0.027906470000744, 0.005811353214085, 0.018355861306190, 0.053970385342836, 0.056376080960035, 0.003027806989849, -0.018350206315517, -0.021230192855000, -0.046462349593639, 0.051513705402613, 0.053428716957569, -0.017269847914577, -0.012320882640779, -0.000781361595728, -0.025223309174180, -0.001971864840016, -0.000418532057665, 0.051477186381817, 0.038688354194164, -0.040088925510645, -0.001685171853751, -0.039391912519932, 0.001903662690893, 0.027031570672989, -0.006415040232241, 0.038877159357071, 0.026996197178960, -0.031837955117226, -0.053436540067196, 0.038168072700500, 0.049937680363655, -0.032771747559309, -0.008970124647021, -0.042260732501745, 0.055611182004213, -0.055316191166639, 0.001697302795947, -0.031942766159773, 0.024404892697930, -0.020100969821215, -0.009125301614404, -0.000041382190830, 0.013369125314057, 0.003871387103572, -0.056216448545456, 0.054266206920147, 0.058671735227108, -0.042707689106464, -0.007653791457415, 0.055725686252117, -0.023756911978126, 0.028682412579656, -0.026217844337225, -0.045989386737347, -0.033865332603455, 0.029115805402398, -0.056500937789679, -0.018659001216292, -0.053691513836384, 0.000340515049174, -0.031714040786028, 0.001475766184740, -0.047077931463718, -0.027093878015876, -0.051867701113224, 0.031800284981728, -0.040647767484188, -0.007639668416232, -0.002702792407945, -0.028185103088617, 0.011941368691623, 0.012674876488745, -0.056892160326242, -0.040398914366961, -0.016018515452743, 0.026410585269332, -0.027666477486491, -0.003709920449182, 0.012723534367979, -0.014176226221025, 0.038087487220764, 0.028988441452384, -0.036763008683920, -0.013034746050835, -0.053629320114851, 0.021200845018029, 0.008548907935619, -0.044351253658533, -0.046114820986986, 0.053478885442019, -0.058218937367201, 0.029525225982070, 0.003576536197215, -0.040950398892164, 0.009892789646983, -0.002209721133113, 0.004042009357363, 0.022797033190727, -0.005171504337341, -0.034741997718811, 0.007696272339672, -0.022540880367160, 0.058764204382896, 0.018093671649694, 0.004633401520550, 0.000154782945174, -0.013930015265942, 0.057483300566673, 0.034202352166176, 0.034818325191736, 0.012675003148615, 0.049976367503405, 0.039277832955122, 0.027850866317749, 0.032264143228531, -0.002521986607462, -0.043431676924229, 0.039842013269663, -0.034642189741135, -0.045935716480017, 0.039723653346300, 0.031789600849152, -0.020549340173602, -0.041243229061365, -0.039548184722662, -0.012891811318696, -0.006002897396684, -0.054112445563078, -0.026055194437504, -0.013496767729521, 0.049882613122463, 0.044949375092983, 0.052299253642559, 0.053875908255577, -0.018576798960567, 0.036610949784517, 0.029463132843375, 0.053520902991295, 0.049979504197836, 0.046576168388128, -0.042491208761930, 0.047289475798607, -0.040199492126703, 0.026294287294149, 0.028583137318492, 0.050066191703081, 0.050858858972788, 0.023356493562460, -0.020661437883973, -0.044808041304350, -0.017011811956763, 0.051117837429047, -0.046126760542393, -0.024517590180039, -0.025245634838939, -0.035129442811012, 0.001483250292949, 0.055758763104677, 0.037115138024092, 0.040791638195515, 0.008949905633926, -0.013574490323663, 0.043564245104790, -0.011698600836098, 0.048876773566008, -0.000710944121238, 0.048426378518343, 0.020882446318865, -0.050324201583862, 0.021416736766696, -0.000890495313797, -0.010011631064117, 0.056453183293343, 0.055831253528595, 0.032881636172533, 0.037504639476538, -0.016560632735491, 0.007928525097668, -0.022258060052991, 0.053584557026625, 0.055951561778784, -0.021356036886573, 0.035803977400064, 0.036417175084352, 0.029039354994893, -0.018759768456221, 0.013220775872469, 0.032816790044308, -0.052703604102135, 0.049664888530970, 0.001171547221020, -0.012888597324491, -0.040834072977304, 0.002162176650017, 0.044866468757391, -0.056985173374414, -0.012294453568757, -0.057438392192125, -0.001298583112657, -0.001375449588522, -0.020815126597881, -0.047182049602270, 0.058329753577709, -0.035647351294756, -0.004589085467160, -0.018719758838415, 0.034138470888138, -0.012230493128300, 0.006241677328944, 0.025132153183222, 0.005827639251947, -0.028312323614955, -0.029171437025070, 0.002052298281342, 0.035909403115511, 0.009279578924179, 0.046985018998384, 0.008754024282098, 0.005499903112650, 0.020165879279375, -0.030977580696344, 0.011990011669695, -0.020055163651705, -0.048632543534040, -0.037815704941750, 0.039324887096882, 0.015415916219354, -0.040556844323874, 0.020816519856453, -0.002182257128879, -0.008770083077252, 0.009613249450922, 0.015288768336177, -0.055070824921131, -0.007670293562114, 0.058871485292912, 0.054094556719065, 0.003739689243957, 0.051729880273342, 0.030375381931663, 0.015514758415520, -0.046794831752777, 0.002068264409900, -0.022312920540571, -0.044781159609556, 0.036415752023458, -0.028588978573680, -0.038231134414673, 0.016018612310290, 0.020475564524531, -0.033362098038197, 0.002654402749613, 0.041009932756424, 0.052350115031004, -0.025798184797168, -0.031018638983369, -0.000077581367805, 0.057647094130516, -0.007070799358189, 0.019135756418109, 0.022435212507844, -0.039315018802881, 0.025509484112263, -0.005271761212498, 0.031617078930140, 0.027612023055553, -0.040774453431368, -0.035052482038736, -0.049932654947042, -0.031446829438210, 0.010114840231836, -0.019159091636539, -0.051080666482449, -0.001958173699677, -0.001664685551077, 0.034400705248117, -0.058815199881792, 0.011522229760885, 0.040952913463116, -0.013651986606419, -0.049764912575483, -0.050278972834349, -0.011810009367764, -0.022063875570893, 0.004677941557020, 0.005779689177871, -0.017772043123841, -0.035836830735207, -0.042325776070356, -0.016316553577781, 0.028104349970818, 0.013777086511254, -0.047999266535044, 0.022390486672521, 0.027757594361901, -0.005751491524279, -0.047304276376963, 0.046044137328863, -0.006471952889115, 0.031182412058115, -0.015233740210533, -0.019505897536874, -0.051326822489500, -0.011162337847054, 0.023204063996673, -0.002788911806419, -0.047386646270752, 0.003248405177146, -0.035755671560764, 0.055920764803886, -0.049123730510473, -0.003644414246082, -0.031060639768839, 0.043715897947550, -0.037313479930162, 0.031895529478788, -0.052357558161020, 0.024801556020975, 0.008573289029300, 0.039518848061562, 0.036093391478062, 0.033957857638597, -0.054140336811543, -0.022427266463637, -0.029114173725247, 0.018383668735623, -0.009548119269311, -0.035651702433825, 0.015370832756162, -0.035274986177683, 0.026174549013376, -0.025994773954153, 0.023918798193336, 0.053909931331873, 0.012145710177720, -0.047870572656393, -0.000077793607488, -0.020090829581022, -0.001331777544692, -0.052061915397644, 0.043243262916803, 0.040989037603140, 0.037677515298128, -0.015776418149471, 0.040336597710848, -0.027506133541465, 0.025969455018640, -0.034459725022316, 0.044538240879774, 0.038949508219957, -0.036365568637848, -0.033269349485636, 0.046817269176245, 0.036364905536175, 0.029937155544758, 0.025316253304482, 0.014812132343650, 0.031354226171970, -0.000251279328950, -0.001359118614346, 0.024583192542195, -0.040726736187935, 0.040410231798887, -0.028896186500788, -0.001671916455962, -0.004731458146125, -0.046500150114298, -0.011726850643754, 0.048054587095976, 0.011115549132228, -0.048933714628220, 0.006401784718037, 0.013519305735826, 0.014810471795499, -0.021089449524879, 0.035695191472769, -0.005213601514697, -0.012309969402850, 0.029832996428013, -0.048337899148464, 0.003309640800580, 0.048115488141775, 0.033472821116447, -0.033824119716883, 0.001064435346052, -0.009340665303171, -0.050906363874674, 0.011786302551627, -0.040326442569494, 0.008959281258285, 0.038907505571842, 0.011437208391726, -0.051424272358418, -0.043671581894159, -0.053420446813107, 0.022106746211648, -0.000489418685902, -0.034269627183676, -0.053871937096119, 0.013326647691429, 0.043673012405634, -0.020753411576152, -0.043905537575483, -0.026335923001170, -0.036389548331499, 0.011437513865530, -0.007969680242240, -0.027602097019553, -0.004777148365974, 0.029136454686522, 0.011211077682674, -0.056423943489790, 0.008268309757113, 0.018284222111106, -0.044482756406069, 0.056999694555998, 0.018441082909703, -0.005816476419568, 0.019042119383812, 0.018103867769241, -0.054982863366604, -0.057094067335129, -0.017644992098212, 0.038670435547829, -0.042383950203657, -0.053949024528265, -0.025560809299350, 0.041231866925955, 0.026679176837206, 0.012768230400980, -0.029341217130423, -0.009594052098691, -0.000925208849367, -0.057038098573685, 0.034229606389999, 0.049293931573629, 0.005986905191094, -0.030832752585411, -0.053121998906136, -0.026151198893785, -0.037381455302238, -0.025974020361900, 0.012068337760866, -0.000712418579496, 0.044157408177853, 0.038179703056812, -0.044207744300365, 0.009441361762583, 0.019506884738803, 0.045384880155325, 0.042136993259192, -0.032901663333178, -0.021367873996496, 0.052191175520420, 0.023665865883231, -0.013292009010911, -0.046875067055225, 0.019665004685521, 0.022827968001366, -0.034605283290148, 0.049022052437067, 0.006708349566907, -0.012505095452070, -0.002755084307864, -0.040792524814606, 0.018386304378510, -0.058612968772650, -0.019689776003361, -0.051532045006752, -0.020135581493378, -0.032449185848236, 0.058486912399530, 0.051004502922297, 0.045480757951736, 0.009423496201634, -0.044827893376350, -0.028556499630213, -0.050240229815245, 0.017521381378174, 0.021625092253089, 0.024443376809359, 0.013429980725050, -0.050980899482965, 0.033473379909992, 0.005710246972740, 0.018873902037740, 0.030317943543196, 0.008163346908987, 0.029870782047510, -0.006088216323406, 0.053528826683760, -0.035225264728069, -0.045011069625616, -0.023851329460740, -0.053782936185598, 0.027309434488416, 0.028446845710278, 0.023972654715180, 0.008008362725377, 0.028780665248632, -0.043579399585724, -0.048479147255421, 0.043048527091742, 0.003374190069735, -0.044855613261461, -0.052682459354401, -0.019596131518483, 0.027447253465652, -0.049193039536476, -0.029977133497596, 0.028520509600639, -0.004315324127674, 0.050296537578106, -0.006752822082490, -0.026196219027042, -0.052100069820881, -0.007177338004112, 0.023521143943071, 0.008423040620983, 0.047793820500374, 0.035793103277683, -0.036426298320293, -0.047981768846512, 0.009347307495773, -0.058337029069662, -0.058035694062710, 0.004801931325346, -0.045320246368647, 0.008135852403939, -0.010377449914813, 0.056826092302799, 0.016451453790069, 0.017140757292509, -0.049016516655684, -0.004525139462203, 0.053324304521084, -0.051417224109173, -0.010021937079728, 0.029441954568028, -0.025722557678819, 0.052525129169226, -0.045153651386499, -0.054465010762215, 0.052806925028563, -0.029700903221965, 0.038386933505535, 0.053104754537344, 0.004363952204585, -0.042769808322191, 0.044742699712515, 0.050616357475519, 0.035038843750954, -0.049728766083717, -0.002135017886758, 0.038562234491110, -0.021031640470028, -0.052404258400202, -0.013140353374183, 0.009278193116188, -0.045243915170431, 0.006083118729293, 0.047648094594479, 0.018355458974838, -0.042011406272650, -0.051599208265543, -0.009778760373592, -0.005564102437347, 0.037456106394529, 0.006832041777670, 0.044995695352554, -0.011797342449427, -0.050370398908854, -0.051178444176912, -0.011145656928420, -0.032395843416452, 0.002422779565677, 0.054013799875975, -0.044543657451868, 0.041528601199389, -0.054689135402441, -0.011221566237509, 0.053005915135145, -0.030786538496614, -0.028002740815282, 0.019034791737795, -0.014621891081333, 0.049098324030638, 0.055343631654978, 0.020068140700459, -0.027672979980707, -0.022360565140843, -0.055052004754543, -0.026342803612351, -0.003442422021180, -0.015157085843384, -0.011465488001704, 0.020041093230247, 0.048333123326302, -0.039057586342096, 0.024280380457640, 0.022806260734797, 0.048513825982809, 0.010067292489111, 0.007982641458511, -0.010529709048569, -0.052957512438297, -0.034466240555048, 0.030512314289808, 0.032151613384485, -0.014148747548461, -0.015414278022945, 0.057125777006149, 0.003211502218619, 0.018730141222477, 0.036713231354952, 0.001775856013410, -0.026865679770708, 0.049322549253702, -0.053277626633644, 0.035330295562744, -0.053865984082222, -0.048231191933155, -0.056153438985348, 0.048286393284798, -0.000000714898420, 0.044926431030035, 0.044034451246262, -0.034665048122406, -0.015436111949384, -0.019565576687455, 0.036484673619270, 0.033926580101252, -0.037661764770746, -0.055246923118830, -0.042698789387941, -0.011170860379934, 0.005746059119701, 0.045296568423510, -0.047086343169212, 0.037719279527664, -0.022609923034906, 0.023277251049876, -0.015828806906939, 0.002763704163954, 0.032927613705397, 0.006675508804619, 0.014533709734678, 0.012312415987253, -0.027614256367087, -0.048742674291134, 0.002689593005925, -0.011344674043357, 0.043356150388718, -0.033613167703152, 0.008181263692677, 0.004550748970360, 0.041501596570015, 0.001081283786334, 0.042100630700588, 0.026106365025043, -0.016224734485149, -0.001880059950054, 0.005393912084401, 0.022608278319240, 0.015401074662805, 0.053392391651869, 0.052689496427774, -0.010514483787119, 0.030824098736048, -0.027602659538388, 0.020418485626578, -0.053697086870670, -0.044299889355898, 0.029254144057631, -0.034663587808609, -0.009034677408636, -0.008636643178761, -0.047080025076866, -0.010028256103396, 0.041628990322351, -0.001106294104829, 0.033000405877829, -0.024757750332355, 0.051528181880713, 0.038752581924200, -0.041362822055817, -0.022358123213053, 0.040330350399017, 0.028411725535989, -0.050458092242479, 0.011026849970222, 0.022954102605581, 0.010108518414199, 0.037753541022539, -0.051852479577065, 0.023895787075162, -0.020433731377125, 0.029673254117370, 0.057774078100920, -0.058472886681557, 0.040741324424744, -0.055762387812138, 0.024647027254105, -0.050213437527418, -0.043512977659702, -0.000212116312468, 0.034538377076387, 0.036414925009012, -0.055157687515020, 0.038068782538176, -0.052980005741119, -0.038544494658709, -0.049649670720100, -0.008992509916425, 0.012719967402518, 0.038063265383244, 0.041262097656727, -0.004117922857404, 0.029499698430300, -0.032737959176302, 0.018632810562849, -0.054390083998442, 0.037763200700283, -0.025557590648532, 0.000297956255963, -0.056029058992863, 0.038422595709562, 0.013181635178626, 0.014737075194716, -0.004812237806618, -0.028648065403104, 0.009357993490994, -0.001505013788119, -0.020483875647187, -0.035314418375492, 0.049265217036009, 0.038588527590036, 0.028395060449839, 0.010131662711501, -0.054966323077679, -0.030468307435513, -0.017319682985544, -0.033123772591352, -0.020115502178669, -0.008942842483521, 0.049157444387674, 0.042585480958223, 0.044158548116684, -0.042178537696600, -0.017879802733660, -0.007276150397956, -0.011679950170219, -0.011745177209377, -0.058166563510895, -0.028321057558060, 0.034941997379065, -0.011707262136042, 0.013262083753943, 0.008496087044477, 0.058691255748272, 0.002078291494399, -0.048822347074747, 0.049943678081036, -0.039262659847736, -0.040802605450153, -0.010751092806458, 0.052536115050316, 0.018957270309329, -0.017114868387580, -0.014690220355988, 0.032579634338617, 0.015892753377557, -0.053607162088156, -0.021064748987556, -0.031952779740095, 0.052913222461939, -0.012694424949586, 0.006744258105755, -0.034828048199415, 0.020981913432479, 0.044636212289333, 0.009224084205925, 0.025529114529490, 0.053241427987814, -0.034506823867559, -0.015572683885694, 0.017282612621784, -0.034184448421001, -0.032520212233067, 0.058398354798555, 0.017588485032320, 0.039656296372414, 0.049983911216259, 0.019377905875444, 0.036369245499372, -0.046966917812824, 0.025181941688061, 0.023886211216450, -0.006121146026999, 0.013954842463136, 0.002084327163175, -0.017140239477158, -0.056000553071499, 0.020419087260962, -0.023850008845329, 0.054221399128437, -0.057930700480938, 0.045481406152248, -0.002209680154920, -0.057356286793947, 0.049011860042810, -0.036668777465820, -0.034445770084858, -0.015923438593745, 0.010002794675529, 0.048794180154800, -0.030362740159035, -0.008856723085046, 0.032501675188541, -0.000363559345715, 0.024178143590689, 0.020226161926985, -0.009990172460675, -0.057421457022429, 0.010293453000486, 0.010582800954580, 0.023794392123818, 0.022792037576437, 0.035208482295275, 0.005613586865366, 0.027638481929898, 0.018613776192069, 0.007991540245712, 0.033383712172508, -0.057382304221392, 0.035433005541563, -0.006126228719950, 0.038839869201183, -0.032821662724018, 0.019045827910304, 0.027024161070585, 0.020378643646836, 0.000444905104814, -0.008169047534466, -0.028053699061275, 0.012175072915852, -0.006788023747504, -0.030693385750055, -0.057165544480085, 0.027270637452602, 0.053301092237234, 0.010442003607750, -0.007826145738363, -0.053577534854412, 0.006574477534741, 0.025739630684257, -0.026686226949096, 0.018527109175920, 0.018055589869618, -0.029313651844859, 0.026631688699126, -0.045049544423819, -0.015997340902686, 0.053334634751081, 0.007343506906182, -0.043321952223778, 0.035035602748394, 0.005150466691703, -0.025978554040194, 0.036462508141994, -0.053899109363556, 0.020865736529231, 0.012373718433082, 0.031577363610268, 0.043616455048323, 0.005144092254341, -0.027914389967918, 0.035186313092709, 0.019615422934294, -0.058087017387152, 0.019636191427708, 0.034991353750229, -0.028134847059846, 0.051857564598322, 0.024944588541985, -0.053772591054440, -0.049414958804846, 0.036749981343746, -0.043363839387894, 0.034519139677286, -0.042320340871811, -0.015593999996781, -0.008873237296939, -0.032546274363995, 0.018561424687505, 0.039818435907364, -0.025344071909785, 0.029934661462903, 0.032163459807634, 0.036446873098612, -0.030716991052032, 0.022824259474874, 0.057525858283043, -0.057378809899092, -0.016134049743414, -0.031248673796654, -0.012062834575772, 0.035341519862413, -0.000512220954988, -0.030120728537440, 0.055796481668949, -0.036968067288399, 0.043385677039623, 0.028607824817300, -0.023469682782888, 0.027920471504331, -0.006173073314130, -0.016691884025931, 0.026332072913647, -0.015447822399437, -0.012731789611280, -0.016208164393902, 0.002776792040095, 0.022410698235035, -0.030772358179092, 0.032175473868847, 0.036472734063864, -0.025191407650709, 0.000594605575316, 0.029976319521666, 0.025575947016478, -0.016690252348781, -0.049174644052982, -0.029417537152767, 0.040553532540798, 0.003146249102429, 0.038193628191948, -0.015104961581528, -0.023821560665965, -0.026432277634740, 0.031863160431385, 0.012185715138912, -0.000252925092354, 0.032253343611956, 0.027295069769025, -0.023981750011444, -0.036121781915426, 0.050954967737198, 0.021782711148262, -0.049258057028055, 0.004866428673267, 0.008513676933944, -0.027547124773264, -0.023329837247729, 0.029965111985803, -0.028144549578428, 0.054706782102585, 0.021954584866762, 0.054129801690578, -0.034096267074347, -0.008674822747707, 0.045456036925316, 0.021429603919387, 0.025555416941643, -0.054458130151033, 0.019697792828083, 0.013185567222536, -0.005537547171116, -0.029508527368307, -0.054310832172632, 0.027317171916366, 0.046640176326036, 0.054112181067467, -0.041020296514034, 0.043858185410500, 0.026486661285162, -0.044323284178972, 0.009719724766910, 0.047841012477875, -0.023284077644348, -0.027947500348091, 0.029558766633272, 0.000024883676815, 0.057235259562731, 0.033899620175362, -0.012957276776433, -0.036331672221422, 0.046143472194672, -0.032107941806316, 0.046036891639233, 0.052067127078772, 0.052636399865150, 0.016270004212856, -0.054383385926485, -0.032982219010592, -0.010525478981435, -0.031573630869389, -0.033889610320330, 0.029547223821282, 0.038738075643778, -0.028875797986984, -0.038996797055006, -0.038011956959963, 0.005849741864949, 0.015140799805522, -0.057971771806479, 0.016232106834650, 0.043792862445116, 0.004493556916714, 0.049902353435755, -0.015149698592722, 0.023386579006910, -0.018341612070799, -0.057967253029346, -0.052990764379501, 0.041175268590450, -0.051521290093660, -0.017831159755588, -0.002148936269805, -0.003455520840362, 0.014857290312648, -0.057418521493673, -0.024079199880362, -0.030034551396966, 0.045942768454552, -0.012238903902471, 0.018035259097815, -0.013661968521774, 0.024877782911062, 0.045404400676489, -0.021138554438949, 0.027536533772945, 0.042138095945120, -0.033486999571323, 0.005379197187722, -0.035521745681763, 0.016454923897982, -0.055016677826643, 0.043351128697395, 0.058283295482397, 0.040033545345068, -0.058038961142302, 0.019742436707020, 0.017666267231107, -0.002905894303694, 0.024483904242516, 0.022533243522048, 0.017032792791724, 0.031759899109602, -0.040343102067709, 0.007644613273442, 0.045561149716377, 0.003194650169462, -0.006355685181916, 0.029674774035811, -0.033367265015841, -0.053448360413313, -0.055480033159256, -0.053381312638521, -0.010374851524830, 0.038779728114605, -0.054157055914402, 0.056765161454678, 0.005637736991048, -0.019542086869478, -0.058829467743635, 0.025946354493499, 0.033154375851154, -0.056086979806423, 0.013869397342205, -0.034567721188068, -0.056056313216686, 0.044047344475985, 0.027360394597054, 0.006542329210788, 0.029179058969021, 0.031173393130302, 0.008240860886872, -0.044857058674097, -0.053383994847536, -0.006987405475229, 0.011427043937147, -0.031758483499289, -0.004610148724169, 0.036238674074411, 0.026847833767533, -0.007047278340906, 0.028882859274745, 0.020217806100845, -0.019900027662516, -0.029460996389389, -0.005545325111598, -0.010579528287053, 0.004212326370180, -0.002390862209722, 0.001330612110905, -0.005575503688306, -0.051670148968697, -0.047581236809492, 0.011352553032339, 0.054364681243896, -0.006171219050884, -0.038371160626411, 0.023417856544256, -0.014549589715898, -0.023277716711164, -0.020508084446192, 0.026721207424998, 0.035048872232437, 0.003465801244602, 0.014688476920128, 0.003510158509016, 0.001108904252760, 0.023691743612289, 0.053162515163422, 0.033750832080841, 0.054272230714560, -0.036831855773926, 0.019375268369913, 0.039169725030661, -0.053038224577904, 0.046574413776398, -0.045192282646894, 0.030176207423210, 0.051569800823927, 0.030249185860157, 0.037388987839222, 0.021770551800728, -0.006166203413159, -0.012160071171820, -0.000480754271848, 0.018778299912810, 0.051426876336336, -0.055065527558327, 0.010062630288303, -0.034118913114071, -0.031629756093025, -0.037142802029848, -0.043592177331448, 0.039419628679752, -0.015147874131799, 0.035800267010927, -0.057877525687218, 0.042663093656301, 0.057749502360821, -0.036034386605024, 0.016793882474303, -0.013373745605350, -0.021125396713614, 0.029604392126203, 0.053023636341095, 0.042887918651104, 0.044300254434347, -0.054556917399168, -0.032527569681406, -0.009044897742569, -0.044591668993235, -0.036598592996597, -0.035286638885736, -0.031937263906002, -0.044313903898001, -0.011883193627000, -0.054206557571888, -0.019405920058489, -0.055984433740377, -0.039528228342533, -0.039379313588142, -0.040580857545137, -0.049342866986990, -0.038077026605606, -0.053128544241190, 0.001059926231392, -0.014277764596045, -0.020626811310649, 0.011011650785804, 0.026543786749244, -0.055699337273836, -0.020126482471824, -0.052948202937841, -0.001016283873469, -0.057344522327185, -0.046490993350744, -0.051767952740192, -0.038665905594826, -0.029821535572410, -0.039064172655344, 0.035642083734274, 0.002201242838055, -0.002437159419060, -0.034195207059383, 0.037102911621332, -0.013676561415195, -0.043223097920418, 0.020590327680111, -0.041591748595238, 0.014515941031277, 0.023075159639120, -0.031908337026834, 0.054332103580236, -0.027055207639933, 0.039958935230970, -0.052931774407625, -0.024649301543832, -0.025086063891649, -0.014153424650431, 0.041886616498232, 0.006940207444131, -0.003330030245706, -0.013173284009099, 0.003216134151444, -0.011529956012964, -0.038759700953960, -0.057519722729921, -0.004544080235064, -0.055736761540174, -0.036412030458450, 0.023314887657762, -0.015900297090411, 0.018077483400702, 0.031721372157335, -0.044973913580179, -0.052423372864723, -0.005416788626462, -0.051461808383465, 0.031841304153204, -0.035986404865980, 0.033608164638281, 0.032766364514828, 0.030009696260095, 0.008987817913294, 0.051995649933815, 0.051860652863979, -0.058654520660639, 0.003914400003850, 0.049737770110369, 0.052654966711998, 0.031638167798519, 0.057604804635048, -0.005509774200618, 0.026272073388100, -0.002834601793438, 0.002693227026612, 0.015312806703150, -0.011068202555180, -0.001506138243712, -0.020997641608119, -0.044877249747515, -0.018851811066270, -0.029064465314150, -0.037829115986824, -0.024616979062557, -0.013506288640201, 0.006868918891996, 0.005578497424722, -0.000056588676671, 0.027449801564217, 0.024129455909133, 0.034530751407146, -0.003844693768770, -0.008018758147955, -0.012893468141556, 0.028168408200145, -0.005614398512989, 0.034228287637234, -0.042299121618271, 0.028491288423538, 0.042638421058655, -0.002488483209163, -0.017396125942469, -0.008096101693809, 0.045243650674820, -0.037036713212729, 0.013000452890992, 0.034293286502361, 0.025115203112364, 0.014342540875077, -0.047242544591427, 0.013175082392991, 0.037120781838894, -0.023675004020333, -0.018782878294587, 0.004712993744761, 0.057825818657875, -0.057946793735027, -0.044130012392998, -0.043865278363228, 0.021192079409957, 0.056041214615107, 0.055116124451160, -0.032203499227762, -0.024039646610618, 0.038682434707880, -0.032547019422054, -0.053116243332624, -0.020503733307123, -0.039678521454334, -0.039764892309904, -0.021420136094093, -0.043225470930338, 0.036403916776180, -0.036874193698168, 0.000371464178897, 0.026334544643760, 0.022684250026941, -0.045390740036964, 0.004727232269943, -0.055918999016285, 0.040523104369640, -0.031785018742085, -0.052478484809399, -0.030230380594730, -0.033908806741238, -0.013060653582215, 0.037504266947508, 0.024081408977509, -0.015003885142505, 0.009725734591484, -0.031519588083029, 0.012544385157526, 0.058886855840683, -0.001709873089567, -0.051362853497267, -0.039195522665977, -0.017825458198786, -0.005115656647831, 0.052056565880775, -0.051102939993143, -0.021967886015773, 0.014338526874781, 0.019387638196349, 0.041725508868694, 0.049749493598938, -0.036884035915136, -0.044758088886738, 0.003334003034979, -0.048414669930935, -0.056621838361025, -0.054069224745035, 0.007835171185434, -0.011624303646386, 0.015733800828457, -0.021402947604656, 0.019582679495215, 0.041155423969030, -0.004160734824836, 0.009336539544165, -0.007425683084875, -0.002589291194454, -0.003351864404976, -0.028588050976396, 0.043763626366854, 0.043712615966797, -0.000220218498725, 0.055811263620853, -0.037051234394312, 0.036315537989140, 0.026872282847762, 0.013411602005363, -0.001924137817696, 0.001178439240903, 0.022796653211117, -0.036066517233849, -0.011157073080540, 0.040560837835073, -0.046988215297461, -0.020278669893742, -0.013614510186017, -0.010269649326801, -0.023230269551277, 0.046068236231804, -0.002900108229369, -0.048306416720152, -0.028007458895445, 0.027025286108255, -0.032635677605867, -0.019175827503204, -0.025788662955165, -0.022063354030252, -0.049799595028162, -0.023199319839478, 0.006311312783509, 0.049884490668774, -0.014174807816744, 0.010186367668211, -0.015115926973522, 0.030100747942924, -0.031106498092413, 0.021768443286419, 0.010557905770838, 0.033995106816292, 0.000107491672679, -0.035298720002174, 0.028328783810139, -0.009807612746954, -0.038633085787296, -0.055022194981575, -0.046417780220509, -0.013253658078611, -0.024357946589589, 0.033918581902981, -0.051655445247889, -0.036867450922728, 0.034772735089064, -0.017564978450537, -0.036204308271408, -0.055477645248175, 0.025487918406725, 0.030767636373639, 0.017498720437288, -0.031246973201632, -0.043809041380882, -0.000360118894605, 0.014004996977746, -0.034456949681044, 0.030056975781918, -0.001557715237141, -0.054683759808540, -0.021568320691586, 0.044713702052832, 0.015373849309981, 0.056246019899845, -0.046690385788679, -0.018856558948755, 0.004500549752265, 0.018771464005113, -0.044314675033092, -0.054894130676985, -0.031362876296043, 0.004890690557659, -0.038588009774685, -0.022423628717661, 0.023883135989308, -0.004636659752578, 0.001540892757475, 0.001074741710909, -0.058138452470303, 0.006950744893402, -0.028957620263100, -0.057606302201748, 0.048001132905483, -0.046663273125887, -0.029033601284027, -0.035071685910225, -0.038996476680040, 0.048509255051613, -0.057439234107733, -0.042424827814102, -0.058831278234720, 0.048850484192371, 0.043657612055540, 0.055888861417770, -0.044953107833862, -0.019660245627165, -0.014490372501314, 0.048506639897823, -0.051574621349573, -0.005430911667645, -0.054775729775429, -0.042490195482969, -0.050132051110268, 0.007113555446267, -0.037627134472132, -0.051436811685562, -0.044352591037750, 0.012751296162605, 0.051207818090916, 0.016261104494333, -0.057155262678862, -0.040770966559649, 0.040299952030182, 0.003098112763837, -0.036293644458055, -0.012198504991829, -0.009313282556832, -0.024350518360734, 0.029216255992651, 0.000706658465788, -0.058697629719973, 0.015466935001314, 0.020694131031632, 0.008853506296873, 0.034231141209602, -0.047984141856432, 0.032707922160625, -0.023012969642878, 0.012595612555742, -0.024782558903098, -0.032741907984018, 0.056350424885750, 0.034279059618711, -0.058386698365211, -0.051146775484085, 0.050950583070517, 0.052054814994335, -0.025807648897171, 0.048021383583546, 0.019624650478363, 0.029483605176210, 0.034665271639824, 0.009961836971343, -0.048118982464075, 0.027334472164512, 0.003290558233857, -0.044021662324667, -0.052874002605677, -0.021173503249884, 0.046099949628115, -0.033487241715193, -0.050123304128647, -0.005139978136867, 0.056135725229979, 0.017480587586761, -0.017029028385878, 0.004938365425915, 0.027507014572620, 0.005102948285639, -0.024530580267310, 0.000344056024915, -0.038548417389393, 0.043940361589193, -0.049514304846525, 0.022123457863927, 0.036913402378559, 0.028516972437501, 0.019877575337887, 0.029892534017563, 0.029314046725631, -0.055794715881348, -0.008702316321433, -0.036468651145697, 0.020233675837517, -0.007489614188671, -0.007258765399456, -0.041005864739418, -0.025835188105702, -0.038367033004761, 0.008374285884202, 0.025667551904917, -0.053151991218328, -0.046466939151287, 0.052860438823700, -0.008825297467411, -0.001465359237045, 0.032540325075388, 0.035851199179888, -0.034578703343868, 0.038152910768986, 0.052544388920069, 0.057137317955494, 0.046870954334736, -0.023487487807870, 0.017708096653223, 0.034457761794329, -0.042927291244268, -0.014972474426031, 0.031459540128708, -0.034505322575569, -0.053736038506031, -0.016192158684134, 0.054515339434147, -0.019366407766938, 0.051260869950056, 0.038130003958941, 0.028797205537558, 0.043346974998713, -0.007888896390796, -0.031260415911674, -0.043296299874783, 0.045829676091671, -0.055196091532707, 0.015726331621408, -0.033231969922781, -0.014427185989916, -0.026672113686800, 0.032214213162661, 0.031020382419229, -0.033074207603931, 0.017943618819118, -0.015613418072462, 0.022564677521586, 0.012037306092680, -0.000650196336210, 0.049337182193995, -0.009314347989857, 0.046884544193745, 0.058213844895363, 0.005540049169213, 0.000229404191487, -0.039684798568487, 0.001012270106003, 0.005225285422057, 0.029782433062792, 0.039010588079691, 0.009253923781216, -0.058034989982843, 0.056775387376547, -0.051794964820147, -0.015326598659158, -0.031114811077714, 0.020897176116705, 0.039332721382380, -0.002006619237363, 0.021230624988675, 0.052644293755293, -0.027160504832864, 0.045090299099684, 0.054961845278740, -0.011287143453956, -0.014299825765193, 0.003809012239799, 0.042752720415592, -0.046788711100817, 0.026965256780386, 0.044383510947227, -0.024682611227036, 0.025598786771297, 0.040995948016644, -0.053863190114498, 0.015604336746037, -0.056510932743549, 0.018212495371699, 0.043106537312269, -0.057021092623472, -0.007295947521925, -0.015863353386521, -0.013806616887450, 0.018757015466690, -0.043415222316980, 0.002484383527189, -0.015834355726838, -0.043825753033161, 0.050092890858650, -0.000263328343863, 0.033377230167389, 0.009086980484426, -0.001130585791543, -0.011579987592995, -0.006292792502791, 0.040043272078037, 0.013017878867686, 0.025936763733625, -0.025984184816480, -0.041000515222549, 0.008221617899835, 0.022170722484589, -0.039784625172615, -0.006439938675612, -0.053704235702753, 0.019645180553198, -0.028907671570778, -0.016047511249781, 0.031941134482622, 0.032269630581141, 0.018736470490694, -0.024627158418298, 0.019735317677259, -0.043959304690361, -0.021636959165335, -0.014841086231172, 0.000639469188172, -0.057965174317360, -0.022241419181228, -0.043525394052267, 0.018612800166011, -0.022670079022646, -0.056983165442944, 0.043313737958670, -0.021762266755104, -0.008491521701217, -0.019954467192292, -0.016186513006687, 0.045821007341146, -0.004286635201424, -0.041863445192575, 0.040867593139410, 0.002475678222254, 0.056395232677460, -0.046263497322798, 0.054995134472847, -0.049937512725592, -0.011099274270236, -0.036131910979748, -0.048807181417942, -0.053671739995480, -0.045686278492212, 0.018257398158312, 0.031936854124069, -0.008836490102112, -0.046939425170422, 0.020483555272222, 0.016896404325962, 0.014099528081715, 0.026530485600233, -0.055537506937981, 0.042764838784933, -0.009102134965360, -0.053434472531080, -0.005671605467796, -0.010728443041444, -0.006814184132963, 0.051147200167179, -0.029639819636941, 0.045377999544144, 0.040632288902998, -0.035091303288937, -0.013132110238075, -0.044492237269878, -0.043311197310686, 0.012689397670329, -0.009028946980834, -0.045856773853302, 0.045195821672678, -0.048184465616941, 0.004831644706428, 0.021357972174883, 0.051097940653563, -0.010618773289025, 0.028798554092646, -0.042534090578556, 0.012833047658205, -0.011039189063013, 0.020682893693447, -0.005337591283023, 0.039293084293604, 0.039519794285297, 0.023948019370437, -0.054521191865206, -0.017765359953046, -0.039851550012827, 0.036174710839987, 0.003752788295969, -0.006610069889575, -0.040531791746616, 0.026834169402719, -0.000381785532227, -0.008525516837835, -0.003238109871745, 0.054410189390182, 0.049115728586912, -0.056795451790094, -0.045770838856697, 0.019334824755788, -0.053293969482183, -0.053611472249031, -0.039860952645540, 0.056004472076893, 0.037629961967468, 0.048435531556606, -0.007246281020343, -0.017307253554463, -0.020662786439061, -0.040235731750727, 0.031098270788789, -0.015235847793519, 0.016009349375963, -0.013606281019747, -0.027724754065275, -0.006824814714491, 0.030581725761294, 0.033406358212233, 0.044473573565483, -0.010602963156998, -0.034373678267002, 0.004576038569212, -0.048853226006031, 0.042679198086262, -0.052241526544094, 0.025955514982343, -0.033664293587208, -0.007373868022114, -0.006539186928421, -0.019537521526217, -0.056236244738102, -0.038863640278578, -0.011907570995390, -0.002934650518000, -0.009368494153023, 0.007121620234102, 0.004222603049129, 0.056589961051941, -0.014324329793453, -0.038496162742376, -0.004969735164195, -0.027895700186491, 0.000374807830667, -0.023426881060004, 0.041408393532038, -0.040269788354635, -0.058510169386864, -0.048246387392282, 0.043722145259380, -0.035434670746326, 0.052875660359859, -0.036518275737762, -0.057255018502474, -0.048414863646030, -0.049175292253494, -0.053132895380259, 0.047077469527721, 0.004115160088986, -0.053396813571453, -0.015138688497245, 0.012867840006948, -0.056981578469276, 0.006975892931223, -0.055661227554083, 0.030595777556300, 0.008522806689143, -0.020468780770898, 0.008028126321733, -0.027259910479188, 0.001549892243929, 0.003225305117667, -0.029867116361856, -0.018795982003212, -0.031110389158130, 0.003232044400647, 0.013842603191733, -0.053650494664907, 0.038688115775585, -0.010327459312975, 0.045813515782356, -0.048940099775791, 0.024957589805126, 0.016443209722638, -0.057643596082926, -0.015504213981330, -0.002050600480288, 0.022828601300716, 0.032935068011284, -0.052846986800432, 0.008886124007404, 0.056722797453403, -0.054474279284477, 0.036518890410662, -0.057743001729250, 0.034614495933056, 0.032732050865889, 0.039602119475603, -0.050406474620104, 0.010526055470109, -0.001557052368298, 0.006678495090455, -0.007955918088555, -0.033122994005680, -0.036572616547346, 0.027797941118479, -0.001410174299963, 0.000131600885652, 0.014017663896084, 0.045224834233522, -0.013222738169134, 0.038177944719791, 0.029605569317937, -0.031022626906633, 0.035660199820995, -0.055329769849777, 0.035197123885155, 0.028015896677971, 0.023932656273246, 0.039029702544212, 0.036295343190432, 0.041376922279596, 0.010453597642481, 0.026187311857939, -0.001078446512111, 0.019362349063158, 0.028396043926477, -0.048918209969997, -0.003052113577724, 0.026435069739819, -0.044983562082052, 0.046121146529913, 0.013789850287139, -0.012599893845618, -0.019078727811575, 0.005212923511863, -0.038530018180609, 0.050453189760447, -0.056393109261990, -0.007792820688337, 0.006235980428755, -0.019151510670781, 0.025686563923955, -0.026609191671014, 0.035958424210548, 0.041705731302500, -0.038226585835218, -0.018349587917328, 0.037258379161358, -0.037589907646179, 0.024774078279734, 0.050684027373791, 0.016401225700974, 0.012053242884576, 0.031029125675559, 0.022200249135494, 0.041661407798529, -0.000355401309207, 0.030202606692910, 0.004770468454808, -0.042936515063047, 0.044662803411484, 0.003876316826791, -0.046920057386160, -0.043243616819382, 0.038834221661091, 0.019836021587253, 0.056135002523661, 0.023760896176100, 0.004835702944547, 0.007869017310441, -0.021551402285695, 0.025001363828778, -0.039800733327866, 0.032863397151232, -0.042400594800711, -0.026632064953446, -0.038531772792339, 0.019052641466260, 0.005391752347350, -0.037154924124479, -0.000235231360421, -0.047062695026398, 0.057029966264963, 0.014747777022421, 0.046605102717876, -0.037219878286123, 0.033129155635834, 0.030967004597187, -0.016908660531044, 0.039310254156590, 0.000461586052552, -0.049835976213217, 0.039812091737986, 0.042975839227438, 0.033675819635391, -0.040554203093052, 0.046288341283798, -0.029476821422577, -0.046072471886873, 0.003491694107652, -0.001494636526331, -0.013184081763029, -0.031929273158312, 0.004601059947163, -0.014317824505270, -0.014476807788014, 0.047941133379936, -0.050965998321772, 0.001962470589206, -0.004782513715327, 0.042555864900351, 0.000518468907103, -0.032032772898674, 0.055859744548798, -0.015851765871048, -0.004828684497625, -0.017073217779398, 0.002399511868134, -0.053957790136337, 0.004622939042747, 0.013230993412435, 0.017427945509553, 0.022478405386209, -0.035717055201530, -0.022014405578375, 0.017160164192319, 0.044828847050667, 0.029266387224197, -0.006321142893285, -0.053488578647375, 0.047550555318594, -0.002126621548086, 0.045887388288975, 0.026563482359052, -0.056945309042931, 0.026595333591104, 0.052988041192293, -0.035627692937851, -0.043660096824169, -0.005052890628576, 0.019501687958837, 0.011035607196391, -0.035934969782829, -0.020909627899528, -0.021506072953343, -0.019030285999179, -0.055133927613497, -0.042486935853958, -0.053811263293028, -0.025145404040813, -0.033275034278631, 0.020776551216841, -0.015907695516944, 0.004025566857308, 0.042173437774181, 0.053309701383114, -0.045643731951714, -0.053019788116217, -0.030799008905888, -0.023760732263327, 0.015528705902398, 0.042519882321358, 0.044234752655029, -0.006652911659330, 0.050711732357740, 0.018356680870056, -0.030031505972147, 0.001255953568034, -0.054323118180037, -0.016970641911030, -0.024865364655852, -0.055745720863342, 0.056092064827681, -0.038181737065315, 0.020994164049625, -0.045809324830770, -0.000033067775803, -0.001192145165987, 0.002563536167145, -0.058314044028521, -0.016061864793301, 0.038676176220179, 0.031306326389313, 0.051304254680872, -0.050514906644821, 0.013539255596697, 0.031676586717367, -0.022811032831669, -0.046027582138777, -0.014291288331151, 0.057095699012280, 0.016730315983295, 0.026582174003124, 0.001115338294767, -0.042565207928419, -0.055475875735283, -0.048787172883749, -0.040147338062525, 0.038248348981142, -0.039056871086359, -0.042308744043112, -0.026210907846689, 0.005918602924794, 0.035777434706688, -0.049168635159731, -0.032625820487738, 0.035422556102276, 0.030156658962369, -0.029388945549726, -0.030663799494505, 0.038502316921949, 0.038270160555840, -0.011180466972291, 0.058489259332418, -0.012298482470214, -0.023625493049622, 0.009573632851243, 0.021014524623752, 0.040731020271778, 0.043882917612791, -0.042372658848763, -0.028618859127164, -0.050296522676945, 0.044819761067629, -0.019921835511923, -0.029009083285928, -0.037626262754202, -0.013831358402967, -0.032605964690447, 0.004795541986823, -0.049138601869345, 0.024360375478864, -0.018970115110278, 0.024723334237933, -0.037436533719301, -0.053148567676544, -0.047454413026571, -0.046099767088890, 0.040779661387205, -0.001865385915153, 0.039864212274551, 0.047473672777414, -0.028250511735678, -0.034622415900230, -0.017679002135992, 0.034961827099323, 0.019441487267613, -0.027059011161327, 0.043190337717533, -0.056145563721657, -0.022725012153387, -0.009280464611948, 0.023816054686904, -0.036775715649128, -0.018403789028525, -0.016697963699698, -0.055510729551315, -0.003688871860504, -0.002475901739672, 0.012681661173701, -0.052617359906435, -0.041557628661394, 0.017627313733101, -0.015325685963035, 0.023857280611992, -0.046736445277929, -0.040455758571625, -0.000341289502103, -0.034416589885950, 0.058477144688368, -0.010784007608891, -0.030477728694677, 0.025777317583561, -0.022741271182895, -0.004643819760531, -0.040792830288410, -0.030270135030150, 0.001581347780302, 0.020850678905845, -0.054634004831314, 0.055800274014473, -0.042909976094961, 0.048634152859449, 0.018715396523476, -0.044182654470205, 0.054081246256828, -0.004583526402712, -0.003697394859046, 0.004098069388419, -0.000589381612372, 0.051395487040281, -0.016885181888938, -0.028717698529363, -0.051778100430965, -0.012443019077182, -0.034942850470543, 0.021131096407771, 0.056716959923506, -0.013871560804546, 0.046552415937185, 0.034740142524242, -0.000657795870211, -0.039871711283922, 0.032600235193968, -0.023556362837553, -0.006030938588083, -0.019089343026280, -0.021952902898192, 0.009681910276413, -0.024386946111917, 0.002754648681730, 0.032900467514992, -0.035668060183525, -0.010408961214125, 0.047918181866407, -0.037428051233292, -0.043158210813999, -0.026854081079364, 0.051868516951799, 0.038531322032213, 0.047871835529804, -0.012230310589075, 0.057788286358118, -0.048102375119925, 0.051833666861057, 0.025819668546319, 0.024940842762589, -0.037759650498629, -0.007435497827828, -0.011775407940149, 0.041227500885725, 0.042364519089460, 0.058329895138741, 0.014403173699975, 0.048233922570944, -0.054894510656595, -0.047723088413477, 0.016615873202682, -0.025150613859296, 0.046545185148716, -0.036834400147200, 0.031099095940590, 0.034711789339781, 0.010579442605376, -0.033082481473684, 0.050131499767303, 0.017513137310743, 0.016850903630257, 0.045894239097834, -0.004699805285782, -0.033807508647442, -0.001299510244280, -0.045169085264206, -0.027959112077951, -0.005809945520014, -0.019619541242719, -0.024466436356306, -0.002480704803020, -0.011868828907609, 0.016744213178754, -0.013905023224652, -0.040316347032785, 0.017225516960025, 0.000810612866189, 0.011052869260311, -0.033466234803200, 0.043103780597448, -0.013113463297486, -0.038623511791229, -0.018588159233332, -0.058490496128798, -0.020502425730228, 0.048062972724438, 0.036011863499880, -0.057957630604506, -0.009141704067588, 0.034996826201677, -0.014437883161008, -0.005105912219733, -0.010672092437744, 0.008015891537070, -0.005544204730541, 0.020516835153103, -0.037763468921185, -0.038455441594124, 0.003162803594023, -0.050435863435268, -0.013665029779077, 0.052091475576162, -0.000874909048434, 0.058569900691509, 0.053187489509583, -0.036144588142633, 0.005465751979500, 0.008346337825060, -0.004088518675417, 0.015860442072153, 0.053780872374773, 0.040065769106150, -0.017985576763749, -0.033613070845604, -0.008550087921321, -0.029683446511626, 0.014566266909242, 0.004509470891207, -0.035670366138220, 0.016367103904486, 0.046511828899384, -0.019033666700125, -0.054848566651344, 0.015786048024893, -0.013110811822116, 0.032299105077982, -0.034278135746717, -0.055248256772757, -0.037148136645555, -0.028347877785563, 0.030468927696347, -0.000518230604939, -0.016170406714082, -0.037265557795763, 0.006186339538544, 0.030302230268717, 0.030654333531857, 0.051836982369423, 0.046602644026279, -0.012024482712150, -0.042817778885365, -0.025036228820682, -0.025158982723951, -0.024329511448741, 0.023515475913882, -0.055447161197662, 0.050278227776289, 0.031757019460201, -0.046216797083616, -0.048433102667332, -0.007343339268118, -0.015734333544970, 0.053280718624592, 0.016013415530324, 0.000835396000184, -0.006471714470536, 0.005346579942852, 0.026154441758990, -0.054150290787220, 0.034821886569262, -0.055059321224689, 0.037895828485489, 0.047282759100199, 0.029480671510100, -0.049553874880075, -0.033411007374525, 0.004194647539407, -0.035868611186743, 0.007252014707774, 0.041816771030426, 0.002691681729630, 0.039355583488941, -0.024538667872548, 0.036260157823563, -0.013593964278698, 0.051026239991188, 0.041449796408415, 0.047739896923304, 0.028445668518543, -0.032419614493847, 0.021693713963032, 0.001506573869847, 0.000127430641442, -0.032527208328247, -0.010593147948384, -0.003665619064122, -0.018948165699840, 0.010705316439271, 0.001855317736045, -0.013217570260167, -0.028034953400493, -0.042142935097218, 0.033947966992855, -0.053898699581623, 0.038872193545103, -0.052199963480234, -0.013057198375463, 0.057409241795540, 0.055928241461515, -0.015384956263006, 0.011746752075851, 0.000710214313585, 0.004615514539182, 0.043565172702074, -0.025128344073892, 0.030287783592939, -0.032136276364326, 0.046848092228174, -0.051398042589426, 0.011657143943012, 0.037944257259369, -0.030654434114695, 0.013482287526131, 0.034871198236942, 0.043891876935959, 0.051760762929916, -0.049642354249954, 0.017644388601184, 0.058110140264034, 0.010462080128491, 0.026688724756241, -0.047545764595270, -0.037283487617970, -0.033498723059893, 0.047774385660887, -0.003119429340586, 0.011173835955560, -0.052863683551550, -0.023674653843045, 0.034157179296017, -0.051743473857641, -0.024201506748796, -0.000008187820640, -0.027281465008855, -0.015966938808560, -0.049067895859480, -0.040610950440168, -0.018829511478543, -0.022243430837989, -0.035382702946663, 0.039929617196321, 0.004231412895024, 0.055648475885391, 0.020289266481996, -0.000175101697096, 0.053085379302502, 0.045041892677546, 0.040574695914984, -0.047448158264160, -0.021797399967909, -0.005804736632854, 0.029628572985530, -0.058183047920465, 0.002695937640965, 0.036961384117603, 0.035795643925667, 0.024498902261257, -0.010886148549616, 0.042450655251741, -0.057140532881021, 0.058434717357159, 0.003563504200429, -0.019498681649566, -0.054689150303602, -0.045136552304029, 0.003036583075300, 0.023398591205478, 0.025372603908181, 0.023779980838299, 0.017707560211420, -0.041060544550419, -0.016675116494298, 0.030044673010707, 0.017014294862747, -0.043149489909410, 0.009703140705824, -0.006986843422055, -0.024830022826791, 0.033528335392475, 0.057027634233236, -0.000743296986911, -0.057092312723398, -0.048503920435905, -0.047592569142580, 0.009139852598310, -0.008756365627050, -0.004410107620060, -0.036306671798229, -0.024952132254839, -0.012923292815685, -0.022658465430140, -0.045827258378267, -0.053355939686298, -0.054333973675966, 0.028534004464746, 0.042694702744484, -0.056440938264132, -0.058564763516188, -0.050596024841070, -0.016485773026943, -0.047469913959503, -0.013433424755931, 0.019126528874040, -0.021983416751027, 0.027765756472945, -0.020031055435538, 0.015546370297670, -0.055189367383718, -0.044251881539822, 0.042323432862759, 0.039931248873472, -0.016214301809669, -0.003040317678824, 0.026347404345870, -0.007339898962528, -0.007126967422664, -0.039394788444042, -0.047847598791122, -0.039238262921572, -0.044832482933998, 0.019963668659329, -0.004031971096992, -0.022853719070554, -0.030026772990823, 0.054448638111353, 0.000036284814996, 0.039859201759100, 0.026409892365336, -0.011367264203727, -0.016634799540043, -0.042391084134579, 0.048559959977865, -0.030316092073917, -0.036755722016096, -0.052496038377285, -0.021671500056982, -0.028412582352757, -0.021055467426777, 0.055039748549461, 0.004356914665550, -0.040497317910194, -0.020129345357418, -0.020890153944492, 0.057812437415123, -0.025219280272722, 0.010732110589743, 0.046986654400826, 0.051221281290054, -0.053603176027536, -0.023141946643591, 0.057408414781094, 0.032926347106695, -0.014124005101621, 0.055127017199993, -0.036835182458162, 0.052140329033136, -0.003270365996286, 0.021170290187001, 0.035181455314159, 0.004961353726685, 0.026649657636881, 0.008988495916128, 0.034807633608580, 0.026030162349343, 0.058280158787966, 0.014971495606005, 0.014521742239594, -0.039884023368359, -0.004267369862646, -0.000111788511276, 0.027320612221956, -0.009119039401412, 0.000992681132630, -0.051569450646639, -0.029503121972084, 0.058652486652136, -0.010607934556901, -0.007982164621353, 0.010001067072153, -0.010254457592964, 0.055047247558832, -0.056397352367640, -0.052770599722862, 0.006792841479182, -0.041123043745756, -0.050975646823645, -0.011649340391159, -0.033605385571718, 0.055426143109798, -0.030456526204944, -0.043150559067726, 0.018315805122256, -0.017336770892143, -0.009599119424820, 0.008950479328632, -0.056136228144169, 0.027583435177803, 0.049798551946878, -0.026919011026621, -0.048277787864208, -0.035297159105539, -0.012577765621245, -0.019944302737713, 0.042301189154387, -0.001941816648468, 0.018043093383312, 0.040555242449045, 0.015494272112846, -0.015248399227858, 0.005126666743308, 0.031584586948156, 0.027651550248265, 0.031534172594547, -0.024409469217062, -0.043884728103876, -0.044762700796127, -0.058306239545345, 0.050586123019457, 0.044696196913719, -0.040003590285778, 0.025669464841485, -0.016326876357198, -0.004483615513891, 0.022119034081697, 0.034801241010427, 0.015860598534346, -0.015895646065474, -0.036686565726995, -0.013192689977586, -0.023485830053687, -0.013902818784118, 0.001836544135585, 0.025983231142163, -0.013825040310621, 0.057466350495815, 0.025310385972261, -0.002251412486658, -0.045808229595423, -0.030226631090045, 0.056015085428953, -0.023140229284763, -0.056907296180725, -0.007286724634469, -0.038795761764050, -0.005623077973723, 0.014531557448208, -0.038207668811083, -0.025078356266022, 0.026012280955911, 0.046546425670385, -0.047662373632193, -0.044373806566000, -0.044631194323301, -0.038168553262949, -0.054455772042274, -0.058019500225782, -0.005268123466522, -0.046836059540510, -0.029486523941159, 0.017548957839608, -0.007010799832642, -0.004711798392236, 0.004968495573848, -0.055925317108631, -0.019929669797421, -0.056434605270624, 0.054202303290367, 0.045589320361614, -0.038230784237385, 0.053089424967766, 0.021595826372504, -0.035738933831453, 0.035153046250343, 0.023138962686062, 0.001269417465664, -0.045459147542715, -0.019544458016753, -0.000774004089180, 0.031297668814659, 0.005713799502701, 0.041919149458408, 0.009841749444604, -0.036171469837427, -0.014509540051222, 0.011870601214468, -0.038243994116783, -0.048927087336779, -0.006044179201126, 0.044605769217014, 0.032027691602707, 0.010148090310395, -0.022528562694788, -0.025752382352948, -0.048622697591782, 0.017770150676370, 0.003198120277375, 0.012641179375350, -0.026100762188435, -0.002117242431268, -0.036302294582129, 0.033963724970818, 0.037592414766550, 0.011588023044169, -0.000431214051787, 0.008680873550475, -0.035518161952496, 0.025584526360035, 0.003967235330492, 0.043108280748129, 0.020976820960641, 0.033115349709988, -0.027174115180969, 0.022578528150916, -0.031010873615742, -0.048442974686623, -0.002171485219151, -0.025782836601138, 0.020131550729275, 0.009484032168984, -0.052681121975183, 0.011123204603791, -0.034662213176489, 0.047281425446272, 0.032989393919706, -0.031454693526030, 0.013622258789837, 0.023378565907478, 0.023896487429738, 0.001080583781004, -0.001618753420189, -0.004563684109598, -0.002181106479838, -0.013024060055614, -0.025110693648458, -0.011869223788381, 0.006448208354414, -0.030255643650889, 0.014319284819067, 0.003154883859679, -0.008427125401795, 0.016511088237166, 0.010563319548965, -0.035947795957327, 0.023378565907478, -0.041791677474976, 0.029999731108546, -0.005001510959119, 0.053682297468185, 0.035989724099636, -0.058779407292604, -0.010421189479530, -0.028846478089690, -0.055487982928753, -0.031471714377403, 0.013822161592543, 0.038528416305780, 0.003481737570837, -0.052949253469706, 0.005093260202557, 0.034579712897539, 0.031371779739857, 0.042027860879898, 0.013358214870095, -0.039851520210505, -0.043377812951803, -0.002144736237824, -0.017410814762115, -0.014288182370365, -0.058266781270504, 0.008586700074375, -0.000614797696471, -0.025122065097094, 0.056445684283972, -0.020506342872977, 0.037627570331097, 0.043126687407494, 0.007019263226539, -0.051633119583130, 0.010150436311960, 0.014559512957931, 0.032146148383617, 0.048247005790472, -0.005733220838010, -0.023683454841375, -0.029384186491370, -0.009194486774504, -0.009451384656131, -0.050187870860100, -0.054153449833393, -0.005269289016724, 0.046001125127077, -0.033185984939337, -0.034476391971111, 0.049339402467012, 0.042406093329191, 0.058700833469629, 0.051969900727272, -0.035547427833080, 0.017025010660291, -0.010133006609976, -0.033234357833862, -0.023455681279302, 0.045136947184801, 0.017273668199778, -0.040213041007519, 0.003969581332058, -0.014210955239832, -0.041755732148886, -0.058299425989389, -0.007179177366197, 0.041274581104517, -0.047968443483114, 0.024248337373137, -0.020196661353111, 0.047110326588154, -0.014244093559682, 0.002890866715461, -0.058870304375887, -0.021682692691684, -0.024647563695908, 0.035867176949978, -0.049975536763668, -0.025571901351213, -0.052898816764355, -0.038735259324312, -0.018593128770590, -0.018384929746389, -0.054794464260340, -0.018019743263721, 0.058663129806519, 0.011618293821812, -0.058730278164148, -0.056208726018667, 0.053627397865057, -0.055560942739248, -0.008236433379352, -0.030594024807215, -0.000995756592602, -0.017799677327275, -0.042623829096556, 0.014404692687094, 0.054768398404121, -0.039011992514133, 0.016093811020255, -0.009108114987612, 0.056376822292805, 0.055676467716694, 0.039002880454063, -0.017845438793302, -0.020147683098912, -0.019154414534569, 0.051145136356354, -0.002523475792259, -0.043126769363880, -0.005324097815901, 0.012327719479799, -0.043305803090334, 0.003710787976161, -0.048804540187120, -0.018614741042256, -0.000717906921636, -0.025686299428344, -0.046611092984676, -0.032110493630171, 0.046569839119911, 0.053604125976562, -0.047952406108379, 0.030065741389990, -0.049650624394417, -0.013126215897501, -0.044106617569923, -0.023638337850571, -0.024267502129078, -0.032836198806763, -0.001133422949351, 0.003310147207230, 0.056156337261200, -0.008076791651547, -0.039358619600534, 0.004280442837626, -0.023996423929930, -0.052748750895262, -0.042755808681250, -0.031234759837389, -0.001283503253944, -0.030581247061491, 0.047559890896082, 0.029885496944189, 0.032873436808586, 0.055706545710564, -0.014598649926484, -0.003238672157750, -0.022738534957170, 0.019755721092224, -0.015054773539305, -0.017198232933879, -0.019385617226362, 0.021849859505892, 0.048767212778330, -0.007666332181543, -0.026895478367805, -0.001275360118598, 0.056813627481461, -0.026064688339829, -0.017615390941501, -0.053300835192204, 0.017383405938745, 0.007966168224812, 0.041830420494080, -0.014592695981264, 0.032687392085791, 0.049340467900038, -0.042526774108410, 0.021700313314795, 0.052240390330553, 0.022167520597577, -0.036118529736996, 0.057603873312473, 0.008486785925925, 0.003440653206781, -0.024374181404710, 0.002354931086302, 0.023005641996861, -0.055638089776039, -0.018748180940747, 0.050570175051689, 0.058877762407064, 0.042711481451988, -0.058468874543905, 0.047098245471716, 0.009776455350220, -0.053129173815250, 0.055174045264721, -0.029145123437047, 0.035203065723181, 0.019473448395729, -0.031631514430046, 0.058495268225670, 0.029965899884701, 0.058183945715427, -0.019724475219846, 0.031179858371615, -0.049926996231079, 0.029814193025231, 0.036609698086977, -0.035978976637125, -0.038038298487663, 0.040046602487564, -0.006507563870400, 0.048375278711319, 0.027618382126093, 0.005569620523602, -0.007255604490638, -0.015417099930346, 0.028856251388788, 0.004286847077310, -0.006919963285327, 0.042386904358864, 0.056572258472443, -0.023129360750318, -0.041019514203072, 0.019038261845708, -0.039560317993164, 0.039081666618586, 0.058019161224365, 0.027141999453306, 0.047728117555380, -0.058847751468420, 0.041679006069899, 0.012044113129377, -0.005690464749932, -0.024236638098955, -0.030373651534319, 0.052790932357311, -0.005711386445910, 0.044860258698463, -0.001903662690893, 0.051670469343662, -0.057507533580065, -0.012517357245088, 0.033841080963612, -0.026454957202077, -0.036910027265549, -0.045287091284990, -0.000186309218407, 0.040204994380474, -0.007801403291523, 0.045503083616495, 0.028505794703960, 0.017963448539376, -0.003365358104929, 0.017564401030540, 0.019815482199192, -0.048859149217606, 0.016758175566792, -0.033461414277554, -0.000875318597537, 0.025056984275579, 0.005393122788519, 0.005865246057510, -0.019090594723821, -0.055647511035204, -0.003583234502003, -0.036482173949480, 0.026680205017328, -0.019890367984772, 0.010819782502949, -0.041386105120182, 0.049830768257380, 0.013126327656209, -0.020194740965962, 0.020002689212561, -0.007639806251973, 0.014986247755587, -0.022449774667621, 0.052469793707132, -0.031007643789053, 0.045899942517281, 0.017577985301614, 0.028395425528288, -0.014491779729724, 0.058221597224474, -0.016427865251899, 0.017906764522195, -0.020661463961005, 0.019820084795356, -0.008561310358346, 0.057253245264292, -0.051302306354046, 0.013404943980277, 0.004827675409615, 0.027919415384531, -0.003666602075100, 0.039052475243807, -0.006091150455177, 0.054255869239569, -0.037977352738380, 0.040202300995588, 0.055128313601017, -0.010516873560846, -0.051106873899698, -0.009691110812128, -0.045397382229567, 0.058175746351480, 0.038143571466208, 0.052094381302595, -0.042143795639277, -0.033980589359999, 0.015134171582758, -0.043703667819500, 0.003179726656526, -0.022787244990468, -0.045329555869102, 0.017364364117384, 0.049113925546408, -0.020729007199407, 0.018939292058349, 0.040998846292496, 0.003033351153135, -0.017322236672044, -0.057916503399611, -0.021473510190845, 0.037944950163364, -0.000770031183492, -0.047567840665579, 0.026499709114432, 0.039630737155676, 0.015927188098431, -0.009077660739422, 0.051116541028023, 0.048308227211237, 0.012109927833080, -0.019348923116922, -0.020200034603477, 0.005006295628846, 0.004141894169152, 0.001733576413244, 0.015376447699964, 0.046525128185749, 0.013525858521461, 0.026252107694745, 0.044861346483231, -0.033760368824005, 0.001671060104854, 0.037372544407845, 0.012056333012879, -0.037375476211309, -0.015004868619144, -0.032194860279560, 0.031805742532015, -0.012063999660313, 0.007295258808881, 0.004580305423588, 0.037632782012224, 0.035968992859125, 0.056174688041210, 0.029913749545813, -0.035399325191975, 0.043760295957327, -0.015139432623982, 0.021303730085492, 0.005406266544014, 0.033778455108404, -0.001425045658834, 0.050783906131983, -0.018570452928543, 0.054561369121075, 0.052903141826391, -0.002540030283853, -0.029559541493654, -0.002960907993838, -0.049780316650867, 0.044973663985729, -0.025803130120039, 0.050840269774199, -0.034682121127844, 0.031089102849364, 0.005392422899604, -0.039536360651255, 0.010719822719693, 0.054802961647511, -0.044606454670429, -0.027047667652369, -0.045940212905407, -0.052716877311468, -0.024525973945856, 0.057461518794298, 0.043075162917376, 0.039750527590513, -0.016451848670840, 0.051031790673733, 0.042728975415230, -0.057868044823408, 0.053353890776634, 0.025645665824413, 0.038955800235271, 0.045432735234499, -0.030723126605153, 0.049730926752090, 0.036315537989140, 0.038978885859251, -0.022385237738490, 0.053717840462923, 0.034123718738556, -0.038333147764206, -0.035479716956615, 0.002007981995121, -0.051059760153294, -0.008743490092456, -0.021806810051203, 0.054460451006889, 0.032832451164722, 0.034626547247171, -0.022823316976428, 0.056653771549463, 0.034669402986765, -0.026814695447683, -0.017959810793400, -0.011834271252155, -0.009262395091355, -0.029591333121061, -0.029650097712874, 0.001612125663087, 0.013186676427722, 0.010288188233972, 0.008199813775718, -0.037023544311523, 0.024194234982133, 0.006363507825881, -0.031350687146187, 0.018946636468172, -0.033831618726254, 0.048828620463610, 0.049139469861984, -0.002122983802110, -0.051498569548130, 0.037126030772924, -0.027177581563592, 0.052734922617674, -0.048824761062860, -0.002519078552723, -0.033639833331108, -0.023416828364134, 0.015165805816650, -0.055198565125465, 0.014642746187747, -0.056614413857460, -0.025931315496564, -0.002141984412447, -0.037899326533079, 0.050745442509651, 0.042632717639208, -0.024551177397370, -0.024820910766721, -0.018813336268067, -0.046000987291336, 0.021862780675292, 0.025433318689466, 0.030562430620193, -0.004569481592625, 0.011630499735475, -0.001172556192614, -0.030159523710608, 0.052284900099039, -0.057952832430601, -0.035403989255428, -0.002793376101181, -0.034516189247370, -0.027969671413302, -0.016144428402185, -0.004905238281935, -0.015571533702314, 0.021445004269481, 0.029112542048097, -0.054545357823372, -0.015667255967855, -0.021595323458314, 0.016710180789232, -0.000545769056771, 0.032830163836479, 0.037822656333447, 0.002907227491960, 0.006677541881800, -0.037936903536320, 0.015480457805097, 0.005273898597807, 0.033475931733847, 0.000800727168098, -0.027699196711183, 0.008908695541322, -0.041241627186537, -0.044089823961258, 0.014265867881477, 0.014875870198011, 0.021159224212170, 0.031984034925699, 0.044721916317940, -0.028007851913571, -0.003480911022052, -0.007961283437908, -0.008534389548004, 0.034991338849068, -0.044083882123232, -0.000906182103790, 0.047535557299852, -0.018388187512755, -0.026083432137966, -0.044694706797600, 0.019833831116557, -0.009609876200557, 0.045642707496881, 0.046660728752613, 0.054678291082382, 0.002182677853853, 0.046217165887356, 0.034544974565506, -0.058153461664915, 0.008006977848709, -0.054273128509521, -0.025353841483593, 0.008380712941289, 0.042279705405235, 0.015471059828997, -0.006978193763644, 0.055775824934244, 0.052699804306030, 0.037233795970678, -0.021943533793092, -0.057764023542404, -0.022690890356898, 0.011950260028243, -0.026879908517003, 0.017043367028236, 0.033090103417635, 0.035902172327042, -0.042497862130404, -0.018208622932434, -0.005529601126909, 0.022467831149697, 0.040185842663050, -0.018630735576153, -0.027825180441141, 0.021725982427597, -0.054300848394632, 0.028790928423405, 0.055778998881578, 0.009467291645706, -0.032684966921806, -0.036848314106464, -0.007563405204564, -0.006900288630277, 0.005408448167145, 0.004290592856705, -0.030353080481291, -0.029322091490030, 0.035813830792904, -0.004473100416362, 0.025431791320443, 0.037479244172573, 0.048959776759148, 0.019785232841969, 0.021191446110606, 0.057175498455763, -0.019371490925550, -0.049874130636454, 0.053835872560740, 0.037984319031239, -0.000537033891305, -0.027813231572509, -0.007507758680731, -0.050089631229639, 0.025525800883770, -0.049492832273245, -0.041987955570221, 0.023378707468510, -0.056689362972975, 0.050648201256990, 0.022091986611485, -0.004192246124148, -0.013274032622576, -0.045746982097626, 0.017712602391839, -0.037130221724510, -0.058090578764677, 0.001901473384351, 0.054363701492548, -0.038126662373543, -0.020218595862389, 0.027136787772179, -0.002379375509918, -0.017473990097642, -0.039959471672773, 0.058049328625202, -0.003369893180206, -0.020197030156851, 0.056697566062212, -0.020903490483761, -0.026059182360768, 0.004447066225111, 0.035613775253296, -0.002364310435951, -0.007364853285253, -0.048335611820221, -0.054910533130169, -0.020251074805856, -0.030144052579999, -0.008613192476332, 0.036889348179102, -0.037409089505672, -0.002616825979203, -0.051965925842524, 0.057205546647310, 0.000427423598012, -0.008739878423512, -0.019210455939174, -0.045780401676893, 0.023399246856570, -0.019081255421042, -0.010539158247411, -0.047056883573532, -0.026351381093264, -0.002599485917017, 0.028802277520299, -0.020433716475964, 0.035269875079393, 0.015233363956213, 0.051927756518126, 0.041709646582603, -0.043270207941532, 0.006091906223446, 0.004773663356900, 0.026971869170666, 0.038107991218567, -0.043189186602831, -0.025236200541258, -0.032385833561420, 0.025410337373614, 0.042751025408506, -0.049414243549109, 0.037730835378170, 0.009053842164576, -0.032142285257578, 0.058837398886681, 0.055628191679716, -0.012415550649166, -0.026662649586797, 0.003123134141788, 0.020196270197630, -0.046082135289907, -0.038623791188002, 0.009136799722910, 0.047559216618538, -0.014175105839968, -0.051701787859201, 0.044605836272240, -0.025246689096093, -0.001695802318864, 0.000331642106175, -0.004638767335564, 0.035634741187096, -0.018290724605322, 0.004600799176842, 0.031143270432949, -0.014624922536314, -0.009156266227365, -0.030357277020812, 0.022384224459529, -0.018731610849500, 0.011367923580110, -0.013427765108645, 0.001153700752184, -0.021331477910280, 0.030383422970772, 0.022584969177842, -0.026083558797836, -0.040947437286377, -0.044039439409971, -0.046470154076815, 0.028106158599257, -0.043400436639786, 0.022993154823780, -0.041745651513338, 0.043420698493719, -0.045015241950750, -0.028169067576528, -0.021020757034421, 0.046859409660101, -0.058496844023466, -0.043712869286537, 0.041239634156227, -0.008340444415808, 0.033472113311291, 0.013603433035314, 0.050048656761646, 0.030091775581241, -0.017255032435060, 0.031439431011677, -0.051672283560038, 0.036389619112015, -0.058165200054646, 0.000089518682216, 0.038866326212883, -0.020989386364818, -0.054593242704868, 0.056179936975241, 0.006021376699209, -0.053216110914946, -0.008384350687265, 0.043394237756729, -0.022072961553931, -0.053801067173481, -0.044609665870667, -0.038902282714844, 0.043133605271578, -0.030451597645879, 0.045815482735634, -0.010014970786870, -0.031029563397169, 0.030494917184114, -0.049340538680553, -0.005158613901585, -0.012110728770494, -0.055880341678858, -0.046903323382139, -0.020429115742445, 0.007563025690615, 0.009952089749277, 0.034137185662985, 0.019649492576718, 0.007038252893835, -0.029846081510186, -0.003034181427211, 0.021633811295033, 0.014023956842721, 0.032038688659668, -0.015524856746197, 0.035700824111700, 0.017200019210577, -0.026826025918126, 0.016197053715587, 0.019259730353951, -0.012465794570744, -0.037480663508177, 0.040200632065535, 0.015709955245256, -0.032891947776079, -0.052873093634844, 0.000128201383632, -0.058789394795895, 0.008224917575717, -0.049543090164661, 0.007128136232495, -0.009207421913743, -0.036132864654064, 0.007584636099637, -0.019123353064060, -0.034195639193058, 0.002840626519173, 0.031520061194897, -0.010645693168044, 0.022830395027995, 0.003365935292095, -0.019290300086141, -0.033253535628319, 0.022150825709105, -0.006007179617882, -0.043240889906883, -0.012667802162468, 0.058556407690048, 0.048650164157152, 0.054019052535295, -0.050193920731544, 0.018381515517831, -0.053821273148060, 0.049457635730505, 0.053778473287821, 0.037870734930038, -0.020758943632245, 0.003909611608833, 0.050925508141518, 0.054460279643536, -0.012379676103592, 0.007334719877690, -0.014653104357421, -0.052468094974756, 0.026929555460811, -0.027802461758256, 0.004205460660160, -0.014407246373594, 0.004655883647501, -0.048544846475124, -0.016238283365965, -0.049920976161957, 0.021177930757403, -0.046454135328531, 0.034577589482069, 0.042970735579729, -0.018121885135770, -0.006716451607645, -0.042940348386765, 0.015509314835072, 0.056279722601175, 0.006152419373393, 0.040083397179842, 0.043184861540794, -0.056305922567844, -0.046644229441881, 0.001728743431158, 0.045155987143517, -0.050513178110123, 0.006485040765256, -0.030318031087518, -0.047652557492256, 0.057038635015488, -0.056955151259899, 0.041147686541080, -0.018327698111534, -0.017286797985435, -0.034805059432983, -0.023964056745172, 0.058012511581182, 0.020946042612195, 0.014408103190362, -0.056809142231941, -0.001343547250144, 0.008132874034345, 0.044109508395195, 0.058273732662201, -0.043581336736679, 0.038448967039585, -0.047453414648771, -0.044077482074499, 0.005302062723786, 0.046940606087446, 0.007743410766125, -0.050567816942930, -0.015767967328429, 0.033271048218012, 0.052062671631575, 0.055024586617947, 0.032108839601278, 0.023901835083961, -0.025752702727914, 0.025212399661541, -0.017304290086031, -0.043606135994196, -0.016027180477977, -0.000896478886716, -0.039888858795166, 0.005117328371853, -0.037459827959538, -0.017390834167600, 0.047552090138197, -0.006230838596821, -0.024454610422254, 0.031830094754696, 0.009928348474205, -0.028322167694569, -0.014537246897817, -0.034291125833988, -0.049131620675325, -0.033128172159195, -0.022075586020947, 0.000628179754131, -0.033249355852604, 0.042496975511312, -0.049736250191927, -0.025874391198158, 0.014027806930244, 0.047226734459400, 0.015223220922053, 0.036168068647385, 0.057590678334236, 0.022450642660260, -0.031587481498718, -0.027074147015810, 0.056233316659927, 0.054939415305853, -0.058379691094160, -0.015474530868232, 0.006493604741991, -0.007722682319582, -0.052559033036232, -0.020973842591047, -0.024368744343519, 0.042894471436739, -0.040774550288916, 0.056856997311115, 0.004549289587885, -0.003900653216988, -0.019355539232492, 0.009075117297471, -0.055717173963785, 0.001288950676098, 0.007912349887192, 0.024389708414674, 0.058664586395025, -0.025552367791533, 0.006336378864944, -0.053735546767712, -0.035741500556469, 0.000351666705683, 0.005071947351098, 0.027408851310611, 0.021022262051702, 0.006078963633627, -0.001352546853013, 0.021484978497028, 0.043994367122650, 0.000083676619397, -0.026234187185764, 0.009908547624946, 0.053656984120607, 0.039053056389093, 0.049177832901478, -0.056675236672163, 0.043667681515217, 0.044410891830921, -0.043279141187668, -0.026875428855419, -0.057426977902651, 0.048047319054604, 0.037983797490597, 0.003219407051802, -0.038791593164206, 0.030185626819730, -0.013230714015663, -0.046947468072176, -0.013608638197184, -0.049648895859718, 0.025299111381173, -0.007076697424054, -0.058008201420307, -0.051123339682817, 0.045825548470020, -0.022189913317561, 0.035964403301477, 0.053512085229158, -0.045285269618034, -0.022391078993678, 0.033141806721687, -0.046538118273020, -0.036175005137920, -0.047111365944147, 0.002085507614538, -0.035714697092772, 0.055721774697304, -0.050828602164984, -0.015928434208035, 0.051130630075932, -0.055964071303606, 0.051321182399988, 0.036641042679548, -0.011586473323405, -0.037815649062395, -0.027460681274533, -0.029943475499749, -0.033656906336546, -0.028879027813673, 0.032455548644066, -0.007989395409822, 0.029465345665812, 0.043981574475765, 0.040315084159374, 0.016175741329789, -0.027454853057861, 0.053007405251265, -0.050339087843895, 0.031859204173088, 0.048163082450628, 0.025459129363298, -0.043785829097033, 0.019158178940415, 0.020305709913373, -0.014235626906157, -0.014321280643344, -0.036347676068544, 0.002901820931584, -0.044988475739956, -0.008881253190339, -0.058169174939394, -0.029142228886485, 0.028227521106601, -0.040380548685789, 0.043106522411108, -0.033226042985916, 0.018209641799331, 0.024747425690293, -0.005052637308836, -0.011802228167653, -0.008411985822022, -0.039608899503946, -0.011887840926647, -0.043884292244911, -0.027647538110614, -0.012732336297631, 0.012741629965603, 0.012005724012852, -0.003238266333938, -0.040421675890684, 0.024190682917833, -0.051711108535528, 0.016522057354450, -0.018215250223875, -0.000540489272680, -0.012300645932555, -0.000497688422911, -0.048213656991720, -0.028879631310701, -0.046506721526384, -0.043757762759924, -0.054786290973425, 0.036437816917896, 0.009916947223246, -0.030791945755482, -0.033226326107979, 0.008107122965157, -0.039135787636042, 0.019071005284786, -0.035602431744337, -0.052414834499359, 0.047542423009872, 0.023620059713721, 0.011285024695098, 0.055346760898829, 0.049326270818710, -0.036840803921223, 0.038468573242426, 0.035498283803463, 0.057075086981058, -0.052422627806664, -0.027260288596153, -0.000971394241787, -0.028426595032215, -0.028336405754089, 0.033255670219660, -0.038264766335487, 0.003913230728358, 0.009366364218295, -0.019833441823721, 0.033678829669952, -0.012211536988616, -0.039807442575693, 0.008282742463052, -0.009690026752651, 0.029579959809780, 0.018436338752508, 0.058726411312819, -0.052393376827240, -0.033765282481909, -0.032540686428547, -0.013399597257376, 0.050949711352587, 0.003028972307220, -0.053170192986727, -0.051844954490662, 0.055896457284689, -0.000227747266763, 0.049392014741898, -0.055198043584824, 0.016620043665171, 0.029500426724553, 0.049366217106581, -0.010122182779014, -0.035753216594458, 0.047387879341841, 0.046589091420174, 0.001717144972645, 0.055002372711897, -0.019317302852869, 0.048734374344349, 0.043244943022728, -0.009815238416195, 0.034925121814013, 0.000182362389751, 0.057358790189028, 0.006413089111447, -0.044265192002058, 0.011276274919510, 0.046084631234407, -0.027741855010390, -0.042088177055120, 0.013375342823565, -0.026677155867219, 0.057075615972281, 0.033926192671061, -0.032217185944319, -0.007814208045602, 0.037263590842485, 0.058065265417099, -0.038652703166008, 0.036494038999081, -0.009937925264239, -0.015861008316278, 0.015335966832936, 0.048873919993639, -0.039711467921734, -0.025742888450623, 0.047030963003635, 0.026239216327667, -0.031112622469664, -0.033388860523701, -0.037179056555033, -0.058406554162502, -0.034933980554342, 0.023699644953012, 0.011163514107466, 0.002114840783179, 0.000993563560769, -0.047972120344639, 0.029324784874916, -0.023031575605273, -0.054741330444813, 0.015691591426730, 0.029485257342458, 0.042969483882189, 0.042024716734886, -0.053022008389235, -0.017680460587144, 0.050086781382561, 0.007530393544585, 0.043306551873684, 0.003974481485784, -0.042578715831041, -0.012102262116969, -0.048412363976240, -0.047623321413994, 0.010743973776698, -0.035048209130764, -0.016541859135032, 0.034833323210478, -0.044520247727633, 0.048608247190714, -0.050644062459469, 0.051039669662714, 0.039863370358944, -0.000247883581324, 0.016109032556415, 0.012273267842829, -0.012287658639252, -0.014586250297725, 0.020974585786462, 0.030789246782660, 