//Numpy array shape [1, 1, 32, 4]
//Min -0.398167818785
//Max 0.405481219292
//Number of zeros 0

#ifndef W287_H_
#define W287_H_

#ifndef __SYNTHESIS__
model_default_t w287[128];
#else
model_default_t w287[128] = {-0.084167212247849, 0.186435639858246, 0.334765613079071, -0.010378807783127, 0.125604808330536, 0.326843142509460, 0.066041499376297, -0.320389598608017, 0.364883303642273, -0.338283360004425, -0.323591768741608, -0.329261600971222, 0.165653884410858, -0.206006780266762, 0.346261739730835, 0.049220144748688, 0.294796109199524, 0.347453415393829, 0.073051482439041, -0.398167818784714, -0.287363588809967, -0.236538514494896, -0.120789706707001, -0.035615384578705, 0.290171861648560, -0.186022758483887, -0.034984767436981, 0.365728557109833, 0.239706814289093, 0.227404117584229, 0.190282404422760, 0.328228473663330, 0.016781240701675, 0.263145506381989, 0.189208805561066, 0.317957520484924, 0.257837712764740, 0.005526244640350, -0.360801696777344, -0.084553152322769, -0.075359284877777, 0.265628635883331, -0.075326949357986, -0.231816157698631, -0.008424162864685, 0.056816577911377, -0.233902797102928, -0.125777602195740, -0.110517174005508, 0.023258745670319, 0.272017300128937, -0.022121667861938, -0.062610387802124, -0.092746436595917, 0.372003257274628, -0.137321591377258, 0.006913840770721, 0.021560937166214, -0.338110715150833, 0.279564440250397, -0.056101053953171, -0.396978884935379, -0.262253940105438, 0.043296396732330, 0.062995612621307, 0.306804120540619, 0.047229379415512, -0.314614474773407, -0.039879858493805, -0.161982819437981, 0.128006458282471, -0.269121825695038, 0.261205255985260, 0.207910537719727, -0.052822947502136, 0.146605432033539, -0.059407889842987, -0.117227971553802, -0.356021702289581, -0.251719295978546, 0.405481219291687, -0.233885377645493, 0.278798997402191, 0.003747642040253, 0.206278860569000, -0.148259609937668, -0.211153715848923, 0.131435036659241, 0.396279633045197, 0.055406302213669, 0.017993748188019, 0.063684076070786, -0.202541410923004, 0.308342576026917, -0.115150779485703, -0.237544357776642, -0.145374029874802, 0.088153064250946, 0.261055171489716, -0.287591159343719, 0.293692171573639, 0.128612160682678, -0.151783972978592, -0.197491034865379, 0.124656379222870, 0.376550137996674, -0.267121046781540, 0.112588167190552, 0.118052303791046, -0.217331111431122, 0.202473104000092, -0.124024331569672, 0.264965772628784, -0.058912277221680, -0.355446666479111, -0.280957639217377, -0.201180964708328, 0.350659668445587, -0.375023841857910, -0.298526436090469, -0.084342628717422, 0.067891925573349, -0.355695456266403, 0.250284135341644, 0.334972441196442, -0.265891790390015, -0.264797985553741, -0.138943493366241};
#endif

#endif
