//Numpy array shape [3, 3, 128, 128]
//Min -0.051029991359
//Max 0.051030442119
//Number of zeros 0

#ifndef W38_H_
#define W38_H_

#ifndef __SYNTHESIS__
model_default_t w38[147456];
#else
model_default_t w38[147456] = {-0.017262654379010, -0.011580278165638, 0.031134547665715, -0.010960289277136, -0.009623541496694, -0.037606149911880, 0.034958202391863, 0.035629432648420, 0.008836575783789, 0.018926637247205, -0.012621788308024, 0.034189552068710, 0.036926988512278, 0.032790683209896, 0.012029260396957, -0.048940513283014, 0.003634226974100, 0.016346538439393, -0.042358174920082, -0.013492117635906, -0.002224905183539, 0.048906743526459, -0.000649514957331, 0.044612705707550, -0.048782814294100, -0.041579883545637, 0.012228158302605, 0.034956745803356, -0.034782368689775, 0.050278797745705, 0.040277123451233, 0.037558965384960, -0.010766034945846, -0.026697641238570, -0.038695029914379, -0.027277536690235, 0.011926247738302, 0.003664192976430, 0.034492447972298, -0.042402449995279, 0.040960319340229, 0.029262496158481, 0.036711491644382, -0.007379300426692, -0.040572952479124, -0.039794974029064, -0.042428757995367, -0.046149194240570, 0.033236898481846, 0.032110080122948, 0.020091094076633, -0.040054362267256, 0.007342710159719, -0.046885643154383, 0.009122096002102, 0.026618929579854, -0.003743699518964, -0.027545034885406, 0.044460952281952, -0.041118614375591, -0.020408764481544, -0.020823845639825, 0.019595237448812, -0.021910887211561, -0.026690892875195, -0.018449390307069, 0.026659723371267, 0.033235922455788, -0.008238511160016, -0.014807656407356, -0.041913777589798, -0.033645737916231, 0.046989459544420, 0.012723925523460, -0.007390511687845, -0.035339362919331, -0.013013421557844, -0.045171789824963, 0.010598156601191, -0.043911688029766, 0.017211580649018, -0.050597067922354, 0.027649223804474, -0.024298548698425, 0.019640171900392, 0.033083174377680, -0.017894484102726, 0.017130298539996, -0.016843281686306, 0.001006029546261, -0.002506668446586, -0.011822907254100, 0.005558982957155, -0.025580659508705, -0.014546629972756, -0.049044389277697, 0.024736393243074, 0.011103128083050, 0.007788375020027, -0.019971150904894, 0.029091762378812, 0.008005856536329, -0.002701712772250, 0.000054347172409, 0.041898220777512, 0.040532227605581, -0.019281968474388, 0.032113928347826, -0.026173334568739, -0.046081665903330, -0.012860210612416, -0.015104339458048, 0.035043269395828, 0.020642846822739, -0.035170149058104, -0.047283332794905, 0.001200645812787, 0.005843530874699, -0.048332944512367, -0.023785136640072, -0.036189407110214, 0.008003287948668, -0.024930929765105, -0.013294626958668, 0.026686515659094, 0.028107987716794, -0.022238507866859, -0.048786293715239, -0.026083370670676, 0.041501905769110, 0.032864242792130, 0.034324519336224, -0.043066035956144, 0.026330996304750, 0.024697080254555, -0.013623062521219, 0.012328422628343, 0.019892882555723, 0.038261331617832, 0.021374404430389, -0.040683191269636, -0.023995347321033, -0.033150251954794, -0.004830337595195, 0.034336220473051, 0.007759626489133, 0.036760639399290, -0.032723862677813, -0.027058644220233, -0.002905574161559, -0.033296506851912, 0.016646424308419, 0.012115732766688, 0.033536039292812, -0.004618656821549, -0.010563123039901, -0.016485050320625, 0.011118561029434, -0.013184111565351, -0.014608732424676, 0.032192192971706, -0.033790510147810, -0.029327983036637, 0.038022607564926, -0.050760637968779, 0.018779322504997, -0.028215061873198, -0.009277764707804, -0.039979513734579, 0.035693291574717, -0.045341990888119, -0.030081603676081, 0.037131510674953, 0.049263089895248, -0.010751538909972, -0.007832162082195, 0.015633607283235, 0.021206529811025, -0.009744064882398, 0.000343635270838, -0.037356577813625, 0.029277591034770, 0.029796957969666, -0.046149678528309, -0.044101227074862, 0.010943396948278, -0.038433175534010, -0.007204552181065, 0.032534729689360, -0.048501331359148, -0.022741435095668, 0.040898650884628, 0.001535795396194, 0.050334237515926, -0.007567303720862, -0.022780472412705, -0.017963035032153, -0.044232513755560, 0.001174928038381, -0.035672809928656, 0.010879517532885, 0.013932162895799, 0.019064016640186, -0.050752989947796, -0.026900604367256, 0.049763757735491, 0.020677512511611, -0.046871852129698, -0.001182419597171, -0.014207283966243, -0.045164968818426, -0.020468886941671, -0.002703924430534, 0.018418321385980, -0.023117199540138, 0.034133024513721, 0.000261906010564, 0.040104996412992, -0.036347400397062, -0.022849958389997, 0.026592053472996, -0.043548233807087, -0.000973390007857, 0.049373921006918, 0.047978736460209, 0.025491645559669, 0.004840662702918, 0.009450044482946, -0.008297114633024, 0.044331170618534, -0.049973260611296, 0.012335780076683, 0.033737707883120, 0.020706651732326, -0.003139323554933, 0.026448760181665, -0.038963489234447, 0.019099203869700, -0.002645310247317, -0.045054513961077, -0.025614637881517, 0.047275844961405, -0.018275357782841, -0.047922242432833, -0.046265192329884, -0.040127933025360, 0.033506073057652, 0.036089740693569, -0.039290256798267, -0.029644427821040, 0.033304590731859, 0.036768645048141, 0.026830315589905, -0.025037188082933, -0.009244879707694, -0.022510552778840, 0.007623427081853, 0.024067046120763, -0.048082202672958, -0.026792993769050, -0.011112600564957, 0.039450224488974, 0.039948880672455, -0.015285365283489, 0.016476018354297, 0.014866453595459, -0.040016178041697, 0.013378497213125, 0.009788087569177, -0.043065063655376, 0.046992648392916, 0.023347679525614, 0.019566358998418, -0.039618339389563, 0.000828556076158, -0.044022228568792, 0.017743643373251, -0.024206297472119, 0.036410793662071, -0.032838560640812, -0.039932597428560, 0.024396756663918, -0.006878595799208, 0.035221904516220, -0.009445349685848, 0.010667717084289, 0.021288914605975, 0.035007718950510, -0.009500329382718, -0.016396597027779, 0.040060665458441, -0.006310415454209, -0.023704987019300, -0.025181826204062, 0.004032879602164, 0.004280737135559, 0.036406565457582, -0.024307036772370, -0.047689620405436, -0.033338658511639, -0.045623656362295, 0.020780554041266, -0.030169257894158, 0.003248006803915, 0.035023201256990, 0.009316299110651, 0.030838578939438, -0.036073774099350, 0.021566303446889, 0.041444201022387, -0.026719227433205, -0.038538742810488, 0.026007974520326, 0.026291029527783, 0.030701288953424, 0.050863493233919, 0.047803349792957, 0.029051154851913, -0.027721742168069, 0.023072458803654, 0.016321465373039, -0.045495979487896, 0.036212962120771, 0.040002305060625, -0.007355757057667, -0.015654174610972, -0.015515227802098, 0.030211806297302, 0.007614293601364, -0.013949369080365, 0.021581321954727, -0.019226673990488, 0.011827383190393, -0.038754582405090, -0.031638000160456, 0.013603943400085, -0.016772931441665, 0.009549628011882, -0.008445560000837, 0.026469985023141, -0.003112328704447, -0.023824393749237, -0.020107448101044, -0.050263367593288, -0.003398578613997, -0.007921874523163, 0.039557658135891, 0.010826532728970, 0.009814293123782, -0.032820053398609, -0.022065462544560, -0.048151191323996, 0.037468116730452, -0.019732827320695, 0.034318637102842, -0.039923645555973, -0.001723482273519, -0.006560983601958, -0.002010681433603, -0.049660634249449, -0.011453622020781, 0.028660180047154, 0.037815727293491, 0.041757632046938, -0.012266699224710, 0.032029561698437, 0.009335854090750, 0.006566918920726, -0.002419026335701, -0.019993016496301, 0.042429853230715, -0.014545072801411, 0.016087656840682, -0.037869796156883, 0.048866588622332, -0.040542587637901, 0.050496533513069, 0.033575166016817, 0.006516514811665, 0.021247524768114, 0.011069140397012, -0.014368500560522, 0.014243240468204, -0.024119956418872, -0.035154793411493, -0.046485081315041, 0.038411661982536, 0.028069948777556, -0.025101969018579, 0.038866918534040, -0.025011504068971, -0.037515968084335, -0.019868819043040, 0.019672023132443, -0.010423054918647, -0.022459441795945, -0.026101695373654, -0.011393600143492, 0.015354475937784, 0.028982218354940, 0.018194915726781, -0.027986455708742, -0.000071843562182, -0.004604820627719, -0.039772585034370, 0.040655169636011, 0.032657377421856, 0.028153786435723, -0.022617846727371, -0.006055029109120, -0.002785218181089, 0.015785850584507, -0.022728413343430, 0.007759674917907, 0.045659881085157, 0.022842708975077, -0.008735845796764, -0.008349320851266, -0.029572922736406, 0.047276608645916, -0.012867009267211, 0.014997190795839, -0.045504357665777, -0.050537928938866, 0.028358731418848, -0.039269696921110, -0.050082791596651, -0.009133281186223, 0.012841243296862, -0.001778522040695, -0.006429468281567, -0.023816306143999, 0.013793555088341, 0.049383215606213, 0.013659668155015, 0.002591376425698, -0.027824547141790, -0.026109637692571, 0.005460527725518, -0.040567774325609, 0.050054907798767, 0.029649963602424, 0.044433251023293, -0.032893817871809, 0.016053199768066, 0.037070780992508, -0.050784353166819, -0.010799720883369, -0.029866177588701, -0.010741638951004, 0.030941955745220, -0.044107988476753, -0.026765340939164, -0.027096888050437, -0.001980741508305, -0.016905227676034, 0.004108930472285, 0.007302225567400, 0.003180575557053, -0.010766704566777, -0.005687202792615, 0.050358738750219, 0.012316619046032, 0.026158705353737, -0.048070736229420, -0.001981411594898, -0.027849683538079, 0.019714038819075, 0.030953424051404, 0.028922131285071, -0.000404781429097, 0.019472759217024, 0.010326744057238, 0.026140028610826, 0.006216350477189, -0.021506192162633, -0.030247220769525, -0.040991280227900, -0.035981498658657, -0.047073964029551, 0.041043292731047, 0.035693462938070, 0.022783305495977, 0.006524270866066, -0.034284356981516, 0.032623972743750, 0.012059167027473, -0.023652635514736, 0.038381613790989, -0.027515374124050, 0.022998496890068, 0.017642961815000, -0.043642025440931, -0.033696971833706, -0.008415765129030, 0.041736453771591, 0.042123831808567, -0.032528121024370, 0.005306553095579, -0.007655106019229, -0.005896284710616, -0.024207988753915, -0.045783620327711, -0.009834552183747, -0.004424852319062, 0.031811177730560, -0.029690260067582, -0.028763910755515, 0.008337561972439, -0.022094015032053, 0.015304798260331, -0.016995811834931, 0.038685079663992, -0.009891658090055, -0.015338822267950, 0.018609922379255, -0.025157105177641, 0.008519752882421, -0.003010846674442, -0.019340619444847, 0.020692219957709, 0.033412117511034, 0.043835699558258, 0.010874290019274, -0.007222551386803, -0.011965585872531, 0.039939556270838, -0.011145008727908, -0.036195024847984, 0.008918256498873, 0.022721229121089, 0.011156916618347, -0.047860257327557, -0.006810449529439, -0.034491315484047, -0.039055291563272, 0.026381552219391, 0.019264411181211, -0.014723164960742, 0.002490381943062, 0.043313346803188, -0.035405129194260, 0.013999437913299, 0.043681900948286, 0.002492377767339, 0.040604867041111, 0.038873210549355, 0.037573061883450, -0.032370496541262, -0.018785303458571, -0.006743323523551, -0.047261890023947, -0.050970848649740, -0.036708150058985, 0.049947343766689, -0.003778792684898, 0.011353442445397, 0.014526757411659, 0.022771889343858, -0.043271917849779, -0.026286769658327, 0.028988273814321, -0.005761906038970, 0.046021882444620, 0.045913141220808, 0.033220961689949, -0.034172598272562, 0.018340755254030, -0.026684958487749, -0.043433349579573, 0.023536466062069, 0.011065808124840, -0.034397110342979, 0.012513380497694, -0.035327594727278, 0.046926598995924, -0.039667069911957, -0.004560992121696, 0.011287083849311, -0.008973162621260, -0.023721707984805, -0.026120886206627, 0.032825741916895, -0.018818393349648, 0.030440820381045, 0.041529685258865, -0.048927757889032, -0.027658615261316, 0.004542896524072, 0.022067975252867, 0.047307580709457, -0.046507250517607, 0.029779085889459, -0.026204088702798, -0.009356843307614, -0.021414792165160, 0.024924552068114, -0.022919759154320, -0.024705907329917, 0.010988136753440, -0.020380528643727, 0.012376469559968, -0.006795321591198, 0.045441087335348, 0.044003494083881, 0.002630193019286, -0.039084587246180, -0.019927395507693, 0.022901955991983, 0.030428182333708, -0.008166485466063, 0.037268329411745, 0.047301474958658, -0.032737832516432, 0.021206879988313, -0.026232702657580, 0.013734597712755, -0.036683607846498, -0.012177597731352, -0.042361970990896, -0.010420027188957, -0.027033738791943, -0.031640078872442, -0.047410059720278, 0.000669297529384, -0.049050178378820, -0.027566729113460, -0.043395929038525, 0.026092614978552, -0.004079880658537, 0.039301935583353, -0.049145847558975, 0.007898804731667, -0.023232664912939, 0.049739144742489, 0.002299120649695, 0.040812008082867, -0.017653523012996, 0.050939057022333, 0.029050610959530, 0.028918763622642, 0.045658305287361, -0.040917489677668, -0.046331223100424, -0.015335005708039, 0.024619894102216, 0.013951167464256, 0.048745807260275, -0.029533667489886, 0.011612928472459, -0.041904669255018, 0.002113135298714, -0.005198078230023, 0.040368955582380, 0.008777023293078, 0.047749329358339, -0.038495171815157, -0.042925164103508, -0.019594524055719, 0.044393215328455, -0.033648826181889, -0.048373766243458, 0.026296166703105, 0.044949907809496, -0.031375948339701, -0.018731867894530, 0.045165300369263, 0.032757464796305, 0.019204016774893, 0.048410013318062, -0.021531170234084, -0.030928436666727, 0.049078781157732, -0.013192269019783, -0.050975419580936, 0.021160440519452, -0.022089635953307, 0.020584635436535, 0.035425078123808, -0.035243965685368, 0.047275487333536, 0.040251608937979, -0.012477698735893, 0.021645670756698, -0.012282274663448, -0.007150000426918, -0.016037635505199, 0.002673120470718, 0.050899133086205, -0.050378210842609, -0.036017384380102, -0.025488555431366, -0.031883962452412, 0.039770103991032, 0.032107435166836, -0.008207480423152, 0.015945846214890, 0.050127945840359, -0.021179737523198, -0.044694762676954, 0.020968871191144, -0.021827196702361, 0.014974365942180, -0.031954929232597, 0.040337793529034, 0.040848966687918, -0.027030175551772, -0.049186013638973, -0.050594024360180, 0.049787424504757, -0.030145276337862, -0.047407358884811, 0.029193524271250, 0.011874820105731, 0.022575419396162, -0.002309408504516, -0.023630853742361, 0.036993376910686, -0.023201243951917, 0.047829017043114, -0.042863514274359, -0.035453408956528, 0.004013238474727, 0.024580255150795, 0.025185706093907, 0.044660735875368, 0.032442171126604, -0.036921240389347, 0.024750743061304, 0.037708960473537, -0.036998789757490, 0.017969723790884, 0.002372520742938, -0.004895814228803, -0.025250036269426, -0.047064222395420, 0.020198687911034, 0.037860371172428, 0.022009510546923, -0.033792894333601, 0.014858827926219, -0.004922846332192, 0.016469679772854, -0.048111580312252, -0.046189002692699, 0.005235908553004, 0.034836113452911, -0.027492815628648, -0.044454991817474, -0.019963063299656, 0.019064500927925, 0.016800098121166, 0.005202077329159, 0.026764759793878, 0.041112400591373, 0.049932263791561, -0.041066639125347, 0.027550181373954, -0.012929879128933, -0.005951030179858, 0.028191251680255, -0.041380956768990, -0.049795009195805, 0.008522840216756, 0.018361724913120, -0.003045165445656, 0.019321111962199, -0.009954248555005, -0.013681468553841, 0.014114849269390, 0.018497280776501, 0.001207541557960, 0.026093039661646, 0.019330963492393, 0.025441179051995, -0.038856837898493, -0.001255115843378, 0.045118562877178, -0.028107257559896, 0.043358720839024, -0.000325844739564, 0.004534068051726, -0.026334475725889, 0.049597363919020, 0.010253266431391, -0.020546909421682, -0.008818651549518, -0.002724231919274, 0.017215520143509, 0.024280540645123, -0.028980625793338, -0.002613351913169, 0.007161502260715, 0.006922595668584, -0.013014054857194, 0.041278500109911, 0.019467495381832, -0.050244551151991, 0.003790335496888, 0.033604998141527, 0.045185972005129, 0.006379801779985, 0.047223575413227, 0.028953310102224, -0.015060027129948, -0.015133989043534, 0.010206596925855, 0.003334442386404, 0.010760136879981, 0.017536435276270, -0.036677844822407, -0.006614809390157, 0.016444182023406, -0.027050655335188, -0.032650362700224, 0.010925717651844, -0.031413756310940, -0.045055266469717, -0.001176190329716, 0.007344448938966, -0.028979675844312, -0.010220909491181, 0.043247912079096, 0.005363692529500, 0.040325041860342, -0.031634178012609, -0.046554576605558, -0.026069445535541, -0.016723386943340, -0.021254295483232, 0.035389382392168, -0.010575234889984, -0.008059797808528, -0.001012642402202, 0.050785265862942, 0.041750520467758, 0.050881009548903, -0.039091575890779, -0.037412211298943, -0.044395964592695, 0.005411133170128, 0.016221484169364, 0.038077477365732, -0.017420036718249, -0.020767942070961, 0.048301968723536, -0.005215846467763, -0.001744400477037, 0.003776640631258, -0.040175676345825, -0.017354687675834, -0.008758342824876, -0.008971826173365, 0.012127752415836, -0.024067569524050, -0.025098405778408, 0.045683190226555, 0.026087140664458, -0.026418225839734, -0.004031758755445, -0.023537654429674, -0.044591933488846, -0.017299985513091, -0.020491225644946, -0.020628495141864, 0.032722827047110, -0.049997348338366, -0.028727198019624, -0.004710521548986, 0.017858333885670, 0.021368848159909, 0.001059218775481, 0.028793001547456, 0.015321382321417, -0.046769093722105, 0.032717674970627, -0.043270554393530, 0.046487182378769, 0.019856436178088, -0.009346619248390, 0.019817780703306, 0.042156107723713, 0.022242290899158, -0.036053121089935, 0.031651753932238, -0.017078688368201, 0.002551453653723, -0.012717677280307, 0.042510367929935, -0.034179531037807, -0.007961931638420, -0.028868066146970, -0.031809624284506, 0.035152044147253, 0.022236818447709, -0.012172794900835, 0.034458227455616, 0.020480923354626, 0.011041717603803, -0.012688124552369, 0.009770974516869, -0.036203343421221, 0.011070015840232, -0.038432482630014, 0.006650547031313, -0.006291273515671, 0.047620788216591, -0.001456642756239, 0.021967800334096, -0.047817599028349, -0.013639260083437, 0.007282137405127, -0.007106611505151, -0.037220209836960, 0.037739709019661, 0.007184315472841, 0.041649598628283, -0.041404534131289, -0.007772297132760, 0.047604873776436, -0.003522397484630, 0.040245003998280, -0.047727417200804, 0.050025917589664, 0.029147688299417, 0.022352296859026, -0.043926306068897, -0.019550208002329, -0.033954352140427, 0.002352324780077, 0.029241072013974, -0.003665604162961, 0.045694019645452, 0.019999729469419, -0.031796939671040, -0.028641063719988, 0.043568819761276, -0.032428115606308, -0.041094172745943, 0.017320878803730, -0.030631011351943, -0.014030421152711, -0.036277510225773, 0.007477412931621, 0.027381584048271, -0.038641694933176, -0.028628282248974, -0.033171240240335, 0.019885925576091, 0.044145379215479, 0.028688596561551, 0.009697354398668, 0.020998353138566, 0.001841258024797, 0.050289615988731, 0.006093261297792, -0.024152595549822, -0.038752682507038, -0.045129228383303, -0.013854905962944, -0.028992738574743, 0.016788875684142, -0.027586221694946, 0.004807282239199, 0.033185537904501, -0.039595078676939, -0.050766415894032, -0.030477993190289, -0.033525824546814, 0.032262314110994, 0.031488608568907, 0.008166850544512, -0.042525421828032, 0.009406461380422, 0.037270162254572, 0.016602970659733, 0.039731230586767, -0.000104848040792, -0.015204254537821, -0.050697449594736, -0.031836193054914, 0.013273756951094, 0.033043965697289, -0.020240435376763, 0.017207439988852, 0.032589215785265, 0.040684748440981, 0.011570496484637, 0.025465149432421, -0.033334739506245, 0.027929531410336, -0.046368923038244, 0.004247698932886, -0.000937488686759, 0.003245888277888, -0.022261418402195, -0.032157063484192, -0.047272872179747, -0.034255072474480, -0.026494558900595, -0.021430686116219, 0.019626939669251, -0.012198329903185, 0.021600557491183, 0.040539756417274, 0.006927093490958, -0.046199902892113, -0.039456762373447, 0.042181797325611, 0.008312194608152, 0.024443417787552, -0.046059995889664, 0.010372468270361, 0.024949373677373, 0.022358119487762, -0.014315817505121, -0.022917231544852, 0.030966889113188, 0.049569744616747, 0.023402377963066, -0.038580365478992, -0.007732542231679, 0.034830201417208, -0.032972209155560, 0.022751165553927, -0.025815239176154, -0.030199879780412, 0.010908507741988, 0.045921772718430, -0.023403875529766, -0.049846377223730, 0.011252742260695, -0.050680767744780, -0.013944409787655, -0.049165230244398, 0.029474508017302, -0.029386268928647, 0.012887890450656, 0.044743828475475, -0.011629732325673, -0.031845472753048, -0.041379887610674, 0.047569546848536, 0.011993910185993, 0.044631112366915, -0.015290302224457, -0.029702080413699, 0.047257002443075, -0.038897287100554, 0.010735658928752, -0.004135016817600, -0.040359899401665, -0.027070511132479, 0.018961800262332, -0.028310282155871, 0.033768083900213, -0.048161502927542, -0.045053698122501, 0.033786039799452, 0.026714874431491, -0.046379614621401, -0.042295366525650, 0.023827482014894, 0.036556843668222, 0.041460584849119, 0.035185839980841, -0.008612648583949, -0.008948341943324, -0.050408743321896, 0.015637917444110, 0.046668075025082, 0.015114821493626, -0.008537689223886, 0.029512785375118, -0.005218627862632, 0.043336626142263, -0.008807548321784, 0.001292655477300, -0.021492011845112, -0.049962569028139, -0.008213013410568, 0.025123383849859, -0.014035782776773, 0.022006239742041, -0.031443841755390, -0.037451263517141, 0.022633489221334, 0.046288494020700, -0.021995281800628, -0.003913145512342, 0.038390178233385, 0.017412303015590, -0.030583694577217, -0.024420168250799, -0.012083048932254, 0.009374611079693, 0.011007595807314, -0.001362931448966, -0.036234658211470, 0.050564836710691, 0.015931243076921, 0.047247782349586, 0.018158076331019, -0.010138350538909, -0.045101877301931, 0.015245527960360, 0.044633921235800, -0.009492409415543, -0.032434642314911, -0.024330569431186, -0.050828810781240, -0.036385256797075, 0.012920611537993, 0.038446914404631, -0.003727535950020, -0.031226141378284, 0.017261885106564, 0.039538983255625, -0.040701236575842, -0.043855808675289, 0.049893390387297, 0.037257920950651, 0.011634353548288, 0.005798693280667, 0.041281688958406, 0.029313351958990, 0.011957211419940, -0.018924990668893, -0.048674952238798, -0.018360557034612, -0.015728780999780, 0.006551805417985, -0.009582267142832, 0.020285516977310, -0.018198721110821, -0.013958636671305, 0.031073400750756, 0.046894036233425, -0.023470299318433, 0.027992121875286, 0.023093258962035, 0.012918995693326, -0.021410085260868, 0.048111937940121, -0.021457318216562, -0.047243483364582, -0.042717546224594, 0.010121032595634, 0.012216161005199, -0.030795861035585, -0.037029966711998, -0.014783045276999, -0.019416684284806, -0.012309757061303, 0.049756594002247, 0.035034727305174, 0.041228063404560, 0.042840957641602, -0.045297726988792, -0.033198561519384, -0.010993331670761, 0.047462861984968, 0.016972878947854, 0.015165705233812, 0.030345939099789, -0.007202106062323, -0.035525690764189, -0.040343739092350, -0.035493806004524, 0.027217619121075, 0.027142830193043, -0.045653607696295, 0.008267468772829, -0.044110808521509, -0.039175398647785, 0.014402208849788, 0.007925154641271, 0.033938445150852, 0.013776114210486, -0.031713198870420, -0.024053461849689, -0.035095121711493, 0.044257417321205, -0.020811622962356, -0.026212505996227, -0.011954899877310, 0.021070765331388, -0.034634131938219, 0.042219687253237, 0.006992994341999, 0.038056984543800, 0.015902541577816, -0.036471217870712, -0.022470375522971, 0.002197809983045, -0.017396021634340, 0.038281712681055, -0.045771505683661, -0.044531580060720, -0.041992057114840, 0.043099250644445, -0.003337506903335, 0.033925078809261, 0.037036947906017, 0.025655006989837, 0.009880737401545, -0.038949698209763, -0.003031072439626, -0.021843235939741, -0.021660145372152, -0.047173958271742, 0.032462649047375, -0.032966222614050, 0.006798129063100, -0.011792748235166, -0.014894193038344, 0.024896090850234, -0.032559644430876, -0.021851932629943, -0.033531900495291, -0.039516948163509, 0.029966112226248, -0.050560731440783, -0.029606960713863, -0.035321820527315, 0.005506813991815, 0.018983084708452, -0.037474147975445, 0.017975047230721, 0.030333966016769, 0.025812188163400, 0.047649987041950, -0.021003214642406, 0.026733029633760, 0.023202080279589, 0.043396342545748, -0.005837874952704, 0.001514817588031, -0.047099877148867, -0.002089506480843, 0.049693770706654, -0.017359802499413, -0.019803188741207, -0.017220115289092, -0.046932827681303, 0.036380842328072, -0.033509358763695, 0.002885519759730, -0.016568914055824, -0.049654711037874, 0.046364348381758, -0.046646710485220, -0.042633105069399, 0.004250662866980, 0.038294591009617, 0.009311581030488, 0.000702387653291, 0.030691996216774, 0.000216011016164, 0.032268799841404, -0.023564347997308, -0.039953086525202, 0.029898451641202, 0.005213791038841, -0.020833767950535, 0.013627378270030, 0.024267427623272, -0.035512194037437, -0.028679637238383, 0.033653639256954, 0.007766495924443, 0.015052341856062, 0.002341329352930, 0.010338938795030, 0.032892461866140, 0.045776650309563, -0.035384323447943, -0.003359214402735, -0.029267642647028, 0.010769780725241, -0.036518998444080, -0.050150331109762, 0.009213651530445, -0.049479719251394, -0.039743799716234, -0.044647760689259, 0.047735560685396, -0.030667211860418, 0.035642422735691, -0.009661103598773, 0.010219982825220, 0.006733873859048, 0.001465955050662, 0.037164133042097, -0.048931125551462, -0.005940533708781, -0.020316561684012, -0.015056758187711, -0.049364458769560, -0.009980748407543, 0.014367223717272, -0.044548846781254, 0.028455749154091, -0.012139302678406, 0.026099704205990, -0.019143691286445, 0.039435613900423, -0.045692656189203, -0.039542067795992, -0.038880102336407, -0.025691771879792, 0.011744567193091, -0.044685740023851, -0.000423435820267, 0.014496627263725, -0.000069572270149, 0.048411205410957, -0.048578932881355, 0.027243876829743, 0.042501766234636, -0.030784174799919, -0.010252368636429, 0.025954550132155, -0.011308143846691, 0.041458662599325, -0.021736016497016, -0.027929591014981, -0.035991083830595, 0.024310804903507, -0.002834348706529, 0.009746056981385, 0.008691399358213, 0.050235938280821, -0.022037673741579, 0.048135247081518, 0.044109698385000, -0.005852954927832, 0.045348402112722, -0.009197089821100, 0.013927285559475, 0.030523704364896, -0.026522103697062, -0.033330898731947, -0.034176260232925, -0.045469071716070, -0.038051716983318, -0.003842820879072, 0.034439574927092, -0.005020653363317, -0.030420314520597, -0.042926698923111, 0.044928736984730, 0.027633346617222, -0.036772843450308, 0.046121165156364, 0.008934055455029, -0.044366050511599, -0.027798207476735, 0.034250192344189, 0.043950218707323, -0.001532146357931, 0.019487742334604, -0.004560969769955, -0.028539277613163, -0.020814541727304, 0.009621486067772, 0.020118424668908, -0.006952729541808, 0.029162328690290, 0.042063720524311, -0.048593997955322, -0.006858530454338, 0.030208976939321, 0.013507461175323, 0.028911555185914, -0.037853587418795, -0.020282426849008, -0.014948648400605, 0.035836454480886, -0.024878261610866, 0.032861780375242, 0.008604744449258, 0.040457654744387, -0.026635063812137, -0.040235605090857, 0.041927456855774, 0.015866253525019, 0.038465667515993, 0.021768804639578, 0.047467384487391, -0.027303583920002, 0.050831303000450, -0.021670434623957, -0.045504249632359, -0.003399647073820, 0.006674395408481, 0.043658018112183, 0.030863378196955, 0.018148634582758, 0.034936077892780, -0.007899910211563, -0.038480639457703, 0.043646506965160, 0.007494607474655, -0.009755447506905, 0.050192151218653, 0.007047375198454, 0.003403199370950, -0.033068668097258, 0.015858240425587, 0.017117980867624, -0.050704617053270, 0.027105811983347, 0.037908285856247, -0.010515064001083, 0.002819607732818, 0.045350540429354, -0.006525730248541, 0.045327298343182, -0.035353142768145, -0.003892227075994, -0.041493780910969, 0.007462626788765, 0.002474769717082, 0.035152781754732, 0.022903706878424, 0.030506098642945, -0.029653206467628, -0.037506576627493, 0.018274225294590, -0.002650601323694, 0.030199505388737, 0.022160375490785, 0.003178739920259, 0.012187714688480, -0.020729634910822, 0.015726372599602, 0.014158570207655, 0.036667801439762, -0.000569107534830, -0.013732933439314, 0.034804418683052, -0.045849271118641, -0.015771474689245, -0.021786324679852, 0.018246976658702, 0.033514391630888, -0.015773164108396, -0.030315259471536, 0.039925705641508, -0.009967138990760, 0.015084266662598, 0.019108682870865, 0.023275833576918, 0.008123584091663, 0.050190616399050, -0.025484981015325, 0.035905763506889, -0.003887219121680, 0.036476306617260, -0.034100785851479, -0.019549664109945, 0.027888752520084, 0.050651267170906, 0.007800058927387, 0.023082192987204, -0.030710201710463, -0.023932464420795, -0.000139312105603, 0.041189890354872, -0.023180874064565, 0.004427432548255, 0.028681984171271, 0.036259334534407, -0.031646803021431, 0.039381816983223, -0.045861881226301, -0.013491812162101, -0.001909661106765, 0.033811192959547, -0.000770522688981, -0.034652993083000, -0.036630231887102, 0.037011936306953, -0.044409949332476, -0.013467855751514, -0.033760763704777, -0.035908877849579, 0.019634163007140, -0.030444940552115, 0.043621268123388, -0.016771970316768, -0.009850264526904, 0.027353575453162, -0.041080564260483, 0.030808620154858, 0.024301005527377, 0.023271596059203, -0.022920636460185, 0.019848847761750, -0.025690130889416, 0.028381407260895, 0.047704283148050, -0.037702158093452, -0.001624167198315, 0.031533565372229, 0.038854729384184, -0.022276606410742, -0.040369834750891, 0.017825409770012, 0.013649428263307, -0.028663985431194, 0.048562549054623, 0.025621213018894, -0.035219617187977, -0.005817917641252, 0.013397032395005, 0.017913663759828, 0.035768788307905, 0.026414334774017, -0.013997598551214, 0.000075809017289, -0.009459833614528, 0.019831459969282, 0.044198013842106, -0.032152004539967, -0.015736987814307, -0.004075125791132, -0.012629971839488, 0.016839416697621, 0.002001950051636, -0.000142059987411, 0.018968295305967, 0.023855295032263, 0.033934775739908, -0.038966141641140, 0.005181613378227, 0.032942622900009, 0.038262546062469, -0.000187772529898, 0.007932843640447, -0.048615228384733, 0.044744096696377, 0.011592434719205, -0.040997300297022, 0.010242640040815, -0.031025696545839, 0.032650176435709, 0.015355875715613, -0.018982000648975, -0.026440324261785, 0.035626247525215, 0.039417166262865, -0.020667130127549, 0.030805433169007, 0.035964615643024, -0.017472254112363, -0.045117966830730, 0.042401697486639, -0.041497990489006, 0.047709271311760, -0.045856837183237, 0.020849490538239, 0.049358259886503, 0.031833145767450, 0.025982936844230, -0.001322800293565, -0.008909137919545, -0.021422708407044, -0.015421967022121, 0.035390403121710, -0.037555649876595, 0.029447594657540, -0.008137930184603, -0.027471365407109, -0.022601200267673, 0.048308357596397, -0.005375600419939, -0.010691052302718, -0.023734537884593, -0.010222707875073, 0.033812578767538, 0.025333385914564, -0.008554019965231, -0.023226549848914, 0.027144705876708, 0.009994219988585, -0.028162041679025, -0.047529187053442, -0.021680101752281, 0.021817320957780, -0.027423622086644, -0.031460817903280, -0.044556822627783, -0.025808732956648, 0.040038593113422, 0.018570750951767, -0.047572344541550, 0.044269494712353, -0.012372180819511, 0.008759669028223, -0.010119636543095, -0.026504894718528, -0.005225173663348, 0.011174256913364, 0.033801358193159, 0.038643721491098, 0.024412104859948, 0.012468893080950, -0.017349261790514, -0.001109004719183, -0.050045520067215, 0.029103677719831, -0.005560684483498, -0.023027576506138, -0.021194366738200, -0.005296797491610, 0.033649254590273, 0.020519318059087, 0.030413914471865, 0.019011300057173, -0.050971992313862, 0.030545992776752, -0.001067194389179, -0.008475440554321, 0.022789143025875, -0.007770036812872, -0.044072818011045, 0.032575596123934, -0.026169395074248, 0.027314726263285, -0.008473932743073, -0.000341412378475, 0.009060402400792, -0.029859732836485, 0.038389142602682, -0.045396011322737, -0.023011768236756, 0.038453362882137, -0.015066290274262, 0.050701413303614, 0.003375046420842, 0.024511616677046, -0.030926940962672, 0.046939760446548, -0.028200712054968, 0.032274279743433, -0.021133979782462, -0.000788618577644, 0.018744323402643, 0.013072162866592, -0.005893570370972, -0.032063953578472, 0.005164418369532, -0.048766653984785, -0.040677718818188, 0.014439495280385, 0.036128617823124, -0.043300338089466, -0.038840018212795, -0.037849362939596, -0.020874019712210, -0.037744019180536, -0.038851015269756, 0.012077463790774, 0.006159888580441, 0.028530836105347, 0.034403041005135, -0.035384200513363, 0.027841294184327, 0.025119347497821, -0.008329024538398, -0.015883222222328, 0.022381942719221, -0.011276833713055, -0.033422257751226, 0.021175520494580, 0.009078546427190, -0.041022546589375, -0.033233746886253, -0.021962350234389, -0.007759760133922, -0.023926565423608, -0.038689911365509, -0.019091146066785, 0.012459189631045, 0.030290862545371, 0.047334793955088, 0.037866715341806, 0.039035551249981, -0.015603621490300, -0.027486773207784, -0.049978002905846, 0.007177203893661, -0.027889765799046, 0.003135093720630, 0.021829996258020, -0.025302849709988, -0.034958627074957, -0.049434784799814, 0.021751692518592, -0.012951732613146, 0.049078676849604, -0.043239593505859, 0.015371536836028, -0.034119881689548, -0.035309303551912, 0.046028837561607, 0.032035499811172, 0.009614918380976, -0.011507093906403, -0.014058585278690, 0.013167296536267, 0.017016896978021, 0.049477260559797, -0.008625443093479, 0.048382513225079, -0.024584434926510, 0.011344737373292, -0.016110975295305, 0.033288251608610, 0.029646150767803, -0.041869778186083, -0.018941873684525, -0.047993417829275, -0.021088911220431, 0.026347899809480, 0.011435053311288, 0.010907595977187, 0.042778328061104, 0.037175506353378, -0.025279439985752, 0.002243060618639, -0.029215132817626, -0.035305596888065, -0.021017102524638, -0.048515707254410, 0.011513743549585, 0.008759501390159, 0.005212149117142, -0.036401845514774, -0.023257255554199, -0.007565833162516, 0.019941197708249, 0.026125254109502, 0.022224001586437, -0.026253839954734, -0.046638876199722, 0.005622180644423, -0.015696261078119, -0.022796912118793, -0.029690297320485, 0.016803381964564, 0.043112564831972, -0.021164694800973, -0.013029376976192, -0.014219760894775, 0.035038243979216, 0.005270483903587, 0.043173301964998, -0.001807426917367, -0.009368445724249, 0.032194115221500, -0.004987942986190, 0.015691788867116, -0.011350415647030, 0.026024706661701, 0.040403570979834, -0.019009279087186, -0.036694608628750, -0.030212525278330, 0.021949779242277, -0.013847548514605, 0.026995338499546, -0.031943209469318, -0.015766477212310, 0.041529782116413, -0.048458710312843, -0.003109286772087, -0.042394220829010, -0.003831159090623, -0.036950886249542, -0.048108533024788, 0.042931221425533, -0.004082263447344, 0.023929994553328, 0.041560675948858, -0.040418174117804, 0.014740192331374, 0.035425748676062, -0.002337051322684, -0.048334691673517, 0.036643940955400, -0.000160278723342, 0.002433785935864, -0.031144652515650, -0.021547246724367, -0.025955233722925, -0.007298613432795, -0.043414112180471, -0.021467642858624, -0.023957101628184, 0.043630987405777, -0.046530369669199, 0.035682819783688, 0.013924195431173, 0.018728438764811, -0.049000125378370, -0.008676054887474, -0.049328964203596, 0.040780425071716, 0.050705686211586, -0.021822990849614, -0.036077495664358, 0.039197120815516, 0.026797251775861, 0.024808485060930, -0.002845135517418, -0.009716582484543, -0.022137658670545, -0.021210797131062, 0.000389273336623, 0.019206460565329, 0.018145045265555, 0.032256819307804, 0.000857192964759, 0.035215828567743, -0.011652534827590, -0.010632148012519, 0.032556377351284, -0.003601430915296, 0.015908284112811, -0.050859957933426, -0.038723580539227, -0.035943213850260, 0.046959128230810, -0.035037185996771, 0.016382500529289, -0.041781760752201, -0.047940734773874, 0.009686970151961, -0.021822916343808, -0.036605704575777, -0.005742779001594, 0.024559507146478, -0.045035224407911, 0.030712109059095, -0.039143539965153, 0.018042612820864, -0.020748447626829, -0.004574988503009, 0.004839035682380, -0.021356884390116, 0.019705370068550, 0.015409389510751, 0.031645148992538, -0.022823082283139, 0.048210706561804, 0.043980579823256, -0.025835378095508, 0.011564076878130, 0.032281503081322, -0.006625253707170, 0.031596198678017, 0.001082311500795, -0.046585638076067, -0.006957059726119, 0.050298023968935, -0.011890554800630, 0.030731419101357, -0.027067387476563, 0.032318085432053, -0.025834685191512, 0.038523603230715, 0.029546035453677, 0.030239911749959, 0.003009912092239, -0.005915460176766, 0.049260132014751, 0.007631219923496, -0.025464586913586, -0.039655368775129, 0.014866312034428, 0.030497148633003, -0.037055835127831, -0.007826960645616, 0.005146892275661, 0.013657866045833, -0.019563745707273, 0.008255076594651, 0.024044608697295, -0.001118171843700, 0.040495038032532, 0.013632099144161, 0.036915328353643, -0.031513780355453, -0.047262169420719, -0.001427067560144, -0.036339484155178, -0.014846548438072, -0.021663550287485, -0.021687908098102, 0.025203876197338, 0.042739156633615, -0.046276114881039, 0.015893688425422, 0.011696653440595, 0.026838693767786, -0.008693432435393, -0.036175012588501, 0.047169376164675, 0.050052583217621, 0.021531622856855, -0.034326419234276, 0.004009954631329, 0.012832924723625, 0.016580430790782, 0.017167882993817, -0.024192119017243, -0.033492513000965, 0.028523091226816, -0.024175908416510, 0.011161402799189, -0.045276407152414, 0.023967489600182, -0.008705909363925, 0.048519730567932, -0.015924395993352, -0.017976436764002, 0.039142198860645, 0.004233810584992, -0.024722458794713, 0.035287242382765, -0.019769126549363, -0.003268422326073, -0.048627451062202, -0.016041306778789, -0.010388251394033, -0.049130223691463, 0.001133385812864, 0.031803604215384, 0.034538477659225, 0.046998992562294, -0.040938090533018, 0.023496484383941, -0.011836039833724, 0.047948114573956, -0.010284215211868, -0.010901761241257, 0.015250793658197, -0.015095306560397, -0.012545677833259, -0.047134134918451, 0.044548194855452, 0.016589500010014, -0.013519074767828, 0.042241066694260, 0.003693232079968, -0.026777137070894, -0.040672492235899, 0.016972782090306, -0.023822300136089, -0.045640327036381, 0.043833956122398, -0.022626042366028, -0.027484521269798, -0.034774810075760, -0.001349080237560, -0.024075923487544, 0.019298309460282, 0.037018280476332, -0.013218791224062, 0.023098329082131, 0.011542444117367, 0.030827028676867, 0.022082161158323, 0.032801385968924, -0.002125649945810, -0.016157928854227, -0.036976572126150, -0.010235100053251, -0.024611612781882, 0.044218111783266, 0.023027524352074, -0.015909219160676, -0.006947658024728, 0.044466361403465, 0.001612941036001, 0.002880411222577, -0.008124154061079, 0.019056025892496, 0.038081377744675, 0.049652911722660, -0.019046673551202, 0.039416056126356, -0.038251247256994, 0.041856236755848, 0.018735527992249, 0.017050705850124, -0.002802546834573, -0.015117438510060, -0.022859783843160, -0.049527216702700, -0.017002744600177, 0.005878091789782, -0.015129439532757, 0.014313494786620, 0.007378216832876, 0.010625080205500, 0.019294019788504, -0.038890466094017, -0.008681331761181, -0.050145719200373, 0.045827444642782, -0.008491476997733, 0.015712520107627, -0.037638925015926, 0.012960698455572, -0.032522492110729, 0.046681813895702, 0.022435082122684, 0.036245334893465, 0.025136869400740, -0.040700834244490, -0.025296369567513, -0.033886883407831, -0.010371823795140, -0.029510527849197, 0.043052721768618, -0.037039354443550, -0.012432641349733, 0.037285838276148, 0.019600406289101, -0.024524398148060, 0.046185638755560, 0.000125937542180, 0.041807904839516, 0.000064802559791, -0.043318592011929, -0.019358323886991, -0.013589413836598, -0.035021107643843, 0.007528792135417, 0.007810555398464, 0.003272216534242, -0.030084231868386, -0.029054002836347, -0.004882059525698, 0.038716714829206, 0.048863537609577, 0.020828757435083, -0.045933548361063, 0.041939508169889, 0.018464440479875, -0.040178462862968, 0.038161434233189, 0.000773199833930, -0.006702693644911, 0.049295216798782, -0.016713028773665, 0.004533751402050, -0.039012312889099, -0.018296822905540, 0.012584103271365, -0.018304288387299, -0.028499135747552, -0.048084355890751, 0.013007479719818, 0.012104026973248, 0.036007825285196, 0.023162156343460, -0.011091235093772, 0.026982685551047, 0.023257864639163, 0.036290381103754, -0.046986099332571, 0.006087047047913, 0.003512720344588, 0.005467460956424, -0.033475488424301, 0.023202264681458, -0.018315827473998, -0.039453696459532, -0.016785334795713, 0.025458320975304, -0.026287389919162, 0.000400123419240, 0.006759081501514, -0.016855319961905, 0.020995069295168, 0.004476462956518, 0.044104740023613, 0.049015026539564, 0.035717129707336, -0.007063732482493, -0.042420208454132, 0.016470544040203, -0.019698921591043, -0.038434755057096, 0.000077268603491, -0.033976264297962, -0.000816663436126, 0.026234306395054, 0.009101751260459, 0.042775176465511, -0.050437819212675, -0.024861538782716, -0.039852727204561, -0.004292473196983, 0.030383978039026, 0.022676428779960, -0.016248442232609, -0.024896465241909, 0.006003526970744, 0.050597529858351, 0.037592582404613, -0.041117873042822, -0.008298525586724, 0.026345770806074, -0.038508813828230, -0.047137185931206, 0.022963199764490, 0.039110191166401, -0.044615633785725, -0.045401554554701, -0.048153281211853, 0.010094521567225, 0.026818139478564, 0.023114534094930, 0.040025901049376, 0.038078080862761, 0.004608030430973, 0.045455489307642, 0.038954209536314, 0.038377445191145, 0.038183744996786, -0.011971122585237, 0.019812060520053, 0.021357879042625, -0.021788805723190, 0.031534608453512, 0.018885418772697, -0.036292847245932, 0.043217118829489, 0.042765073478222, -0.009441104717553, 0.029662877321243, 0.014589802362025, -0.035159751772881, -0.036347292363644, 0.010746054351330, 0.030182540416718, 0.007550183217973, -0.018155269324780, 0.001638625282794, 0.020275203511119, 0.025864621624351, -0.013235706835985, -0.008124191313982, -0.005983841139823, -0.045964084565639, 0.009528784081340, 0.020262699574232, -0.020149122923613, -0.035957735031843, 0.043643400073051, 0.029565859586000, -0.045362018048763, 0.022536963224411, 0.001141268294305, 0.044253133237362, 0.019102852791548, 0.014165607281029, -0.019417719915509, -0.027840429916978, -0.031502347439528, -0.013049066066742, -0.050464283674955, 0.037641767412424, 0.038857214152813, 0.017780430614948, -0.031684260815382, 0.020239682868123, 0.031832519918680, -0.000885453773662, 0.034970715641975, 0.013565517030656, 0.020140929147601, -0.039075925946236, -0.011798682622612, -0.034132651984692, -0.002675127470866, 0.013965056277812, -0.007759067695588, -0.019459087401628, -0.010595650412142, 0.047510612756014, 0.016428185626864, -0.028763191774487, -0.037740770727396, -0.041050393134356, -0.013818471692502, 0.045759573578835, 0.049110151827335, 0.027403969317675, -0.033440258353949, -0.040398847311735, 0.034988332539797, -0.017810370773077, 0.028107875958085, -0.047114968299866, 0.044062308967113, -0.017520274966955, 0.024424606934190, 0.026781709864736, 0.050495464354753, 0.027321390807629, 0.014142299070954, 0.002316922415048, -0.005637781694531, 0.043627336621284, 0.045090705156326, 0.035369478166103, 0.037139404565096, -0.033511552959681, 0.000413013942307, 0.024502970278263, 0.026052350178361, 0.024480154737830, 0.046883087605238, 0.048254843801260, -0.048255018889904, -0.003107402706519, 0.019637573510408, -0.008415936492383, 0.049394838511944, -0.015155112370849, 0.036828659474850, 0.039564106613398, 0.018755560740829, -0.032181423157454, -0.001267980318516, 0.014057918451726, 0.034760251641273, -0.044572181999683, 0.002744506113231, -0.039254348725080, 0.044146146625280, 0.020938420668244, -0.040743410587311, -0.033317919820547, 0.045493498444557, -0.044873245060444, 0.039891455322504, -0.001535951741971, -0.049914803355932, -0.049994286149740, 0.023087769746780, -0.025278916582465, 0.011123558506370, 0.030158383771777, 0.017274059355259, 0.044680427759886, 0.023370556533337, 0.002905548084527, -0.021262042224407, 0.049154061824083, -0.031519521027803, 0.006389508489519, -0.033577930182219, -0.049696300178766, 0.037144653499126, 0.049299415200949, 0.017598005011678, 0.025175750255585, 0.042686596512794, 0.028317222371697, -0.031149176880717, -0.009922789409757, 0.046064835041761, 0.005866258870810, 0.042556665837765, 0.031162464991212, -0.013505834154785, 0.024703120812774, -0.015872783958912, -0.032528910785913, 0.001662544556893, 0.037476215511560, -0.000024515056793, -0.020537059754133, 0.034891672432423, -0.001187062705867, -0.028247434645891, -0.020555714145303, 0.046315755695105, 0.031630627810955, -0.020530771464109, -0.042478833347559, -0.008914161473513, 0.019340682774782, -0.005664389580488, -0.033935587853193, -0.023719349876046, 0.004596937913448, 0.024909501895308, 0.016710586845875, -0.015351337380707, -0.046047296375036, -0.009492655284703, -0.035731732845306, 0.033153567463160, -0.017806164920330, 0.027819659560919, -0.034775450825691, 0.013120314106345, -0.025350265204906, 0.030814183875918, -0.028030475601554, 0.017934953793883, -0.048230439424515, -0.016439072787762, 0.032781790941954, 0.049948938190937, -0.005749246571213, -0.045015610754490, 0.027920043095946, 0.012299982830882, -0.046756859868765, 0.022534715011716, 0.038110524415970, 0.013521461747587, 0.049452457576990, 0.041274055838585, 0.038625385612249, -0.017309544607997, -0.021103698760271, 0.017497904598713, -0.046499200165272, 0.041417438536882, -0.045284897089005, -0.023918503895402, 0.012181473895907, -0.003870024345815, -0.037259478121996, -0.009984360076487, 0.018722385168076, -0.017252936959267, 0.008576882071793, -0.029999347403646, 0.011269230395555, -0.003091168589890, -0.002485031494871, -0.038742601871490, -0.008240179158747, -0.004198032431304, -0.039073552936316, 0.024552864953876, 0.046475045382977, -0.047667123377323, 0.026916535571218, 0.004157670307904, -0.025117497891188, 0.045970797538757, 0.026797043159604, 0.030371662229300, 0.024120343849063, 0.013495755381882, 0.030109085142612, 0.012525072321296, -0.021984323859215, 0.037415683269501, -0.036636956036091, 0.012387610040605, -0.036302406340837, -0.008710918016732, 0.041976794600487, -0.007032649125904, 0.050903625786304, -0.021926853805780, 0.003437030361965, -0.047620158642530, 0.045435976237059, -0.026999045163393, 0.035662356764078, 0.019401166588068, -0.020729551091790, -0.018387187272310, -0.002083586296067, -0.025113800540566, 0.042298004031181, 0.001188585651107, 0.044453885406256, -0.017644608393312, -0.040503818541765, 0.003358023008332, 0.018405633047223, 0.020342940464616, -0.036227863281965, 0.045992869883776, -0.028624681755900, 0.033685334026814, -0.013566805049777, -0.049573246389627, 0.000291674834443, 0.009708859957755, 0.038326036185026, 0.044029757380486, -0.037673350423574, 0.039321452379227, 0.025934763252735, 0.031722832471132, 0.005877373274416, 0.036601934581995, -0.000097393734904, -0.006167380139232, 0.006139982957393, 0.019776748493314, -0.001973517937586, -0.041096836328506, 0.043540775775909, -0.024426916614175, -0.048255201429129, 0.029356319457293, 0.026874922215939, -0.007910760119557, -0.002924046013504, 0.043522350490093, 0.034706782549620, 0.045113515108824, 0.018187252804637, 0.010566149838269, -0.047446954995394, 0.048702578991652, -0.021444488316774, 0.011437767185271, 0.014542381279171, -0.045826982706785, 0.028544090688229, 0.027478855103254, 0.017013441771269, 0.021211452782154, -0.036308243870735, 0.041947513818741, 0.024022029712796, -0.026931017637253, -0.034684039652348, 0.022639276459813, -0.038012318313122, 0.011626049876213, -0.020470736548305, -0.007752693258226, 0.037304531782866, 0.001809288631193, -0.041560739278793, -0.030620686709881, -0.049014024436474, 0.043064162135124, -0.013595580123365, 0.020487356930971, -0.049732163548470, 0.031213944777846, -0.011476606130600, 0.041803795844316, 0.003818413708359, 0.017603635787964, 0.013654573820531, -0.015842383727431, 0.019961556419730, 0.045345067977905, -0.021225608885288, 0.036245044320822, 0.004871831275523, 0.025574194267392, -0.046582818031311, -0.009578424505889, -0.035377975553274, -0.046160988509655, 0.039880011230707, -0.005375101231039, -0.037308130413294, -0.033270560204983, -0.013691975735128, 0.034445300698280, 0.002384573454037, -0.009667876176536, 0.002071507507935, -0.013483322225511, 0.023163631558418, -0.045215386897326, 0.047590851783752, -0.013720821589231, -0.024997970089316, 0.046216797083616, 0.016661310568452, 0.022942630574107, -0.005395993590355, 0.004526468459517, -0.044418547302485, 0.005250172689557, 0.047969132661819, -0.046464335173368, -0.009341714903712, 0.009573353454471, -0.029948676005006, -0.033034153282642, 0.019006652757525, -0.003564062528312, 0.038213748484850, 0.007806176785380, -0.038601852953434, 0.026857154443860, 0.010461860336363, 0.016475981101394, -0.030207309871912, 0.029472744092345, -0.050750128924847, 0.026700159534812, -0.023571681231260, -0.029634771868587, -0.043045848608017, 0.033996000885963, 0.004661186132580, 0.020997362211347, -0.049953073263168, 0.019883714616299, 0.031449705362320, -0.013924452476203, -0.045409787446260, 0.010021653957665, 0.023487018421292, 0.049038983881474, -0.015913393348455, 0.025267263874412, -0.036033667623997, -0.048850793391466, -0.037078171968460, -0.032148867845535, -0.025187822058797, 0.005494154058397, -0.007185056339949, -0.004515048582107, -0.001571804634295, -0.018324572592974, -0.026328530162573, -0.024729279801250, 0.031157298013568, -0.023194348439574, 0.001910513848998, 0.049618072807789, -0.042180933058262, 0.004437962546945, -0.012121109291911, 0.038360465317965, -0.042409118264914, -0.029005274176598, 0.009680803865194, -0.048454634845257, 0.047998443245888, 0.019591968506575, 0.014225658960640, -0.006025234237313, -0.040229741483927, 0.026826011016965, 0.034961987286806, -0.040310770273209, -0.004822652321309, -0.039738621562719, 0.043000377714634, -0.047960683703423, 0.031299747526646, -0.044993054121733, -0.016761269420385, 0.035875409841537, -0.009936909191310, -0.047345496714115, 0.001220394857228, -0.023609282448888, -0.040617451071739, 0.001814177492633, 0.019380083307624, 0.032095301896334, -0.019624449312687, -0.039918355643749, 0.030699316412210, -0.023197619244456, 0.036467138677835, 0.040246620774269, 0.004720649216324, 0.042005702853203, 0.018416713923216, 0.043528374284506, -0.005186379421502, 0.016545258462429, -0.026136269792914, -0.046984266489744, -0.044624216854572, 0.048577435314655, -0.024564698338509, -0.015013245865703, -0.046643946319818, 0.038356158882380, -0.002535230712965, 0.008770481683314, 0.015767218545079, -0.042610306292772, 0.037559561431408, -0.000342845916748, -0.038614939898252, -0.022001240402460, 0.002648240653798, -0.048028431832790, 0.038276821374893, -0.010080037638545, -0.041163779795170, 0.045536488294601, 0.033934775739908, -0.008908869698644, 0.034073807299137, 0.044319655746222, 0.033165767788887, 0.030298942700028, -0.019340194761753, 0.000513617240358, -0.032849721610546, -0.037337534129620, 0.030299374833703, 0.041976429522038, 0.019642228260636, 0.002199280541390, 0.023569842800498, -0.049743086099625, -0.029122991487384, 0.034762851893902, -0.009959807619452, 0.004285261034966, -0.005348408129066, 0.015966994687915, 0.047482911497355, -0.044541768729687, 0.044572476297617, -0.037475764751434, -0.047237329185009, 0.023815074935555, -0.046639289706945, 0.031851589679718, 0.050135944038630, 0.036895129829645, -0.050142221152782, -0.012234591878951, -0.045744642615318, -0.034825164824724, 0.015848090872169, 0.037575967609882, 0.037813991308212, -0.023009628057480, -0.032973363995552, -0.006244600284845, 0.039449866861105, -0.004815745633096, -0.039008472114801, 0.012489774264395, -0.025131493806839, -0.037134144455194, 0.033054191619158, 0.048412486910820, 0.031317919492722, 0.021719744428992, 0.044542010873556, -0.027005709707737, -0.006398009136319, 0.029702054336667, 0.042441155761480, 0.017173772677779, -0.043722201138735, -0.049351863563061, 0.007768782321364, 0.036533869802952, 0.027977563440800, -0.041705999523401, -0.016067393124104, -0.031110445037484, -0.047358445823193, 0.019410079345107, -0.044724009931087, 0.025793883949518, 0.034062109887600, -0.032654933631420, -0.041013073176146, 0.033650737255812, 0.039755418896675, -0.046861305832863, 0.022099228575826, 0.025694871321321, 0.014493693597615, -0.023583039641380, -0.002071142662317, -0.020211748778820, -0.012588917277753, -0.043148264288902, 0.013959806412458, -0.050943739712238, -0.006797216832638, -0.006118435412645, -0.027109524235129, -0.001347110606730, -0.029057053849101, 0.005660256370902, -0.027057293802500, 0.037052623927593, -0.032182797789574, -0.010790795087814, 0.039152283221483, -0.036702297627926, 0.041697818785906, 0.001349005848169, 0.010253024287522, -0.046806842088699, -0.050651922821999, -0.050574507564306, -0.041643466800451, -0.035400085151196, -0.014338013716042, -0.028012819588184, 0.043480314314365, -0.013694820925593, 0.024643776938319, 0.008603842929006, 0.011679823510349, -0.027734473347664, -0.008167665451765, -0.012837896123528, -0.049269706010818, 0.016441933810711, 0.050142928957939, -0.026542568579316, -0.027963118627667, 0.050070755183697, 0.004763066302985, -0.031307253986597, 0.004790392704308, 0.045444004237652, 0.017944745719433, -0.014358358457685, 0.010694772005081, 0.024883631616831, 0.008273730985820, -0.038398772478104, -0.048499494791031, -0.040438503026962, 0.036719452589750, 0.040521111339331, 0.019045846536756, 0.020614825189114, 0.010792518965900, 0.018389204517007, -0.010852984152734, 0.031539462506771, 0.011910936795175, -0.037082731723785, 0.028283257037401, -0.025510432198644, 0.047007638961077, -0.004609694704413, 0.036300238221884, 0.005429008975625, 0.041678175330162, 0.009028458967805, -0.032589558511972, 0.006513569504023, -0.050130620598793, 0.000187627316336, 0.031866274774075, -0.021434469148517, 0.034864902496338, 0.030590040609241, -0.050609346479177, -0.034697927534580, 0.031430024653673, -0.039299294352531, 0.006996945012361, -0.001531297457404, -0.043414428830147, -0.009913827292621, -0.010377770289779, -0.008477395400405, -0.046743035316467, -0.032941065728664, -0.013920914381742, -0.032818038016558, 0.001836101058871, -0.046399604529142, 0.040270041674376, -0.025688512250781, -0.008373325690627, -0.047006495296955, -0.034505032002926, -0.043140396475792, 0.028810279443860, 0.026971612125635, 0.021574404090643, 0.028823303058743, -0.007725698407739, -0.028957409784198, -0.007085402496159, 0.006166564766318, 0.049547821283340, 0.002603198168799, 0.007383690215647, 0.045027978718281, 0.041505966335535, -0.024864567443728, 0.039937485009432, -0.033620018512011, 0.008357467129827, 0.041261114180088, -0.035292901098728, -0.019962625578046, -0.012064115144312, -0.050678942352533, -0.006897458806634, 0.011074990034103, 0.003729833522812, 0.012720544822514, -0.020129689946771, -0.008742049336433, 0.019271254539490, -0.013087116181850, 0.025422599166632, 0.023797776550055, 0.038232743740082, 0.041593831032515, 0.036343555897474, -0.007112762425095, 0.042236413806677, -0.049928706139326, 0.001247817883268, -0.050885517150164, -0.044586408883333, 0.007227134890854, 0.009819848462939, -0.004160932265222, 0.011641167104244, -0.012906846590340, -0.024375259876251, 0.044510506093502, -0.006488104816526, -0.025874437764287, 0.015292599797249, 0.043949570506811, -0.042838059365749, 0.015693977475166, -0.044953577220440, -0.021012650802732, -0.014005905948579, -0.000275086931651, 0.006515189073980, 0.019506635144353, 0.023420570418239, -0.004802210722119, -0.011537350714207, -0.012683444656432, -0.037548378109932, -0.015950882807374, -0.035095851868391, -0.022069934755564, 0.030144449323416, -0.026133082807064, 0.029773075133562, -0.000282310385955, 0.012876831926405, -0.024844709783792, 0.036400273442268, 0.029770499095321, -0.026929315179586, -0.027716936543584, -0.009782892651856, 0.023338498547673, -0.028172207996249, -0.050848439335823, 0.018842441961169, -0.018012821674347, 0.050871700048447, -0.019715486094356, 0.020917205139995, 0.010097187943757, -0.019369173794985, 0.024304542690516, -0.022264920175076, 0.036619663238525, -0.012343904934824, -0.032556094229221, -0.032415311783552, 0.027471937239170, 0.030424853786826, 0.007575804367661, -0.021057134494185, -0.007936891168356, 0.037573337554932, 0.039109572768211, -0.036604389548302, 0.030894966796041, 0.031849958002567, 0.042663369327784, -0.046534199267626, 0.019949076697230, -0.020330436527729, 0.010522031225264, 0.004394551273435, -0.019747575744987, -0.029200417920947, -0.001226694905199, 0.003710814053193, 0.035990875214338, -0.045922260731459, 0.018581356853247, 0.041545003652573, 0.036704633384943, -0.004975815769285, 0.005141519475728, 0.042787421494722, -0.049435030668974, 0.019989602267742, -0.019420403987169, -0.015181526541710, 0.033548150211573, 0.009326623752713, 0.022618282586336, -0.017180481925607, 0.009292137809098, 0.038393683731556, 0.020920883864164, 0.001406599767506, -0.013109188526869, 0.028368478640914, -0.037553276866674, 0.034164369106293, -0.028536919504404, -0.047317307442427, -0.014879235997796, -0.001609586295672, -0.016281457617879, -0.037348199635744, -0.047997578978539, 0.024132199585438, -0.044524088501930, 0.035256098955870, -0.048460192978382, -0.042990311980247, -0.001724856207147, -0.005422709044069, 0.037678308784962, -0.047248672693968, -0.009277958422899, 0.041108034551144, 0.043824486434460, 0.020508088171482, 0.028301613405347, 0.031363509595394, -0.020259991288185, -0.015625244006515, -0.018887976184487, -0.032627951353788, 0.011950934305787, 0.019752597436309, -0.011497342027724, 0.020056236535311, -0.015014449134469, -0.025296768173575, 0.012526427395642, -0.033336602151394, 0.036324635148048, 0.047348137944937, -0.021156620234251, -0.024215091019869, 0.022933844476938, 0.021388888359070, 0.026681020855904, -0.005210276227444, -0.047820046544075, -0.039877653121948, 0.013640857301652, 0.028052143752575, -0.016161309555173, -0.001267507439479, 0.033492513000965, 0.035756647586823, -0.045725759118795, 0.047871414572001, 0.048689763993025, 0.016028111800551, -0.032160677015781, 0.036406379193068, 0.043210044503212, 0.006624766159803, 0.020592283457518, 0.037163402885199, -0.032910648733377, -0.001367529854178, -0.012730336748064, -0.043529380112886, 0.016342964023352, 0.047150705009699, -0.000868817500304, 0.016163703054190, 0.011126235127449, 0.018833462148905, -0.025376677513123, -0.033343896269798, 0.027797281742096, -0.050081487745047, 0.020816270262003, 0.037342187017202, 0.049619749188423, -0.043862681835890, 0.030195707455277, -0.010397723875940, -0.044993091374636, 0.035499867051840, -0.001635292777792, 0.029277322813869, 0.038685444742441, 0.035195712000132, -0.012925258837640, 0.028724787756801, 0.012007894925773, 0.009035633876920, -0.029224580153823, 0.045145839452744, 0.009908063337207, 0.049242880195379, -0.018527120351791, -0.043671369552612, 0.005113210063428, -0.011144488118589, -0.047251276671886, 0.038617551326752, 0.017823101952672, -0.020433232188225, -0.022535324096680, -0.000097773525340, 0.022210367023945, -0.047045323997736, 0.050741307437420, -0.019133741036057, -0.034691214561462, -0.044359788298607, -0.035780921578407, -0.001684847986326, -0.002472956432030, 0.016469717025757, 0.038068853318691, -0.008237748406827, -0.050624813884497, -0.043198261409998, 0.007092916406691, 0.007888259366155, 0.035452652722597, -0.004187755752355, -0.002860178239644, -0.044919092208147, -0.016277689486742, -0.023577153682709, 0.009337350726128, 0.021827269345522, -0.001177456229925, 0.030333168804646, 0.046420302242041, 0.002950836205855, -0.007888274267316, -0.032692801207304, -0.011503225192428, -0.037452209740877, 0.035153832286596, 0.013017606921494, -0.010146496817470, -0.028540434315801, -0.043799910694361, -0.044057823717594, -0.043151039630175, 0.044834017753601, -0.023452628403902, 0.016813732683659, 0.019182287156582, -0.043452236801386, 0.032367628067732, 0.031225107610226, -0.028116378933191, -0.025811688974500, -0.043560378253460, -0.033792883157730, -0.024914486333728, 0.010079806670547, -0.024413635954261, 0.049961842596531, -0.032727476209402, -0.043898180127144, 0.015297998674214, 0.037103295326233, -0.014698537997901, 0.004748597275466, 0.027731295675039, -0.017901137471199, -0.039227366447449, 0.013140621595085, 0.050400402396917, 0.016445880755782, 0.028613144531846, -0.042224809527397, 0.034090794622898, 0.014530294574797, -0.028497517108917, -0.027056429535151, -0.027517028152943, -0.045541338622570, 0.040798902511597, -0.009300149977207, -0.001328247715719, 0.026435401290655, -0.021030306816101, 0.019113836809993, -0.047312349081039, 0.049000736325979, 0.025939604267478, 0.006145623978227, -0.025831267237663, -0.021506436169147, -0.031621690839529, 0.040693938732147, 0.038843765854836, 0.022285021841526, -0.050267059355974, -0.038490351289511, -0.010158427059650, -0.018768714740872, 0.022946115583181, 0.024441728368402, 0.048673298209906, -0.027600120753050, -0.049531135708094, 0.036652885377407, 0.035128802061081, 0.029657157137990, -0.032222572714090, 0.013625777326524, 0.046933688223362, 0.021422123536468, 0.010781732387841, -0.032220471650362, 0.035668388009071, -0.024721508845687, 0.001767199020833, -0.026762822642922, -0.020374324172735, 0.047756232321262, -0.048163458704948, 0.034315794706345, -0.034437540918589, -0.003086987184361, 0.002530926372856, 0.018936712294817, 0.000139703057357, 0.041115183383226, 0.049332756549120, 0.000894125667401, -0.031944073736668, 0.042200766503811, -0.044777993112803, -0.009504693560302, 0.046439263969660, -0.014514973387122, 0.003871238091961, -0.006418569944799, -0.029390294104815, -0.028955368325114, 0.029196331277490, -0.033062878996134, -0.028867470100522, -0.012271622195840, 0.024608448147774, 0.031213559210300, 0.010031834244728, -0.045164577662945, 0.015325105749071, 0.050738930702209, 0.035264723002911, 0.027804542332888, 0.010541902855039, 0.010088988579810, 0.022816712036729, 0.024843456223607, 0.006721541751176, -0.036564968526363, 0.050174273550510, 0.050276987254620, 0.038823809474707, 0.047723986208439, -0.028364188969135, 0.040766321122646, 0.022802213206887, -0.049754075706005, -0.026916278526187, 0.023350056260824, 0.025020089000463, -0.025426875799894, -0.021508222445846, -0.025166941806674, -0.049982778728008, 0.032244306057692, -0.013657720759511, 0.049805294722319, 0.029289066791534, 0.041088264435530, -0.021357744932175, 0.048667326569557, -0.023890279233456, 0.041115012019873, 0.033634182065725, -0.015164670534432, 0.020173173397779, 0.005429228767753, 0.018967162817717, -0.024406328797340, 0.032843437045813, 0.034707751125097, 0.030706793069839, 0.049804005771875, -0.040232967585325, 0.018800003454089, 0.017573714256287, 0.030419254675508, 0.049007177352905, 0.026099435985088, -0.002489302307367, -0.010190920904279, 0.007963584735990, 0.048192888498306, 0.036536589264870, -0.025011578574777, -0.011051301844418, 0.047808248549700, -0.000760491762776, -0.027573574334383, -0.004275777377188, 0.018929921090603, -0.037201955914497, 0.005695085506886, 0.048576056957245, 0.003589538391680, -0.003912571817636, 0.025568066164851, -0.028422767296433, 0.026112170889974, 0.008623190224171, 0.046722654253244, 0.035517923533916, -0.012413391843438, -0.038406688719988, -0.044368553906679, 0.012331758625805, -0.025257114320993, -0.042554873973131, 0.042928159236908, -0.034926235675812, -0.039696376770735, -0.045353498309851, -0.011888901703060, 0.038300890475512, -0.024154871702194, -0.029406018555164, -0.007475152611732, 0.034726567566395, -0.006182009354234, -0.045294709503651, -0.009181439876556, 0.048224519938231, -0.022012867033482, -0.010957541875541, -0.047199618071318, -0.028082353994250, 0.046102181077003, 0.023583559319377, 0.045803599059582, -0.044686030596495, -0.022124635055661, 0.001802988583222, 0.047761607915163, -0.028016272932291, 0.044456157833338, 0.041959039866924, 0.045597635209560, -0.041699908673763, 0.009515796788037, -0.032004572451115, -0.029636608436704, 0.021710623055696, 0.028902649879456, 0.018666906282306, 0.033196404576302, 0.003456645412371, -0.046321876347065, -0.003635101951659, -0.034010097384453, -0.018237624317408, 0.030035123229027, 0.035651817917824, -0.012866157107055, -0.019815079867840, -0.026007402688265, -0.037523459643126, -0.024268694221973, -0.036356523633003, 0.013151724822819, -0.039878178387880, 0.004613890778273, 0.029767386615276, -0.005845828447491, -0.014502692967653, -0.013970090076327, -0.050361100584269, -0.004257756285369, -0.000136005692184, 0.029473265632987, 0.046930756419897, -0.018230583518744, -0.026764016598463, 0.032627463340759, 0.009434673935175, -0.034056536853313, -0.044879823923111, 0.031049326062202, 0.003441908163950, 0.032559338957071, -0.015055395662785, 0.050961062312126, 0.017155028879642, -0.049040976911783, -0.010769076645374, 0.042177971452475, 0.037224065512419, 0.023872014135122, -0.010781613178551, -0.025869196280837, 0.005041217897087, 0.015055179595947, -0.004053578246385, -0.047152325510979, -0.026824574917555, -0.042316257953644, -0.006999037694186, -0.009501081891358, -0.021933797746897, -0.022479591891170, 0.018628539517522, 0.045965798199177, -0.006809574551880, -0.034967638552189, -0.021013990044594, 0.019989140331745, 0.026891268789768, -0.026622878387570, 0.013249584473670, -0.048303954303265, -0.047980368137360, -0.006185732781887, -0.045366872102022, 0.041866250336170, -0.011810780502856, 0.048536125570536, -0.026242226362228, 0.024388318881392, -0.024340417236090, -0.044556885957718, 0.011528347618878, 0.000095304894785, 0.026465203613043, 0.001491907285526, -0.010108785703778, 0.047514315694571, 0.043548028916121, 0.015996752306819, 0.006932652555406, -0.010520109906793, 0.005563700571656, -0.036174450069666, -0.029116034507751, -0.021115578711033, 0.005615686997771, 0.024856384843588, 0.038259811699390, -0.041882023215294, -0.000633157964330, 0.021676821634173, -0.050588529556990, -0.047802373766899, -0.010963960550725, -0.040715828537941, 0.034898202866316, -0.017798539251089, -0.033865079283714, 0.007226040121168, 0.026486314833164, -0.018979666754603, -0.046041592955589, -0.015760166570544, 0.048464786261320, 0.013521364890039, 0.035136271268129, 0.044128391891718, -0.003729155752808, 0.037054054439068, 0.029664045199752, 0.028744053095579, -0.040462985634804, -0.019449859857559, -0.010503134690225, 0.050458438694477, 0.017732115462422, -0.029362432658672, 0.004374105948955, 0.027001354843378, 0.042817059904337, -0.009792692959309, -0.046250186860561, -0.020200282335281, 0.040138378739357, 0.028645718470216, -0.044129025191069, -0.000970508088358, -0.019514953717589, -0.032996665686369, -0.034105069935322, -0.039282474666834, -0.018657958135009, -0.048872329294682, 0.035834692418575, -0.034679736942053, -0.002316888887435, -0.050647910684347, -0.027603490278125, -0.018649505451322, 0.022579612210393, -0.027421128004789, 0.015609456226230, 0.002710890956223, 0.003881455166265, 0.009380167350173, -0.039716552942991, 0.037680067121983, -0.037400174885988, -0.046213157474995, -0.039308134466410, 0.029914930462837, -0.024715926498175, 0.042597487568855, -0.039737332612276, 0.021138003095984, -0.021851859986782, 0.006099267397076, 0.037246726453304, -0.012530329637229, 0.008182113058865, -0.007019978482276, -0.036931466311216, -0.010736824013293, -0.038353376090527, -0.044987570494413, -0.007673954125494, -0.008562751114368, -0.039426591247320, 0.050574712455273, 0.030286729335785, -0.006257077213377, -0.036122623831034, -0.017829826101661, -0.035085499286652, -0.005857259500772, 0.015031632035971, -0.008460677228868, -0.019402774050832, 0.021911263465881, 0.033252120018005, 0.032484259456396, 0.048623643815517, 0.018708555027843, -0.029724152758718, 0.038966979831457, 0.024350957944989, 0.009894759394228, 0.038612250238657, -0.028685716912150, 0.011461150832474, -0.048358663916588, 0.039418447762728, 0.000084916522610, 0.000304844579659, 0.030472617596388, -0.011124117299914, 0.030307387933135, -0.040749028325081, -0.043386992067099, 0.034351553767920, 0.013338224031031, -0.023886935785413, 0.022266851738095, 0.005794228985906, -0.014858794398606, 0.026243450120091, -0.023516848683357, 0.045187029987574, 0.026812108233571, -0.030065685510635, 0.034024652093649, 0.049269434064627, 0.013216267339885, 0.032929375767708, 0.039841927587986, -0.038256905972958, -0.034092798829079, 0.011076617054641, -0.018915046006441, 0.015483343973756, 0.031454626470804, 0.048560582101345, 0.013549067080021, -0.023869581520557, -0.040458351373672, 0.043587360531092, 0.038041152060032, 0.015724815428257, -0.029064679518342, 0.041343796998262, 0.009464781731367, -0.048954486846924, -0.021103054285049, 0.040088262408972, -0.002306135604158, -0.023441962897778, -0.044940810650587, 0.048352487385273, 0.010913032107055, 0.028891121968627, -0.013836031779647, 0.011912895366549, -0.006349232513458, -0.023851169273257, 0.046787686645985, -0.012518388219178, 0.000753353990149, 0.020374126732349, -0.049122013151646, 0.001927209668793, -0.020882094278932, -0.041410960257053, -0.038303539156914, -0.001613976201043, -0.037269350141287, -0.028573838993907, -0.014641797170043, 0.000972999026999, -0.001527562853880, 0.018960088491440, 0.049884464591742, -0.011296787299216, 0.003300771582872, 0.029783619567752, 0.034001134335995, -0.041117534041405, -0.021129528060555, -0.038868296891451, -0.034149698913097, 0.007139250636101, -0.007954536937177, 0.015796596184373, 0.029850246384740, 0.047077160328627, -0.026759102940559, -0.037543088197708, -0.044745679944754, 0.017385257408023, 0.013659146614373, 0.046975981444120, 0.026939650997519, -0.022047437727451, -0.008792490698397, 0.025529230013490, -0.000637767545413, 0.020262230187654, -0.044888716191053, 0.007664615754038, -0.014826385304332, 0.001933472463861, 0.032482266426086, -0.011105258017778, -0.024494385346770, 0.013975541107357, -0.040319647639990, -0.020835287868977, 0.016997832804918, 0.013706895522773, -0.048292107880116, 0.005897159688175, -0.038727231323719, 0.023916561156511, 0.025344682857394, 0.024296090006828, 0.042366836220026, -0.013427690602839, -0.049997407943010, -0.042054120451212, -0.010535018518567, 0.042030505836010, 0.005154760088772, -0.027342194691300, -0.042194042354822, -0.036731857806444, -0.037404868751764, 0.042742576450109, -0.028092397376895, -0.032695770263672, 0.033115144819021, 0.024596242234111, -0.001284482539631, 0.043664265424013, -0.017902571707964, 0.014044856652617, 0.013598960824311, 0.025136355310678, 0.027633979916573, 0.017655503004789, 0.037017371505499, -0.016915345564485, -0.047180682420731, 0.047266893088818, 0.022972425445914, 0.027181599289179, -0.018293658271432, -0.022333946079016, -0.034394640475512, -0.003930608276278, 0.027602137997746, 0.049511883407831, -0.003968356177211, 0.039376862347126, -0.043430142104626, -0.036104373633862, -0.000954951567110, 0.050294339656830, -0.027463886886835, -0.029346467927098, -0.040640786290169, 0.009300138801336, -0.023315139114857, 0.023601170629263, -0.001780405989848, 0.018356453627348, 0.034769553691149, -0.050872638821602, 0.011679808609188, 0.038213878870010, -0.035015806555748, 0.020532671362162, 0.035442464053631, 0.000806059106253, 0.007531711366028, 0.018824383616447, -0.045009057968855, 0.017865177243948, -0.008607663214207, 0.044196955859661, -0.009814351797104, -0.021495744585991, -0.009329666383564, 0.040811836719513, 0.022569736465812, -0.003692610189319, 0.044567331671715, 0.031116005033255, 0.032059721648693, -0.023882288485765, 0.001589204184711, 0.024577202275395, 0.033284544944763, -0.023122698068619, -0.001038058544509, 0.009130291640759, 0.033394288271666, -0.009088335558772, -0.009133661165833, -0.027204765006900, 0.017232580110431, -0.031577195972204, -0.038601260632277, 0.026506317779422, 0.010257597081363, -0.020524034276605, -0.008055408485234, -0.033741310238838, 0.027958059683442, -0.003247325308621, 0.030198015272617, -0.011921053752303, 0.022241411730647, 0.022388361394405, -0.033331505954266, 0.019035257399082, 0.006945457775146, 0.027365796267986, -0.039792239665985, 0.004347609821707, -0.002165095880628, 0.020562265068293, -0.025266077369452, -0.028169775381684, 0.011956854723394, 0.012889357283711, 0.036407861858606, -0.047031689435244, -0.025481479242444, -0.003339658956975, 0.000754255044740, 0.016679041087627, -0.044399030506611, -0.027559919282794, -0.030265497043729, 0.047348406165838, 0.000453897169791, -0.036309376358986, -0.042983431369066, 0.031734600663185, -0.050164815038443, 0.037018816918135, 0.018592994660139, -0.031712532043457, 0.005756834521890, 0.006936323828995, 0.015946650877595, -0.046532507985830, 0.002023936947808, -0.030161365866661, 0.048875555396080, 0.041750535368919, 0.029804449528456, -0.000969607033767, -0.004319821950048, 0.007766738068312, 0.022761538624763, -0.036046702414751, -0.040171992033720, -0.042880792170763, -0.050793267786503, 0.007132571190596, -0.002892888383940, 0.050685841590166, 0.028725108131766, -0.033877566456795, -0.004243659321219, -0.013993524946272, -0.049309361726046, 0.002552693709731, -0.017823027446866, -0.049522645771503, -0.031686216592789, 0.016543239355087, -0.024328099563718, -0.015802400186658, 0.048554208129644, 0.014032643288374, -0.050156947225332, -0.002432292792946, -0.032754372805357, 0.034195952117443, 0.007482472807169, -0.011264173313975, -0.035703845322132, -0.010516557842493, 0.046995148062706, 0.021585961803794, -0.039086539298296, 0.045413147658110, -0.022727353498340, 0.042167462408543, 0.009675222449005, 0.016058033332229, 0.050154291093349, -0.016408173367381, -0.014943297952414, 0.042255468666553, 0.018459711223841, -0.006166080478579, -0.043271686881781, -0.024994952604175, -0.027582233771682, 0.009904988110065, 0.003057825146243, -0.040116488933563, 0.005983572918922, 0.023428114131093, -0.000612131727394, 0.018351761624217, -0.023160578683019, 0.012057945132256, 0.021997498348355, 0.038388121873140, 0.000104665596155, -0.045732531696558, 0.014194494113326, 0.002621744526550, -0.048208113759756, -0.031375050544739, -0.007714643608779, -0.031878914684057, -0.006872139405459, -0.030098337680101, -0.031275078654289, -0.011970392428339, -0.015416991896927, -0.034742996096611, -0.046886920928955, 0.039565067738295, 0.020529655739665, -0.040696736425161, 0.014811703935266, -0.044713076204062, 0.027245953679085, -0.012767850421369, 0.044106908142567, -0.045130319893360, 0.050353012979031, -0.043027609586716, 0.040761884301901, -0.042130310088396, 0.025056630373001, 0.018709747120738, -0.040004588663578, 0.028294531628489, 0.020144198089838, -0.007041209377348, -0.020803742110729, 0.005315913818777, 0.030457790941000, 0.016141034662724, 0.022797849029303, 0.002587511437014, 0.029427481815219, -0.046995196491480, 0.017741939052939, -0.042824186384678, 0.019666817039251, 0.010031297802925, -0.047637682408094, -0.003926620353013, 0.038698505610228, -0.022649696096778, -0.030793793499470, 0.042897269129753, 0.009637061506510, 0.002199306618422, -0.026786379516125, -0.016242152079940, 0.043264534324408, -0.046735640615225, -0.024021675810218, 0.001822581281886, -0.002832546597347, 0.046914447098970, -0.013894876465201, -0.032809156924486, -0.041295625269413, -0.024985674768686, 0.026447644457221, -0.015234484337270, 0.045048419386148, 0.018866630271077, -0.047030571848154, 0.023119159042835, -0.008136105723679, 0.007583660539240, 0.032505407929420, 0.011082697659731, 0.030738962814212, -0.014366579242051, 0.004524156451225, 0.032268345355988, -0.002016300102696, -0.006852208171040, -0.023645022884011, 0.035376820713282, -0.050182327628136, 0.018982682377100, -0.023195844143629, -0.012820995412767, -0.028030915185809, 0.003283089026809, 0.040010664612055, 0.030691780149937, -0.044399406760931, 0.047444105148315, 0.023473912850022, -0.028600301593542, -0.015245078131557, 0.022837890312076, 0.009090331383049, -0.011264270171523, -0.008549629710615, -0.030360970646143, 0.008984142914414, -0.038544066250324, -0.000219682318857, 0.005106362979859, 0.011762320064008, -0.027268743142486, -0.036206752061844, -0.021926477551460, 0.027738653123379, 0.045659366995096, 0.049082636833191, -0.029513591900468, 0.016286844387650, -0.026298699900508, 0.005509755574167, 0.036952115595341, 0.037469491362572, -0.012256300076842, 0.050839059054852, 0.044423032552004, -0.022795028984547, 0.043461509048939, -0.022718913853168, -0.021770736202598, 0.019014993682504, -0.047090914100409, 0.017408080399036, 0.017181636765599, -0.045903060585260, 0.038730833679438, 0.049358647316694, 0.023771667852998, 0.032578047364950, -0.041400559246540, -0.028430866077542, 0.032970771193504, -0.032221432775259, -0.028897093608975, 0.024964625015855, 0.044981524348259, -0.042874272912741, 0.007230005692691, 0.034201871603727, -0.031215185299516, 0.044138424098492, -0.025605663657188, 0.044759266078472, -0.019508680328727, 0.015716481953859, -0.002506690565497, 0.046310938894749, 0.050481833517551, -0.044684607535601, 0.019949916750193, -0.038359869271517, -0.028296258300543, 0.035290125757456, 0.003851891262457, -0.030964808538556, -0.012312981300056, 0.041289389133453, 0.003031314350665, 0.048182088881731, 0.010919525288045, 0.045429132878780, 0.046878866851330, -0.017575608566403, 0.003235663520172, 0.003025416517630, -0.049814820289612, -0.000905433727894, 0.006750923115760, -0.019507074728608, -0.025231271982193, -0.008226790465415, -0.026479346677661, 0.015010959468782, 0.023175464943051, 0.030682604759932, 0.015433724969625, 0.040700260549784, 0.019335558637977, -0.022833734750748, -0.040380924940109, -0.011563057079911, 0.032951842993498, -0.013281311839819, 0.041622262448072, -0.034172307699919, 0.008725718595088, -0.016306776553392, -0.027233136817813, 0.017612831667066, -0.040414121001959, 0.035415239632130, 0.003297841176391, -0.049665898084641, 0.004749907646328, 0.006128976587206, 0.014774045906961, -0.023455571383238, 0.009111428633332, 0.036075156182051, 0.047278575599194, -0.023208746686578, 0.033162325620651, 0.010244635865092, 0.024313045665622, 0.025689799338579, 0.026861837133765, -0.017947081476450, -0.023548781871796, 0.002497788053006, 0.046562582254410, 0.023007865995169, 0.007114452775568, -0.009917718358338, -0.008469077758491, 0.034294724464417, 0.016879748553038, -0.012365928851068, -0.045532088726759, 0.023498702794313, -0.001260343473405, 0.012345021590590, -0.012601395137608, 0.039474297314882, 0.025686888024211, -0.028217252343893, -0.050208192318678, -0.042603030800819, 0.040112212300301, 0.006227431353182, -0.040512293577194, 0.042313724756241, -0.045431334525347, -0.020567994564772, -0.002883684122935, -0.010675242170691, 0.015037664212286, -0.036180712282658, 0.037795338779688, 0.029657328501344, -0.024469953030348, -0.002505633281544, -0.027646819129586, 0.035210948437452, 0.030982110649347, -0.045741673558950, 0.026602463796735, 0.040958322584629, -0.021305456757545, 0.037433054298162, -0.018054639920592, 0.031537882983685, -0.030209582298994, -0.045858722180128, 0.032135963439941, 0.005201314110309, 0.033089324831963, -0.036626342684031, -0.028833139687777, 0.018675014376640, 0.025221571326256, -0.031116867437959, 0.008314662612975, 0.012653567828238, -0.044800344854593, 0.027709364891052, -0.032286189496517, -0.048570346087217, -0.033721145242453, -0.003974667284638, 0.000498306530062, -0.034128516912460, -0.031656470149755, 0.020650919526815, -0.005114718340337, -0.025217056274414, 0.010616591200233, 0.012411834672093, -0.002933410461992, -0.034560244530439, 0.026556739583611, 0.016683621332049, 0.021796306595206, 0.044063739478588, 0.046065513044596, 0.037462737411261, -0.037097785621881, -0.040025856345892, -0.028921732679009, -0.034404225647449, -0.015757003799081, -0.012722990475595, 0.008854731917381, 0.024216586723924, -0.010646896436810, 0.039797917008400, 0.028852844610810, -0.043091963976622, -0.043441459536552, 0.014319615438581, 0.027310712262988, -0.022608751431108, -0.017198128625751, 0.010094085708261, -0.015718091279268, 0.048160314559937, -0.031951513141394, 0.022010179236531, 0.048104893416166, -0.019586812704802, -0.004876429680735, 0.046603146940470, -0.014364985749125, -0.019677577540278, 0.001875089132227, -0.001612807041965, 0.009555622003973, -0.049167446792126, -0.032912947237492, 0.039931766688824, 0.017124013975263, 0.018181601539254, 0.029972719028592, 0.040456593036652, -0.050757925957441, -0.010529146529734, -0.018719512969255, 0.005851517897099, 0.024120246991515, 0.038733083754778, 0.031682316213846, 0.046798776835203, 0.025475589558482, 0.035145901143551, 0.042062431573868, 0.026520131155849, -0.032858394086361, -0.045735705643892, 0.038116000592709, 0.023620309308171, 0.006767146289349, 0.014713986776769, -0.038521241396666, 0.015247092582285, 0.011601810343564, -0.009289486333728, -0.048600539565086, 0.043731361627579, 0.033225066959858, 0.032345838844776, -0.025602074339986, 0.026213223114610, 0.033489152789116, -0.020124230533838, 0.010905980132520, -0.026446890085936, -0.014987342059612, -0.017576983198524, -0.020003704354167, 0.004492250271142, 0.016614975407720, -0.012530158273876, 0.045744992792606, -0.043162871152163, 0.028095655143261, 0.012849560938776, 0.010213246569037, -0.039994835853577, 0.036049950867891, 0.015436070971191, 0.038217574357986, -0.000884422392119, -0.048362020403147, 0.003773565171286, 0.031666550785303, -0.038632862269878, -0.043703269213438, 0.045782487839460, -0.012050651013851, 0.031173970550299, -0.035794515162706, -0.002205982804298, -0.025339392945170, -0.043242841959000, -0.033242128789425, -0.030325667932630, -0.043371498584747, 0.011871721595526, 0.017130611464381, -0.025668278336525, 0.048905044794083, -0.026887809857726, -0.031665738672018, -0.004393199458718, -0.046511370688677, -0.012655340135098, -0.050548918545246, 0.022163666784763, 0.048205867409706, -0.009026232175529, -0.020843217149377, -0.016905421391129, 0.046396721154451, 0.043699838221073, -0.012415580451488, -0.049278058111668, -0.003691649762914, -0.017362663522363, 0.027540536597371, 0.019684890285134, 0.046377103775740, -0.045371297746897, 0.017880406230688, 0.012366185896099, -0.043740149587393, -0.000414871930843, -0.049049258232117, 0.022339979186654, -0.025357609614730, -0.011816924437881, 0.005472629331052, -0.042409930378199, -0.005619276314974, -0.006913171615452, 0.005397743545473, -0.027340747416019, 0.035997830331326, 0.010156349278986, 0.028309537097812, 0.034289132803679, 0.050270501524210, 0.015807520598173, -0.000577205966692, 0.020425816997886, 0.023479944095016, 0.025688681751490, 0.027386544272304, -0.010343842208385, 0.040648944675922, -0.027345661073923, 0.011173172853887, 0.026733834296465, 0.047577120363712, 0.043158989399672, -0.020489184185863, -0.028224840760231, -0.006920417305082, 0.015411109663546, -0.016087824478745, 0.041849348694086, 0.029050730168819, -0.038299322128296, 0.002586707239971, 0.035819418728352, -0.015428750775754, 0.019731158390641, 0.023147687315941, 0.022034211084247, -0.024049146100879, -0.028197940438986, -0.002625877736136, 0.035797093063593, -0.007540223188698, -0.043521113693714, -0.033671956509352, -0.020818250253797, 0.021523289382458, -0.049326736479998, 0.039170958101749, -0.050316132605076, 0.014608226716518, -0.032171536237001, 0.022764397785068, -0.003937187604606, 0.019651424139738, -0.010300599038601, 0.024190656840801, -0.035865426063538, -0.029725234955549, 0.016479168087244, -0.011675884015858, -0.035880275070667, 0.024173157289624, -0.050221689045429, 0.044579453766346, 0.032005917280912, 0.011134222149849, 0.047599736601114, 0.012429454363883, 0.006516697350889, 0.049000333994627, 0.001062357681803, 0.034380380064249, 0.042981434613466, 0.016755817458034, 0.026920787990093, -0.039498969912529, 0.006304625421762, 0.037927147001028, -0.015510323457420, 0.011737953871489, 0.035424772650003, 0.031465537846088, -0.039695050567389, -0.017116239294410, 0.036023050546646, 0.001214474556036, 0.013402929529548, 0.027432981878519, 0.011921482160687, -0.008076180703938, 0.034913521260023, -0.043896280229092, 0.048376884311438, 0.005572212394327, 0.043790906667709, 0.042050011456013, 0.037848658859730, 0.004705010447651, 0.036926064640284, 0.039150919765234, 0.003107402706519, -0.030438764020801, 0.003317955182865, 0.035672690719366, -0.012162175029516, 0.006608800031245, -0.009571711532772, -0.038565870374441, -0.028751116245985, -0.024471145123243, -0.017474444583058, 0.029494101181626, -0.002295981859788, 0.013598863966763, 0.005582730751485, -0.032900508493185, 0.041853778064251, 0.038237605243921, -0.040862243622541, 0.006613238248974, 0.008533906191587, 0.006215014029294, -0.013276861980557, -0.009302667342126, 0.015238267369568, -0.027097921818495, 0.010223411954939, -0.022118456661701, -0.034268386662006, 0.038634575903416, -0.017207518219948, -0.036284502595663, 0.000392937188735, -0.005546103697270, 0.006968769710511, 0.048527818173170, 0.023539906367660, 0.008274181745946, 0.008321033790708, 0.041523016989231, -0.048196781426668, 0.026637688279152, 0.019122861325741, -0.012002399191260, 0.025882098823786, 0.012056523002684, 0.032095652073622, -0.021541956812143, 0.029748389497399, 0.043369006365538, 0.033463694155216, 0.031882233917713, 0.041704513132572, 0.036902725696564, 0.001353969099000, 0.011914087459445, 0.033132188022137, 0.049686547368765, -0.025789847597480, -0.000065863736381, 0.027950508520007, -0.028837347403169, -0.044849555939436, 0.022605698555708, 0.003024284495041, -0.007627693936229, 0.035238675773144, -0.037156410515308, 0.024525579065084, 0.025777172297239, 0.050698291510344, 0.001298199640587, 0.003385967342183, -0.028531324118376, -0.042561065405607, -0.010318910703063, 0.016383243724704, -0.020052518695593, -0.046041823923588, 0.045277770608664, 0.020380420610309, 0.050614502280951, -0.007308514323086, -0.032206278294325, 0.012425395660102, 0.023777326568961, 0.003328764345497, 0.007457358296961, -0.037871982902288, 0.031820319592953, -0.026991311460733, -0.032443985342979, 0.043773379176855, -0.036528620868921, -0.004218097776175, 0.021140312775970, 0.019656093791127, -0.009118517860770, -0.025428105145693, 0.046115733683109, -0.038308113813400, 0.034276437014341, -0.027346145361662, 0.033343032002449, -0.047321587800980, 0.047199595719576, -0.007907487452030, 0.030486015602946, 0.035291600972414, 0.022328630089760, 0.020913906395435, 0.042820818722248, 0.026106003671885, -0.049657009541988, -0.019123259931803, 0.000494575651828, 0.036143310368061, 0.030294332653284, 0.037991411983967, -0.006779355462641, -0.009539011865854, -0.026719275861979, 0.014323465526104, -0.036761943250895, -0.004011730663478, 0.008676930330694, -0.021012078970671, -0.017441220581532, 0.015775840729475, 0.009948629885912, -0.022945502772927, -0.000725238351151, 0.034144025295973, -0.012887257151306, -0.008327810093760, 0.030047811567783, 0.018830237910151, 0.045785903930664, -0.041400205343962, 0.019897066056728, 0.011125785298645, 0.026766316965222, 0.045551873743534, 0.014603042975068, 0.050191204994917, 0.010100773535669, 0.048541937023401, 0.009184542112052, 0.002986309351400, -0.013626577332616, -0.032559242099524, -0.010500811040401, 0.036370068788528, 0.005187328904867, -0.003473307704553, 0.041509211063385, 0.020827053114772, -0.034052085131407, 0.013636977411807, 0.008100063540041, -0.023697884753346, -0.035837393254042, 0.007554111536592, 0.002672293921933, 0.045626267790794, -0.001277333474718, -0.006500399671495, 0.044534936547279, -0.035464536398649, -0.003277995390818, 0.043436706066132, -0.006388618610799, 0.023280613124371, 0.011951217427850, 0.007771347649395, -0.026364026591182, -0.043697930872440, -0.000364903506124, -0.021848186850548, -0.011439591646194, -0.049475241452456, 0.010378351435065, -0.010684666223824, 0.022969707846642, 0.013374319300056, -0.050252407789230, -0.046900831162930, 0.019331708550453, 0.008188460953534, 0.017263432964683, 0.019382087513804, -0.040493495762348, 0.014627342112362, 0.027037955820560, -0.042339425534010, 0.020303098484874, 0.024667382240295, 0.019058484584093, -0.044535249471664, 0.041327182203531, 0.030733779072762, 0.037413038313389, 0.037480216473341, -0.002682060468942, 0.016601407900453, 0.021499987691641, -0.037237741053104, -0.048954084515572, -0.003111271420494, 0.007517629303038, 0.039292737841606, 0.006334029603750, 0.048673685640097, 0.037230983376503, 0.022346688434482, -0.028776230290532, 0.048344474285841, -0.034317005425692, -0.001601037336513, 0.013893566094339, 0.041002318263054, -0.002640116028488, -0.020575327798724, 0.045381817966700, 0.014913555234671, -0.011475161649287, 0.019944727420807, -0.038482762873173, -0.022577071562409, -0.033612795174122, -0.032178796827793, -0.031627185642719, -0.021584397181869, 0.017237234860659, -0.021092826500535, 0.005658651702106, -0.049767829477787, 0.026745935901999, -0.003267439315096, 0.037004750221968, -0.040920235216618, 0.016014564782381, -0.037396524101496, 0.025839027017355, 0.027284380048513, -0.010884540155530, 0.003211535746232, -0.047292307019234, 0.026857117190957, -0.049948293715715, 0.030084608122706, 0.027844652533531, -0.000818327825982, -0.010738868266344, -0.048004839569330, -0.016221323981881, 0.046992342919111, 0.021591704338789, 0.024355776607990, -0.040156316012144, -0.002011701697484, -0.016383351758122, -0.012966190464795, -0.025739224627614, 0.020252788439393, 0.034773871302605, -0.019367666915059, -0.030831236392260, -0.022512804716825, 0.024831086397171, 0.039411686360836, -0.022123308852315, 0.039131563156843, -0.035172853618860, -0.003124001668766, -0.048425629734993, -0.043010402470827, -0.038649611175060, -0.008463485166430, -0.015178387984633, 0.009722186252475, 0.011511182412505, -0.006777698639780, -0.033056188374758, 0.031556181609631, 0.010965506546199, 0.007142810616642, -0.038810085505247, -0.025557724758983, 0.015777710825205, -0.033926360309124, -0.041696988046169, 0.018361212685704, -0.029860997572541, -0.050417367368937, -0.010717064142227, 0.049955714493990, 0.016966154798865, -0.040389753878117, -0.006063745822757, -0.032577190548182, 0.025400392711163, -0.024973684921861, 0.030400600284338, -0.003666978096589, -0.035988528281450, 0.000248672935413, 0.044805414974689, 0.024484181776643, -0.026823019608855, -0.015062265098095, -0.042207155376673, -0.027353905141354, 0.021027768030763, -0.024171736091375, -0.017590491101146, -0.043763853609562, 0.040400128811598, 0.026651434600353, 0.042809322476387, -0.036063473671675, 0.045838121324778, 0.012619609944522, 0.006175821181387, 0.041289925575256, -0.024286316707730, 0.030452817678452, 0.048287477344275, -0.015584312379360, 0.017784198746085, -0.039758589118719, 0.000187482102774, 0.000516063533723, 0.030681278556585, -0.024111662060022, 0.039616659283638, -0.021831842139363, -0.013701802119613, 0.002399202669039, -0.011994993314147, -0.002349368296564, 0.016147827729583, -0.025661079213023, -0.044365100562572, 0.013034988194704, -0.034610174596310, -0.000491399550810, 0.017921311780810, 0.008089823648334, 0.001967743039131, -0.034472495317459, -0.000969011278357, -0.034567251801491, 0.043028157204390, -0.032561685889959, -0.047199800610542, 0.010662314482033, 0.048067063093185, -0.012615003623068, 0.038946770131588, 0.048564665019512, 0.047219172120094, -0.050217628479004, -0.038177277892828, -0.026050584390759, 0.007065106183290, 0.011370566673577, -0.006216961424798, -0.022027933970094, 0.014941071160138, 0.036878094077110, 0.038476187735796, -0.031724911183119, -0.026636742055416, -0.029541207477450, 0.025056742131710, 0.006395600270480, 0.014501721598208, 0.041949611157179, -0.038268335163593, 0.031107559800148, 0.011476956307888, 0.028037264943123, 0.016143582761288, -0.031126497313380, 0.050248369574547, 0.003725845599547, 0.043035671114922, 0.018954338505864, 0.035627245903015, 0.033519752323627, 0.023413145914674, 0.010581632144749, 0.047506958246231, -0.039338648319244, 0.010632351972163, 0.014369182288647, 0.033046692609787, 0.050588309764862, -0.000770988117438, 0.025013668462634, -0.027100706472993, 0.044676546007395, 0.001798684359528, 0.005735056474805, 0.046802267432213, -0.006713964510709, 0.020638676360250, 0.037105578929186, 0.049021370708942, -0.010590884834528, -0.017644366249442, -0.039742145687342, 0.048577144742012, 0.040982801467180, 0.049267936497927, 0.039183035492897, -0.016804862767458, -0.008981164544821, 0.002532825339586, -0.048612091690302, 0.028222318738699, 0.025083960965276, -0.001303661847487, -0.024091927334666, -0.016605734825134, -0.023379117250443, -0.026142798364162, 0.046426966786385, -0.015772303566337, 0.028892654925585, 0.040808409452438, -0.034029431641102, -0.028842553496361, -0.014866442419589, -0.034361552447081, 0.012655778788030, 0.024795811623335, 0.050740793347359, 0.043801259249449, 0.039118733257055, 0.044801678508520, 0.012507989071310, -0.028608545660973, -0.050896279513836, -0.013193218968809, 0.016286769881845, 0.030331246554852, 0.043844182044268, -0.028016891330481, -0.040862888097763, 0.012736987322569, 0.007493244949728, -0.002800372429192, -0.011103504337370, -0.009931182488799, 0.037318516522646, 0.015893010422587, -0.040894176810980, -0.035304807126522, -0.048440687358379, 0.016474699601531, -0.037409413605928, 0.031998138874769, -0.024238111451268, 0.028717527166009, 0.033938348293304, -0.026831544935703, 0.027306370437145, -0.043544132262468, -0.032975003123283, 0.017867268994451, 0.004329722374678, 0.001433330355212, 0.029803406447172, 0.032793372869492, -0.033952757716179, 0.007938521914184, -0.041636463254690, 0.024219186976552, 0.007373890373856, -0.005141009110957, -0.033925421535969, 0.008076411671937, 0.031489040702581, 0.018827607855201, -0.025534657761455, 0.032641194760799, 0.026797482743859, -0.017294077202678, 0.046070568263531, -0.030007300898433, -0.031324923038483, -0.030208183452487, -0.042536150664091, 0.015460444614291, -0.031351003795862, -0.040890514850616, -0.045078005641699, -0.016571136191487, -0.020036356523633, 0.007497500628233, -0.017590420320630, 0.043409463018179, -0.036625660955906, -0.020244425162673, -0.026566015556455, 0.023639224469662, -0.013627657666802, -0.033757019788027, 0.042777888476849, -0.037771742790937, 0.044335905462503, 0.048389028757811, -0.036980509757996, 0.016957359388471, 0.007921167649329, -0.049962643533945, -0.016538280993700, 0.049928974360228, -0.041970845311880, -0.014370347373188, 0.045343764126301, -0.022065266966820, 0.029330076649785, -0.010977569967508, 0.048750277608633, 0.012079414911568, -0.028091715648770, -0.008377800695598, 0.034986466169357, 0.004430556669831, 0.046547196805477, -0.028570871800184, 0.045427944511175, 0.005452526267618, 0.048477400094271, -0.004995832685381, -0.008639766834676, -0.008140242658556, 0.032943256199360, 0.019453918561339, 0.041652504354715, -0.003300261450931, 0.035933073610067, -0.013495364226401, 0.030047202482820, -0.025619927793741, -0.009434781968594, -0.047401122748852, -0.022920282557607, -0.040503732860088, 0.031811811029911, 0.008142260834575, 0.011898471042514, 0.035551629960537, 0.002927717519924, -0.023552043363452, -0.020440820604563, 0.039531804621220, -0.011887039989233, -0.026456898078322, 0.005582645069808, 0.026103554293513, -0.005581029225141, 0.024373089894652, 0.043765664100647, 0.046658512204885, -0.014719784259796, -0.035789810121059, 0.001631342223845, -0.040662005543709, -0.000996225746349, 0.044710088521242, -0.037729725241661, -0.031175382435322, -0.001244656741619, -0.012713273055851, -0.042431261390448, -0.042388550937176, 0.018343077972531, 0.025420967489481, -0.019435107707977, -0.050525899976492, 0.024868983775377, 0.046502456068993, 0.019543981179595, -0.022288439795375, -0.031534489244223, 0.023823520168662, 0.049573101103306, 0.005571374669671, -0.007494268473238, -0.011320706456900, -0.046627521514893, 0.042412329465151, 0.028648868203163, 0.026592515408993, 0.044993232935667, 0.002354365075007, 0.003160848747939, 0.003168913768604, -0.015275527723134, -0.044001083821058, -0.000014108072719, -0.008085858076811, -0.032576631754637, 0.025043522939086, -0.037004794925451, -0.005676077213138, -0.010301060043275, 0.046178050339222, 0.046980254352093, 0.006228768266737, 0.043477512896061, 0.019771810621023, -0.030628578737378, -0.026130383834243, 0.000984258716926, -0.041019711643457, -0.026524571701884, -0.049987744539976, -0.016110526397824, 0.038294821977615, -0.023020243272185, 0.041329137980938, 0.046951845288277, -0.048336979001760, -0.012298705987632, -0.029170064255595, -0.011148185469210, 0.027519097551703, -0.007062831427902, 0.026249416172504, 0.031871814280748, -0.028270466253161, 0.008991075679660, 0.000024053351808, 0.010880611836910, 0.040989018976688, -0.002990501932800, -0.033485691994429, -0.043461073189974, -0.035342641174793, 0.011311137117445, -0.000324239925249, -0.044381722807884, 0.003665433032438, -0.016018530353904, 0.041513852775097, -0.000491447979584, -0.018786361441016, 0.004936052951962, -0.005037643015385, -0.033653691411018, 0.010715470649302, 0.036759912967682, 0.021215384826064, -0.017185714095831, 0.027161909267306, -0.004139820113778, -0.003030461724848, 0.032860223203897, 0.036595262587070, -0.023619946092367, -0.026011914014816, 0.033247973769903, -0.039974380284548, 0.049339398741722, -0.012913779355586, 0.014098779298365, -0.041041430085897, -0.012707985006273, 0.024946967139840, 0.013759016059339, -0.006734592374414, -0.034955963492393, 0.036396518349648, -0.023530382663012, 0.024482395499945, -0.007863063365221, -0.003579176031053, -0.028628269210458, 0.032845992594957, 0.049258954823017, -0.000604908273090, -0.041337348520756, 0.001667020143941, 0.018004760146141, 0.042947199195623, -0.012172489427030, 0.037806693464518, -0.001925690565258, 0.021435432136059, 0.030292047187686, -0.029599530622363, 0.035621039569378, -0.045710474252701, -0.038605954498053, -0.012242657132447, -0.031613789498806, -0.015185503289104, -0.028995523229241, -0.032588060945272, 0.023218961432576, -0.048851158469915, -0.034588370472193, 0.024199340492487, 0.011054000817239, -0.008745966479182, 0.033691097050905, 0.031312216073275, -0.020394816994667, 0.027094664052129, 0.047648612409830, -0.020224068313837, -0.035454992204905, 0.011619749478996, -0.034525733441114, 0.021985769271851, -0.016457578167319, 0.041860539466143, -0.020384943112731, 0.023444660007954, 0.050248615443707, -0.013448750600219, -0.047089591622353, 0.037135813385248, 0.021264987066388, -0.022838162258267, -0.003219317877665, 0.049968112260103, -0.045118562877178, 0.034743309020996, -0.045260343700647, -0.041837953031063, -0.028613323345780, -0.009026634506881, -0.033240750432014, 0.050421804189682, -0.026817400008440, 0.043218847364187, 0.025919690728188, -0.007164324633777, -0.032247759401798, -0.013017182238400, -0.048417750746012, 0.005819660145789, 0.032900821417570, 0.009093883447349, 0.039193470031023, -0.020709887146950, -0.024000806733966, 0.034264206886292, -0.019219938665628, -0.009449958801270, -0.013844859786332, -0.011107238940895, -0.035343572497368, 0.031504977494478, 0.022263834252954, -0.021618179976940, 0.001429122872651, -0.035091202706099, 0.029657596722245, -0.025665044784546, -0.049816802144051, 0.021743552759290, -0.019350068643689, -0.007195396348834, -0.042093060910702, 0.009391526691616, -0.039619289338589, -0.033493608236313, 0.043514359742403, -0.041418436914682, 0.042570367455482, 0.036681815981865, 0.025896279141307, -0.011619009077549, -0.048994898796082, 0.039226319640875, 0.036427259445190, 0.022763943299651, -0.039199002087116, 0.006728314794600, 0.024358985945582, 0.007209742907435, 