//Numpy array shape [3, 3, 1, 32]
//Min -0.140845999122
//Max 0.139734044671
//Number of zeros 0

#ifndef W66_H_
#define W66_H_

#ifndef __SYNTHESIS__
model_default_t w66[288];
#else
model_default_t w66[288] = {-0.061768323183060, 0.015846274793148, -0.039618223905563, 0.052324231714010, -0.048922970890999, 0.022153524681926, 0.041663788259029, -0.065258935093880, -0.058431170880795, 0.034915681928396, 0.086856581270695, -0.070786349475384, 0.069107979536057, -0.061763208359480, 0.047796871513128, -0.126542299985886, -0.001931759761646, -0.028050089254975, -0.006877590436488, 0.115369275212288, -0.032648641616106, 0.133086040616035, -0.059442944824696, -0.017306834459305, -0.110544115304947, 0.025847151875496, 0.079106442630291, 0.067303769290447, 0.045376222580671, 0.078522890806198, -0.081364959478378, -0.057772763073444, -0.081185720860958, 0.043284386396408, -0.110007405281067, -0.079090259969234, 0.108145140111446, -0.106995381414890, -0.094137221574783, -0.025672789663076, 0.128891214728355, -0.066436238586903, -0.056446500122547, -0.112631522119045, 0.009633285924792, 0.098637506365776, -0.045492164790630, -0.016582619398832, 0.056938290596008, -0.114549733698368, 0.006543658673763, -0.123593747615814, -0.108501903712749, 0.104899033904076, 0.050156079232693, -0.028442850336432, -0.022509125992656, -0.108179524540901, 0.088017754256725, -0.054995354264975, -0.091095417737961, 0.053296957165003, -0.016827158629894, 0.028779113665223, -0.111837595701218, 0.064802736043930, 0.018691018223763, -0.115830987691879, 0.091108471155167, 0.010966898873448, -0.134271770715714, 0.056707840412855, 0.041160110384226, 0.078885689377785, -0.035684376955032, 0.089440047740936, -0.004938205238432, -0.055669337511063, 0.135465100407600, 0.050171524286270, -0.034148387610912, -0.061060901731253, -0.122078180313110, 0.090800687670708, -0.132111132144928, 0.020298363640904, -0.053772430866957, -0.050262205302715, 0.064355298876762, -0.046541329473257, 0.040765039622784, 0.073273763060570, -0.054522626101971, 0.048882726579905, 0.068139456212521, -0.072257913649082, 0.010402680374682, -0.091916240751743, -0.139021351933479, 0.130058735609055, 0.106882117688656, 0.104504071176052, 0.097764365375042, -0.092185065150261, -0.068256303668022, -0.131800949573517, 0.093060620129108, -0.097276233136654, -0.034215789288282, -0.103088021278381, 0.073550760746002, 0.033469457179308, 0.056480132043362, 0.025677973404527, 0.050284359604120, 0.037829190492630, -0.089505612850189, 0.080693989992142, 0.139664232730865, 0.015145837329328, -0.054248850792646, -0.140775635838509, -0.137172371149063, 0.105552159249783, -0.077157005667686, 0.106951214373112, -0.132844060659409, -0.081174068152905, 0.023734925314784, -0.122902691364288, -0.041255109012127, 0.058832265436649, 0.119194336235523, 0.073586218059063, -0.027197265997529, -0.108353689312935, -0.050730865448713, -0.106927976012230, -0.132824435830116, 0.002578385407105, 0.036198060959578, 0.006220971234143, -0.028110139071941, -0.087231084704399, 0.113431394100189, 0.096556887030602, 0.124347597360611, -0.028612913563848, -0.095418334007263, 0.128472372889519, -0.139020845293999, 0.135274991393089, -0.079269267618656, -0.097623571753502, 0.045173179358244, 0.031308617442846, -0.045557904988527, -0.079304754734039, 0.095910035073757, 0.033065106719732, -0.009787763468921, 0.073341801762581, -0.053786147385836, -0.070920169353485, 0.008233767934144, 0.015213127247989, -0.113289035856724, -0.014063362032175, -0.022813890129328, -0.027852524071932, 0.087722547352314, 0.132052704691887, -0.050931379199028, 0.040191885083914, -0.020282315090299, 0.086267605423927, 0.035037215799093, 0.112757809460163, 0.063162222504616, -0.040882773697376, -0.112394228577614, 0.053676776587963, 0.040075104683638, 0.041771437972784, 0.005605890415609, -0.032937180250883, 0.091095417737961, -0.129311069846153, 0.044900204986334, 0.131564170122147, -0.035147696733475, -0.028814440593123, -0.061335183680058, 0.063289672136307, 0.009906078688800, -0.023777907714248, -0.118223451077938, -0.070558533072472, -0.105275608599186, -0.066719427704811, -0.088024161756039, -0.081000179052353, 0.086740098893642, 0.007823013700545, -0.123247854411602, 0.108949758112431, 0.039301466196775, 0.006251116283238, -0.005097225308418, -0.013082684949040, -0.072175376117229, 0.017345102503896, 0.066214933991432, 0.058754161000252, -0.124662660062313, -0.050704311579466, -0.135248556733131, 0.096795365214348, -0.053776800632477, -0.030246889218688, -0.056956082582474, -0.091026395559311, 0.012845145538449, -0.005214721895754, -0.091063685715199, -0.077569581568241, 0.137435808777809, 0.064704336225986, -0.041940882802010, 0.052206497639418, -0.138684436678886, 0.041030209511518, 0.107925809919834, 0.126049652695656, -0.089412741363049, -0.125365480780602, 0.124481104314327, 0.032091774046421, 0.119476243853569, 0.127659216523170, 0.101121261715889, 0.048081044107676, 0.042439971119165, -0.044664878398180, -0.116560786962509, -0.100013636052608, -0.126575633883476, 0.101067580282688, 0.054407596588135, -0.007930174469948, -0.019981581717730, 0.107443079352379, -0.105156518518925, 0.058177210390568, 0.128779396414757, 0.121858857572079, 0.107562139630318, -0.125973746180534, 0.133825391530991, 0.082835651934147, -0.004594279453158, 0.060733910650015, -0.054335791617632, 0.036699399352074, -0.046486023813486, 0.032484192401171, 0.057617533951998, 0.093649797141552, 0.007793345488608, -0.087373539805412, -0.114389397203922, 0.030021650716662, -0.095221348106861, 0.019535165280104, 0.072948843240738, 0.108112223446369, -0.120395161211491, -0.050849173218012, -0.132723689079285, -0.065663419663906, 0.078184597194195, 0.090354576706886, -0.005386848933995, 0.083035416901112, -0.034643881022930, 0.019480369985104, 0.096069492399693, 0.086326017975807};
#endif

#endif
